{"learner":{"attributes":{"niter":"29"},"feature_names":[],"feature_types":[],"gradient_booster":{"model":{"gbtree_model_param":{"num_parallel_tree":"1","num_trees":"30"},"iteration_indptr":[0,1,2,3,4,5,6,7,8,9,10,11,12,13,14,15,16,17,18,19,20,21,22,23,24,25,26,27,28,29,30],"tree_info":[0,0,0,0,0,0,0,0,0,0,0,0,0,0,0,0,0,0,0,0,0,0,0,0,0,0,0,0,0,0],"trees":[{"base_weights":[-0E0,-1.8592E0,1.9661591E0,-4.2857143E-1,-1.9134775E0,6.666667E-1,1.9794168E0,-1E0,-1.6666667E-1,-1.9328859E0,2.2222222E-1,1E0,-0E0,5E-1,-4E-1,-1.9523809E0,-3.3333334E-1,-6.666667E-1,-0E0,5E-1,-1E0],"categories":[],"categories_nodes":[],"categories_segments":[],"categories_sizes":[],"default_left":[1,1,1,1,1,1,0,0,1,1,0,0,0,0,1,0,1,0,0,0,0],"id":0,"left_children":[1,3,5,7,9,11,-1,-1,13,15,-1,-1,-1,-1,17,-1,19,-1,-1,-1,-1],"loss_changes":[1.1112668E3,1.1312927E1,1.2258911E0,8.809525E-1,6.6574097E0,6.666666E-1,0E0,0E0,1.1333333E0,3.9954834E0,0E0,0E0,0E0,0E0,5.3333336E-1,0E0,2.1666667E0,0E0,0E0,0E0,0E0],"parents":[2147483647,0,0,1,1,2,2,3,3,4,4,5,5,8,8,9,9,14,14,16,16],"right_children":[2,4,6,8,10,12,-1,-1,14,16,-1,-1,-1,-1,18,-1,20,-1,-1,-1,-1],"split_conditions":[2.285102E0,3.8656063E-2,2.5610802E0,4.3121213E-3,2.1119952E0,6.3715005E-1,5.938251E-1,-3E-1,1.210303E-2,2.1228006E0,6.666667E-2,3E-1,-0E0,1.5E-1,2.4231818E-2,-5.857143E-1,2.796015E-1,-2.0000002E-1,-0E0,1.5E-1,-3E-1],"split_indices":[11,14,11,14,6,14,0,0,14,11,0,0,0,0,14,0,14,0,0,0,0],"split_type":[0,0,0,0,0,0,0,0,0,0,0,0,0,0,0,0,0,0,0,0,0],"sum_hessian":[3.02E2,1.5525E2,1.4675E2,6E0,1.4925E2,2E0,1.4475E2,1E0,5E0,1.48E2,1.25E0,1E0,1E0,1E0,4E0,1.46E2,2E0,2E0,2E0,1E0,1E0],"tree_param":{"num_deleted":"0","num_feature":"15","num_nodes":"21","size_leaf_vector":"0"}},{"base_weights":[-1.8618985E-4,-1.4323565E0,1.5233198E0,-3.528696E-1,-1.4762396E0,5.7163376E-1,1.5331224E0,-5.928878E-1,-5.9191767E-2,-1.4927195E0,1.853133E-1,8.340186E-2,-2.2222222E-1,-1.5081977E0,-2.8663644E-1],"categories":[],"categories_nodes":[],"categories_segments":[],"categories_sizes":[],"default_left":[1,1,1,1,1,0,0,0,1,1,0,0,0,0,0],"id":1,"left_children":[1,3,5,7,9,-1,-1,-1,11,13,-1,-1,-1,-1,-1],"loss_changes":[6.109712E2,6.3164062E0,3.8937378E-1,4.5496416E-1,4.065796E0,0E0,0E0,0E0,1.1704528E-1,2.1276855E0,0E0,0E0,0E0,0E0,0E0],"parents":[2147483647,0,0,1,1,2,2,3,3,4,4,8,8,9,9],"right_children":[2,4,6,8,10,-1,-1,-1,12,14,-1,-1,-1,-1,-1],"split_conditions":[2.285102E0,3.8656063E-2,2.5610802E0,1.8669698E-2,2.1119952E0,1.7149013E-1,4.5993674E-1,-1.7786635E-1,2.8734848E-2,2.1228006E0,5.5593994E-2,2.5020558E-2,-6.666667E-2,-4.524593E-1,-8.5990936E-2],"split_indices":[11,14,11,14,6,0,0,0,14,11,0,0,0,0,0],"split_type":[0,0,0,0,0,0,0,0,0,0,0,0,0,0,0],"sum_hessian":[2.7801535E2,1.433341E2,1.3468126E2,5.952362E0,1.3738174E2,1.9778333E0,1.3270341E2,2.7147791E0,3.237583E0,1.3613313E2,1.2486122E0,1.9875829E0,1.25E0,1.341609E2,1.9722292E0],"tree_param":{"num_deleted":"0","num_feature":"15","num_nodes":"15","size_leaf_vector":"0"}},{"base_weights":[1.9580392E-4,-1.2204782E0,1.3170426E0,-6.2006915E-1,-1.307791E0,4.647618E-1,1.3276505E0,-2.8090292E-1,-7.6862305E-1,-1.3256841E0,-2.354012E-1,-4.6967506E-1,-5.1260997E-2,-9.147131E-1,-1.8334626E-1,6.668198E-2,-1.8531317E-1,1.996488E-1,-4.505008E-1],"categories":[],"categories_nodes":[],"categories_segments":[],"categories_sizes":[],"default_left":[1,1,1,1,1,0,0,1,1,0,0,0,1,0,1,0,0,0,0],"id":2,"left_children":[1,3,5,7,9,-1,-1,11,13,-1,-1,-1,15,-1,17,-1,-1,-1,-1],"loss_changes":[3.8067175E2,5.631775E0,4.1290283E-1,6.6605186E-1,1.7294312E0,0E0,0E0,2.753706E-1,8.238654E-1,0E0,0E0,0E0,7.937742E-2,0E0,4.549309E-1,0E0,0E0,0E0,0E0],"parents":[2147483647,0,0,1,1,2,2,3,3,4,4,7,7,8,8,12,12,14,14],"right_children":[2,4,6,8,10,-1,-1,12,14,-1,-1,-1,16,-1,18,-1,-1,-1,-1],"split_conditions":[2.285102E0,1.1732727E-1,2.5610802E0,3.8656063E-2,2.1228006E0,1.3942854E-1,3.982952E-1,1.8669698E-2,9.358182E-2,-3.9770523E-1,-7.0620365E-2,-1.4090252E-1,2.8734848E-2,-2.7441394E-1,1.0004546E-1,2.0004595E-2,-5.5593953E-2,5.989464E-2,-1.3515024E-1],"split_indices":[11,14,11,14,11,0,0,14,14,0,0,0,14,0,14,0,0,0,0],"split_type":[0,0,0,0,0,0,0,0,0,0,0,0,0,0,0,0,0,0,0],"sum_hessian":[2.3481856E2,1.218971E2,1.12921455E2,1.6504597E1,1.0539251E2,1.939104E0,1.10982346E2,5.907649E0,1.0596948E1,1.0343055E2,1.961959E0,2.6686738E0,3.2389753E0,8.029777E0,2.5671718E0,1.9903631E0,1.2486122E0,1.1587138E0,1.408458E0],"tree_param":{"num_deleted":"0","num_feature":"15","num_nodes":"19","size_leaf_vector":"0"}},{"base_weights":[-1.050832E-3,-1.0842922E0,1.1963708E0,-5.05048E-1,-1.1817932E0,3.8047096E-1,1.2092637E0,-2.2494145E-1,-6.390003E-1,-1.2025052E0,-1.8956305E-1,-3.420438E-1,3.9690927E-2,-7.7296674E-1,-1.530038E-1,-7.987522E-2,-4.8436487E-1,1.645475E-1,-3.8577586E-1],"categories":[],"categories_nodes":[],"categories_segments":[],"categories_sizes":[],"default_left":[1,1,1,1,1,0,0,1,1,0,0,1,0,0,1,0,0,0,0],"id":3,"left_children":[1,3,5,7,9,-1,-1,11,13,-1,-1,15,-1,-1,17,-1,-1,-1,-1],"loss_changes":[2.5092484E2,5.139366E0,5.0645447E-1,4.708357E-1,1.5433044E0,0E0,0E0,2.2560918E-1,5.677872E-1,0E0,0E0,1.4217168E-1,0E0,0E0,3.2394564E-1,0E0,0E0,0E0,0E0],"parents":[2147483647,0,0,1,1,2,2,3,3,4,4,7,7,8,8,11,11,14,14],"right_children":[2,4,6,8,10,-1,-1,12,14,-1,-1,16,-1,-1,18,-1,-1,-1,-1],"split_conditions":[2.285102E0,1.1732727E-1,2.5610802E0,3.8656063E-2,2.1228006E0,1.1414129E-1,3.627791E-1,2.4231818E-2,9.358182E-2,-3.6075157E-1,-5.686892E-2,1.210303E-2,1.1907279E-2,-2.3189004E-1,1.0004546E-1,-2.3962568E-2,-1.4530946E-1,4.9364254E-2,-1.1573277E-1],"split_indices":[11,14,11,14,11,0,0,14,14,0,0,14,0,0,14,0,0,0,0],"split_type":[0,0,0,0,0,0,0,0,0,0,0,0,0,0,0,0,0,0,0],"sum_hessian":[1.9145105E2,1.0056758E2,9.088347E1,1.5379485E1,8.5188095E1,1.8884225E0,8.899505E1,5.842191E0,9.537294E0,8.323864E1,1.9494609E0,3.847231E0,1.9949605E0,7.013518E0,2.523776E0,1.9029866E0,1.9442441E0,1.1914614E0,1.3323145E0],"tree_param":{"num_deleted":"0","num_feature":"15","num_nodes":"19","size_leaf_vector":"0"}},{"base_weights":[-2.2326747E-3,-9.7326076E-1,1.1257315E0,-1.0083592E0,6.0981643E-1,-2.6379123E-1,-1.0587602E0,-1.1215136E-1,-3.838487E-1,-1.103455E0,-2.531749E-1,-3.8606787E-1,1.1054828E-1,-7.061976E-1,-1.1344179E0,5.464896E-1,-6.592923E-1,-8.807297E-1,1.3577618E-1,-2.1038908E-1,-8.9090586E-1],"categories":[],"categories_nodes":[],"categories_segments":[],"categories_sizes":[],"default_left":[1,1,0,1,0,1,1,1,0,1,1,0,0,1,0,0,1,0,0,0,0],"id":4,"left_children":[1,3,-1,5,-1,7,9,11,-1,13,15,-1,-1,17,-1,-1,19,-1,-1,-1,-1],"loss_changes":[1.7020642E2,5.2548904E0,0E0,2.800682E0,0E0,7.592881E-2,2.4764175E0,3.0501962E-1,0E0,8.71582E-2,2.0883188E0,0E0,0E0,1.2762194E0,0E0,0E0,2.265842E-1,0E0,0E0,0E0,0E0],"parents":[2147483647,0,0,1,1,3,3,5,5,6,6,7,7,9,9,10,10,13,13,16,16],"right_children":[2,4,-1,6,-1,8,10,12,-1,14,16,-1,-1,18,-1,-1,20,-1,-1,-1,-1],"split_conditions":[2.3485227E0,2.1119952E0,3.3771944E-1,3.8656063E-2,1.8294494E-1,2.3195455E-2,1.8395948E0,6.1924243E-3,-1.1515462E-1,1.0004546E-1,2.5725758E-1,-1.1582036E-1,3.3164486E-2,9.358182E-2,-3.403254E-1,1.6394688E-1,5.497061E-1,-2.6421893E-1,4.0732853E-2,-6.311673E-2,-2.6727176E-1],"split_indices":[11,6,0,14,0,14,11,14,0,14,14,0,0,14,0,0,14,0,0,0,0],"split_type":[0,0,0,0,0,0,0,0,0,0,0,0,0,0,0,0,0,0,0,0,0],"sum_hessian":[1.5339891E2,8.2507774E1,7.089114E1,8.107334E1,1.4344374E0,5.535279E0,7.5538055E1,3.3005855E0,2.234693E0,7.12171E1,4.32096E0,1.1511326E0,2.149453E0,6.8708806E0,6.434622E1,1.3389195E0,2.9820404E0,5.653037E0,1.2178433E0,1.6644462E0,1.3175942E0],"tree_param":{"num_deleted":"0","num_feature":"15","num_nodes":"21","size_leaf_vector":"0"}},{"base_weights":[-4.7890767E-3,-8.9918965E-1,1.0550508E0,-3.9868417E-1,-1.0682294E0,2.064857E-1,1.077708E0,-5.3160083E-1,9.0728384E-1,-1.087099E0,-3.9179677E-1,-6.163225E-1,2.487456E-1,-6.754475E-2,-6.625846E-1,-5.2606636E-1,-9.787173E-1],"categories":[],"categories_nodes":[],"categories_segments":[],"categories_sizes":[],"default_left":[1,1,1,1,1,0,0,1,0,0,0,1,0,0,1,0,0],"id":5,"left_children":[1,3,5,7,9,-1,-1,11,-1,-1,-1,13,-1,-1,15,-1,-1],"loss_changes":[1.1744783E2,5.258896E0,8.677368E-1,3.7039323E0,2.0759201E-1,0E0,0E0,1.3086495E0,0E0,0E0,0E0,3.6275578E-1,0E0,0E0,1.1912155E-1,0E0,0E0],"parents":[2147483647,0,0,1,1,2,2,3,3,4,4,7,7,11,11,14,14],"right_children":[2,4,6,8,10,-1,-1,12,-1,-1,-1,14,-1,-1,16,-1,-1],"split_conditions":[2.285102E0,1.7834546E-1,2.5610802E0,1.04394E0,2.2123265E0,6.1945714E-2,3.233124E-1,1.0636185E0,2.7218518E-1,-3.261297E-1,-1.1753903E-1,7.877273E-3,7.462368E-2,-2.0263426E-2,1.0257107E0,-1.5781991E-1,-2.9361522E-1],"split_indices":[11,14,11,6,9,0,0,9,0,0,0,14,0,0,10,0,0],"split_type":[0,0,0,0,0,0,0,0,0,0,0,0,0,0,0,0,0],"sum_hessian":[1.2189957E2,6.619179E1,5.570778E1,1.755933E1,4.8632458E1,1.7117598E0,5.399602E1,1.6475464E1,1.0838673E0,4.6722008E1,1.9104513E0,1.5051523E1,1.42394E0,1.3614576E0,1.3690065E1,1.1421774E1,2.268292E0],"tree_param":{"num_deleted":"0","num_feature":"15","num_nodes":"17","size_leaf_vector":"0"}},{"base_weights":[-4.472477E-3,-8.5242325E-1,9.702745E-1,-2.2745493E-1,-1.0189021E0,2.9131794E-1,1.0573196E0,-1.2622084E-1,-6.852923E-1,-1.0408835E0,-1.664476E-1,8.202777E-1,-1.7121944E-1,-1.9509803E-1,2.789171E-1,-6.265734E-1,4.6652678E-1,4.0144537E-2,-4.353506E-1,-3.2140726E-1,1.8338928E-1,-2.0237206E-1,-6.426536E-1],"categories":[],"categories_nodes":[],"categories_segments":[],"categories_sizes":[],"default_left":[1,1,1,1,1,1,0,1,0,0,0,0,1,1,0,0,0,1,1,0,0,0,0],"id":6,"left_children":[1,3,5,7,9,11,-1,13,-1,-1,-1,-1,15,17,-1,-1,-1,19,21,-1,-1,-1,-1],"loss_changes":[8.193044E1,5.2833557E0,2.4174805E0,4.8995864E-1,6.056938E-1,1.7603219E0,0E0,3.7283853E-1,0E0,0E0,0E0,0E0,1.5583115E0,6.019463E-1,0E0,0E0,0E0,3.7697372E-1,1.2112039E-1,0E0,0E0,0E0,0E0],"parents":[2147483647,0,0,1,1,2,2,3,3,4,4,5,5,7,7,12,12,13,13,17,17,18,18],"right_children":[2,4,6,8,10,12,-1,14,-1,-1,-1,-1,16,18,-1,-1,-1,20,22,-1,-1,-1,-1],"split_conditions":[2.1228006E0,1.0004546E-1,3.0310636E0,1.2213867E0,1.8395948E0,3.4400755E-1,3.171959E-1,9.214394E-2,-2.055877E-1,-3.1226507E-1,-4.993428E-2,2.4608332E-1,5.869506E-1,3.8656063E-2,8.367513E-2,-1.8797202E-1,1.3995804E-1,6.1924243E-3,7.025455E-2,-9.642218E-2,5.5016786E-2,-6.071162E-2,-1.9279608E-1],"split_indices":[11,14,11,10,11,14,0,14,0,0,0,0,7,14,0,0,0,14,14,0,0,0,0],"split_type":[0,0,0,0,0,0,0,0,0,0,0,0,0,0,0,0,0,0,0,0,0,0,0],"sum_hessian":[9.7124245E1,5.2007465E1,4.511678E1,1.1437374E1,4.057009E1,5.620822E0,3.9495956E1,1.0411041E1,1.0263338E0,3.933476E1,1.235331E0,2.2613277E0,3.3594942E0,9.341364E0,1.0696774E0,1.9702471E0,1.3892471E0,5.140735E0,4.2006283E0,1.1058332E0,4.034902E0,2.9083164E0,1.2923119E0],"tree_param":{"num_deleted":"0","num_feature":"15","num_nodes":"23","size_leaf_vector":"0"}},{"base_weights":[-6.3298712E-3,-7.4487555E-1,9.657536E-1,-2.6893315E-1,-9.737289E-1,3.2199025E-1,1.027014E0,-3.9296976E-1,7.7656096E-1,-1.0032983E0,-1.9958548E-1,-1.8725105E-2,6.484248E-1,-4.6684512E-1,1.9471797E-1,3.1320047E-1,-3.334546E-1,-3.4407517E-1,-8.415526E-1,-1.7581325E-2,-3.827606E-1],"categories":[],"categories_nodes":[],"categories_segments":[],"categories_sizes":[],"default_left":[1,1,1,1,1,1,0,1,0,0,0,1,0,1,0,0,0,1,0,0,0],"id":7,"left_children":[1,3,5,7,9,11,-1,13,-1,-1,-1,15,-1,17,-1,-1,-1,19,-1,-1,-1],"loss_changes":[5.7304596E1,4.67807E0,1.0284729E0,2.3940718E0,4.9209785E-1,5.0722384E-1,0E0,7.4490905E-1,0E0,0E0,0E0,4.335036E-1,0E0,3.395779E-1,0E0,0E0,0E0,1.4474404E-1,0E0,0E0,0E0],"parents":[2147483647,0,0,1,1,2,2,3,3,4,4,5,5,7,7,11,11,13,13,17,17],"right_children":[2,4,6,8,10,12,-1,14,-1,-1,-1,16,-1,18,-1,-1,-1,20,-1,-1,-1],"split_conditions":[2.285102E0,1.7834546E-1,3.0310636E0,1.04394E0,2.2123265E0,5.869506E-1,3.0810422E-1,1.0636185E0,2.329683E-1,-3.009895E-1,-5.987565E-2,2.5151615E0,1.9452745E-1,1.0257107E0,5.8415394E-2,9.396014E-2,-1.0003639E-1,1.0665151E-2,-2.5246578E-1,-5.274398E-3,-1.1482819E-1],"split_indices":[11,14,11,6,9,7,0,9,0,0,0,11,0,10,0,0,0,14,0,0,0],"split_type":[0,0,0,0,0,0,0,0,0,0,0,0,0,0,0,0,0,0,0,0,0],"sum_hessian":[7.7817406E1,4.4353405E1,3.3464005E1,1.5108223E1,2.9245182E1,3.4513254E0,3.0012678E1,1.4063831E1,1.0443918E0,2.78841E1,1.3610811E0,2.1499534E0,1.3013719E0,1.2676015E1,1.3878165E0,1.048755E0,1.1011984E0,1.09926195E1,1.6833953E0,1.3185883E0,9.674031E0],"tree_param":{"num_deleted":"0","num_feature":"15","num_nodes":"21","size_leaf_vector":"0"}},{"base_weights":[-2.8869708E-3,-7.0818913E-1,8.7949204E-1,-1.4255123E-1,-9.3519664E-1,1.0035573E0,2.136359E-1,-2.1166652E-1,2.7226272E-1,-9.6992016E-1,-5.1899374E-2,-4.6370688E-1,4.717244E-1,-9.720898E-2,-5.993407E-1,4.297666E-2,7.356287E-1,-1.619661E-1,1.8968666E-1,-2.5268294E-2,-4.3115023E-1],"categories":[],"categories_nodes":[],"categories_segments":[],"categories_sizes":[],"default_left":[1,1,1,1,1,0,1,1,0,0,0,0,1,1,0,0,0,1,0,0,0],"id":8,"left_children":[1,3,5,7,9,-1,11,13,-1,-1,-1,-1,15,17,-1,-1,-1,19,-1,-1,-1],"loss_changes":[4.0457893E1,4.5056E0,2.171423E0,3.8809264E-1,7.348747E-1,0E0,1.2337933E0,4.0511146E-1,0E0,0E0,0E0,0E0,5.001993E-1,2.0268703E-1,0E0,0E0,0E0,2.8682804E-1,0E0,0E0,0E0],"parents":[2147483647,0,0,1,1,2,2,3,3,4,4,6,6,7,7,12,12,13,13,17,17],"right_children":[2,4,6,8,10,-1,12,14,-1,-1,-1,-1,16,18,-1,-1,-1,20,-1,-1,-1],"split_conditions":[2.1228006E0,1.0004546E-1,3.4538335E-1,9.358182E-2,1.7599008E0,3.010672E-1,2.361527E0,7.025455E-2,8.167882E-2,-2.9097605E-1,-1.5569813E-2,-1.3911207E-1,7.441243E-1,5.527576E-2,-1.7980221E-1,1.2892998E-2,2.2068863E-1,3.8656063E-2,5.6906E-2,-7.5804885E-3,-1.2934507E-1],"split_indices":[11,14,14,14,11,0,11,14,0,0,0,0,14,14,0,0,0,14,0,0,0],"split_type":[0,0,0,0,0,0,0,0,0,0,0,0,0,0,0,0,0,0,0,0,0],"sum_hessian":[6.3008102E1,3.5127464E1,2.7880636E1,1.0526468E1,2.4600998E1,2.3074183E1,4.806453E0,9.442854E0,1.0836141E0,2.3576122E1,1.0248743E0,1.1063044E0,3.7001488E0,8.256068E0,1.1867858E0,1.8528297E0,1.847319E0,7.090971E0,1.1650974E0,5.4282513E0,1.6627195E0],"tree_param":{"num_deleted":"0","num_feature":"15","num_nodes":"21","size_leaf_vector":"0"}},{"base_weights":[-3.940501E-3,-5.820618E-1,9.044425E-1,-1.11971565E-1,-8.129009E-1,2.3126991E-1,9.7799355E-1,-1.8008523E-1,1.7923643E-1,-9.3080604E-1,-5.8943707E-2,2.9160622E-1,4.6067923E-2,-7.867139E-2,-5.497922E-1,2.959515E-1,-4.4354784E-1,-1.3380244E-1,1.5567224E-1,-1.8900132E-2,-3.727326E-1],"categories":[],"categories_nodes":[],"categories_segments":[],"categories_sizes":[],"default_left":[1,1,1,1,1,1,0,1,0,0,1,0,0,1,0,0,0,1,0,0,0],"id":9,"left_children":[1,3,5,7,9,11,-1,13,-1,-1,15,-1,-1,17,-1,-1,-1,19,-1,-1,-1],"loss_changes":[2.8128769E1,3.460391E0,8.053131E-1,2.6906964E-1,1.8821125E0,2.4131566E-2,0E0,3.3819655E-1,0E0,0E0,6.7919254E-1,0E0,0E0,1.3905343E-1,0E0,0E0,0E0,2.1109483E-1,0E0,0E0,0E0],"parents":[2147483647,0,0,1,1,2,2,3,3,4,4,5,5,7,7,10,10,13,13,17,17],"right_children":[2,4,6,8,10,12,-1,14,-1,-1,16,-1,-1,18,-1,-1,-1,20,-1,-1,-1],"split_conditions":[2.3485227E0,1.1732727E-1,3.0310636E0,9.358182E-2,1.8395948E0,2.8183138E0,2.9339808E-1,7.025455E-2,5.377093E-2,-2.7924183E-1,2.1481075E0,8.748187E-2,1.3820377E-2,5.527576E-2,-1.6493766E-1,8.878545E-2,-1.3306436E-1,3.8656063E-2,4.6701673E-2,-5.67004E-3,-1.1181979E-1],"split_indices":[11,14,11,14,11,11,0,14,0,0,11,0,0,14,0,0,0,14,0,0,0],"split_type":[0,0,0,0,0,0,0,0,0,0,0,0,0,0,0,0,0,0,0,0,0],"sum_hessian":[5.1560287E1,3.1727327E1,1.9832958E1,1.0937933E1,2.0789394E1,2.3617244E0,1.7471233E1,9.173776E0,1.7641574E0,1.7775127E1,3.014266E0,1.3480253E0,1.0136992E0,8.150748E0,1.0230274E0,1.6875632E0,1.3267028E0,6.945744E0,1.205004E0,5.4188867E0,1.5268575E0],"tree_param":{"num_deleted":"0","num_feature":"15","num_nodes":"21","size_leaf_vector":"0"}},{"base_weights":[-5.046584E-3,-4.890273E-1,9.0040046E-1,-1.3446961E-1,-7.6167184E-1,2.2304153E-1,9.5337784E-1,-1.0327895E-2,-7.5791436E-1,-8.3758986E-1,4.4511814E-2,-2.6775712E-1,3.631388E-2,-8.936899E-1,-2.7996847E-2,3.426856E-1,-7.694581E-2,6.638522E-2,4.5430413E-1,-2.4499181E-1,9.029872E-2],"categories":[],"categories_nodes":[],"categories_segments":[],"categories_sizes":[],"default_left":[1,1,1,1,1,0,0,1,0,1,0,0,1,0,0,1,1,0,0,0,0],"id":10,"left_children":[1,3,5,7,9,-1,-1,11,-1,13,-1,-1,15,-1,-1,17,19,-1,-1,-1,-1],"loss_changes":[1.9740086E1,2.7346401E0,3.5049343E-1,1.0735539E0,1.0395746E0,0E0,0E0,1.6180098E-1,0E0,6.570387E-1,0E0,0E0,4.2900646E-1,0E0,0E0,7.208234E-2,2.8316954E-1,0E0,0E0,0E0,0E0],"parents":[2147483647,0,0,1,1,2,2,3,3,4,4,7,7,9,9,12,12,15,15,16,16],"right_children":[2,4,6,8,10,-1,-1,12,-1,14,-1,-1,16,-1,-1,18,20,-1,-1,-1,-1],"split_conditions":[2.5610802E0,1.7834546E-1,3.0310636E0,1.0257107E0,2.275199E0,6.6912465E-2,2.8601336E-1,6.1924243E-3,-2.2737432E-1,2.0665712E0,1.3353544E-2,-8.032714E-2,2.5354546E-2,-2.6810697E-1,-8.399054E-3,1.8669698E-2,6.6104546E-2,1.9915566E-2,1.3629125E-1,-7.349755E-2,2.7089616E-2],"split_indices":[11,14,11,10,11,0,0,14,0,9,0,0,14,0,0,14,14,0,0,0,0],"split_type":[0,0,0,0,0,0,0,0,0,0,0,0,0,0,0,0,0,0,0,0,0],"sum_hessian":[4.3041378E1,2.834844E1,1.469294E1,1.2972151E1,1.5376289E1,1.4437355E0,1.3249204E1,1.1665797E1,1.3063537E0,1.4017327E1,1.3589623E0,1.062246E0,1.0603551E1,1.3011809E1,1.0055176E0,2.315196E0,8.288355E0,1.1250353E0,1.1901608E0,3.9023912E0,4.385964E0],"tree_param":{"num_deleted":"0","num_feature":"15","num_nodes":"21","size_leaf_vector":"0"}},{"base_weights":[-5.7517905E-3,-5.181634E-1,6.9904566E-1,-7.615243E-2,-8.6423975E-1,1.7949757E-1,9.2703855E-1,-1.2798761E-1,1.9515066E-1,5.1817316E-1,-6.749854E-2,-2.8539877E-2,-3.6101264E-1,-2.3896664E-1,2.1563457E-1,-1.5535975E-1,1.9842365E-1,1.157268E-1,-3.0232477E-1,2.6628068E-1,5.0417755E-2],"categories":[],"categories_nodes":[],"categories_segments":[],"categories_sizes":[],"default_left":[1,1,1,1,0,1,0,1,0,0,1,1,0,0,0,1,1,0,0,0,0],"id":11,"left_children":[1,3,5,7,-1,9,-1,11,-1,-1,13,15,-1,-1,-1,17,19,-1,-1,-1,-1],"loss_changes":[1.3966271E1,3.358522E0,1.7624149E0,1.7864344E-1,0E0,5.541496E-1,0E0,2.1629228E-1,0E0,0E0,2.6872033E-1,2.593435E-1,0E0,0E0,0E0,2.6024717E-1,1.9567445E-2,0E0,0E0,0E0,0E0],"parents":[2147483647,0,0,1,1,2,2,3,3,5,5,7,7,10,10,11,11,15,15,16,16],"right_children":[2,4,6,8,-1,10,-1,12,-1,-1,14,16,-1,-1,-1,18,20,-1,-1,-1,-1],"split_conditions":[1.8395948E0,1.0004546E-1,3.0310636E0,9.358182E-2,-2.5927195E-1,2.5725758E-1,2.7811158E-1,5.6627274E-2,5.85452E-2,1.5545195E-1,5.8159524E-1,3.5498485E-2,-1.0830379E-1,-7.168999E-2,6.4690374E-2,1.210303E-2,4.1892424E-2,3.471804E-2,-9.069744E-2,7.988421E-2,1.5125327E-2],"split_indices":[11,14,11,14,0,14,0,14,0,0,13,14,0,0,0,14,14,0,0,0,0],"split_type":[0,0,0,0,0,0,0,0,0,0,0,0,0,0,0,0,0,0,0,0,0],"sum_hessian":[3.6669083E1,2.1385735E1,1.5283348E1,9.92698E0,1.14587555E1,5.206384E0,1.0076964E1,8.778087E0,1.1488929E0,1.7326764E0,3.4737077E0,6.939152E0,1.838935E0,2.2606366E0,1.2130711E0,4.6540856E0,2.2850661E0,1.7108558E0,2.9432297E0,1.018834E0,1.2662323E0],"tree_param":{"num_deleted":"0","num_feature":"15","num_nodes":"21","size_leaf_vector":"0"}},{"base_weights":[1.8493885E-4,-3.496045E-1,8.198728E-1,-4.241973E-1,6.5631765E-1,9.0629756E-1,6.0260803E-2,-2.5186995E-1,-8.3810824E-1,-3.9292997E-1,4.578024E-1,-3.1262714E-2,-5.7718116E-1,-1.7777829E-1,1.0680173E-1,-6.290715E-1,-1.2490808E-1],"categories":[],"categories_nodes":[],"categories_segments":[],"categories_sizes":[],"default_left":[1,1,1,1,0,0,0,1,0,1,0,1,1,0,0,0,0],"id":12,"left_children":[1,3,5,7,-1,-1,-1,9,-1,11,-1,13,15,-1,-1,-1,-1],"loss_changes":[9.597721E0,2.0389144E0,6.026726E-1,1.390245E0,0E0,0E0,0E0,1.9097803E0,0E0,9.7841525E-1,0E0,1.4246523E-1,1.5257215E-1,0E0,0E0,0E0,0E0],"parents":[2147483647,0,0,1,1,2,2,3,3,7,7,9,9,11,11,12,12],"right_children":[2,4,6,8,-1,-1,-1,10,-1,12,-1,14,16,-1,-1,-1,-1],"split_conditions":[2.5610802E0,2.1119952E0,1.771235E0,5.4473186E-1,1.968953E-1,2.7188927E-1,1.8078241E-2,1.8395948E0,-2.5143248E-1,3.8656063E-2,1.3734072E-1,1.8669698E-2,4.324909E-1,-5.3333487E-2,3.204052E-2,-1.8872145E-1,-3.7472427E-2],"split_indices":[11,6,10,14,0,0,0,11,0,14,0,14,14,0,0,0,0],"split_type":[0,0,0,0,0,0,0,0,0,0,0,0,0,0,0,0,0],"sum_hessian":[3.1474712E1,2.2462618E1,9.012094E0,2.1450302E1,1.0123174E0,7.918106E0,1.0939872E0,1.6280575E1,5.1697273E0,1.3953407E1,2.3271666E0,5.1041427E0,8.849265E0,2.3367302E0,2.7674124E0,7.58779E0,1.261475E0],"tree_param":{"num_deleted":"0","num_feature":"15","num_nodes":"17","size_leaf_vector":"0"}},{"base_weights":[5.7402328E-3,-2.6634467E-1,8.686141E-1,-1.1255312E-1,-9.674795E-1,-2.7853373E-1,4.2719325E-1,7.4282624E-2,-7.2843707E-1,6.9494945E-1,-1.280765E-1,-2.221415E-1,1.3521944E-1,3.3892235E-1,7.407316E-3],"categories":[],"categories_nodes":[],"categories_segments":[],"categories_sizes":[],"default_left":[1,1,0,1,0,1,1,1,0,0,0,0,1,0,0],"id":13,"left_children":[1,3,-1,5,-1,7,9,11,-1,-1,-1,-1,13,-1,-1],"loss_changes":[6.938483E0,2.3156288E0,0E0,1.8723767E0,0E0,2.526226E0,8.320628E-1,2.0409964E-1,0E0,0E0,0E0,0E0,2.2178033E-1,0E0,0E0],"parents":[2147483647,0,0,1,1,3,3,5,5,6,6,7,7,12,12],"right_children":[2,4,-1,6,-1,8,10,12,-1,-1,-1,-1,14,-1,-1],"split_conditions":[3.0310636E0,1.6661737E0,2.6058424E-1,1.8395948E0,-2.9024386E-1,1.0004546E-1,6.8208337E-1,6.1924243E-3,-2.1853113E-1,2.0848484E-1,-3.842295E-2,-6.6642456E-2,2.5354546E-2,1.0167671E-1,2.2221948E-3],"split_indices":[11,10,0,11,0,14,14,14,0,0,0,0,14,0,0],"split_type":[0,0,0,0,0,0,0,0,0,0,0,0,0,0,0],"sum_hessian":[2.7568348E1,2.1484953E1,6.083395E0,1.8571817E1,2.9131358E0,1.4574027E1,3.997791E0,8.636295E0,5.9377317E0,2.5274694E0,1.4703218E0,1.0215545E0,7.6147404E0,2.2989788E0,5.315762E0],"tree_param":{"num_deleted":"0","num_feature":"15","num_nodes":"15","size_leaf_vector":"0"}},{"base_weights":[2.5523328E-3,-2.2489347E-1,8.3218354E-1,-9.106575E-2,-8.755505E-1,-2.3150802E-1,3.3841377E-1,5.540679E-2,-6.6870433E-1,5.9062195E-1,-8.267831E-2,-3.536357E-2,2.911927E-1,2.4023476E-1,-1.3758115E-1],"categories":[],"categories_nodes":[],"categories_segments":[],"categories_sizes":[],"default_left":[1,1,0,1,0,1,1,1,0,0,0,1,0,0,0],"id":14,"left_children":[1,3,-1,5,-1,7,9,11,-1,-1,-1,13,-1,-1,-1],"loss_changes":[5.0101085E0,1.7355527E0,0E0,1.188593E0,0E0,1.8514822E0,5.736963E-1,2.1697743E-1,0E0,0E0,0E0,2.5459772E-1,0E0,0E0,0E0],"parents":[2147483647,0,0,1,1,3,3,5,5,6,6,7,7,11,11],"right_children":[2,4,-1,6,-1,8,10,12,-1,-1,-1,14,-1,-1,-1],"split_conditions":[3.0310636E0,1.6661737E0,2.4965507E-1,1.8395948E0,-2.6266515E-1,1.0004546E-1,5.497061E-1,6.6104546E-2,-2.0061131E-1,1.771866E-1,-2.4803495E-2,1.210303E-2,8.735782E-2,7.2070435E-2,-4.1274346E-2],"split_indices":[11,10,0,11,0,14,14,14,0,0,0,14,0,0,0],"split_type":[0,0,0,0,0,0,0,0,0,0,0,0,0,0,0],"sum_hessian":[2.455938E1,1.9847149E1,4.7122297E0,1.7406853E1,2.440297E0,1.3464757E1,3.9420958E0,8.656864E0,4.8078923E0,2.2136567E0,1.7284392E0,6.864327E0,1.7925372E0,1.4918318E0,5.372495E0],"tree_param":{"num_deleted":"0","num_feature":"15","num_nodes":"15","size_leaf_vector":"0"}},{"base_weights":[4.241914E-3,-1.8316936E-1,7.9194885E-1,-6.793829E-2,-7.75004E-1,-1.7400485E-1,3.3475804E-1,4.9951144E-2,-5.15449E-1,5.453977E-1,-6.3851625E-2,-2.246322E-1,1.08104154E-1,-7.3518825E-1,-1.5081446E-1,2.7728504E-1,2.8760799E-3,4.7683197E-1,-6.014806E-1],"categories":[],"categories_nodes":[],"categories_segments":[],"categories_sizes":[],"default_left":[1,1,0,1,0,1,1,1,1,0,0,0,1,0,1,0,0,0,0],"id":15,"left_children":[1,3,-1,5,-1,7,9,11,13,-1,-1,-1,15,-1,17,-1,-1,-1,-1],"loss_changes":[3.599576E0,1.2918868E0,0E0,8.099219E-1,0E0,1.1412278E0,3.7159276E-1,1.7950705E-1,3.5917056E-1,0E0,0E0,0E0,1.5403408E-1,0E0,1.2666335E0,0E0,0E0,0E0,0E0],"parents":[2147483647,0,0,1,1,3,3,5,5,6,6,7,7,8,8,12,12,14,14],"right_children":[2,4,-1,6,-1,8,10,12,14,-1,-1,-1,16,-1,18,-1,-1,-1,-1],"split_conditions":[3.0310636E0,1.6661737E0,2.3758467E-1,2.1228006E0,-2.3250122E-1,1.0004546E-1,7.224773E-1,6.1924243E-3,4.324909E-1,1.6361931E-1,-1.9155487E-2,-6.738967E-2,2.5354546E-2,-2.2055648E-1,6.113348E-1,8.318552E-2,8.62824E-4,1.430496E-1,-1.8044418E-1],"split_indices":[11,10,0,11,0,14,14,14,14,0,0,0,14,0,14,0,0,0,0],"split_type":[0,0,0,0,0,0,0,0,0,0,0,0,0,0,0,0,0,0,0],"sum_hessian":[2.2400587E1,1.8715305E1,3.6852813E0,1.6598372E1,2.116934E0,1.3587459E1,3.0109124E0,8.720994E0,4.8664646E0,1.728998E0,1.2819145E0,1.0238522E0,7.6971416E0,2.4024475E0,2.464017E0,2.3246267E0,5.3725147E0,1.005537E0,1.45848E0],"tree_param":{"num_deleted":"0","num_feature":"15","num_nodes":"19","size_leaf_vector":"0"}},{"base_weights":[-1.2587166E-3,-1.5695249E-1,7.48548E-1,-2.3524594E-1,4.680585E-1,-3.2088128E-1,3.368536E-1,-1.2596047E-1,-5.03368E-1,-2.8143433E-1,2.1504077E-1,-6.322353E-1,-8.082435E-2,-1.0240155E-1,-5.791821E-1,3.7336004E-1,-4.0238798E-2],"categories":[],"categories_nodes":[],"categories_segments":[],"categories_sizes":[],"default_left":[1,1,0,1,0,1,0,1,1,1,1,0,0,0,0,0,0],"id":16,"left_children":[1,3,-1,5,-1,7,-1,9,11,13,15,-1,-1,-1,-1,-1,-1],"loss_changes":[2.6574526E0,1.0321808E0,0E0,9.61085E-1,0E0,4.934944E-1,0E0,5.325788E-1,3.710264E-1,2.8978348E-1,1.5062568E-1,0E0,0E0,0E0,0E0,0E0,0E0],"parents":[2147483647,0,0,1,1,3,3,5,5,7,7,8,8,9,9,10,10],"right_children":[2,4,-1,6,-1,8,-1,10,12,14,16,-1,-1,-1,-1,-1,-1],"split_conditions":[3.0310636E0,1.4921654E0,2.245644E-1,2.0732129E0,1.4041756E-1,1.1732727E-1,1.01056084E-1,6.6104546E-2,2.285102E0,3.9304547E-2,9.4039395E-2,-1.8967059E-1,-2.4247307E-2,-3.0720465E-2,-1.7375463E-1,1.1200801E-1,-1.207164E-2],"split_indices":[11,6,0,9,0,14,0,14,11,14,14,0,0,0,0,0,0],"split_type":[0,0,0,0,0,0,0,0,0,0,0,0,0,0,0,0,0],"sum_hessian":[2.075742E1,1.7843067E1,2.9143515E0,1.6410929E1,1.4321402E0,1.4656214E1,1.7547143E0,7.9039545E0,6.7522593E0,5.548768E0,2.3551865E0,4.7939434E0,1.9583158E0,4.304459E0,1.2443086E0,1.1681622E0,1.1870242E0],"tree_param":{"num_deleted":"0","num_feature":"15","num_nodes":"17","size_leaf_vector":"0"}},{"base_weights":[5.001382E-3,-1.5178737E-1,5.863958E-1,-1.7850203E-2,-6.2431794E-1,7.0990074E-1,1.2336215E-1,-1.248558E-1,6.03206E-1,-8.144847E-1,-6.493968E-2,-3.6817582E-3,-5.90149E-1,-1.376414E-1,1.0273448E-1,1.5884309E-1,-3.0119234E-1,2.9788452E-1,-9.0429254E-2],"categories":[],"categories_nodes":[],"categories_segments":[],"categories_sizes":[],"default_left":[1,1,1,1,1,0,0,1,0,0,0,1,0,1,1,0,0,0,0],"id":17,"left_children":[1,3,5,7,9,-1,-1,11,-1,-1,-1,13,-1,15,17,-1,-1,-1,-1],"loss_changes":[1.9497567E0,1.0566441E0,1.7212582E-1,1.0173284E0,3.4033477E-1,0E0,0E0,7.262805E-1,0E0,0E0,0E0,1.746124E-1,0E0,3.1021792E-1,2.850025E-1,0E0,0E0,0E0,0E0],"parents":[2147483647,0,0,1,1,2,2,3,3,4,4,7,7,11,11,13,13,14,14],"right_children":[2,4,6,8,10,-1,-1,12,-1,-1,-1,14,-1,16,18,-1,-1,-1,-1],"split_conditions":[2.5610802E0,5.4473186E-1,3.4538335E-1,4.324909E-1,8.2725453E-1,2.1297023E-1,3.7008647E-2,1.7834546E-1,1.809618E-1,-2.4434543E-1,-1.9481905E-2,3.5498485E-2,-1.770447E-1,1.210303E-2,7.025455E-2,4.7652926E-2,-9.0357706E-2,8.936536E-2,-2.7128777E-2],"split_indices":[11,14,14,14,14,0,0,14,0,0,0,14,0,14,14,0,0,0,0],"split_type":[0,0,0,0,0,0,0,0,0,0,0,0,0,0,0,0,0,0,0],"sum_hessian":[1.9412775E1,1.5871516E1,3.5412593E0,1.317491E1,2.6966074E0,2.3747034E0,1.1665559E0,1.1920087E1,1.254823E0,1.6721038E0,1.0245036E0,1.0256856E1,1.6632304E0,4.4108872E0,5.8459687E0,1.5783842E0,2.8325028E0,2.638352E0,3.207617E0],"tree_param":{"num_deleted":"0","num_feature":"15","num_nodes":"19","size_leaf_vector":"0"}},{"base_weights":[2.9147782E-3,-1.05592676E-1,6.5992045E-1,-5.216544E-3,-6.5989625E-1,-1.2590545E-1,3.372507E-1,1.685E-2,-6.4227235E-1,5.342471E-1,-5.8511053E-3,-2.0152737E-1,5.9694298E-2,2.6576957E-1,-3.8672805E-2],"categories":[],"categories_nodes":[],"categories_segments":[],"categories_sizes":[],"default_left":[1,1,0,1,0,1,1,1,0,0,0,0,1,0,0],"id":18,"left_children":[1,3,-1,5,-1,7,9,11,-1,-1,-1,-1,13,-1,-1],"loss_changes":[1.4690574E0,9.818679E-1,0E0,7.038496E-1,0E0,9.3669075E-1,3.0333215E-1,1.1321135E-1,0E0,0E0,0E0,0E0,2.0917937E-1,0E0,0E0],"parents":[2147483647,0,0,1,1,3,3,5,5,6,6,7,7,12,12],"right_children":[2,4,-1,6,-1,8,10,12,-1,-1,-1,-1,14,-1,-1],"split_conditions":[3.0310636E0,1.6661737E0,1.9797614E-1,1.8395948E0,-1.9796889E-1,4.3461213E-1,5.497061E-1,6.1924243E-3,-1.9268171E-1,1.6027413E-1,-1.7553316E-3,-6.0458213E-2,2.5354546E-2,7.9730876E-2,-1.1601842E-2],"split_indices":[11,10,0,11,0,14,14,14,0,0,0,0,14,0,0],"split_type":[0,0,0,0,0,0,0,0,0,0,0,0,0,0,0],"sum_hessian":[1.8629324E1,1.6709034E1,1.9202905E0,1.5001835E1,1.7071981E0,1.15602455E1,3.4415896E0,9.814331E0,1.7459146E0,1.8323897E0,1.6091998E0,1.0022331E0,8.812098E0,2.2973742E0,6.514724E0],"tree_param":{"num_deleted":"0","num_feature":"15","num_nodes":"15","size_leaf_vector":"0"}},{"base_weights":[3.5381826E-4,-1.18297294E-1,5.050022E-1,1.0037924E-2,-4.990219E-1,9.9150084E-2,6.39515E-1,-6.2131483E-2,4.3615803E-1,-6.744555E-1,-9.830219E-3,1.1656174E-2,-3.183808E-1,-6.1001915E-2,2.8330976E-1,1.4698371E-1,-1.24820545E-1],"categories":[],"categories_nodes":[],"categories_segments":[],"categories_sizes":[],"default_left":[1,1,1,1,1,0,0,1,0,0,0,1,0,1,0,0,0],"id":19,"left_children":[1,3,5,7,9,-1,-1,11,-1,-1,-1,13,-1,15,-1,-1,-1],"loss_changes":[1.1852735E0,7.882085E-1,1.4229894E-1,4.259198E-1,3.418665E-1,0E0,0E0,2.2995704E-1,0E0,0E0,0E0,2.1969555E-1,0E0,1.3666321E-1,0E0,0E0,0E0],"parents":[2147483647,0,0,1,1,2,2,3,3,4,4,7,7,11,11,13,13],"right_children":[2,4,6,8,10,-1,-1,12,-1,-1,-1,14,-1,16,-1,-1,-1],"split_conditions":[2.5610802E0,4.546697E-1,5.8159524E-1,3.2008183E-1,2.2425718E0,2.9745026E-2,1.918545E-1,1.1732727E-1,1.3084741E-1,-2.0233667E-1,-2.9490658E-3,9.358182E-2,-9.5514245E-2,1.210303E-2,8.499293E-2,4.4095114E-2,-3.7446164E-2],"split_indices":[11,14,13,14,11,0,0,14,0,0,0,14,0,14,0,0,0],"split_type":[0,0,0,0,0,0,0,0,0,0,0,0,0,0,0,0,0],"sum_hessian":[1.7797394E1,1.5029335E1,2.7680583E0,1.1968582E1,3.0607529E0,1.1214684E0,1.64659E0,1.0965597E1,1.0029848E0,1.974091E0,1.0866618E0,9.255084E0,1.7105131E0,7.9138427E0,1.3412414E0,1.5521667E0,6.3616757E0],"tree_param":{"num_deleted":"0","num_feature":"15","num_nodes":"17","size_leaf_vector":"0"}},{"base_weights":[6.831665E-3,-7.442172E-2,5.793956E-1,-1.4988145E-1,4.540574E-1,-2.224877E-1,2.739211E-1,-1.3192123E-1,-5.9641933E-1,-2.1197477E-1,1.7931929E-1,-1.20378576E-1,-5.192388E-1,4.1851902E-1,-1.5358002E-1],"categories":[],"categories_nodes":[],"categories_segments":[],"categories_sizes":[],"default_left":[1,1,0,1,0,1,0,1,0,1,1,0,0,0,0],"id":20,"left_children":[1,3,-1,5,-1,7,-1,9,-1,11,13,-1,-1,-1,-1],"loss_changes":[8.874192E-1,7.3717904E-1,0E0,5.358678E-1,0E0,3.862486E-1,0E0,3.453704E-1,0E0,2.2654673E-1,3.083786E-1,0E0,0E0,0E0,0E0],"parents":[2147483647,0,0,1,1,3,3,5,5,7,7,9,9,10,10],"right_children":[2,4,-1,6,-1,8,-1,10,-1,12,14,-1,-1,-1,-1],"split_conditions":[3.0310636E0,1.4921654E0,1.7381868E-1,2.0732129E0,1.3621722E-1,1.6661737E0,8.2176335E-2,2.1384048E0,-1.7892581E-1,4.3461213E-1,6.578985E-1,-3.6113575E-2,-1.5577166E-1,1.2555571E-1,-4.607401E-2],"split_indices":[11,6,0,9,0,10,0,11,0,14,14,0,0,0,0],"split_type":[0,0,0,0,0,0,0,0,0,0,0,0,0,0,0],"sum_hessian":[1.7148098E1,1.577891E1,1.3691878E0,1.4434279E1,1.3446304E0,1.2728621E1,1.7056589E0,1.1335862E1,1.3927579E0,9.270382E0,2.0654805E0,8.213648E0,1.0567338E0,1.0522258E0,1.0132546E0],"tree_param":{"num_deleted":"0","num_feature":"15","num_nodes":"15","size_leaf_vector":"0"}},{"base_weights":[1.0778063E-2,-8.2026586E-2,4.368129E-1,2.1977589E-2,-4.3377453E-1,7.912309E-2,5.7034653E-1,-4.445389E-2,3.92003E-1,-6.020452E-1,-2.1152012E-2,2.7921736E-2,-3.0141428E-1,-1.052038E-1,1.4540924E-1,1.3722605E-1,-2.4158287E-1,2.7043298E-1,-4.7051802E-2],"categories":[],"categories_nodes":[],"categories_segments":[],"categories_sizes":[],"default_left":[1,1,1,1,1,0,0,1,0,0,0,1,0,1,1,0,0,0,0],"id":21,"left_children":[1,3,5,7,9,-1,-1,11,-1,-1,-1,13,-1,15,17,-1,-1,-1,-1],"loss_changes":[7.2855765E-1,5.6664336E-1,1.1210978E-1,3.2973495E-1,2.3190522E-1,0E0,0E0,2.2544098E-1,0E0,0E0,0E0,1.720191E-1,0E0,2.0764397E-1,1.5090156E-1,0E0,0E0,0E0,0E0],"parents":[2147483647,0,0,1,1,2,2,3,3,4,4,7,7,11,11,13,13,14,14],"right_children":[2,4,6,8,10,-1,-1,12,-1,-1,-1,14,-1,16,18,-1,-1,-1,-1],"split_conditions":[2.5610802E0,4.546697E-1,5.8159524E-1,3.2673335E-1,2.2425718E0,2.3736928E-2,1.7110397E-1,1.1732727E-1,1.176009E-1,-1.8061356E-1,-6.345604E-3,3.5498485E-2,-9.0424284E-2,1.210303E-2,7.025455E-2,4.1167814E-2,-7.247487E-2,8.112989E-2,-1.4115541E-2],"split_indices":[11,14,13,14,11,0,0,14,0,0,0,14,0,14,14,0,0,0,0],"split_type":[0,0,0,0,0,0,0,0,0,0,0,0,0,0,0,0,0,0,0],"sum_hessian":[1.6520542E1,1.4228552E1,2.2919898E0,1.1705122E1,2.5234296E0,1.0559645E0,1.2360255E0,1.0669471E1,1.035651E0,1.4663647E0,1.057065E0,9.02018E0,1.649291E0,4.277679E0,4.742501E0,1.5378172E0,2.7398615E0,2.6293378E0,2.113163E0],"tree_param":{"num_deleted":"0","num_feature":"15","num_nodes":"19","size_leaf_vector":"0"}},{"base_weights":[1.0626608E-2,-5.2026514E-2,5.0612754E-1,2.1193229E-2,-4.93229E-1,-4.631316E-2,4.128938E-1,-1.3385908E-1,2.0918624E-1,1.1413539E-1,-2.57265E-1,4.0149626E-1,-1.5332267E-1,-1.3375565E-1,4.0636262E-1,-4.5745113E-1,-4.6863854E-2],"categories":[],"categories_nodes":[],"categories_segments":[],"categories_sizes":[],"default_left":[1,1,0,1,0,1,0,1,1,1,1,0,0,0,0,0,0],"id":22,"left_children":[1,3,-1,5,-1,7,-1,9,11,13,15,-1,-1,-1,-1,-1,-1],"loss_changes":[5.5943745E-1,5.3221965E-1,0E0,4.107673E-1,0E0,3.3070877E-1,0E0,3.5649547E-1,3.2953137E-1,3.618208E-1,2.9213238E-1,0E0,0E0,0E0,0E0,0E0,0E0],"parents":[2147483647,0,0,1,1,3,3,5,5,7,7,8,8,9,9,10,10],"right_children":[2,4,-1,6,-1,8,-1,10,12,14,16,-1,-1,-1,-1,-1,-1],"split_conditions":[3.0310636E0,1.6661737E0,1.5183827E-1,1.4921654E0,-1.4796871E-1,1.8395948E0,1.23868145E-1,2.5354546E-2,6.8208337E-1,1.8669698E-2,6.6104546E-2,1.2044888E-1,-4.59968E-2,-4.0126696E-2,1.2190879E-1,-1.3723534E-1,-1.4059157E-2],"split_indices":[11,10,0,6,0,11,0,14,14,14,14,0,0,0,0,0,0],"split_type":[0,0,0,0,0,0,0,0,0,0,0,0,0,0,0,0,0],"sum_hessian":[1.6172197E1,1.5151396E1,1.020801E0,1.3811306E1,1.3400899E0,1.2533093E1,1.2782122E0,9.68921E0,2.8438835E0,3.2444134E0,6.4447966E0,1.7878729E0,1.0560106E0,2.048769E0,1.1956445E0,2.7008696E0,3.7439272E0],"tree_param":{"num_deleted":"0","num_feature":"15","num_nodes":"17","size_leaf_vector":"0"}},{"base_weights":[1.523946E-2,-5.6175362E-2,4.5353684E-1,9.105886E-2,-3.380879E-1,1.2134884E-2,4.221742E-1,-7.840531E-1,9.0567455E-2,7.210434E-2,-2.2739328E-1,6.2919575E-1,-3.4653538E-1,-1.3600945E-2,3.389458E-1,9.8923035E-2,-2.564472E-1],"categories":[],"categories_nodes":[],"categories_segments":[],"categories_sizes":[],"default_left":[1,1,0,1,1,1,0,0,1,1,0,0,0,1,0,0,0],"id":23,"left_children":[1,3,-1,5,7,9,-1,-1,11,13,-1,-1,-1,15,-1,-1,-1],"loss_changes":[5.491797E-1,6.648832E-1,0E0,2.7772337E-1,1.1135197E0,1.5673153E-1,0E0,0E0,1.0837688E0,2.0066573E-1,0E0,0E0,0E0,2.2894974E-1,0E0,0E0,0E0],"parents":[2147483647,0,0,1,1,3,3,4,4,5,5,8,8,9,9,13,13],"right_children":[2,4,-1,6,8,10,-1,-1,12,14,-1,-1,-1,16,-1,-1,-1],"split_conditions":[1.1488984E0,1.7834546E-1,1.3606106E-1,1.0636185E0,4.324909E-1,9.421212E-2,1.2665226E-1,-2.3521593E-1,5.5927575E-1,6.6104546E-2,-6.8217985E-2,1.8875873E-1,-1.0396062E-1,3.8656063E-2,1.0168374E-1,2.9676912E-2,-7.693416E-2],"split_indices":[7,14,0,11,14,14,0,0,14,14,0,0,0,14,0,0,0],"split_type":[0,0,0,0,0,0,0,0,0,0,0,0,0,0,0,0,0],"sum_hessian":[1.5731199E1,1.4276813E1,1.4543871E0,9.823367E0,4.4534454E0,8.76969E0,1.053677E0,1.776308E0,2.6771376E0,7.5727196E0,1.1969702E0,1.0024191E0,1.6747185E0,6.4500837E0,1.1226357E0,4.8127327E0,1.6373513E0],"tree_param":{"num_deleted":"0","num_feature":"15","num_nodes":"17","size_leaf_vector":"0"}},{"base_weights":[1.4750194E-2,-6.744239E-2,3.2686123E-1,3.5061043E-2,-5.328463E-1,-4.9183834E-3,5.6479466E-1,-2.9514195E-2,3.799574E-1,6.861566E-2,-1.9059153E-1,-1.0292506E-1,3.0556142E-1,-2.936628E-1,-4.860933E-2,1.18001625E-1,-2.2815354E-1,1.0436759E-1,-1.7325716E-1],"categories":[],"categories_nodes":[],"categories_segments":[],"categories_sizes":[],"default_left":[1,1,1,1,0,0,0,1,0,1,1,1,0,0,1,0,0,0,0],"id":24,"left_children":[1,3,5,7,-1,-1,-1,9,-1,11,13,15,-1,-1,17,-1,-1,-1,-1],"loss_changes":[4.4245428E-1,6.770675E-1,2.8595367E-1,2.8400555E-1,0E0,0E0,0E0,1.9081566E-1,0E0,3.4535596E-1,5.189663E-2,1.7155625E-1,0E0,0E0,7.719797E-2,0E0,0E0,0E0,0E0],"parents":[2147483647,0,0,1,1,2,2,3,3,7,7,9,9,10,10,11,11,14,14],"right_children":[2,4,6,8,-1,-1,-1,10,-1,12,14,16,-1,-1,18,-1,-1,-1,-1],"split_conditions":[2.3485227E0,4.546697E-1,5.869506E-1,3.3045608E-1,-1.5985389E-1,-1.4755151E-3,1.694384E-1,7.025455E-2,1.1398723E-1,3.5498485E-2,9.674394E-2,1.210303E-2,9.166843E-2,-8.809884E-2,1.5154243E-1,3.5400487E-2,-6.844606E-2,3.131028E-2,-5.197715E-2],"split_indices":[11,14,7,14,0,0,0,14,0,14,14,14,0,0,14,0,0,0,0],"split_type":[0,0,0,0,0,0,0,0,0,0,0,0,0,0,0,0,0,0,0],"sum_hessian":[1.5388201E1,1.2801039E1,2.587162E0,1.1248307E1,1.5527314E0,1.4894998E0,1.0976622E0,1.0244623E1,1.0036838E0,6.7229548E0,3.5216684E0,4.227793E0,2.4951618E0,1.4214596E0,2.100209E0,1.5503652E0,2.6774278E0,1.0159999E0,1.084209E0],"tree_param":{"num_deleted":"0","num_feature":"15","num_nodes":"19","size_leaf_vector":"0"}},{"base_weights":[1.3878456E-2,7.4579865E-2,-3.656734E-1,2.185747E-3,5.209992E-1,-6.710728E-2,3.9211825E-1,1.4981528E-2,-4.8376206E-1,-7.895604E-2,4.5170537E-1,9.2547685E-2,-1.718793E-1],"categories":[],"categories_nodes":[],"categories_segments":[],"categories_sizes":[],"default_left":[1,1,0,1,0,1,0,1,0,1,0,0,0],"id":25,"left_children":[1,3,-1,5,-1,7,-1,9,-1,11,-1,-1,-1],"loss_changes":[3.989958E-1,4.752416E-1,0E0,3.9615074E-1,0E0,4.3396828E-1,0E0,5.0304854E-1,0E0,1.7889461E-1,0E0,0E0,0E0],"parents":[2147483647,0,0,1,1,3,3,5,5,7,7,9,9],"right_children":[2,4,-1,6,-1,8,-1,10,-1,12,-1,-1,-1],"split_conditions":[1.6661737E0,2.5610802E0,-1.0970202E-1,1.4921654E0,1.5629977E-1,5.4473186E-1,1.1763548E-1,3.8102728E-1,-1.4512862E-1,2.5354546E-2,1.3551162E-1,2.7764307E-2,-5.1563796E-2],"split_indices":[10,11,0,6,0,14,0,14,0,14,0,0,0],"split_type":[0,0,0,0,0,0,0,0,0,0,0,0,0],"sum_hessian":[1.5134318E1,1.3740342E1,1.3939759E0,1.2687719E1,1.0526228E0,1.14762335E1,1.211486E0,1.0392716E1,1.0835168E0,9.227193E0,1.1655242E0,3.2439823E0,5.98321E0],"tree_param":{"num_deleted":"0","num_feature":"15","num_nodes":"13","size_leaf_vector":"0"}},{"base_weights":[1.7985133E-2,-5.669107E-2,2.7459306E-1,2.3739608E-2,-5.096997E-1,8.497798E-2,3.4938863E-1,-3.5877705E-2,3.4069586E-1,4.3798983E-2,-3.3407143E-1,-3.6484946E-2,3.2649535E-1,6.209957E-2,-1.9277188E-1],"categories":[],"categories_nodes":[],"categories_segments":[],"categories_sizes":[],"default_left":[1,1,1,1,0,0,0,1,0,1,0,1,0,0,0],"id":26,"left_children":[1,3,5,7,-1,-1,-1,9,-1,11,-1,13,-1,-1,-1],"loss_changes":[3.1886715E-1,4.8900288E-1,2.3336649E-2,2.4031508E-1,0E0,0E0,0E0,2.7751622E-1,0E0,2.3014802E-1,0E0,1.4121391E-1,0E0,0E0,0E0],"parents":[2147483647,0,0,1,1,2,2,3,3,7,7,9,9,11,11],"right_children":[2,4,6,8,-1,-1,-1,10,-1,12,-1,14,-1,-1,-1],"split_conditions":[2.285102E0,4.546697E-1,5.8159524E-1,3.4675303E-1,-1.5290992E-1,2.5493395E-2,1.0481659E-1,1.1732727E-1,1.0220876E-1,9.358182E-2,-1.0022143E-1,3.8656063E-2,9.794861E-2,1.8629871E-2,-5.7831567E-2],"split_indices":[11,14,13,14,0,0,0,14,0,14,0,14,0,0,0],"split_type":[0,0,0,0,0,0,0,0,0,0,0,0,0,0,0],"sum_hessian":[1.4827793E1,1.2088856E1,2.7389371E0,1.10708475E1,1.0180086E0,1.3790439E0,1.3598932E0,1.0064575E1,1.0062724E0,8.61562E0,1.448955E0,7.388324E0,1.2272964E0,4.9000616E0,2.488262E0],"tree_param":{"num_deleted":"0","num_feature":"15","num_nodes":"15","size_leaf_vector":"0"}},{"base_weights":[1.4049948E-2,6.659877E-2,-3.1225404E-1,-1.6401254E-2,3.1308717E-1,-7.391985E-2,2.693047E-1,5.698091E-1,-1.9256826E-2,6.0832705E-2,-5.804967E-1,-1.6147938E-1,1.4839342E-1,-2.2903077E-1,-1.4779934E-2,3.32296E-1,5.3652547E-2],"categories":[],"categories_nodes":[],"categories_segments":[],"categories_sizes":[],"default_left":[1,1,0,1,1,1,0,0,0,1,0,1,1,0,0,0,0],"id":27,"left_children":[1,3,-1,5,7,9,-1,-1,-1,11,-1,13,15,-1,-1,-1,-1],"loss_changes":[2.8743288E-1,2.9600427E-1,0E0,2.1030845E-1,3.2079056E-1,7.4723816E-1,0E0,0E0,0E0,2.0193905E-1,0E0,2.6962884E-2,1.05537504E-1,0E0,0E0,0E0,0E0],"parents":[2147483647,0,0,1,1,3,3,4,4,5,5,9,9,11,11,12,12],"right_children":[2,4,-1,6,8,10,-1,-1,-1,12,-1,14,16,-1,-1,-1,-1],"split_conditions":[1.6661737E0,2.1228006E0,-9.367622E-2,4.324909E-1,3.8057578E-1,1.0004546E-1,8.0791414E-2,1.7094272E-1,-5.777048E-3,1.8669698E-2,-1.7414902E-1,6.1924243E-3,2.5354546E-2,-6.870923E-2,-4.43398E-3,9.9688806E-2,1.6095765E-2],"split_indices":[10,11,0,14,14,14,0,0,0,14,0,14,14,0,0,0,0],"split_type":[0,0,0,0,0,0,0,0,0,0,0,0,0,0,0,0,0],"sum_hessian":[1.4550173E1,1.3217493E1,1.3326793E0,1.05862465E1,2.631246E0,9.42922E0,1.1570266E0,1.0813966E0,1.5498496E0,8.143037E0,1.2861835E0,2.0624316E0,6.080605E0,1.0278898E0,1.0345418E0,1.21491E0,4.8656955E0],"tree_param":{"num_deleted":"0","num_feature":"15","num_nodes":"17","size_leaf_vector":"0"}},{"base_weights":[1.0727387E-2,-4.2239867E-2,3.5141417E-1,-1.0732532E-1,2.9717112E-1,-2.7060693E-2,-4.1795447E-1,-1.817872E-1,1.7962885E-1,-6.7938166E-3,-5.659002E-1,2.5905484E-1,-6.824419E-2,-1.6214229E-1,1.2940489E-1,7.605058E-2,3.3422083E-1],"categories":[],"categories_nodes":[],"categories_segments":[],"categories_sizes":[],"default_left":[1,1,0,1,0,1,0,1,1,1,0,1,0,0,0,0,0],"id":28,"left_children":[1,3,-1,5,-1,7,-1,9,11,13,-1,15,-1,-1,-1,-1,-1],"loss_changes":[2.9087326E-1,3.4405872E-1,0E0,3.026392E-1,0E0,3.8685563E-1,0E0,4.5531738E-1,1.20932E-1,1.4169292E-1,0E0,3.2086372E-2,0E0,0E0,0E0,0E0,0E0],"parents":[2147483647,0,0,1,1,3,3,5,5,7,7,8,8,9,9,11,11],"right_children":[2,4,-1,6,-1,8,-1,10,12,14,-1,16,-1,-1,-1,-1,-1],"split_conditions":[1.4659934E0,2.5610802E0,1.05424255E-1,4.546697E-1,8.915134E-2,6.6104546E-2,-1.2538634E-1,3.8656063E-2,1.8692771E0,1.8669698E-2,-1.6977006E-1,9.674394E-2,-2.0473257E-2,-4.864269E-2,3.8821466E-2,2.2815175E-2,1.00266255E-1],"split_indices":[6,11,0,14,0,14,0,14,11,14,0,14,0,0,0,0,0],"split_type":[0,0,0,0,0,0,0,0,0,0,0,0,0,0,0,0,0],"sum_hessian":[1.4296529E1,1.3131036E1,1.1654928E0,1.1591952E1,1.5390835E0,1.0075597E1,1.5163554E0,5.831016E0,4.2445803E0,4.705144E0,1.1258723E0,3.18038E0,1.0642004E0,2.1090615E0,2.5960824E0,1.5116887E0,1.6686913E0],"tree_param":{"num_deleted":"0","num_feature":"15","num_nodes":"17","size_leaf_vector":"0"}},{"base_weights":[5.734346E-3,5.4129727E-2,-2.9008305E-1,-2.2438731E-2,2.930531E-1,7.031466E-2,-1.9924541E-1,3.9830717E-1,2.0494435E-2,-9.488841E-2,2.530627E-1,-4.4267952E-1,2.1966408E-1,1.7117046E-1,-2.4961482E-1,1.0938612E-1,3.4162074E-1,-3.131556E-1,-9.985038E-2,2.411434E-1,-7.334567E-2],"categories":[],"categories_nodes":[],"categories_segments":[],"categories_sizes":[],"default_left":[1,1,0,1,1,1,1,0,0,1,1,0,0,0,1,1,0,0,0,0,0],"id":29,"left_children":[1,3,-1,5,7,9,11,-1,-1,13,15,-1,-1,-1,17,19,-1,-1,-1,-1,-1],"loss_changes":[2.3154448E-1,2.5902885E-1,0E0,2.0062728E-1,8.99573E-2,2.7166772E-1,5.231417E-1,0E0,0E0,2.500256E-1,1.565656E-2,0E0,0E0,0E0,2.9016882E-3,9.136448E-2,0E0,0E0,0E0,0E0,0E0],"parents":[2147483647,0,0,1,1,3,3,4,4,5,5,6,6,9,9,10,10,14,14,15,15],"right_children":[2,4,-1,6,8,10,12,-1,-1,14,16,-1,-1,-1,18,20,-1,-1,-1,-1,-1],"split_conditions":[1.6661737E0,2.1228006E0,-8.702492E-2,9.421212E-2,7.084909E-1,3.5498485E-2,4.324909E-1,1.1949216E-1,6.148331E-3,1.210303E-2,6.6104546E-2,-1.3280386E-1,6.589923E-2,5.135114E-2,2.0778788E-2,4.3539394E-2,1.0248623E-1,-9.394668E-2,-2.9955115E-2,7.234302E-2,-2.2003701E-2],"split_indices":[10,11,0,14,14,14,14,0,0,14,14,0,0,0,14,14,0,0,0,0,0],"split_type":[0,0,0,0,0,0,0,0,0,0,0,0,0,0,0,0,0,0,0,0,0],"sum_hessian":[1.4076795E1,1.2799782E1,1.277013E0,1.0379513E1,2.4202688E0,7.2030673E0,3.176446E0,1.4131778E0,1.0070908E0,4.0356417E0,3.1674254E0,1.9731047E0,1.2033411E0,1.4448612E0,2.5907805E0,2.0601804E0,1.107245E0,1.0530246E0,1.5377558E0,1.0113193E0,1.0488611E0],"tree_param":{"num_deleted":"0","num_feature":"15","num_nodes":"21","size_leaf_vector":"0"}}]},"name":"gbtree"},"learner_model_param":{"base_score":"5E-1","boost_from_average":"1","num_class":"0","num_feature":"15","num_target":"1"},"objective":{"name":"binary:logistic","reg_loss_param":{"scale_pos_weight":"1"}}},"version":[2,0,3]}