{"learner":{"attributes":{"niter":"41"},"feature_names":[],"feature_types":[],"gradient_booster":{"model":{"gbtree_model_param":{"num_parallel_tree":"1","num_trees":"42"},"iteration_indptr":[0,1,2,3,4,5,6,7,8,9,10,11,12,13,14,15,16,17,18,19,20,21,22,23,24,25,26,27,28,29,30,31,32,33,34,35,36,37,38,39,40,41,42],"tree_info":[0,0,0,0,0,0,0,0,0,0,0,0,0,0,0,0,0,0,0,0,0,0,0,0,0,0,0,0,0,0,0,0,0,0,0,0,0,0,0,0,0,0],"trees":[{"base_weights":[-0E0,-1.8528E0,1.9593909E0,-1.8772213E0,4E-1,5.882353E-1,1.9861592E0,-7.878788E-1,-1.9254237E0,9.0909094E-1,-0E0,-4.6153846E-1,-1.2727273E0,-1.9516407E0,-4E-1,-0E0,-6E-1,5E-1,-9.0909094E-1,-7.5E-1,-0E0],"categories":[],"categories_nodes":[],"categories_segments":[],"categories_sizes":[],"default_left":[1,1,1,1,0,1,0,1,1,0,0,1,0,0,1,0,1,0,0,0,0],"id":0,"left_children":[1,3,5,7,-1,9,-1,11,13,-1,-1,15,-1,-1,17,-1,19,-1,-1,-1,-1],"loss_changes":[1.1036293E3,9.347229E0,4.2546387E0,6.6087036E0,0E0,8.0213904E-1,0E0,7.179489E-1,5.118164E0,0E0,0E0,4.1538453E-1,0E0,0E0,2.172727E0,0E0,4.5000005E-1,0E0,0E0,0E0,0E0],"parents":[2147483647,0,0,1,1,2,2,3,3,5,5,7,7,8,8,11,11,14,14,16,16],"right_children":[2,4,6,8,-1,10,-1,12,14,-1,-1,16,-1,-1,18,-1,20,-1,-1,-1,-1],"split_conditions":[2.3334742E0,2.0910172E0,2.7442455E0,3.9712124E-2,1.20000005E-1,2.5808558E0,5.958478E-1,1.3437682E0,2.1090593E0,2.7272728E-1,-0E0,1.1872727E-2,-3.818182E-1,-5.8549225E-1,2.2136092E0,-0E0,3.3828788E-2,1.5E-1,-2.7272728E-1,-2.2500001E-1,-0E0],"split_indices":[11,6,11,14,0,11,0,10,11,0,0,14,0,0,11,0,14,0,0,0,0],"split_type":[0,0,0,0,0,0,0,0,0,0,0,0,0,0,0,0,0,0,0,0,0],"sum_hessian":[3.02E2,1.5525E2,1.4675E2,1.5375E2,1.5E0,3.25E0,1.435E2,7.25E0,1.465E2,1.75E0,1.5E0,5.5E0,1.75E0,1.4375E2,2.75E0,1.5E0,4E0,1E0,1.75E0,3E0,1E0],"tree_param":{"num_deleted":"0","num_feature":"15","num_nodes":"21","size_leaf_vector":"0"}},{"base_weights":[-7.8237196E-4,-1.4330872E0,1.5133358E0,-1.4538779E0,3.287948E-1,3.1310067E-1,1.5353462E0,-6.3406104E-1,-1.4925091E0,6.431123E-1,-1.0922214E-1,-3.6021474E-1,-1.0565835E0,-1.5075699E0,-4.0693253E-1,-1.2332991E-1,-5.944684E-1,-4.1102374E-1,3.491318E-1],"categories":[],"categories_nodes":[],"categories_segments":[],"categories_sizes":[],"default_left":[1,1,1,1,0,1,0,1,1,0,0,1,0,0,0,1,0,0,0],"id":1,"left_children":[1,3,5,7,-1,9,-1,11,13,-1,-1,15,-1,-1,-1,17,-1,-1,-1],"loss_changes":[6.0757086E2,5.751709E0,3.117035E0,3.565857E0,0E0,5.871253E-1,0E0,5.624187E-1,1.598999E0,0E0,0E0,2.8528744E-1,0E0,0E0,0E0,7.5174916E-1,0E0,0E0,0E0],"parents":[2147483647,0,0,1,1,2,2,3,3,5,5,7,7,8,8,11,11,15,15],"right_children":[2,4,6,8,-1,10,-1,12,14,-1,-1,16,-1,-1,-1,18,-1,-1,-1],"split_conditions":[2.2947443E0,2.0910172E0,2.632263E0,3.9712124E-2,9.8638445E-2,2.3898199E0,4.6060386E-1,1.3437682E0,2.1090593E0,1.929337E-1,-3.2766644E-2,2.496818E-2,-3.1697506E-1,-4.5227098E-1,-1.2207977E-1,1.6960606E-2,-1.7834052E-1,-1.23307124E-1,1.0473954E-1],"split_indices":[11,6,11,14,0,11,0,10,11,0,0,14,0,0,0,14,0,0,0],"split_type":[0,0,0,0,0,0,0,0,0,0,0,0,0,0,0,0,0,0,0],"sum_hessian":[2.781571E2,1.4296785E2,1.3518925E2,1.4147324E2,1.4946129E0,2.7086744E0,1.3248058E2,7.150087E0,1.3432315E2,1.2270414E0,1.4816331E0,5.4623494E0,1.6877375E0,1.3210172E2,2.2214375E0,3.4748995E0,1.9874498E0,2.2405872E0,1.2343122E0],"tree_param":{"num_deleted":"0","num_feature":"15","num_nodes":"19","size_leaf_vector":"0"}},{"base_weights":[-1.3765686E-3,-1.2217187E0,1.3063217E0,-6.4214885E-1,-1.3015188E0,3.276539E-1,1.335533E0,-7.171277E-1,1.994076E-1,-1.3333759E0,-4.9137148E-1,6.126928E-1,-1.7815872E-1,-7.735166E-1,-5.935796E-2,2.0736416E-1,-8.5330486E-1,-9.419644E-2,-8.2936347E-1,-2.6378253E-1,-1.0061563E0],"categories":[],"categories_nodes":[],"categories_segments":[],"categories_sizes":[],"default_left":[1,1,1,1,1,1,0,1,0,0,1,0,0,1,0,0,1,0,0,0,0],"id":2,"left_children":[1,3,5,7,9,11,-1,13,-1,-1,15,-1,-1,17,-1,-1,19,-1,-1,-1,-1],"loss_changes":[3.7860928E2,4.840103E0,2.8364716E0,1.2047234E0,2.1036987E0,7.787633E-1,0E0,5.35203E-1,0E0,0E0,1.6002353E0,0E0,0E0,4.661789E-1,0E0,0E0,8.62937E-2,0E0,0E0,0E0,0E0],"parents":[2147483647,0,0,1,1,2,2,3,3,4,4,5,5,7,7,10,10,13,13,16,16],"right_children":[2,4,6,8,10,12,-1,14,-1,-1,16,-1,-1,18,-1,-1,20,-1,-1,-1,-1],"split_conditions":[2.2947443E0,1.0142727E-1,2.7442455E0,9.358182E-2,1.8458465E0,2.5808558E0,4.0065992E-1,1.3123204E0,5.9822284E-2,-4.000128E-1,2.1439546E-1,1.8380783E-1,-5.3447615E-2,7.877273E-3,-1.7807389E-2,6.220925E-2,2.0326214E0,-2.8258933E-2,-2.4880905E-1,-7.913476E-2,-3.0184692E-1],"split_indices":[11,14,11,14,11,11,0,9,0,0,14,0,0,14,0,0,11,0,0,0,0],"split_type":[0,0,0,0,0,0,0,0,0,0,0,0,0,0,0,0,0,0,0,0,0],"sum_hessian":[2.3524767E2,1.2172232E2,1.1352534E2,1.5826319E1,1.05896E2,3.644362E0,1.09880974E2,1.4667378E1,1.1589407E0,1.0126803E2,4.6279726E0,2.1957147E0,1.4486474E0,1.3347189E1,1.3201891E0,1.724937E0,2.9030359E0,1.2180113E0,1.2129178E1,1.1589407E0,1.7440951E0],"tree_param":{"num_deleted":"0","num_feature":"15","num_nodes":"21","size_leaf_vector":"0"}},{"base_weights":[-2.0015556E-3,-1.0785964E0,1.1917202E0,-5.018134E-1,-1.170653E0,3.0631846E-1,1.2190473E0,-3.1860533E-1,-9.939808E-1,-1.2120814E0,-3.9501962E-1,6.12249E-1,-1.4582342E-1,4.5828767E-2,-4.7868317E-1,-1.5029604E-2,-8.9396584E-1,-2.6411158E-1,3.9560446E-1,-6.012172E-1,1.9285056E-1,4.310749E-1,-4.5148227E-1,-3.299794E-1,-8.918177E-1],"categories":[],"categories_nodes":[],"categories_segments":[],"categories_sizes":[],"default_left":[1,1,1,1,1,1,0,1,0,0,1,0,0,1,1,1,0,0,0,1,0,0,0,0,0],"id":3,"left_children":[1,3,5,7,9,11,-1,13,-1,-1,15,-1,-1,17,19,21,-1,-1,-1,23,-1,-1,-1,-1,-1],"loss_changes":[2.4944093E2,4.8312225E0,1.8535614E0,1.1076634E0,2.325035E0,6.552078E-1,0E0,7.7934444E-1,0E0,0E0,1.1066349E0,0E0,0E0,6.329799E-1,8.6541367E-1,1.0456202E0,0E0,0E0,0E0,3.319974E-1,0E0,0E0,0E0,0E0,0E0],"parents":[2147483647,0,0,1,1,2,2,3,3,4,4,5,5,7,7,10,10,13,13,14,14,15,15,19,19],"right_children":[2,4,6,8,10,12,-1,14,-1,-1,16,-1,-1,18,20,22,-1,-1,-1,24,-1,-1,-1,-1,-1],"split_conditions":[2.3334742E0,1.0142727E-1,2.7442455E0,1.3437682E0,1.8458465E0,2.5808558E0,3.657142E-1,2.7722728E-2,-2.9819426E-1,-3.6362445E-1,5.6300306E-1,1.8367471E-1,-4.3747026E-2,1.6960606E-2,8.953485E-2,2.1551852E0,-2.6818976E-1,-7.9233475E-2,1.1868134E-1,6.953333E-2,5.785517E-2,1.2932247E-1,-1.3544469E-1,-9.899382E-2,-2.675453E-1],"split_indices":[11,14,11,10,11,11,0,14,0,0,14,0,0,14,14,11,0,0,0,14,0,0,0,0,0],"split_type":[0,0,0,0,0,0,0,0,0,0,0,0,0,0,0,0,0,0,0,0,0,0,0,0,0],"sum_hessian":[1.9209393E2,1.01052795E2,9.104114E1,1.47964525E1,8.625634E1,3.091318E0,8.794982E1,1.1983119E1,2.813334E0,8.1348625E1,4.9077153E0,1.6325712E0,1.4587467E0,3.8749943E0,8.108125E0,3.370736E0,1.5369796E0,2.184338E0,1.6906562E0,6.9454975E0,1.1626269E0,1.6730299E0,1.697706E0,4.6969833E0,2.2485147E0],"tree_param":{"num_deleted":"0","num_feature":"15","num_nodes":"25","size_leaf_vector":"0"}},{"base_weights":[-4.972424E-3,-9.8439634E-1,1.1046975E0,-4.431061E-1,-1.1006612E0,2.3805302E-1,1.1449116E0,-2.7999946E-1,-9.1477764E-1,-1.1326731E0,-4.4201866E-1,-1.2681606E-1,6.093213E-1,-4.483945E-2,-4.7071588E-1,1.8860575E-2,-9.312213E-1,-1.3907084E-1,1.675642E-1,-6.5770006E-1,-2.202781E-3,-3.6711136E-1,4.75075E-1,1.6006856E-1,-2.8708476E-1,-2.8468233E-1,-8.300774E-1,2.8497773E-1,-2.7791846E-1],"categories":[],"categories_nodes":[],"categories_segments":[],"categories_sizes":[],"default_left":[1,1,1,1,1,1,0,1,0,0,1,0,0,1,1,1,0,1,0,1,1,0,0,0,0,0,0,0,0],"id":4,"left_children":[1,3,5,7,9,11,-1,13,-1,-1,15,-1,-1,17,19,21,-1,23,-1,25,27,-1,-1,-1,-1,-1,-1,-1,-1],"loss_changes":[1.6979364E2,4.734535E0,2.2801666E0,1.0014102E0,9.253845E-1,6.882899E-1,0E0,5.8825636E-1,0E0,0E0,1.0941273E0,0E0,0E0,1.672087E-1,6.465782E-1,7.799244E-1,0E0,2.9066268E-1,0E0,1.034348E-1,3.2572392E-1,0E0,0E0,0E0,0E0,0E0,0E0,0E0,0E0],"parents":[2147483647,0,0,1,1,2,2,3,3,4,4,5,5,7,7,10,10,13,13,14,14,15,15,17,17,19,19,20,20],"right_children":[2,4,6,8,10,12,-1,14,-1,-1,16,-1,-1,18,20,22,-1,24,-1,26,28,-1,-1,-1,-1,-1,-1,-1,-1],"split_conditions":[2.2947443E0,1.179394E-1,2.7442455E0,1.0896889E0,1.8458465E0,4.9698484E-1,3.434735E-1,4.6940908E-2,-2.744333E-1,-3.3980197E-1,2.1551852E0,-3.804482E-2,1.8279639E-1,3.3828788E-2,9.358182E-2,2.0791173E0,-2.793664E-1,1.1872727E-2,5.026926E-2,6.953333E-2,1.0142727E-1,-1.1013341E-1,1.4252251E-1,4.8020568E-2,-8.612543E-2,-8.54047E-2,-2.4902323E-1,8.5493326E-2,-8.337554E-2],"split_indices":[11,14,11,10,11,14,0,14,0,0,11,0,0,14,14,11,0,14,0,14,14,0,0,0,0,0,0,0,0],"split_type":[0,0,0,0,0,0,0,0,0,0,0,0,0,0,0,0,0,0,0,0,0,0,0,0,0,0,0,0,0],"sum_hessian":[1.5422673E2,8.198102E1,7.224571E1,1.5346065E1,6.663495E1,3.5105462E0,6.873517E1,1.258703E1,2.7590334E0,6.2860058E1,3.774895E0,2.1026058E0,1.4079405E0,6.189845E0,6.3971853E0,2.4387693E0,1.3361255E0,4.5268097E0,1.6630355E0,4.283737E0,2.1134481E0,1.4268872E0,1.0118823E0,1.471478E0,3.055332E0,2.1919503E0,2.0917869E0,1.0187469E0,1.0947013E0],"tree_param":{"num_deleted":"0","num_feature":"15","num_nodes":"29","size_leaf_vector":"0"}},{"base_weights":[-8.472191E-3,-8.9453846E-1,1.0533646E0,-4.483593E-1,-1.0544897E0,1.05857305E-1,1.0861405E0,-5.5756927E-1,6.6049415E-1,-6.340782E-1,3.0516866E-1,-2.632063E-1,-8.1833494E-1,-9.897205E-2,-6.2912047E-1],"categories":[],"categories_nodes":[],"categories_segments":[],"categories_sizes":[],"default_left":[1,1,1,1,0,0,0,1,0,1,0,1,0,0,0],"id":5,"left_children":[1,3,5,7,-1,-1,-1,9,-1,11,-1,13,-1,-1,-1],"loss_changes":[1.1773021E2,4.394848E0,1.6528053E0,2.7585585E0,0E0,0E0,0E0,1.41536E0,0E0,9.6873236E-1,0E0,3.7196243E-1,0E0,0E0,0E0],"parents":[2147483647,0,0,1,1,2,2,3,3,7,7,9,9,11,11],"right_children":[2,4,6,8,-1,-1,-1,10,-1,12,-1,14,-1,-1,-1],"split_conditions":[2.3334742E0,1.7834546E-1,2.632263E0,1.0680554E0,-3.1634694E-1,3.1757195E-2,3.2584217E-1,1.0636185E0,1.9814825E-1,3.9712124E-2,9.15506E-2,1.3437682E0,-2.4550049E-1,-2.9691616E-2,-1.8873616E-1],"split_indices":[11,14,11,6,0,0,0,11,0,14,0,10,0,0,0],"split_type":[0,0,0,0,0,0,0,0,0,0,0,0,0,0,0],"sum_hessian":[1.231292E2,6.720582E1,5.592339E1,1.8738483E1,4.8467335E1,2.0112288E0,5.391216E1,1.7511007E1,1.2274768E0,1.632805E1,1.182957E0,6.225614E0,1.0102436E1,5.1738844E0,1.0517296E0],"tree_param":{"num_deleted":"0","num_feature":"15","num_nodes":"15","size_leaf_vector":"0"}},{"base_weights":[-7.380693E-3,-8.2099825E-1,9.927146E-1,-2.8386855E-1,-9.83971E-1,1.5856452E-1,1.056648E0,-1.4413908E-1,-7.651477E-1,-1.0332172E0,-2.8964606E-1,-1.9220404E-1,5.5248165E-1,7.9746306E-2,-2.549306E-1,1.5065926E-1,-7.8828865E-1,-1.9713657E-1,3.729306E-1,-3.788243E-1,1.1138073E-1,3.5190082E-1,-1.2071676E-1,-1.5627733E-1,-6.7980367E-1],"categories":[],"categories_nodes":[],"categories_segments":[],"categories_sizes":[],"default_left":[1,1,1,1,1,1,0,1,0,0,1,0,0,1,1,1,0,0,0,1,0,0,0,0,0],"id":6,"left_children":[1,3,5,7,9,11,-1,13,-1,-1,15,-1,-1,17,19,21,-1,-1,-1,23,-1,-1,-1,-1,-1],"loss_changes":[8.14011E1,4.5490036E0,2.2259064E0,8.476856E-1,1.1338234E0,7.102166E-1,0E0,3.2473356E-1,0E0,0E0,1.033284E0,0E0,0E0,4.6514142E-1,4.2558593E-1,2.0913531E-1,0E0,0E0,0E0,3.318199E-1,0E0,0E0,0E0,0E0,0E0],"parents":[2147483647,0,0,1,1,2,2,3,3,4,4,5,5,7,7,10,10,13,13,14,14,15,15,19,19],"right_children":[2,4,6,8,10,12,-1,14,-1,-1,16,-1,-1,18,20,22,-1,-1,-1,24,-1,-1,-1,-1,-1],"split_conditions":[2.2947443E0,1.179394E-1,2.7442455E0,1.0896889E0,1.8458465E0,4.9698484E-1,3.1699443E-1,2.7722728E-2,-2.2954431E-1,-3.0996516E-1,2.1551852E0,-5.7661217E-2,1.657445E-1,1.6960606E-2,9.358182E-2,2.7116364E-1,-2.364866E-1,-5.9140973E-2,1.1187918E-1,6.953333E-2,3.3414222E-2,1.0557025E-1,-3.621503E-2,-4.68832E-2,-2.039411E-1],"split_indices":[11,14,11,10,11,14,0,14,0,0,11,0,0,14,14,14,0,0,0,14,0,0,0,0,0],"split_type":[0,0,0,0,0,0,0,0,0,0,0,0,0,0,0,0,0,0,0,0,0,0,0,0,0],"sum_hessian":[9.80372E1,5.415722E1,4.3879986E1,1.3245192E1,4.0912025E1,3.371506E0,4.050848E1,1.1272071E1,1.9731212E0,3.774669E1,3.1653388E0,2.0542989E0,1.3172071E0,3.82427E0,7.4478006E0,2.0516112E0,1.1137275E0,2.1352985E0,1.6889714E0,5.5399284E0,1.9078723E0,1.0076504E0,1.0439609E0,4.058365E0,1.4815634E0],"tree_param":{"num_deleted":"0","num_feature":"15","num_nodes":"25","size_leaf_vector":"0"}},{"base_weights":[-1.06336735E-2,-7.033606E-1,1.0092571E0,-1.5064688E-1,-8.8158244E-1,2.446803E-1,1.0267121E0,-2.6591744E-2,-6.686274E-1,-9.975076E-1,-2.0403326E-1,-8.4520385E-2,2.7676493E-1,1.2914197E-1,-3.8230154E-1,9.42992E-3,-4.0664053E-1,-1.2092081E-1,3.1523064E-1,-7.024252E-1,2.2468951E-1,-1.03531376E-1,1.8472263E-1],"categories":[],"categories_nodes":[],"categories_segments":[],"categories_sizes":[],"default_left":[1,1,1,1,1,0,0,1,0,0,1,1,0,1,1,1,0,0,0,0,0,0,0],"id":7,"left_children":[1,3,5,7,9,-1,-1,11,-1,-1,13,15,-1,17,19,21,-1,-1,-1,-1,-1,-1,-1],"loss_changes":[5.7019375E1,4.600662E0,1.8450165E-1,8.126062E-1,2.6343117E0,0E0,0E0,2.2490479E-1,0E0,0E0,4.37555E-1,3.184079E-1,0E0,1.7890911E-1,1.0341976E0,1.9782646E-1,0E0,0E0,0E0,0E0,0E0,0E0,0E0],"parents":[2147483647,0,0,1,1,2,2,3,3,4,4,7,7,10,10,11,11,13,13,14,14,15,15],"right_children":[2,4,6,8,10,-1,-1,12,-1,-1,14,16,-1,18,20,22,-1,-1,-1,-1,-1,-1,-1],"split_conditions":[2.632263E0,1.0142727E-1,2.7688286E0,1.3437682E0,1.8458465E0,7.3404096E-2,3.0801362E-1,8.953485E-2,-2.0058823E-1,-2.9925227E-1,2.1551852E0,6.953333E-2,8.302948E-2,2.0625892E0,5.0321364E-1,3.795E-2,-1.2199216E-1,-3.6276244E-2,9.45692E-2,-2.1072756E-1,6.7406856E-2,-3.1059414E-2,5.5416793E-2],"split_indices":[11,14,11,10,11,0,0,14,0,0,11,14,0,11,14,14,0,0,0,0,0,0,0],"split_type":[0,0,0,0,0,0,0,0,0,0,0,0,0,0,0,0,0,0,0,0,0,0,0],"sum_hessian":[7.870141E1,4.705275E1,3.1648663E1,1.1922661E1,3.513009E1,1.0415998E0,3.0607063E1,1.0467142E1,1.4555188E0,2.9594412E1,5.535677E0,9.394552E0,1.07259E0,2.025565E0,3.5101123E0,8.024758E0,1.3697939E0,1.0136446E0,1.0119203E0,2.195168E0,1.3149443E0,5.1289587E0,2.8957992E0],"tree_param":{"num_deleted":"0","num_feature":"15","num_nodes":"23","size_leaf_vector":"0"}},{"base_weights":[-1.1387567E-2,-6.643683E-1,9.223977E-1,-2.4927466E-1,-9.1047937E-1,1.7752722E-1,1.0014471E0,-3.5645556E-1,5.825183E-1,-9.440283E-1,-2.811769E-1,4.888817E-1,-2.288381E-1,-4.3321925E-1,3.0449748E-1,-5.8066137E-2,-5.795455E-1,-2.7252772E-1,2.976367E-1],"categories":[],"categories_nodes":[],"categories_segments":[],"categories_sizes":[],"default_left":[1,1,1,1,1,1,0,1,0,0,0,0,0,1,0,1,0,0,0],"id":8,"left_children":[1,3,5,7,9,11,-1,13,-1,-1,-1,-1,-1,15,-1,17,-1,-1,-1],"loss_changes":[4.0233128E1,3.7388725E0,1.4213505E0,1.6186101E0,2.4112701E-1,5.953388E-1,0E0,8.7472296E-1,0E0,0E0,0E0,0E0,0E0,7.0905566E-1,0E0,4.5550004E-1,0E0,0E0,0E0],"parents":[2147483647,0,0,1,1,2,2,3,3,4,4,5,5,7,7,13,13,15,15],"right_children":[2,4,6,8,10,12,-1,14,-1,-1,-1,-1,-1,16,-1,18,-1,-1,-1],"split_conditions":[2.3334742E0,1.7834546E-1,2.7442455E0,1.0680554E0,2.2179384E0,2.5808558E0,3.0043414E-1,1.0636185E0,1.7475548E-1,-2.8320852E-1,-8.4353074E-2,1.4666452E-1,-6.865143E-2,2.496818E-2,9.1349244E-2,1.8366667E-2,-1.7386365E-1,-8.175832E-2,8.929101E-2],"split_indices":[11,14,11,6,9,11,0,11,0,0,0,0,0,14,0,14,0,0,0],"split_type":[0,0,0,0,0,0,0,0,0,0,0,0,0,0,0,0,0,0,0],"sum_hessian":[6.397863E1,3.7820145E1,2.6158487E1,1.4826487E1,2.2993658E1,2.8211358E0,2.333735E1,1.364032E1,1.1861664E0,2.1355074E1,1.6385847E0,1.482327E0,1.3388089E0,1.2529667E1,1.1106532E0,3.907751E0,8.621916E0,2.583769E0,1.323982E0],"tree_param":{"num_deleted":"0","num_feature":"15","num_nodes":"19","size_leaf_vector":"0"}},{"base_weights":[-5.5711623E-3,-5.418928E-1,9.5016485E-1,-7.442567E-2,-7.807149E-1,2.3510295E-1,9.7703475E-1,3.576956E-2,-6.081111E-1,-9.259511E-1,-1.5919386E-1,2.5432009E-1,-1.9957624E-2,2.1050034E-1,-3.84751E-1,-3.6841822E-1,6.3439354E-2,-7.799234E-1,2.533567E-1,2.4443308E-1,-5.882874E-2],"categories":[],"categories_nodes":[],"categories_segments":[],"categories_sizes":[],"default_left":[1,1,1,1,1,0,0,1,0,0,1,0,1,0,1,0,1,0,0,0,0],"id":9,"left_children":[1,3,5,7,9,-1,-1,11,-1,-1,13,-1,15,-1,17,-1,19,-1,-1,-1,-1],"loss_changes":[2.7872644E1,3.829753E0,1.4588356E-1,7.7926666E-1,1.9236603E0,0E0,0E0,1.4660774E-1,0E0,0E0,5.440828E-1,0E0,3.194106E-1,0E0,1.1565157E0,0E0,2.1515906E-1,0E0,0E0,0E0,0E0],"parents":[2147483647,0,0,1,1,2,2,3,3,4,4,7,7,10,10,12,12,14,14,16,16],"right_children":[2,4,6,8,10,-1,-1,12,-1,-1,14,-1,16,-1,18,-1,20,-1,-1,-1,-1],"split_conditions":[2.632263E0,1.179394E-1,2.7963219E0,1.0896889E0,1.8458465E0,7.053089E-2,2.9311043E-1,1.1872727E-2,-1.8243334E-1,-2.7778536E-1,2.1551852E0,7.629603E-2,2.1934848E-2,6.315011E-2,5.0321364E-1,-1.1052547E-1,4.101818E-2,-2.3397702E-1,7.600701E-2,7.3329926E-2,-1.7648622E-2],"split_indices":[11,14,11,10,11,0,0,14,0,0,11,0,14,0,14,0,14,0,0,0,0],"split_type":[0,0,0,0,0,0,0,0,0,0,0,0,0,0,0,0,0,0,0,0,0],"sum_hessian":[5.2372463E1,3.382449E1,1.854797E1,1.1880804E1,2.1943687E1,1.0248306E0,1.752314E1,1.06208E1,1.2600037E0,1.7390163E1,4.5535235E0,1.4338548E0,9.186946E0,1.7507503E0,2.8027732E0,1.1141225E0,8.072823E0,1.5936196E0,1.2091535E0,2.8519375E0,5.2208853E0],"tree_param":{"num_deleted":"0","num_feature":"15","num_nodes":"21","size_leaf_vector":"0"}},{"base_weights":[-7.484951E-3,-5.2578515E-1,8.241446E-1,-1.583851E-1,-8.397544E-1,1.8294956E-1,9.535384E-1,-2.5651237E-1,5.1535547E-1,-8.932964E-1,-1.2671256E-1,4.0220872E-1,-1.7249905E-1,-3.2656705E-1,2.7188683E-1,1.2379409E-1,-4.086514E-1,-2.0878597E-1,-4.9685046E-1],"categories":[],"categories_nodes":[],"categories_segments":[],"categories_sizes":[],"default_left":[1,1,1,1,1,1,0,1,0,0,0,0,0,1,0,0,1,0,0],"id":10,"left_children":[1,3,5,7,9,11,-1,13,-1,-1,-1,-1,-1,15,-1,-1,17,-1,-1],"loss_changes":[1.977295E1,3.125887E0,1.2871227E0,1.0743331E0,4.5951366E-1,3.9635682E-1,0E0,5.7395285E-1,0E0,0E0,0E0,0E0,0E0,4.9518454E-1,0E0,0E0,7.968438E-2,0E0,0E0],"parents":[2147483647,0,0,1,1,2,2,3,3,4,4,5,5,7,7,13,13,16,16],"right_children":[2,4,6,8,10,12,-1,14,-1,-1,-1,-1,-1,16,-1,-1,18,-1,-1],"split_conditions":[2.2947443E0,1.7834546E-1,2.7442455E0,1.0680554E0,2.2179384E0,2.5808558E0,2.8606153E-1,1.0636185E0,1.5460664E-1,-2.6798895E-1,-3.801377E-2,1.2066262E-1,-5.1749717E-2,1.1872727E-2,8.156605E-2,3.7138227E-2,3.9712124E-2,-6.2635794E-2,-1.4905514E-1],"split_indices":[11,14,11,6,9,11,0,11,0,0,0,0,0,14,0,0,14,0,0],"split_type":[0,0,0,0,0,0,0,0,0,0,0,0,0,0,0,0,0,0,0],"sum_hessian":[4.386801E1,2.7251625E1,1.6616386E1,1.3250564E1,1.40010605E1,3.1954792E0,1.3420907E1,1.2106568E1,1.1439956E0,1.2788018E1,1.2130427E0,1.8949953E0,1.3004838E0,1.1026636E1,1.0799321E0,1.6215833E0,9.405053E0,3.9105885E0,5.4944644E0],"tree_param":{"num_deleted":"0","num_feature":"15","num_nodes":"19","size_leaf_vector":"0"}},{"base_weights":[-2.137389E-3,-4.001662E-1,8.85983E-1,-1.9575994E-2,-6.651286E-1,2.242595E-1,9.263296E-1,-1.0845144E-1,1.8478808E-1,-8.4902865E-1,-1.2215264E-1,1.5955244E-3,-3.9654908E-1,3.4962592E-1,-4.9667694E-2,2.5843307E-1,-3.587202E-1,-1.3047338E-1,4.0934435E-1,-6.8562675E-1,1.8962587E-1,1.0019724E-1,-2.2943279E-1],"categories":[],"categories_nodes":[],"categories_segments":[],"categories_sizes":[],"default_left":[1,1,1,1,1,0,0,1,1,0,1,1,0,0,0,0,1,1,0,0,0,0,0],"id":11,"left_children":[1,3,5,7,9,-1,-1,11,13,-1,15,17,-1,-1,-1,-1,19,21,-1,-1,-1,-1,-1],"loss_changes":[1.3794522E1,2.7039375E0,1.1470604E-1,2.3960808E-1,1.4793572E0,0E0,0E0,2.8771627E-1,1.7325695E-1,0E0,5.590022E-1,4.598876E-1,0E0,0E0,0E0,0E0,7.775996E-1,1.7044702E-1,0E0,0E0,0E0,0E0,0E0],"parents":[2147483647,0,0,1,1,2,2,3,3,4,4,7,7,8,8,10,10,11,11,16,16,17,17],"right_children":[2,4,6,8,10,-1,-1,12,14,-1,16,18,-1,-1,-1,-1,20,22,-1,-1,-1,-1,-1],"split_conditions":[2.632263E0,1.179394E-1,2.8183138E0,6.769697E-2,1.8458465E0,6.727785E-2,2.778989E-1,4.6940908E-2,9.4039395E-2,-2.5470862E-1,2.1551852E0,3.795E-2,-1.18964724E-1,1.04887776E-1,-1.4900309E-2,7.752992E-2,5.0321364E-1,1.1872727E-2,1.2280331E-1,-2.0568803E-1,5.6887764E-2,3.0059174E-2,-6.882984E-2],"split_indices":[11,14,11,14,11,0,0,14,14,0,11,14,0,0,0,0,14,14,0,0,0,0,0],"split_type":[0,0,0,0,0,0,0,0,0,0,0,0,0,0,0,0,0,0,0,0,0,0,0],"sum_hessian":[3.702002E1,2.5942703E1,1.1077315E1,1.1088761E1,1.4853942E1,1.0134869E0,1.0063828E1,8.055043E0,3.0337176E0,1.0674833E1,4.179108E0,6.548227E0,1.5068167E0,1.4928926E0,1.540825E0,1.5665088E0,2.6125994E0,5.4598193E0,1.0884074E0,1.4799476E0,1.1326518E0,1.6353569E0,3.8244624E0],"tree_param":{"num_deleted":"0","num_feature":"15","num_nodes":"23","size_leaf_vector":"0"}},{"base_weights":[9.135173E-4,-3.3232912E-1,8.456724E-1,1.1791062E-2,-5.767314E-1,2.047375E-1,8.9686584E-1,-6.047601E-2,3.7200627E-1,-8.1153965E-1,-6.791547E-2,1.5618387E-2,-3.513596E-1,1.8960746E-1,-2.8359392E-1,-2.1749918E-1,1.3335277E-1,4.3352577E-1,-1.3424757E-1,-5.657934E-1,1.6003093E-1,6.349871E-2,-3.757467E-1,3.31632E-1,2.2438794E-2],"categories":[],"categories_nodes":[],"categories_segments":[],"categories_sizes":[],"default_left":[1,1,1,1,1,0,0,1,0,0,1,1,0,1,1,1,1,0,0,0,0,0,0,0,0],"id":12,"left_children":[1,3,5,7,9,-1,-1,11,-1,-1,13,15,-1,17,19,21,23,-1,-1,-1,-1,-1,-1,-1,-1],"loss_changes":[9.626657E0,2.06942E0,1.3378143E-1,3.1313133E-1,1.6605449E0,0E0,0E0,2.3035741E-1,0E0,0E0,3.6623517E-1,2.762944E-1,0E0,3.0809194E-1,5.2398956E-1,1.7520672E-1,1.3784856E-1,0E0,0E0,0E0,0E0,0E0,0E0,0E0,0E0],"parents":[2147483647,0,0,1,1,2,2,3,3,4,4,7,7,10,10,11,11,13,13,14,14,15,15,16,16],"right_children":[2,4,6,8,10,-1,-1,12,-1,-1,14,16,-1,18,20,22,24,-1,-1,-1,-1,-1,-1,-1,-1],"split_conditions":[2.632263E0,1.0142727E-1,2.845467E0,8.953485E-2,1.8458465E0,6.1421253E-2,2.6905978E-1,6.953333E-2,1.1160188E-1,-2.434619E-1,2.2136092E0,1.8366667E-2,-1.05407886E-1,2.1439546E-1,4.9698484E-1,7.877273E-3,2.496818E-2,1.3005774E-1,-4.0274274E-2,-1.6973802E-1,4.800928E-2,1.9049615E-2,-1.1272401E-1,9.94896E-2,6.7316387E-3],"split_indices":[11,14,11,14,11,0,0,14,0,0,11,14,0,14,14,14,14,0,0,0,0,0,0,0,0],"split_type":[0,0,0,0,0,0,0,0,0,0,0,0,0,0,0,0,0,0,0,0,0,0,0,0,0],"sum_hessian":[3.21982E1,2.3524712E1,8.673489E0,1.0164615E1,1.3360098E1,1.0113099E0,7.662179E0,9.159191E0,1.0054231E0,8.734394E0,4.625704E0,8.010081E0,1.1491095E0,2.163425E0,2.4622788E0,2.40357E0,5.6065116E0,1.0408472E0,1.1225778E0,1.3366314E0,1.1256474E0,1.0816453E0,1.3219247E0,1.29732E0,4.3091917E0],"tree_param":{"num_deleted":"0","num_feature":"15","num_nodes":"25","size_leaf_vector":"0"}},{"base_weights":[3.2793798E-3,-3.2298672E-1,7.140161E-1,-1.266918E-1,-8.7673765E-1,2.0455636E-1,8.6732715E-1,-2.3392552E-1,6.87383E-1,4.3486208E-1,-1.308966E-1,-8.261001E-2,-7.3732275E-1,1.920852E-2,-5.9000605E-1,-6.586151E-2,4.434849E-1],"categories":[],"categories_nodes":[],"categories_segments":[],"categories_sizes":[],"default_left":[1,1,1,1,0,1,0,1,0,0,0,1,0,1,0,0,0],"id":13,"left_children":[1,3,5,7,-1,9,-1,11,-1,-1,-1,13,-1,15,-1,-1,-1],"loss_changes":[7.04884E0,2.1542652E0,5.694561E-1,1.6060122E0,0E0,3.2891056E-1,0E0,1.1101913E0,0E0,0E0,0E0,6.802229E-1,0E0,4.533728E-1,0E0,0E0,0E0],"parents":[2147483647,0,0,1,1,2,2,3,3,5,5,7,7,11,11,13,13],"right_children":[2,4,6,8,-1,10,-1,12,-1,-1,-1,14,-1,16,-1,-1,-1],"split_conditions":[2.3334742E0,5.442788E-1,2.7442455E0,4.3195605E-1,-2.6302132E-1,2.5808558E0,2.6019815E-1,1.7834546E-1,2.062149E-1,1.3045862E-1,-3.926898E-2,1.0068502E0,-2.2119683E-1,1.0680554E0,-1.7700182E-1,-1.9758454E-2,1.3304548E-1],"split_indices":[11,14,11,14,0,11,0,14,0,0,0,10,0,6,0,0,0],"split_type":[0,0,0,0,0,0,0,0,0,0,0,0,0,0,0,0,0],"sum_hessian":[2.840292E1,1.984059E1,8.562329E0,1.55553E1,4.2852902E0,2.5205808E0,6.041749E0,1.43744755E1,1.1808242E0,1.3188081E0,1.2017726E0,1.1947344E1,2.4271314E0,1.0751914E1,1.19543E0,9.659826E0,1.0920873E0],"tree_param":{"num_deleted":"0","num_feature":"15","num_nodes":"17","size_leaf_vector":"0"}},{"base_weights":[2.2015672E-3,-2.1333309E-1,8.3087814E-1,-8.876073E-2,-6.3287747E-1,-1.573434E-1,3.2676172E-1,-7.494289E-1,-9.435892E-2,-2.2046655E-1,3.8056934E-1,-3.2829422E-1,1.4122352E-1,-1.8696797E-1,-5.4429674E-1,5.047486E-1,-3.1815395E-1],"categories":[],"categories_nodes":[],"categories_segments":[],"categories_sizes":[],"default_left":[1,1,0,1,1,1,0,0,0,1,0,1,1,0,0,0,0],"id":14,"left_children":[1,3,-1,5,7,9,-1,-1,-1,11,-1,13,15,-1,-1,-1,-1],"loss_changes":[4.9160304E0,1.0858362E0,0E0,5.6469744E-1,2.3303783E-1,6.317546E-1,0E0,0E0,0E0,6.342292E-1,0E0,2.6188457E-1,8.5544145E-1,0E0,0E0,0E0,0E0],"parents":[2147483647,0,0,1,1,3,3,4,4,5,5,9,9,11,11,12,12],"right_children":[2,4,-1,6,8,10,-1,-1,-1,12,-1,14,16,-1,-1,-1,-1],"split_conditions":[2.7442455E0,5.442788E-1,2.4926345E-1,2.1263404E0,2.0791173E0,2.0294456E0,9.802852E-2,-2.2482869E-1,-2.8307678E-2,2.057866E0,1.14170805E-1,1.0142727E-1,2.3898199E0,-5.6090392E-2,-1.6328903E-1,1.5142459E-1,-9.544619E-2],"split_indices":[11,14,0,9,11,6,0,0,0,11,0,14,11,0,0,0,0],"split_type":[0,0,0,0,0,0,0,0,0,0,0,0,0,0,0,0,0],"sum_hessian":[2.5531641E1,2.085097E1,4.6806717E0,1.7011446E1,3.8395236E0,1.5134764E1,1.8766819E0,2.8344212E0,1.0051023E0,1.4073417E1,1.0613472E0,1.0912497E1,3.1609197E0,7.7242517E0,3.1882453E0,1.7094176E0,1.451502E0],"tree_param":{"num_deleted":"0","num_feature":"15","num_nodes":"17","size_leaf_vector":"0"}},{"base_weights":[4.43856E-3,-2.3323406E-1,6.128199E-1,-7.8321666E-2,-7.969673E-1,1.94554E-1,7.906101E-1,-1.7592457E-1,5.620524E-1,3.6173022E-1,-6.2296994E-2,-1.6218752E-2,-5.6545615E-1,-8.5529916E-2,2.3313932E-1,-6.897816E-1,-9.1975875E-2,4.5791045E-2,-2.7415153E-1],"categories":[],"categories_nodes":[],"categories_segments":[],"categories_sizes":[],"default_left":[1,1,1,1,0,1,0,1,0,0,0,1,1,1,0,0,0,0,0],"id":15,"left_children":[1,3,5,7,-1,9,-1,11,-1,-1,-1,13,15,17,-1,-1,-1,-1,-1],"loss_changes":[3.6596725E0,1.5281308E0,3.7475753E-1,1.0611757E0,0E0,1.7052743E-1,0E0,8.6933535E-1,0E0,0E0,0E0,2.1083151E-1,1.765337E-1,2.4475145E-1,0E0,0E0,0E0,0E0,0E0],"parents":[2147483647,0,0,1,1,2,2,3,3,5,5,7,7,11,11,12,12,13,13],"right_children":[2,4,6,8,-1,10,-1,12,-1,-1,-1,14,16,18,-1,-1,-1,-1,-1],"split_conditions":[2.3334742E0,5.442788E-1,2.7442455E0,4.3195605E-1,-2.390902E-1,2.5808558E0,2.3718303E-1,1.179394E-1,1.6861573E-1,1.0851907E-1,-1.86891E-2,9.358182E-2,1.9624639E0,3.9712124E-2,6.99418E-2,-2.069345E-1,-2.7592763E-2,1.3737314E-2,-8.224546E-2],"split_indices":[11,14,11,14,0,11,0,14,0,0,0,14,11,14,0,0,0,0,0],"split_type":[0,0,0,0,0,0,0,0,0,0,0,0,0,0,0,0,0,0,0],"sum_hessian":[2.3321228E1,1.721326E1,6.1079674E0,1.4396166E1,2.817094E0,2.4465497E0,3.6614177E0,1.3121522E1,1.274644E0,1.2346364E0,1.2119131E0,1.0044832E1,3.0766897E0,8.374164E0,1.6706691E0,2.075006E0,1.0016837E0,5.3834E0,2.9907634E0],"tree_param":{"num_deleted":"0","num_feature":"15","num_nodes":"19","size_leaf_vector":"0"}},{"base_weights":[2.9906041E-3,-1.6731942E-1,6.766704E-1,-6.4064465E-2,-6.9837254E-1,2.4229996E-1,7.6942587E-1,6.119886E-2,-4.75641E-1,-2.4174517E-3,3.110816E-1,-6.71881E-1,3.072054E-2,1.24242455E-1,-2.573856E-1,-1.8973602E-1,3.6522505E-1,-8.933698E-2,-3.52608E-1],"categories":[],"categories_nodes":[],"categories_segments":[],"categories_sizes":[],"default_left":[1,1,1,1,0,0,0,1,1,1,0,0,0,1,1,0,0,0,0],"id":16,"left_children":[1,3,5,7,-1,-1,-1,9,11,13,-1,-1,-1,15,17,-1,-1,-1,-1],"loss_changes":[2.7132454E0,9.9107933E-1,5.7969093E-3,9.012281E-1,0E0,0E0,0E0,2.2100005E-1,4.2418766E-1,4.2066538E-1,0E0,0E0,0E0,7.287507E-1,3.763032E-2,0E0,0E0,0E0,0E0],"parents":[2147483647,0,0,1,1,2,2,3,3,7,7,8,8,9,9,13,13,14,14],"right_children":[2,4,6,8,-1,-1,-1,10,12,14,-1,-1,-1,16,18,-1,-1,-1,-1],"split_conditions":[2.632263E0,6.010474E-1,5.8159524E-1,4.546697E-1,-2.0951177E-1,7.268999E-2,2.3082776E-1,2.1227856E0,2.132204E0,1.0142727E-1,9.332448E-2,-2.0156431E-1,9.216162E-3,3.3828788E-2,2.1551852E0,-5.6920808E-2,1.09567516E-1,-2.6801094E-2,-1.05782405E-1],"split_indices":[11,10,13,14,0,0,0,9,11,14,0,0,0,14,11,0,0,0,0],"split_type":[0,0,0,0,0,0,0,0,0,0,0,0,0,0,0,0,0,0,0],"sum_hessian":[2.1661251E1,1.7890154E1,3.7710977E0,1.5916145E1,1.974008E0,1.2992066E0,2.471891E0,1.2855024E1,3.0611207E0,1.1035804E1,1.8192208E0,1.9705541E0,1.0905666E0,7.7156386E0,3.3201652E0,3.44273E0,4.2729087E0,1.9018936E0,1.4182715E0],"tree_param":{"num_deleted":"0","num_feature":"15","num_nodes":"19","size_leaf_vector":"0"}},{"base_weights":[-3.2940074E-3,-1.3014837E-1,7.10453E-1,8.7962896E-2,-2.8610146E-1,-1.2119815E-1,1.7657393E-1,-4.7701636E-1,-5.7493653E-3,1.2918699E-1,-3.0132964E-1,4.2973575E-1,1.726581E-2,-1.1570358E-1,-5.969743E-1,-4.2169315E-1,2.0575178E-1,-2.4069615E-1,2.0778763E-1,3.1733704E-1,-4.8488315E-2,3.2183778E-1,2.6625963E-2,3.7802655E-1,9.725744E-2],"categories":[],"categories_nodes":[],"categories_segments":[],"categories_sizes":[],"default_left":[1,1,0,1,1,1,1,1,1,0,0,0,1,0,0,0,1,0,1,1,0,0,0,0,0],"id":17,"left_children":[1,3,-1,5,7,9,11,13,15,-1,-1,-1,17,-1,-1,-1,19,-1,21,23,-1,-1,-1,-1,-1],"loss_changes":[2.0500581E0,6.78367E-1,0E0,1.8396136E-1,6.091518E-1,1.8339257E-1,2.5746927E-1,2.2516811E-1,5.8323985E-1,0E0,0E0,0E0,2.99341E-1,0E0,0E0,0E0,1.4058913E-1,0E0,6.2808916E-2,5.970478E-3,0E0,0E0,0E0,0E0,0E0],"parents":[2147483647,0,0,1,1,3,3,4,4,5,5,6,6,7,7,8,8,12,12,16,16,18,18,19,19],"right_children":[2,4,-1,6,8,10,12,14,16,-1,-1,-1,18,-1,-1,-1,20,-1,22,24,-1,-1,-1,-1,-1],"split_conditions":[2.7442455E0,6.953333E-2,2.131359E-1,1.8366667E-2,1.8458465E0,7.877273E-3,2.496818E-2,1.0142727E-1,1.4305909E-1,3.87561E-2,-9.039889E-2,1.2892073E-1,3.795E-2,-3.4711078E-2,-1.790923E-1,-1.2650795E-1,2.3898199E0,-7.2208844E-2,4.6940908E-2,2.1641273E0,-1.4546495E-2,9.655134E-2,7.987789E-3,1.1340797E-1,2.9177234E-2],"split_indices":[11,14,0,14,11,14,14,14,14,0,0,0,14,0,0,0,11,0,14,11,0,0,0,0,0],"split_type":[0,0,0,0,0,0,0,0,0,0,0,0,0,0,0,0,0,0,0,0,0,0,0,0,0],"sum_hessian":[2.0620855E1,1.8203245E1,2.417611E0,7.7709684E0,1.0432277E1,2.203049E0,5.5679193E0,5.7887483E0,4.643528E0,1.040106E0,1.1629428E0,1.4948658E0,4.073054E0,1.9325256E0,3.8562229E0,1.2302586E0,3.4132693E0,1.6184114E0,2.4546423E0,2.1996644E0,1.2136049E0,1.0298061E0,1.424836E0,1.161646E0,1.0380185E0],"tree_param":{"num_deleted":"0","num_feature":"15","num_nodes":"25","size_leaf_vector":"0"}},{"base_weights":[2.260801E-3,-1.0351636E-1,6.6410273E-1,-1.3537394E-2,-4.0790418E-1,-8.968584E-2,5.085212E-1,-6.860827E-1,1.770325E-1,1.2469448E-1,-2.4510965E-1,-9.497185E-3,4.3404198E-1,-3.14508E-1,-1.7818365E-2,1.1521602E-1,-2.1875046E-1,-9.1999486E-2,-6.251598E-1,2.5153187E-1,-2.8293288E-1],"categories":[],"categories_nodes":[],"categories_segments":[],"categories_sizes":[],"default_left":[1,1,0,1,1,1,0,0,0,1,1,1,0,1,1,0,0,0,0,0,0],"id":18,"left_children":[1,3,-1,5,7,9,-1,-1,-1,11,13,15,-1,17,19,-1,-1,-1,-1,-1,-1],"loss_changes":[1.5023988E0,5.0176024E-1,0E0,6.550401E-1,8.03503E-1,5.046632E-1,0E0,0E0,0E0,2.7988416E-1,1.2982512E-1,1.7165121E-1,0E0,3.9298844E-1,2.9027337E-1,0E0,0E0,0E0,0E0,0E0,0E0],"parents":[2147483647,0,0,1,1,3,3,4,4,5,5,9,9,10,10,11,11,13,13,14,14],"right_children":[2,4,-1,6,8,10,-1,-1,-1,12,14,16,-1,18,20,-1,-1,-1,-1,-1,-1],"split_conditions":[2.7442455E0,4.546697E-1,1.9923083E-1,3.7916058E-1,2.2947443E0,4.101818E-2,1.5255636E-1,-2.0582482E-1,5.3109754E-2,3.5225756E-2,2.0487773E0,2.3068182E-2,1.302126E-1,1.0142727E-1,2.2309718E0,3.4564808E-2,-6.562514E-2,-2.7599847E-2,-1.8754795E-1,7.545956E-2,-8.487987E-2],"split_indices":[11,14,0,14,11,14,0,0,0,14,11,14,0,14,11,0,0,0,0,0,0],"split_type":[0,0,0,0,0,0,0,0,0,0,0,0,0,0,0,0,0,0,0,0,0],"sum_hessian":[1.9478493E1,1.7521723E1,1.9567702E0,1.4330121E1,3.1916008E0,1.3228757E1,1.1013643E0,2.0457735E0,1.1458272E0,5.6429687E0,7.5857887E0,4.6117425E0,1.0312258E0,5.5174394E0,2.0683496E0,3.1711552E0,1.4405875E0,3.9700139E0,1.5474253E0,1.0513924E0,1.0169572E0],"tree_param":{"num_deleted":"0","num_feature":"15","num_nodes":"21","size_leaf_vector":"0"}},{"base_weights":[3.643723E-3,-8.596391E-2,6.179335E-1,-1.3820833E-1,3.412213E-1,-2.3559287E-1,1.0775276E-1,3.8268253E-2,-3.4861207E-1,4.091126E-1,-9.088381E-2,-1.2574749E-1,2.4980555E-1,-2.174667E-1,-5.970848E-1,-2.354369E-1,5.669068E-2,9.084879E-2,-2.754939E-1,-4.8483637E-1,9.611274E-2],"categories":[],"categories_nodes":[],"categories_segments":[],"categories_sizes":[],"default_left":[1,1,0,1,0,1,1,1,1,0,1,1,0,1,0,0,0,0,0,0,0],"id":19,"left_children":[1,3,-1,5,-1,7,9,11,13,-1,15,17,-1,19,-1,-1,-1,-1,-1,-1,-1],"loss_changes":[1.1268502E0,4.466763E-1,0E0,4.2448902E-1,0E0,3.9249647E-1,3.611558E-1,1.8683638E-1,1.5594363E-1,0E0,1.0038802E-1,1.284432E-1,0E0,6.5975916E-1,0E0,0E0,0E0,0E0,0E0,0E0,0E0],"parents":[2147483647,0,0,1,1,3,3,5,5,6,6,7,7,8,8,10,10,11,11,13,13],"right_children":[2,4,-1,6,-1,8,10,12,14,-1,16,18,-1,20,-1,-1,-1,-1,-1,-1,-1],"split_conditions":[2.7442455E0,1.497515E0,1.8538006E-1,1.8458465E0,1.02366395E-1,2.496818E-2,2.2136092E0,1.8366667E-2,4.3358484E-1,1.2273379E-1,2.3242727E-1,7.877273E-3,7.494167E-2,6.769697E-2,-1.7912546E-1,-7.063107E-2,1.7007206E-2,2.7254637E-2,-8.264817E-2,-1.4545092E-1,2.8833823E-2],"split_indices":[11,6,0,11,0,14,11,14,14,0,14,14,0,14,0,0,0,0,0,0,0],"split_type":[0,0,0,0,0,0,0,0,0,0,0,0,0,0,0,0,0,0,0,0,0],"sum_hessian":[1.850639E1,1.6901058E1,1.6053302E0,1.5662067E1,1.2389915E0,1.1249969E1,4.412099E0,3.4796636E0,7.7703047E0,1.3318658E0,3.0802329E0,2.1884217E0,1.2912419E0,6.3133144E0,1.4569905E0,1.2552782E0,1.8249547E0,1.0553122E0,1.1331097E0,3.1129553E0,3.2003589E0],"tree_param":{"num_deleted":"0","num_feature":"15","num_nodes":"21","size_leaf_vector":"0"}},{"base_weights":[5.890292E-3,-1.10285364E-1,3.8616142E-1,-1.3372253E-2,-6.4043874E-1,5.175404E-1,-3.3950225E-2,-1.18603006E-1,6.453004E-1,6.23233E-1,1.866345E-1,6.621012E-3,-4.9531338E-1,-6.287115E-2,2.393731E-1,5.949726E-2,-2.4648623E-1],"categories":[],"categories_nodes":[],"categories_segments":[],"categories_sizes":[],"default_left":[1,1,1,1,0,1,0,1,0,0,0,1,0,1,0,0,0],"id":20,"left_children":[1,3,5,7,-1,9,-1,11,-1,-1,-1,13,-1,15,-1,-1,-1],"loss_changes":[8.7286943E-1,7.71043E-1,2.7257663E-1,1.03651E0,0E0,8.929968E-3,0E0,6.0647327E-1,0E0,0E0,0E0,1.8623216E-1,0E0,2.1558326E-1,0E0,0E0,0E0],"parents":[2147483647,0,0,1,1,2,2,3,3,5,5,7,7,11,11,13,13],"right_children":[2,4,6,8,-1,10,-1,12,-1,-1,-1,14,-1,16,-1,-1,-1],"split_conditions":[2.3334742E0,5.442788E-1,4.4443786E-1,4.3195605E-1,-1.9213162E-1,7E-2,-1.0185068E-2,1.179394E-1,1.9359012E-1,1.869699E-1,5.599035E-2,9.358182E-2,-1.4859402E-1,3.9712124E-2,7.181194E-2,1.7849179E-2,-7.394587E-2],"split_indices":[11,14,14,14,0,14,0,14,0,0,0,14,0,14,0,0,0],"split_type":[0,0,0,0,0,0,0,0,0,0,0,0,0,0,0,0,0],"sum_hessian":[1.7793898E1,1.4173707E1,3.6201906E0,1.28499365E1,1.323771E0,2.5811057E0,1.039085E0,1.1786793E1,1.0631433E0,1.2867105E0,1.2943952E0,9.583516E0,2.2032764E0,7.9421344E0,1.6413821E0,5.171565E0,2.7705693E0],"tree_param":{"num_deleted":"0","num_feature":"15","num_nodes":"17","size_leaf_vector":"0"}},{"base_weights":[8.063988E-3,-5.9570137E-2,5.391546E-1,1.0576547E-1,-1.9426869E-1,-1.19056866E-1,2.038277E-1,-5.6105655E-1,-7.422067E-2,6.732848E-2,-2.4562022E-1,8.412443E-2,2.902973E-1,1.2716536E-1,-3.1171027E-1,2.7792078E-1,-2.2318906E-1,-1.3587177E-2,3.1712937E-1,-5.600954E-1,-1.629598E-2,3.024429E-1,-2.235082E-1],"categories":[],"categories_nodes":[],"categories_segments":[],"categories_sizes":[],"default_left":[1,1,0,1,1,1,1,0,1,0,0,1,0,1,1,0,0,1,0,0,0,0,0],"id":21,"left_children":[1,3,-1,5,7,9,11,-1,13,-1,-1,15,-1,17,19,-1,-1,21,-1,-1,-1,-1,-1],"loss_changes":[6.887854E-1,4.01747E-1,0E0,2.0795901E-1,3.8920596E-1,9.1121614E-2,3.944516E-2,0E0,4.473396E-1,0E0,0E0,3.0000654E-1,0E0,1.4663783E-1,2.991541E-1,0E0,0E0,3.3405977E-1,0E0,0E0,0E0,0E0,0E0],"parents":[2147483647,0,0,1,1,3,3,4,4,5,5,6,6,8,8,11,11,13,13,14,14,17,17],"right_children":[2,4,-1,6,8,10,12,-1,14,-1,-1,16,-1,18,20,-1,-1,22,-1,-1,-1,-1,-1],"split_conditions":[2.7442455E0,6.953333E-2,1.6174638E-1,1.8366667E-2,9.358182E-2,7.877273E-3,3.795E-2,-1.6831698E-1,4.3358484E-1,2.0198546E-2,-7.368607E-2,2.7722728E-2,8.7089196E-2,2.4915758E-1,1.8382838E0,8.3376236E-2,-6.695672E-2,1.0142727E-1,9.513882E-2,-1.6802864E-1,-4.8887944E-3,9.073287E-2,-6.705246E-2],"split_indices":[11,14,0,14,14,14,14,0,14,0,0,14,0,14,11,0,0,14,0,0,0,0,0],"split_type":[0,0,0,0,0,0,0,0,0,0,0,0,0,0,0,0,0,0,0,0,0,0,0],"sum_hessian":[1.7281479E1,1.611684E1,1.1646376E0,7.3319926E0,8.784848E0,2.1617537E0,5.170239E0,1.2603736E0,7.524475E0,1.0635407E0,1.098213E0,2.9958482E0,2.1743908E0,4.3231125E0,3.2013626E0,1.8959062E0,1.099942E0,3.0165186E0,1.3065939E0,1.2523865E0,1.948976E0,1.028059E0,1.9884596E0],"tree_param":{"num_deleted":"0","num_feature":"15","num_nodes":"23","size_leaf_vector":"0"}},{"base_weights":[3.8880971E-3,-8.689833E-2,3.1863958E-1,1.3559082E-4,-5.748023E-1,4.1113395E-2,5.1192886E-1,8.271001E-2,-4.2551568E-1,1.6570056E-2,4.0841246E-1,9.6498415E-2,-1.20075576E-1,-2.1286644E-2,2.3006374E-1,-3.4848228E-1,1.07119255E-1],"categories":[],"categories_nodes":[],"categories_segments":[],"categories_sizes":[],"default_left":[1,1,1,1,0,0,0,1,0,1,0,1,1,0,0,0,0],"id":22,"left_children":[1,3,5,7,-1,-1,-1,9,-1,11,-1,13,15,-1,-1,-1,-1],"loss_changes":[5.39328E-1,6.2355417E-1,2.0546597E-1,5.082693E-1,0E0,0E0,0E0,2.541045E-1,0E0,1.3290903E-1,0E0,1.2387911E-1,2.731887E-1,0E0,0E0,0E0,0E0],"parents":[2147483647,0,0,1,1,2,2,3,3,7,7,9,9,11,11,12,12],"right_children":[2,4,6,8,-1,-1,-1,10,-1,12,-1,14,16,-1,-1,-1,-1],"split_conditions":[2.3334742E0,6.010474E-1,5.8159524E-1,4.546697E-1,-1.724407E-1,1.2334019E-2,1.5357867E-1,2.8130907E-1,-1.2765472E-1,6.953333E-2,1.2252374E-1,3.3828788E-2,9.842727E-2,-6.3859937E-3,6.9019124E-2,-1.0454469E-1,3.2135777E-2],"split_indices":[11,10,13,14,0,0,0,14,0,14,0,14,14,0,0,0,0],"split_type":[0,0,0,0,0,0,0,0,0,0,0,0,0,0,0,0,0],"sum_hessian":[1.6905016E1,1.36824E1,3.2226155E0,1.2459546E1,1.222853E0,1.8208828E0,1.4017327E0,1.1109952E1,1.3495944E0,1.0108173E1,1.0017784E0,6.5630455E0,3.545128E0,3.9342449E0,2.6288006E0,1.5016353E0,2.043493E0],"tree_param":{"num_deleted":"0","num_feature":"15","num_nodes":"17","size_leaf_vector":"0"}},{"base_weights":[5.4172546E-5,-6.143414E-2,3.7013218E-1,6.9957455E-3,-5.299638E-1,7.676018E-2,-2.5398827E-1,1.5823336E-2,2.7361432E-1,7.543375E-2,-1.4924785E-1,-2.7781712E-2,4.1853255E-1,-2.0443103E-1,-1.5923973E-2],"categories":[],"categories_nodes":[],"categories_segments":[],"categories_sizes":[],"default_left":[1,1,0,1,0,1,0,1,0,1,1,0,0,0,0],"id":23,"left_children":[1,3,-1,5,-1,7,-1,9,-1,11,13,-1,-1,-1,-1],"loss_changes":[4.2267373E-1,5.1441085E-1,0E0,2.9052976E-1,0E0,1.4578372E-1,0E0,1.157319E-1,0E0,3.1138748E-1,1.9939154E-2,0E0,0E0,0E0,0E0],"parents":[2147483647,0,0,1,1,3,3,5,5,7,7,9,9,10,10],"right_children":[2,4,-1,6,-1,8,-1,10,-1,12,14,-1,-1,-1,-1],"split_conditions":[2.632263E0,6.010474E-1,1.1103966E-1,4.3461213E-1,-1.5898915E-1,2.0409236E0,-7.6196484E-2,9.4039395E-2,8.20843E-2,6.713334E-2,1.8753636E-1,-8.334514E-3,1.2555978E-1,-6.132931E-2,-4.777192E-3],"split_indices":[11,10,0,14,0,11,0,14,0,14,14,0,0,0,0],"split_type":[0,0,0,0,0,0,0,0,0,0,0,0,0,0,0],"sum_hessian":[1.6575333E1,1.4928899E1,1.6464337E0,1.3885899E1,1.0430001E0,1.1513951E1,2.3719478E0,9.617273E0,1.8966777E0,7.4646616E0,2.1526117E0,6.444861E0,1.0198003E0,1.1452483E0,1.0073634E0],"tree_param":{"num_deleted":"0","num_feature":"15","num_nodes":"15","size_leaf_vector":"0"}},{"base_weights":[-2.2210254E-4,1.6893281E-1,-1.0001063E-1,5.7320137E-2,4.028252E-1,-1.6080405E-1,2.5414392E-1,2.4669988E-1,-9.028848E-2,-8.721561E-2,-4.1650754E-1,-2.4468291E-1,5.4607514E-2,-1.7825635E-1,1.9829541E-1,-2.8302857E-1,1.5401681E-1,-4.9454097E-2,-6.09613E-1],"categories":[],"categories_nodes":[],"categories_segments":[],"categories_sizes":[],"default_left":[1,1,1,1,0,1,0,0,1,1,0,0,0,1,0,1,0,0,0],"id":24,"left_children":[1,3,5,7,-1,9,-1,-1,11,13,-1,-1,-1,15,-1,17,-1,-1,-1],"loss_changes":[3.0823135E-1,1.5379547E-1,2.881148E-1,1.8308993E-1,0E0,1.596272E-1,0E0,0E0,1.0206408E-1,2.7841902E-1,0E0,0E0,0E0,3.0876377E-1,0E0,4.3848455E-1,0E0,0E0,0E0],"parents":[2147483647,0,0,1,1,2,2,3,3,5,5,8,8,9,9,13,13,15,15],"right_children":[2,4,6,8,-1,10,-1,-1,12,14,-1,-1,-1,16,-1,18,-1,-1,-1],"split_conditions":[4.101818E-2,3.4948483E-2,1.2995772E0,1.3121212E-2,1.2084757E-1,2.3480875E0,7.624318E-2,7.400997E-2,2.1200001E-2,4.3195605E-1,-1.24952264E-1,-7.340488E-2,1.6382255E-2,2.0487773E0,5.9488628E-2,1.0142727E-1,4.6205044E-2,-1.4836229E-2,-1.828839E-1],"split_indices":[14,14,13,14,0,11,0,0,14,14,0,0,0,11,0,14,0,0,0],"split_type":[0,0,0,0,0,0,0,0,0,0,0,0,0,0,0,0,0,0,0],"sum_hessian":[1.6259546E1,5.7758307E0,1.0483714E1,4.752855E0,1.0229759E0,9.413724E0,1.0699903E0,1.7878098E0,2.9650452E0,8.3513775E0,1.0623465E0,1.1020608E0,1.8629843E0,6.6170588E0,1.7343192E0,5.1434374E0,1.4736211E0,3.6700394E0,1.4733981E0],"tree_param":{"num_deleted":"0","num_feature":"15","num_nodes":"19","size_leaf_vector":"0"}},{"base_weights":[-1.6970661E-3,-7.005773E-2,2.4607405E-1,6.405004E-3,-4.3108174E-1,3.924794E-2,3.958575E-1,-6.125236E-2,3.9710963E-1,-6.762005E-4,-2.4103634E-1,-9.5610395E-2,2.6230493E-1,5.5224337E-2,-3.016518E-1],"categories":[],"categories_nodes":[],"categories_segments":[],"categories_sizes":[],"default_left":[1,1,1,1,0,0,0,1,0,1,0,1,0,0,0],"id":25,"left_children":[1,3,5,7,-1,-1,-1,9,-1,11,-1,13,-1,-1,-1],"loss_changes":[3.060326E-1,3.9313984E-1,1.0554743E-1,3.5885668E-1,0E0,0E0,0E0,1.267533E-1,0E0,2.6773602E-1,0E0,2.6137996E-1,0E0,0E0,0E0],"parents":[2147483647,0,0,1,1,2,2,3,3,7,7,9,9,11,11],"right_children":[2,4,6,8,-1,-1,-1,10,-1,12,-1,14,-1,-1,-1],"split_conditions":[2.3334742E0,4.546697E-1,5.8159524E-1,2.9098332E-1,-1.2932453E-1,1.1774383E-2,1.18757255E-1,1.0142727E-1,1.1913289E-1,6.769697E-2,-7.23109E-2,3.6004543E-2,7.869148E-2,1.6567301E-2,-9.049554E-2],"split_indices":[11,14,13,14,0,0,0,14,0,14,0,14,0,0,0],"split_type":[0,0,0,0,0,0,0,0,0,0,0,0,0,0,0],"sum_hessian":[1.6050222E1,1.3141656E1,2.908567E0,1.16553755E1,1.4862802E0,1.7517382E0,1.1568288E0,1.0653723E1,1.0016532E0,8.719536E0,1.9341869E0,6.874375E0,1.845161E0,4.391504E0,2.4828708E0],"tree_param":{"num_deleted":"0","num_feature":"15","num_nodes":"15","size_leaf_vector":"0"}},{"base_weights":[8.276533E-4,1.2280856E-1,-1.13959566E-1,3.22362E-2,2.6063448E-1,-4.7250658E-1,1.9350252E-3,1.24337964E-1,-2.1160251E-1,1.3494214E-1,-1.8603732E-1,-1.869845E-2,2.4529181E-1,2.1162744E-1,-3.437253E-2,-2.8448498E-1,-3.7005607E-2,1.05727024E-1,-1.4214128E-1,2.5887382E-1,6.0342956E-2],"categories":[],"categories_nodes":[],"categories_segments":[],"categories_sizes":[],"default_left":[1,1,1,1,0,0,1,1,0,1,1,1,0,1,0,0,0,0,0,0,0],"id":26,"left_children":[1,3,5,7,-1,-1,9,11,-1,13,15,17,-1,19,-1,-1,-1,-1,-1,-1,-1],"loss_changes":[2.5071058E-1,9.992117E-2,3.84393E-1,1.6953671E-1,0E0,0E0,2.2437088E-1,9.557054E-2,0E0,7.540188E-2,4.409659E-2,6.630854E-2,0E0,1.1190563E-2,0E0,0E0,0E0,0E0,0E0,0E0,0E0],"parents":[2147483647,0,0,1,1,2,2,3,3,6,6,7,7,9,9,10,10,11,11,13,13],"right_children":[2,4,6,8,-1,-1,10,12,-1,14,16,18,-1,20,-1,-1,-1,-1,-1,-1,-1],"split_conditions":[7E-2,3.7806064E-2,9.358182E-2,2.9207576E-2,7.819035E-2,-1.4175197E-1,4.3358484E-1,1.8066667E-2,-6.348076E-2,2.1551852E0,5.0321364E-1,8.0454545E-3,7.3587544E-2,1.538394E-1,-1.031176E-2,-8.53455E-2,-1.1101683E-2,3.171811E-2,-4.2642385E-2,7.766215E-2,1.8102888E-2],"split_indices":[14,14,14,14,0,0,14,14,0,11,14,14,0,14,0,0,0,0,0,0,0],"split_type":[0,0,0,0,0,0,0,0,0,0,0,0,0,0,0,0,0,0,0,0,0],"sum_hessian":[1.5906009E1,7.677491E0,8.228518E0,5.377534E0,2.2999573E0,1.2583818E0,6.9701357E0,4.258944E0,1.1185899E0,4.247072E0,2.7230635E0,2.3386889E0,1.9202551E0,2.751134E0,1.4959383E0,1.0924933E0,1.6305702E0,1.2361814E0,1.1025075E0,1.5544915E0,1.1966425E0],"tree_param":{"num_deleted":"0","num_feature":"15","num_nodes":"21","size_leaf_vector":"0"}},{"base_weights":[-4.6090297E-3,-7.653807E-2,2.2728829E-1,-1.2664464E-1,2.7763256E-1,3.398E-1,-1.0374953E-2,-1.9993648E-1,2.0263286E-1,-3.493583E-1,1.6525483E-2,-1.6601141E-1,-6.16906E-1,3.9920798E-1,-2.4664292E-1,-3.1377912E-1,2.1666844E-1,-3.2709512E-1,-1.0962276E-2],"categories":[],"categories_nodes":[],"categories_segments":[],"categories_sizes":[],"default_left":[1,1,1,1,0,0,0,1,0,1,1,1,0,0,1,0,0,0,0],"id":27,"left_children":[1,3,5,7,-1,-1,-1,9,-1,11,13,15,-1,-1,17,-1,-1,-1,-1],"loss_changes":[2.985257E-1,2.7672487E-1,1.169568E-1,3.4487736E-1,0E0,0E0,0E0,3.5570443E-1,0E0,2.1378082E-1,6.395925E-1,3.616357E-1,0E0,0E0,6.8501115E-2,0E0,0E0,0E0,0E0],"parents":[2147483647,0,0,1,1,2,2,3,3,7,7,9,9,10,10,11,11,14,14],"right_children":[2,4,6,8,-1,-1,-1,10,-1,12,14,16,-1,-1,18,-1,-1,-1,-1],"split_conditions":[2.2947443E0,1.8456316E0,4.4443786E-1,2.1263404E0,8.328977E-2,1.01940006E-1,-3.112486E-3,6.769697E-2,6.078986E-2,3.9712124E-2,1.0142727E-1,3.0886363E-2,-1.850718E-1,1.197624E-1,4.3195605E-1,-9.413374E-2,6.5000534E-2,-9.812854E-2,-3.2886828E-3],"split_indices":[11,6,14,9,0,0,0,14,0,14,14,14,0,0,14,0,0,0,0],"split_type":[0,0,0,0,0,0,0,0,0,0,0,0,0,0,0,0,0,0,0],"sum_hessian":[1.5854132E1,1.2612105E1,3.242027E0,1.1611744E1,1.0003616E0,1.9086856E0,1.3333415E0,9.818996E0,1.792747E0,5.4458356E0,4.373161E0,4.192953E0,1.2528825E0,1.5713197E0,2.8018413E0,3.1548064E0,1.0381466E0,1.7996397E0,1.0022016E0],"tree_param":{"num_deleted":"0","num_feature":"15","num_nodes":"19","size_leaf_vector":"0"}},{"base_weights":[-2.15626E-3,1.2820518E-1,-1.21196754E-1,4.445189E-2,2.5164595E-1,-4.2302316E-1,3.201181E-2,1.3374472E-1,-1.9569162E-1,1.9026482E-1,-1.6252403E-1,1.3529205E-2,2.2368966E-1,3.22944E-1,-4.1283015E-2,-2.4686328E-1,-8.11852E-3,1.2697038E-1,-1.1510434E-1],"categories":[],"categories_nodes":[],"categories_segments":[],"categories_sizes":[],"default_left":[1,1,1,1,0,0,1,1,0,1,1,1,0,0,0,0,0,0,0],"id":28,"left_children":[1,3,5,7,-1,-1,9,11,-1,13,15,17,-1,-1,-1,-1,-1,-1,-1],"loss_changes":[2.724106E-1,7.5520426E-2,4.3740794E-1,1.5935838E-1,0E0,0E0,2.4671973E-1,5.235275E-2,0E0,1.4623192E-1,4.59662E-2,6.2132515E-2,0E0,0E0,0E0,0E0,0E0,0E0,0E0],"parents":[2147483647,0,0,1,1,2,2,3,3,6,6,7,7,9,9,10,10,11,11],"right_children":[2,4,6,8,-1,-1,10,12,-1,14,16,18,-1,-1,-1,-1,-1,-1,-1],"split_conditions":[7E-2,3.7806064E-2,9.842727E-2,2.9207576E-2,7.549379E-2,-1.2690696E-1,4.3358484E-1,1.8066667E-2,-5.8707487E-2,2.1551852E0,2.2947443E0,8.0454545E-3,6.71069E-2,9.68832E-2,-1.23849055E-2,-7.405899E-2,-2.435556E-3,3.8091116E-2,-3.4531303E-2],"split_indices":[14,14,14,14,0,0,14,14,0,11,11,14,0,0,0,0,0,0,0],"split_type":[0,0,0,0,0,0,0,0,0,0,0,0,0,0,0,0,0,0,0],"sum_hessian":[1.5552889E1,7.386707E0,8.1661825E0,5.2111216E0,2.175585E0,2.1565692E0,6.009613E0,4.1216335E0,1.0894883E0,3.3259444E0,2.6836684E0,2.2563436E0,1.8652898E0,1.8634508E0,1.4624937E0,1.3483666E0,1.3353019E0,1.2058452E0,1.0504984E0],"tree_param":{"num_deleted":"0","num_feature":"15","num_nodes":"19","size_leaf_vector":"0"}},{"base_weights":[-4.4951844E-3,-8.8708594E-2,1.5417689E-1,7.019027E-3,-2.8862947E-1,4.0344603E-2,2.9281288E-1,-8.727579E-2,3.4591135E-1,-3.9139813E-1,-5.6493753E-3,2.6977834E-1,-1.868237E-1,5.3820264E-2,-2.8439862E-1,-1.0143297E-1,3.0840415E-1,1.4053085E-1,-3.0582938E-1],"categories":[],"categories_nodes":[],"categories_segments":[],"categories_sizes":[],"default_left":[1,1,1,1,1,1,0,1,0,0,0,0,0,1,0,1,0,0,0],"id":29,"left_children":[1,3,5,7,9,11,-1,13,-1,-1,-1,-1,-1,15,-1,17,-1,-1,-1],"loss_changes":[2.338405E-1,2.2016993E-1,8.410436E-2,3.0769563E-1,1.0581046E-1,2.8480288E-1,0E0,2.2647204E-1,0E0,0E0,0E0,0E0,0E0,2.394146E-1,0E0,2.4196962E-1,0E0,0E0,0E0],"parents":[2147483647,0,0,1,1,2,2,3,3,4,4,5,5,7,7,13,13,15,15],"right_children":[2,4,6,8,10,12,-1,14,-1,-1,-1,-1,-1,16,-1,18,-1,-1,-1],"split_conditions":[1.8458465E0,9.4039395E-2,4.495924E-1,6.769697E-2,3.8478333E-1,1.2993789E-1,8.7843865E-2,3.6004543E-2,1.0377341E-1,-1.17419444E-1,-1.6948127E-3,8.0933504E-2,-5.604711E-2,2.3969697E-2,-8.5319586E-2,1.1872727E-2,9.252125E-2,4.215926E-2,-9.174882E-2],"split_indices":[11,14,14,14,14,14,0,14,0,0,0,0,0,14,0,14,0,0,0],"split_type":[0,0,0,0,0,0,0,0,0,0,0,0,0,0,0,0,0,0,0],"sum_hessian":[1.5476461E1,1.0398504E1,5.077957E0,7.684057E0,2.7144468E0,3.4973435E0,1.5806139E0,6.592265E0,1.0917919E0,1.7102231E0,1.0042238E0,1.6466757E0,1.8506677E0,4.265843E0,2.3264225E0,3.0235565E0,1.2422862E0,1.5276217E0,1.4959347E0],"tree_param":{"num_deleted":"0","num_feature":"15","num_nodes":"19","size_leaf_vector":"0"}},{"base_weights":[-8.525248E-4,-5.157892E-2,2.3132393E-1,3.2529548E-2,-3.652856E-1,-2.9963406E-2,3.4224948E-1,2.2646237E-2,-2.1163096E-1,-1.4292161E-1,1.5931521E-1,5.6950547E-2,-3.0647227E-1,2.6821196E-1,-2.831412E-2],"categories":[],"categories_nodes":[],"categories_segments":[],"categories_sizes":[],"default_left":[1,1,0,1,0,1,0,1,0,1,1,0,0,0,0],"id":30,"left_children":[1,3,-1,5,-1,7,-1,9,-1,11,13,-1,-1,-1,-1],"loss_changes":[2.038702E-1,3.8636002E-1,0E0,2.4465072E-1,0E0,1.09890416E-1,0E0,2.3615995E-1,0E0,1.7408274E-1,1.2280978E-1,0E0,0E0,0E0,0E0],"parents":[2147483647,0,0,1,1,3,3,5,5,7,7,9,9,10,10],"right_children":[2,4,-1,6,-1,8,-1,10,-1,12,14,-1,-1,-1,-1],"split_conditions":[1.1552402E0,4.3358484E-1,6.939718E-2,2.4915758E-1,-1.0958569E-1,1.0342879E-1,1.0267485E-1,3.4948483E-2,-6.348929E-2,2.0954546E-2,7E-2,1.7085165E-2,-9.1941684E-2,8.046359E-2,-8.4942365E-3],"split_indices":[9,14,0,14,0,14,0,14,0,14,14,0,0,0,0],"split_type":[0,0,0,0,0,0,0,0,0,0,0,0,0,0,0],"sum_hessian":[1.5297108E1,1.3192606E1,2.104502E0,1.1110149E1,2.0824566E0,9.996407E0,1.1137431E0,8.430372E0,1.566034E0,3.7914562E0,4.638916E0,1.9995862E0,1.7918701E0,2.663557E0,1.9753592E0],"tree_param":{"num_deleted":"0","num_feature":"15","num_nodes":"15","size_leaf_vector":"0"}},{"base_weights":[-1.6061845E-3,-8.2455575E-2,1.5146615E-1,1.7282723E-2,-2.3297313E-1,3.1657618E-1,5.458417E-2,-6.983119E-2,1.3033132E-1,-3.6666462E-1,-4.0762454E-2,-1.8343204E-1,1.9510928E-1,8.224068E-2,-2.2191346E-1,2.1331559E-1,2.1328518E-2,2.7807364E-1,5.486099E-2,1.0589681E-2,1.12277545E-1],"categories":[],"categories_nodes":[],"categories_segments":[],"categories_sizes":[],"default_left":[1,1,1,1,1,0,1,1,1,0,0,0,1,1,0,0,0,0,0,0,0],"id":31,"left_children":[1,3,5,7,9,-1,11,13,15,-1,-1,-1,17,19,-1,-1,-1,-1,-1,-1,-1],"loss_changes":[2.1480589E-1,1.7434254E-1,7.8740254E-2,8.546811E-2,1.0301764E-1,0E0,2.0273475E-1,1.3459827E-1,2.9133499E-2,0E0,0E0,0E0,2.6900083E-2,5.7949442E-3,0E0,0E0,0E0,0E0,0E0,0E0,0E0],"parents":[2147483647,0,0,1,1,2,2,3,3,4,4,6,6,7,7,8,8,12,12,13,13],"right_children":[2,4,6,8,10,-1,12,14,16,-1,-1,-1,18,20,-1,-1,-1,-1,-1,-1,-1],"split_conditions":[1.8458465E0,6.953333E-2,2.1551852E0,3.5225756E-2,9.842727E-2,9.497286E-2,2.3334742E0,1.9934848E-2,4.1460603E-2,-1.0999939E-1,-1.2228737E-2,-5.5029616E-2,2.5808558E0,7.877273E-3,-6.657404E-2,6.399468E-2,6.398556E-3,8.3422095E-2,1.6458297E-2,3.1769043E-3,3.3683266E-2],"split_indices":[11,14,11,14,14,0,11,14,14,0,0,0,11,14,0,0,0,0,0,0,0],"split_type":[0,0,0,0,0,0,0,0,0,0,0,0,0,0,0,0,0,0,0,0,0],"sum_hessian":[1.5347757E1,1.03450575E1,5.0026994E0,6.7544775E0,3.5905797E0,1.0113941E0,3.9913056E0,4.030733E0,2.7237446E0,1.5823579E0,2.0082219E0,1.368336E0,2.6229696E0,2.245061E0,1.7856722E0,1.0031042E0,1.7206404E0,1.030594E0,1.5923756E0,1.0626749E0,1.182386E0],"tree_param":{"num_deleted":"0","num_feature":"15","num_nodes":"21","size_leaf_vector":"0"}},{"base_weights":[2.0215984E-3,1.4517674E-1,-6.926175E-2,-3.360234E-2,2.6955742E-1,-1.4373344E-1,1.3793938E-1,6.850516E-2,-1.273228E-1,8.62263E-2,3.2733405E-1,-2.514018E-1,1.0138173E-1,3.4699056E-1,-1.7655109E-1,-5.9652705E-2,-5.7674986E-1,-1.3397531E-1,3.3169946E-1,-2.973111E-1,2.3895785E-1],"categories":[],"categories_nodes":[],"categories_segments":[],"categories_sizes":[],"default_left":[1,1,1,1,1,1,1,0,0,0,0,1,1,0,0,1,0,0,0,0,0],"id":32,"left_children":[1,3,5,7,9,11,13,-1,-1,-1,-1,15,17,-1,-1,19,-1,-1,-1,-1,-1],"loss_changes":[1.7509115E-1,1.3578695E-1,1.9687164E-1,3.9607033E-2,8.548498E-3,2.611558E-1,2.942477E-1,0E0,0E0,0E0,0E0,3.705904E-1,2.3080151E-1,0E0,0E0,4.4006848E-1,0E0,0E0,0E0,0E0,0E0],"parents":[2147483647,0,0,1,1,2,2,3,3,4,4,5,5,6,6,11,11,12,12,15,15],"right_children":[2,4,6,8,10,12,14,-1,-1,-1,-1,16,18,-1,-1,20,-1,-1,-1,-1,-1],"split_conditions":[3.6004543E-2,1.8066667E-2,4.3195605E-1,8.0454545E-3,2.3484848E-2,2.0487773E0,5.442788E-1,2.055155E-2,-3.819684E-2,2.586789E-2,9.820022E-2,1.0142727E-1,1.3723485E-1,1.0409717E-1,-5.2965328E-2,6.769697E-2,-1.7302497E-1,-4.0192597E-2,9.950984E-2,-8.919333E-2,7.1687356E-2],"split_indices":[14,14,14,14,14,11,14,0,0,0,0,14,14,0,0,14,0,0,0,0,0],"split_type":[0,0,0,0,0,0,0,0,0,0,0,0,0,0,0,0,0,0,0,0,0],"sum_hessian":[1.5172737E1,4.6991105E0,1.0473627E1,2.2273962E0,2.4717145E0,7.929821E0,2.5438058E0,1.1947625E0,1.0326337E0,1.1895524E0,1.282162E0,5.4918456E0,2.4379754E0,1.4659818E0,1.0778239E0,4.199911E0,1.2919345E0,1.4126842E0,1.0252912E0,2.341059E0,1.8588521E0],"tree_param":{"num_deleted":"0","num_feature":"15","num_nodes":"21","size_leaf_vector":"0"}},{"base_weights":[1.3907624E-3,-3.5880893E-2,2.6940292E-1,-1.3617526E-1,1.6246602E-1,7.117873E-2,-2.0164354E-1,3.1750825E-1,-6.878211E-2,-1.6465121E-3,1.07481256E-1,-3.4609023E-1,-6.4823506E-3,4.6059823E-1,4.318181E-2,-9.3830265E-2,-5.937013E-1,2.841771E-1,-1.9301131E-1,-2.7300557E-1,1.6472417E-1,-2.7101803E-1,-5.620274E-3],"categories":[],"categories_nodes":[],"categories_segments":[],"categories_sizes":[],"default_left":[1,1,0,1,1,1,1,1,0,0,0,1,1,0,0,1,0,0,1,0,0,0,0],"id":33,"left_children":[1,3,-1,5,7,9,11,13,-1,-1,-1,15,17,-1,-1,19,-1,-1,21,-1,-1,-1,-1],"loss_changes":[1.6932811E-1,3.188177E-1,0E0,1.5620784E-1,2.177688E-1,8.76032E-3,2.2900161E-1,1.1551434E-1,0E0,0E0,0E0,2.3754656E-1,2.992619E-1,0E0,0E0,2.0773073E-1,0E0,0E0,4.7321163E-2,0E0,0E0,0E0,0E0],"parents":[2147483647,0,0,1,1,3,3,4,4,5,5,6,6,7,7,11,11,12,12,15,15,18,18],"right_children":[2,4,-1,6,8,10,12,14,-1,-1,-1,16,18,-1,-1,20,-1,-1,22,-1,-1,-1,-1],"split_conditions":[1.497515E0,1.8458465E0,8.082088E-2,1.9934848E-2,2.3898199E0,7.877273E-3,6.769697E-2,2.5030607E-1,-2.0634634E-2,-4.9395364E-4,3.2244377E-2,3.9712124E-2,9.4039395E-2,1.3817948E-1,1.2954543E-2,3.0886363E-2,-1.7811039E-1,8.5253134E-2,3.570515E-1,-8.190168E-2,4.9417254E-2,-8.1305414E-2,-1.6860823E-3],"split_indices":[6,11,0,14,11,14,14,14,0,0,0,14,14,0,0,14,0,0,14,0,0,0,0],"split_type":[0,0,0,0,0,0,0,0,0,0,0,0,0,0,0,0,0,0,0,0,0,0,0],"sum_hessian":[1.4983341E1,1.3914426E1,1.0689157E0,9.449648E0,4.4647775E0,2.2466702E0,7.2029777E0,2.4494822E0,2.0152955E0,1.0649519E0,1.1817183E0,3.694887E0,3.5080907E0,1.1635525E0,1.2859297E0,2.5133207E0,1.1815661E0,1.1666511E0,2.3414397E0,1.4515327E0,1.061788E0,1.3381344E0,1.0033053E0],"tree_param":{"num_deleted":"0","num_feature":"15","num_nodes":"23","size_leaf_vector":"0"}},{"base_weights":[1.9661689E-3,1.2110683E-1,-1.1015262E-1,2.2830935E-2,2.816762E-1,-4.6131727E-1,1.1834775E-2,1.2976538E-1,-1.8972978E-1,2.8394964E-1,-7.728509E-2,-3.6907565E-2,2.971594E-1,-2.313173E-1,1.07410125E-1,5.8690004E-2,-1.2196373E-1,-5.240372E-1,7.393499E-2,3.0783162E-1,-1.8425758E-1],"categories":[],"categories_nodes":[],"categories_segments":[],"categories_sizes":[],"default_left":[1,1,1,1,0,0,1,1,0,0,1,1,0,1,1,0,0,0,0,0,0],"id":34,"left_children":[1,3,5,7,-1,-1,9,11,-1,-1,13,15,-1,17,19,-1,-1,-1,-1,-1,-1],"loss_changes":[2.242636E-1,1.21887594E-1,3.763687E-1,1.6401283E-1,0E0,0E0,2.0142922E-1,1.413672E-1,0E0,0E0,2.0581776E-1,3.343369E-2,0E0,3.7700632E-1,2.657381E-1,0E0,0E0,0E0,0E0,0E0,0E0],"parents":[2147483647,0,0,1,1,2,2,3,3,6,6,7,7,10,10,11,11,13,13,14,14],"right_children":[2,4,6,8,-1,-1,10,12,-1,-1,14,16,-1,18,20,-1,-1,-1,-1,-1,-1],"split_conditions":[7E-2,3.7806064E-2,9.358182E-2,2.5216667E-2,8.450286E-2,-1.3839519E-1,1.0342879E-1,1.8066667E-2,-5.6918938E-2,8.5184895E-2,4.3195605E-1,8.0454545E-3,8.914782E-2,2.0487773E0,2.3234074E0,1.7607002E-2,-3.658912E-2,-1.5721115E-1,2.2180498E-2,9.2349485E-2,-5.5277277E-2],"split_indices":[14,14,14,14,0,0,14,14,0,0,14,14,0,11,11,0,0,0,0,0,0],"split_type":[0,0,0,0,0,0,0,0,0,0,0,0,0,0,0,0,0,0,0,0,0],"sum_hessian":[1.479015E1,7.131668E0,7.658482E0,5.132517E0,1.9991509E0,1.2573303E0,6.401152E0,3.6738172E0,1.4586997E0,1.0398779E0,5.3612742E0,2.2314734E0,1.4423438E0,2.7856605E0,2.5756137E0,1.1965805E0,1.0348929E0,1.0561433E0,1.7295171E0,1.4937524E0,1.0818613E0],"tree_param":{"num_deleted":"0","num_feature":"15","num_nodes":"21","size_leaf_vector":"0"}},{"base_weights":[-3.6101886E-3,-4.4527873E-2,2.5950015E-1,2.1986699E-2,-2.662684E-1,-6.463237E-2,1.3320123E-1,3.1832237E-2,-2.713962E-1,3.604117E-1,-2.5710475E-2,-1.03899136E-1,2.0466937E-1,-2.0996347E-1,1.7781775E-1,8.3261825E-2,-2.554459E-1],"categories":[],"categories_nodes":[],"categories_segments":[],"categories_sizes":[],"default_left":[1,1,0,1,0,1,1,1,0,0,1,1,0,0,0,0,0],"id":35,"left_children":[1,3,-1,5,-1,7,9,11,-1,-1,13,15,-1,-1,-1,-1,-1],"loss_changes":[1.8073301E-1,2.190202E-1,0E0,1.2460994E-1,0E0,1.5708588E-1,2.1142587E-1,1.6131732E-1,0E0,0E0,1.9589174E-1,1.3492844E-1,0E0,0E0,0E0,0E0,0E0],"parents":[2147483647,0,0,1,1,3,3,5,5,6,6,7,7,10,10,11,11],"right_children":[2,4,-1,6,-1,8,10,12,-1,-1,14,16,-1,-1,-1,-1,-1],"split_conditions":[2.632263E0,4.3358484E-1,7.7850044E-2,6.769697E-2,-7.988052E-2,4.101818E-2,9.4039395E-2,2.3969697E-2,-8.141886E-2,1.0812352E-1,1.4958484E-1,1.1872727E-2,6.1400812E-2,-6.298904E-2,5.3345326E-2,2.4978548E-2,-7.6633774E-2],"split_indices":[11,14,0,14,0,14,14,14,0,0,14,14,0,0,0,0,0],"split_type":[0,0,0,0,0,0,0,0,0,0,0,0,0,0,0,0,0],"sum_hessian":[1.4714297E1,1.3452925E1,1.2613723E0,1.1041652E1,2.411273E0,6.442658E0,4.598994E0,4.969983E0,1.472675E0,1.3708974E0,3.2280962E0,3.0072274E0,1.9627559E0,1.6776817E0,1.5504147E0,1.5471171E0,1.4601102E0],"tree_param":{"num_deleted":"0","num_feature":"15","num_nodes":"17","size_leaf_vector":"0"}},{"base_weights":[-1.6584006E-3,9.835199E-2,-9.596719E-2,-9.963461E-2,1.5606362E-1,-3.814343E-1,5.5877503E-2,3.2714835E-1,6.6896E-2,2.1761124E-1,-1.3706121E-1,-1.01956554E-1,2.4848512E-1,4.147699E-1,-8.0230474E-2,-2.6838157E-1,2.3446511E-2,3.3318922E-2,-2.1739507E-1],"categories":[],"categories_nodes":[],"categories_segments":[],"categories_sizes":[],"default_left":[1,1,1,0,1,0,1,0,1,1,1,1,0,0,0,0,0,0,0],"id":36,"left_children":[1,3,5,-1,7,-1,9,-1,11,13,15,17,-1,-1,-1,-1,-1,-1,-1],"loss_changes":[1.5650365E-1,1.076588E-1,3.9110726E-1,0E0,7.928015E-2,0E0,2.3081912E-1,0E0,1.9754545E-1,2.6172692E-1,8.113529E-2,6.3763246E-2,0E0,0E0,0E0,0E0,0E0,0E0,0E0],"parents":[2147483647,0,0,1,1,2,2,4,4,6,6,8,8,9,9,10,10,11,11],"right_children":[2,4,6,-1,8,-1,10,-1,12,14,16,18,-1,-1,-1,-1,-1,-1,-1],"split_conditions":[7E-2,8.39394E-3,9.842727E-2,-2.9890385E-2,2.0954546E-2,-1.1443029E-1,4.3358484E-1,9.814451E-2,3.7806064E-2,2.1551852E0,5.0321364E-1,2.9207576E-2,7.454554E-2,1.2443097E-1,-2.4069143E-2,-8.0514476E-2,7.033954E-3,9.995677E-3,-6.521852E-2],"split_indices":[14,14,14,0,14,0,14,0,14,11,14,14,0,0,0,0,0,0,0],"split_type":[0,0,0,0,0,0,0,0,0,0,0,0,0,0,0,0,0,0,0],"sum_hessian":[1.4592377E1,7.0613003E0,7.531076E0,1.4297956E0,5.631505E0,2.0899603E0,5.4411154E0,1.0150424E0,4.616462E0,2.890355E0,2.5507605E0,2.619357E0,1.9971054E0,1.5029082E0,1.3874469E0,1.0332896E0,1.517471E0,1.5335972E0,1.0857599E0],"tree_param":{"num_deleted":"0","num_feature":"15","num_nodes":"19","size_leaf_vector":"0"}},{"base_weights":[-2.29184E-3,-5.7331026E-2,1.7703395E-1,-1.0280526E-1,1.970946E-1,2.4915576E-1,3.8873326E-2,2.5426142E-4,-4.53513E-1,-7.568702E-2,2.4329957E-1,3.639183E-2,-2.0335472E-1,-1.0099847E-1,2.6719835E-1],"categories":[],"categories_nodes":[],"categories_segments":[],"categories_sizes":[],"default_left":[1,1,1,1,0,0,0,1,0,1,0,1,0,0,0],"id":37,"left_children":[1,3,5,7,-1,-1,-1,9,-1,11,-1,13,-1,-1,-1],"loss_changes":[1.6414058E-1,1.6712208E-1,2.9261932E-2,4.1308847E-1,0E0,0E0,0E0,1.9985323E-1,0E0,1.2548687E-1,0E0,1.9324054E-1,0E0,0E0,0E0],"parents":[2147483647,0,0,1,1,2,2,3,3,7,7,9,9,11,11],"right_children":[2,4,6,8,-1,-1,-1,10,-1,12,-1,14,-1,-1,-1],"split_conditions":[2.2947443E0,4.3195605E-1,2.5808558E0,1.179394E-1,5.9128385E-2,7.474673E-2,1.1661998E-2,9.358182E-2,-1.360539E-1,3.6004543E-2,7.298987E-2,2.3969697E-2,-6.1006416E-2,-3.0299542E-2,8.015951E-2],"split_indices":[11,14,11,14,0,0,0,14,0,14,0,14,0,0,0],"split_type":[0,0,0,0,0,0,0,0,0,0,0,0,0,0,0],"sum_hessian":[1.4602017E1,1.1693356E1,2.9086614E0,1.0425846E1,1.2675097E0,1.3832222E0,1.5254391E0,8.83025E0,1.595596E0,7.2526846E0,1.5775653E0,4.242853E0,3.0098314E0,3.0122104E0,1.2306429E0],"tree_param":{"num_deleted":"0","num_feature":"15","num_nodes":"15","size_leaf_vector":"0"}},{"base_weights":[2.09372E-3,-4.2361874E-2,2.0310451E-1,3.4131672E-2,-3.1731096E-1,-6.856838E-2,2.267898E-1,2.3242423E-2,-3.6317334E-1,4.6151233E-1,-6.6104844E-2,-1.4399874E-1,2.3914476E-1,2.791091E-2,-2.7952135E-1],"categories":[],"categories_nodes":[],"categories_segments":[],"categories_sizes":[],"default_left":[1,1,0,1,0,1,1,1,0,0,0,1,0,0,0],"id":38,"left_children":[1,3,-1,5,-1,7,9,11,-1,-1,-1,13,-1,-1,-1],"loss_changes":[1.4685029E-1,2.9468054E-1,0E0,2.4232924E-1,0E0,2.3142605E-1,3.2045677E-1,2.9532108E-1,0E0,0E0,0E0,1.1719726E-1,0E0,0E0,0E0],"parents":[2147483647,0,0,1,1,3,3,5,5,6,6,7,7,11,11],"right_children":[2,4,-1,6,-1,8,10,12,-1,-1,-1,14,-1,-1,-1],"split_conditions":[1.5201149E0,4.3358484E-1,6.0931355E-2,9.358182E-2,-9.519329E-2,7E-2,9.218168E-1,3.4948483E-2,-1.0895201E-1,1.384537E-1,-1.9831454E-2,2.0954546E-2,7.174343E-2,8.373274E-3,-8.3856404E-2],"split_indices":[9,14,0,14,0,14,11,14,0,0,0,14,0,0,0],"split_type":[0,0,0,0,0,0,0,0,0,0,0,0,0,0,0],"sum_hessian":[1.4470632E1,1.249622E1,1.9744112E0,1.046157E1,2.03465E0,7.244073E0,3.2174969E0,6.2251663E0,1.0189068E0,1.4665368E0,1.7509601E0,3.6955645E0,2.5296016E0,1.9791163E0,1.7164483E0],"tree_param":{"num_deleted":"0","num_feature":"15","num_nodes":"15","size_leaf_vector":"0"}},{"base_weights":[-1.5048571E-3,-6.049863E-2,1.908893E-1,-1.0361744E-1,1.8317774E-1,7.1085945E-2,2.6453134E-1,-1.4518577E-2,-4.0626642E-1,-7.931306E-2,1.2606004E-1,4.5543127E-2,-2.6223284E-1,2.6487556E-1,-5.1171932E-2,-8.149074E-2,2.5173134E-1],"categories":[],"categories_nodes":[],"categories_segments":[],"categories_sizes":[],"default_left":[1,1,1,1,0,0,0,1,0,1,1,1,0,0,0,0,0],"id":39,"left_children":[1,3,5,7,-1,-1,-1,9,-1,11,13,15,-1,-1,-1,-1,-1],"loss_changes":[1.8826284E-1,1.5215796E-1,1.5553951E-2,3.0172953E-1,0E0,0E0,0E0,9.9723935E-2,0E0,1.7995632E-1,9.951545E-2,1.573511E-1,0E0,0E0,0E0,0E0,0E0],"parents":[2147483647,0,0,1,1,2,2,3,3,7,7,9,9,10,10,11,11],"right_children":[2,4,6,8,-1,-1,-1,10,-1,12,14,16,-1,-1,-1,-1,-1],"split_conditions":[2.2947443E0,4.3195605E-1,4.5296365E-1,1.179394E-1,5.4953326E-2,2.1325784E-2,7.9359405E-2,6.769697E-2,-1.2187993E-1,3.6004543E-2,9.4039395E-2,2.3969697E-2,-7.866985E-2,7.946267E-2,-1.535158E-2,-2.4447223E-2,7.5519405E-2],"split_indices":[11,14,14,14,0,0,0,14,0,14,14,14,0,0,0,0,0],"split_type":[0,0,0,0,0,0,0,0,0,0,0,0,0,0,0,0,0],"sum_hessian":[1.4569464E1,1.1675084E1,2.8943799E0,1.0408128E1,1.2669557E0,1.8500106E0,1.0443691E0,8.850533E0,1.5575958E0,6.3565345E0,2.493998E0,4.224217E0,2.1323173E0,1.1212637E0,1.3727343E0,2.9880412E0,1.236176E0],"tree_param":{"num_deleted":"0","num_feature":"15","num_nodes":"17","size_leaf_vector":"0"}},{"base_weights":[2.6900668E-3,-3.397106E-2,2.6477358E-1,-1.3323268E-1,1.6495115E-1,4.6156924E-2,-2.2255246E-1,3.011801E-1,-4.8029114E-2,-9.595135E-2,2.154468E-1,-3.9519843E-1,-3.6841474E-2,4.1863543E-1,5.4029852E-2,-1.1288694E-1,-5.473773E-1,2.1593167E-1,-1.9311284E-1,-2.718875E-1,-6.9224113E-3],"categories":[],"categories_nodes":[],"categories_segments":[],"categories_sizes":[],"default_left":[1,1,0,1,1,1,1,1,0,0,0,1,1,0,0,0,0,0,1,0,0],"id":40,"left_children":[1,3,-1,5,7,9,11,13,-1,-1,-1,15,17,-1,-1,-1,-1,-1,19,-1,-1],"loss_changes":[1.5773658E-1,3.076358E-1,0E0,1.7377798E-1,1.6715917E-1,1.22199886E-1,2.0936969E-1,7.454884E-2,0E0,0E0,0E0,8.9288354E-2,2.1817453E-1,0E0,0E0,0E0,0E0,0E0,4.6353363E-2,0E0,0E0],"parents":[2147483647,0,0,1,1,3,3,4,4,5,5,6,6,7,7,11,11,12,12,18,18],"right_children":[2,4,-1,6,8,10,12,14,-1,-1,-1,16,18,-1,-1,-1,-1,-1,20,-1,-1],"split_conditions":[1.497515E0,1.8458465E0,7.943208E-2,2.496818E-2,2.3898199E0,1.8366667E-2,6.769697E-2,2.5030607E-1,-1.4408735E-2,-2.8785406E-2,6.463404E-2,3.9712124E-2,9.4039395E-2,1.2559064E-1,1.6208956E-2,-3.3866085E-2,-1.642132E-1,6.4779505E-2,3.6314848E-1,-8.156626E-2,-2.0767234E-3],"split_indices":[6,11,0,14,11,14,14,14,0,0,0,14,14,0,0,0,0,0,14,0,0],"split_type":[0,0,0,0,0,0,0,0,0,0,0,0,0,0,0,0,0,0,0,0,0],"sum_hessian":[1.4480606E1,1.3467155E1,1.0134506E0,9.204409E0,4.2627473E0,3.2202022E0,5.984206E0,2.3472493E0,1.9154978E0,1.9861586E0,1.2340435E0,2.516612E0,3.4675944E0,1.1207676E0,1.2264817E0,1.4914968E0,1.0251153E0,1.1789068E0,2.2886875E0,1.2848281E0,1.0038595E0],"tree_param":{"num_deleted":"0","num_feature":"15","num_nodes":"21","size_leaf_vector":"0"}},{"base_weights":[2.7266303E-3,1.1523961E-1,-1.02371186E-1,1.7745756E-2,2.7973446E-1,-3.6199477E-1,3.7667017E-2,1.2391456E-1,-1.902007E-1,2.1212326E-1,-1.6245745E-1,-1.1780571E-2,2.5067383E-1,4.0607306E-1,-8.544019E-2,-2.677983E-1,1.5079315E-2],"categories":[],"categories_nodes":[],"categories_segments":[],"categories_sizes":[],"default_left":[1,1,1,1,0,0,1,1,0,1,1,0,0,0,0,0,0],"id":41,"left_children":[1,3,5,7,-1,-1,9,11,-1,13,15,-1,-1,-1,-1,-1,-1],"loss_changes":[1.9219494E-1,1.20742254E-1,3.1966802E-1,1.557955E-1,0E0,0E0,2.5698772E-1,8.1567235E-2,0E0,2.5625068E-1,7.014546E-2,0E0,0E0,0E0,0E0,0E0,0E0],"parents":[2147483647,0,0,1,1,2,2,3,3,6,6,7,7,9,9,10,10],"right_children":[2,4,6,8,-1,-1,10,12,-1,14,16,-1,-1,-1,-1,-1,-1],"split_conditions":[7E-2,3.7806064E-2,9.842727E-2,2.5216667E-2,8.3920345E-2,-1.0859843E-1,4.3358484E-1,1.8066667E-2,-5.7060212E-2,2.1551852E0,2.2947443E0,-3.5341715E-3,7.520215E-2,1.21821925E-1,-2.5632057E-2,-8.033949E-2,4.5237946E-3],"split_indices":[14,14,14,14,0,0,14,14,0,11,11,0,0,0,0,0,0],"split_type":[0,0,0,0,0,0,0,0,0,0,0,0,0,0,0,0,0],"sum_hessian":[1.4255791E1,6.838404E0,7.417386E0,4.989234E0,1.8491704E0,2.04363E0,5.3737564E0,3.5704262E0,1.4188075E0,2.8389645E0,2.534792E0,2.1625218E0,1.4079045E0,1.4979502E0,1.3410141E0,1.2717767E0,1.2630152E0],"tree_param":{"num_deleted":"0","num_feature":"15","num_nodes":"17","size_leaf_vector":"0"}}]},"name":"gbtree"},"learner_model_param":{"base_score":"5E-1","boost_from_average":"1","num_class":"0","num_feature":"15","num_target":"1"},"objective":{"name":"binary:logistic","reg_loss_param":{"scale_pos_weight":"1"}}},"version":[2,0,3]}