{"learner":{"attributes":{"niter":"30"},"feature_names":[],"feature_types":[],"gradient_booster":{"model":{"gbtree_model_param":{"num_parallel_tree":"1","num_trees":"31"},"iteration_indptr":[0,1,2,3,4,5,6,7,8,9,10,11,12,13,14,15,16,17,18,19,20,21,22,23,24,25,26,27,28,29,30,31],"tree_info":[0,0,0,0,0,0,0,0,0,0,0,0,0,0,0,0,0,0,0,0,0,0,0,0,0,0,0,0,0,0,0],"trees":[{"base_weights":[-0E0,-1.8346581E0,1.9659284E0,-1.882353E0,-9.52381E-2,4.6153846E-1,1.9861592E0,-1.0175439E0,-1.9570662E0,7.692308E-1,-1E0,-2.2222222E-1,1E0,-1.1698114E0,5E-1,-0E0,1.1111112E0,-3.3333334E-1,-1.2888889E0,-1E0,5E-1],"categories":[],"categories_nodes":[],"categories_segments":[],"categories_sizes":[],"default_left":[1,1,1,1,1,1,0,1,0,1,0,0,0,1,0,0,0,1,0,0,0],"id":0,"left_children":[1,3,5,7,9,11,-1,13,-1,15,-1,-1,-1,17,-1,-1,-1,19,-1,-1,-1],"loss_changes":[1.0964692E3,1.2866394E1,3.5496826E0,7.894348E0,4.875458E0,1.4188035E0,0E0,3.8776903E0,0E0,8.547008E-1,0E0,0E0,0E0,8.9014626E-1,0E0,0E0,0E0,2.1666667E0,0E0,0E0,0E0],"parents":[2147483647,0,0,1,1,2,2,3,3,4,4,5,5,7,7,9,9,13,13,17,17],"right_children":[2,4,6,8,10,12,-1,14,-1,16,-1,-1,-1,18,-1,-1,-1,20,-1,-1,-1],"split_conditions":[2.462059E0,2.104146E0,2.7363162E0,6.8125755E-2,2.357684E0,7.610721E-1,5.958478E-1,2.429799E0,-5.871199E-1,1.3342121E-1,-3E-1,-6.666667E-2,3E-1,1.1036364E-2,1.5E-1,-0E0,3.3333337E-1,2.6757575E-3,-3.866667E-1,-3E-1,1.5E-1],"split_indices":[11,11,11,14,11,13,0,6,0,14,0,0,0,14,0,0,0,14,0,0,0],"split_type":[0,0,0,0,0,0,0,0,0,0,0,0,0,0,0,0,0,0,0,0,0],"sum_hessian":[3.02E2,1.5625E2,1.4575E2,1.52E2,4.25E0,2.25E0,1.435E2,1.325E1,1.3875E2,2.25E0,2E0,1.25E0,1E0,1.225E1,1E0,1E0,1.25E0,2E0,1.025E1,1E0,1E0],"tree_param":{"num_deleted":"0","num_feature":"15","num_nodes":"21","size_leaf_vector":"0"}},{"base_weights":[7.473672E-5,-1.4107006E0,1.5234872E0,-1.4501054E0,-6.13567E-2,3.9843616E-1,1.5393871E0,-7.6479805E-1,-1.5126718E0,6.4900714E-1,-8.135085E-1,-8.7508893E-1,1.994206E-1,-0E0,9.4189215E-1,-9.529783E-1,-7.967977E-2],"categories":[],"categories_nodes":[],"categories_segments":[],"categories_sizes":[],"default_left":[1,1,1,1,1,0,0,1,0,1,0,1,0,0,0,0,0],"id":1,"left_children":[1,3,5,7,9,-1,-1,11,-1,13,-1,15,-1,-1,-1,-1,-1],"loss_changes":[6.021376E2,7.645355E0,1.7963257E0,4.901245E0,3.291154E0,0E0,0E0,1.6466217E0,0E0,6.1129475E-1,0E0,7.051563E-1,0E0,0E0,0E0,0E0,0E0],"parents":[2147483647,0,0,1,1,2,2,3,3,4,4,7,7,9,9,11,11],"right_children":[2,4,6,8,10,-1,-1,12,-1,14,-1,16,-1,-1,-1,-1,-1],"split_conditions":[2.462059E0,2.104146E0,2.7363162E0,6.8125755E-2,2.357684E0,1.1953085E-1,4.6181616E-1,1.208103E0,-4.5380157E-1,1.3342121E-1,-2.4405256E-1,2.5836747E0,5.9826184E-2,-0E0,2.8256765E-1,-2.858935E-1,-2.3903932E-2],"split_indices":[11,11,11,14,11,0,0,6,0,14,0,9,0,0,0,0,0],"split_type":[0,0,0,0,0,0,0,0,0,0,0,0,0,0,0,0,0],"sum_hessian":[2.781692E2,1.4446216E2,1.3370702E2,1.4029059E2,4.1715775E0,2.2264454E0,1.3148058E2,1.2842852E1,1.2744773E2,2.215911E0,1.9556665E0,1.1607573E1,1.2352796E0,1E0,1.2159108E0,1.0391864E1,1.215708E0],"tree_param":{"num_deleted":"0","num_feature":"15","num_nodes":"17","size_leaf_vector":"0"}},{"base_weights":[8.4128947E-4,-1.1978934E0,1.3180737E0,-1.2361989E0,-3.689615E-2,3.1825593E-1,1.3351084E0,-6.6796124E-1,-1.3207645E0,5.587169E-1,-6.7784405E-1,-7.4140173E-1,2.0126447E-1,-1.3300296E0,-4.9300182E-1,-0E0,8.1997424E-1,-8.2596457E-1,1.6659725E-1,-4.6670172E-1,-1.1196657E0],"categories":[],"categories_nodes":[],"categories_segments":[],"categories_sizes":[],"default_left":[1,1,1,1,1,0,0,1,1,1,0,1,0,0,0,0,0,1,0,0,0],"id":2,"left_children":[1,3,5,7,9,-1,-1,11,13,15,-1,17,-1,-1,-1,-1,-1,19,-1,-1,-1],"loss_changes":[3.745716E2,5.4777374E0,1.5000458E0,4.8937225E0,2.2865832E0,0E0,0E0,1.2723546E0,1.3887024E-1,4.581334E-1,0E0,1.3996716E0,0E0,0E0,0E0,0E0,0E0,1.0817451E0,0E0,0E0,0E0],"parents":[2147483647,0,0,1,1,2,2,3,3,4,4,7,7,8,8,9,9,11,11,17,17],"right_children":[2,4,6,8,10,-1,-1,12,14,16,-1,18,-1,-1,-1,-1,-1,20,-1,-1,-1],"split_conditions":[2.462059E0,2.104146E0,2.7363162E0,9.968182E-2,2.357684E0,9.5476784E-2,4.0053254E-1,8.596818E-2,1.8416566E0,1.3342121E-1,-2.0335323E-1,1.208103E0,6.0379345E-2,-3.990089E-1,-1.4790055E-1,-0E0,2.4599229E-1,3.9304547E-2,4.9979176E-2,-1.4001052E-1,-3.3589974E-1],"split_indices":[11,11,11,14,11,0,0,14,11,14,0,6,0,0,0,0,0,14,0,0,0],"split_type":[0,0,0,0,0,0,0,0,0,0,0,0,0,0,0,0,0,0,0,0,0],"sum_hessian":[2.3521901E2,1.23196144E2,1.1202286E2,1.1919856E2,3.9975786E0,2.206385E0,1.09816475E2,1.6594006E1,1.0260456E2,2.1385689E0,1.8590097E0,1.54368105E1,1.1571943E0,1.0086877E2,1.7357914E0,1E0,1.1385689E0,1.4204297E1,1.2325141E0,7.5535874E0,6.650709E0],"tree_param":{"num_deleted":"0","num_feature":"15","num_nodes":"21","size_leaf_vector":"0"}},{"base_weights":[3.6194637E-5,-1.0622265E0,1.1985233E0,-5.107123E-1,-1.1567558E0,2.5505653E-1,1.2187884E0,-5.939785E-1,8.851777E-2,-1.1995295E0,-6.1332442E-2,-6.700523E-1,1.3929148E-1,-1.2096621E0,-4.218203E-1,5.0866747E-1,-4.8661476E-1,-3.5858113E-1,-9.650751E-1,-4.7629666E-1,2.2441465E-1],"categories":[],"categories_nodes":[],"categories_segments":[],"categories_sizes":[],"default_left":[1,1,1,1,1,0,0,1,0,1,1,1,0,0,0,0,0,1,0,0,0],"id":3,"left_children":[1,3,5,7,9,-1,-1,11,-1,13,15,17,-1,-1,-1,-1,-1,19,-1,-1,-1],"loss_changes":[2.4675269E2,4.7659683E0,1.4303589E0,8.920603E-1,3.999298E0,0E0,0E0,9.245949E-1,0E0,1.4855194E-1,1.2948667E0,9.103904E-1,0E0,0E0,0E0,0E0,0E0,6.7254734E-1,0E0,0E0,0E0],"parents":[2147483647,0,0,1,1,2,2,3,3,4,4,7,7,9,9,10,10,11,11,17,17],"right_children":[2,4,6,8,10,-1,-1,12,-1,14,16,18,-1,-1,-1,-1,-1,20,-1,-1,-1],"split_conditions":[2.462059E0,9.968182E-2,2.7363162E0,8.2668185E-2,2.104146E0,7.651696E-2,3.6563653E-1,1.208103E0,2.6555331E-2,1.8416566E0,2.326635E0,3.9304547E-2,4.1787446E-2,-3.6289865E-1,-1.265461E-1,1.5260024E-1,-1.4598444E-1,2.975303E-2,-2.8952253E-1,-1.4288901E-1,6.73244E-2],"split_indices":[11,14,11,14,11,0,0,6,0,11,11,14,0,0,0,0,0,14,0,0,0],"split_type":[0,0,0,0,0,0,0,0,0,0,0,0,0,0,0,0,0,0,0,0,0],"sum_hessian":[1.9181912E2,1.01748985E2,9.0070145E1,1.5824781E1,8.592421E1,2.179665E0,8.789047E1,1.3901814E1,1.9229671E0,8.260368E1,3.3205223E0,1.2673231E1,1.2285831E0,8.099303E1,1.6106541E0,1.3350729E0,1.9854496E0,7.2424393E0,5.430792E0,6.1780233E0,1.0644163E0],"tree_param":{"num_deleted":"0","num_feature":"15","num_nodes":"21","size_leaf_vector":"0"}},{"base_weights":[-8.221013E-4,-9.590977E-1,1.1194334E0,-4.0956977E-1,-1.070284E0,2.0472863E-1,1.1447395E0,-4.7877744E-1,3.0421773E-1,-1.1312871E0,-1.9050092E-1,-1.6162834E-1,-6.404319E-1,1.7405698E-2,-5.104288E-1,-7.8199536E-1,1.1773379E-1,-9.814465E-1,-4.383866E-1,-2.422209E-1,3.5152832E-1,5.276578E-1,-1.2745512E-1,3.9213255E-1,-6.764189E-1],"categories":[],"categories_nodes":[],"categories_segments":[],"categories_sizes":[],"default_left":[1,1,1,1,1,0,0,1,0,0,1,1,1,1,0,0,1,0,1,0,0,0,0,0,0],"id":4,"left_children":[1,3,5,7,9,-1,-1,11,-1,-1,13,15,17,19,-1,-1,21,-1,23,-1,-1,-1,-1,-1,-1],"loss_changes":[1.6727052E2,4.6927567E0,1.4284897E0,9.237962E-1,3.499855E0,0E0,0E0,6.526103E-1,0E0,0E0,3.8744447E-1,1.1868305E0,2.1957207E-1,4.6827692E-1,0E0,0E0,5.923786E-1,0E0,1.7933296E0,0E0,0E0,0E0,0E0,0E0,0E0],"parents":[2147483647,0,0,1,1,2,2,3,3,4,4,7,7,10,10,11,11,12,12,13,13,16,16,18,18],"right_children":[2,4,6,8,10,-1,-1,12,-1,-1,14,16,18,20,-1,-1,22,-1,24,-1,-1,-1,-1,-1,-1],"split_conditions":[2.462059E0,9.968182E-2,2.7363162E0,8.745E-2,1.8416566E0,6.1418593E-2,3.4342188E-1,2.6603032E-2,9.126532E-2,-3.3938614E-1,5.0676966E-1,4.0666666E-3,3.5225756E-2,2.3619394E-1,-1.5312864E-1,-2.3459862E-1,1.5515152E-2,-2.9443395E-1,4.7083333E-2,-7.266627E-2,1.054585E-1,1.5829735E-1,-3.8236536E-2,1.1763977E-1,-2.0292568E-1],"split_indices":[11,14,11,14,11,0,0,14,0,0,14,14,14,14,0,0,14,0,14,0,0,0,0,0,0],"split_type":[0,0,0,0,0,0,0,0,0,0,0,0,0,0,0,0,0,0,0,0,0,0,0,0,0],"sum_hessian":[1.5381581E2,8.2978874E1,7.083694E1,1.4752031E1,6.8226845E1,2.151716E0,6.868523E1,1.3748265E1,1.003766E0,6.3535507E1,4.691339E0,5.3169003E0,8.431365E0,3.4166245E0,1.2747146E0,1.0922258E0,4.224674E0,1.701684E0,6.729681E0,2.0774314E0,1.3391931E0,1.1499915E0,3.0746827E0,1.354901E0,5.37478E0],"tree_param":{"num_deleted":"0","num_feature":"15","num_nodes":"25","size_leaf_vector":"0"}},{"base_weights":[-3.037071E-3,-9.220129E-1,1.00154E0,-3.6642677E-1,-1.0610265E0,1.1602902E-1,1.0938181E0,-4.3280977E-1,2.5258002E-1,-1.0751935E0,-3.4048757E-1,3.4672627E-1,-5.411103E-1,-5.093044E-1,1.8561363E-1,-3.682924E-2,8.320153E-1,-2.1439165E-1,-8.224484E-1,6.43722E-1,-7.1405107E-1,-3.257442E-1,2.5593615E-1],"categories":[],"categories_nodes":[],"categories_segments":[],"categories_sizes":[],"default_left":[1,1,1,1,1,1,0,1,0,0,0,1,0,1,0,1,0,1,0,0,0,0,0],"id":5,"left_children":[1,3,5,7,9,11,-1,13,-1,-1,-1,15,-1,17,-1,19,-1,21,-1,-1,-1,-1,-1],"loss_changes":[1.1527794E2,4.647785E0,4.747944E0,7.0837986E-1,1.6097641E-1,1.2107449E0,0E0,7.3483133E-1,0E0,0E0,0E0,1.0738726E0,0E0,9.6072507E-1,0E0,2.343783E0,0E0,4.8628792E-1,0E0,0E0,0E0,0E0,0E0],"parents":[2147483647,0,0,1,1,2,2,3,3,4,4,5,5,7,7,11,11,13,13,15,15,17,17],"right_children":[2,4,6,8,10,12,-1,14,-1,-1,-1,16,-1,18,-1,20,-1,22,-1,-1,-1,-1,-1],"split_conditions":[2.104146E0,9.968182E-2,2.7363162E0,8.745E-2,1.8416566E0,7.4325913E-1,3.2814544E-1,1.208103E0,7.577401E-2,-3.2255808E-1,-1.02146275E-1,3.367985E-1,-1.6233309E-1,3.9304547E-2,5.5684093E-2,2.357684E0,2.496046E-1,2.975303E-2,-2.4673451E-1,1.931166E-1,-2.1421532E-1,-9.772327E-2,7.678085E-2],"split_indices":[11,14,11,14,11,10,0,6,0,0,0,14,0,14,0,11,0,14,0,0,0,0,0],"split_type":[0,0,0,0,0,0,0,0,0,0,0,0,0,0,0,0,0,0,0,0,0,0,0],"sum_hessian":[1.2286995E2,6.421185E1,5.8658096E1,1.3578694E1,5.0633156E1,5.7488527E0,5.2909245E1,1.2535205E1,1.0434899E0,4.91741E1,1.4590598E0,4.6046877E0,1.1441649E0,1.1312388E1,1.2228163E0,3.0880833E0,1.5166047E0,6.6933584E0,4.61903E0,1.564928E0,1.5231552E0,5.6605935E0,1.0327649E0],"tree_param":{"num_deleted":"0","num_feature":"15","num_nodes":"23","size_leaf_vector":"0"}},{"base_weights":[-3.1144223E-3,-7.918501E-1,1.0184337E0,-2.6041618E-1,-9.469961E-1,1.7540859E-1,1.0563148E0,1.5101469E-1,-3.2850054E-1,-1.031253E0,-1.6928954E-1,-3.980891E-1,2.1007903E-1,-3.5008237E-1,1.7189299E-1,-4.8012665E-1,1.5524898E-1,-1.9004725E-2,-5.435502E-1,-2.7433234E-1,-6.1486036E-1],"categories":[],"categories_nodes":[],"categories_segments":[],"categories_sizes":[],"default_left":[1,1,1,1,1,0,0,0,1,0,1,1,0,1,0,1,0,0,0,0,0],"id":6,"left_children":[1,3,5,7,9,-1,-1,-1,11,-1,13,15,-1,17,-1,19,-1,-1,-1,-1,-1],"loss_changes":[8.037701E1,4.3945465E0,1.2027588E0,4.4455707E-1,2.655632E0,0E0,0E0,0E0,5.488306E-1,0E0,3.9439934E-1,5.891981E-1,0E0,2.3761576E-1,0E0,1.118691E-1,0E0,0E0,0E0,0E0,0E0],"parents":[2147483647,0,0,1,1,2,2,3,3,4,4,8,8,10,10,11,11,13,13,15,15],"right_children":[2,4,6,8,10,-1,-1,-1,12,-1,14,16,-1,18,-1,20,-1,-1,-1,-1,-1],"split_conditions":[2.462059E0,9.968182E-2,2.7363162E0,1.1036364E-2,1.8416566E0,5.262258E-2,3.1689447E-1,4.5304406E-2,8.745E-2,-3.093759E-1,3.984015E-1,1.208103E0,6.302371E-2,1.7927727E-1,5.1567897E-2,3.9304547E-2,4.6574697E-2,-5.7014176E-3,-1.6306506E-1,-8.229971E-2,-1.844581E-1],"split_indices":[11,14,11,14,11,0,0,0,14,0,14,6,0,14,0,14,0,0,0,0,0],"split_type":[0,0,0,0,0,0,0,0,0,0,0,0,0,0,0,0,0,0,0,0,0],"sum_hessian":[9.775569E1,5.529069E1,4.2465004E1,1.3099265E1,4.2191425E1,2.068229E0,4.0396774E1,1.6869633E0,1.1412302E1,3.7773064E1,4.4183607E0,1.0337476E1,1.0748266E0,2.870955E0,1.5474058E0,9.117961E0,1.2195145E0,1.463953E0,1.4070019E0,4.8088923E0,4.3090687E0],"tree_param":{"num_deleted":"0","num_feature":"15","num_nodes":"21","size_leaf_vector":"0"}},{"base_weights":[-3.4145666E-3,-7.111963E-1,9.7708386E-1,-2.036942E-1,-8.895391E-1,1.411576E-1,1.0266072E0,-2.6772016E-1,1.34279E-1,-9.934608E-1,-1.4327972E-1,-3.3553368E-1,2.2286287E-1,6.532508E-2,-4.7957423E-1,-4.0947667E-1,1.2994002E-1,-1.9551004E-1,3.6728126E-1,-3.5204876E-2,-5.17205E-1],"categories":[],"categories_nodes":[],"categories_segments":[],"categories_sizes":[],"default_left":[1,1,1,1,1,0,0,1,0,0,1,1,0,1,0,1,0,0,0,0,0],"id":7,"left_children":[1,3,5,7,9,-1,-1,11,-1,-1,13,15,-1,17,-1,19,-1,-1,-1,-1,-1],"loss_changes":[5.5828754E1,4.0472603E0,1.2513351E0,3.2689428E-1,2.5156193E0,0E0,0E0,4.619515E-1,0E0,0E0,4.071982E-1,4.188602E-1,0E0,4.0156534E-1,0E0,3.6113203E-1,0E0,0E0,0E0,0E0,0E0],"parents":[2147483647,0,0,1,1,2,2,3,3,4,4,7,7,10,10,11,11,13,13,15,15],"right_children":[2,4,6,8,10,-1,-1,12,-1,-1,14,16,-1,18,-1,20,-1,-1,-1,-1,-1],"split_conditions":[2.462059E0,9.968182E-2,2.7363162E0,8.2668185E-2,1.8416566E0,4.2347282E-2,3.0798215E-1,2.5836747E0,4.0283702E-2,-2.9803824E-1,5.0676966E-1,1.208103E0,6.6858865E-2,2.3619394E-1,-1.4387228E-1,2.004394E-2,3.8982008E-2,-5.8653016E-2,1.1018438E-1,-1.0561463E-2,-1.551615E-1],"split_indices":[11,14,11,14,11,0,0,9,0,0,14,6,0,14,0,14,0,0,0,0,0],"split_type":[0,0,0,0,0,0,0,0,0,0,0,0,0,0,0,0,0,0,0,0,0],"sum_hessian":[7.8446014E1,4.571842E1,3.27276E1,1.2445362E1,3.3273056E1,2.0458066E0,3.0681793E1,1.0637961E1,1.8074006E0,2.8915169E1,4.3578873E0,9.623721E0,1.0142401E0,3.1868327E0,1.1710545E0,8.408317E0,1.2154047E0,1.8989809E0,1.2878518E0,2.1758232E0,6.2324934E0],"tree_param":{"num_deleted":"0","num_feature":"15","num_nodes":"21","size_leaf_vector":"0"}},{"base_weights":[-2.5187742E-3,-5.904045E-1,1.0010731E0,-1.2980335E-2,-7.5989366E-1,-2.0183727E-1,3.3728537E-1,-9.1267836E-1,-1.1166034E-1,6.9628045E-2,-8.145408E-1,6.6982275E-1,-9.8379E-2,-3.7003577E-1,-9.5784104E-1,1.5323506E-1,-8.2456774E-1,-2.2089724E-1,3.363249E-1,-6.650406E-1,1.5262975E-1,-2.707233E-1,7.2402173E-1,-3.446714E-1,-3.1204943E-3,2.4459666E-1,-8.8931096E-1],"categories":[],"categories_nodes":[],"categories_segments":[],"categories_sizes":[],"default_left":[1,1,0,1,1,1,1,1,1,1,0,0,0,1,0,1,0,1,0,0,0,1,0,0,0,0,0],"id":8,"left_children":[1,3,-1,5,7,9,11,13,15,17,-1,-1,-1,19,-1,21,-1,23,-1,-1,-1,25,-1,-1,-1,-1,-1],"loss_changes":[3.8717525E1,4.039834E0,0E0,7.5651443E-1,3.0646362E0,1.2854006E0,6.483027E-1,2.7624702E-1,1.4931711E0,5.423106E-1,0E0,0E0,0E0,6.576303E-1,0E0,1.6770507E0,0E0,9.3121424E-2,0E0,0E0,0E0,1.5690029E0,0E0,0E0,0E0,0E0,0E0],"parents":[2147483647,0,0,1,1,3,3,4,4,5,5,6,6,7,7,8,8,9,9,13,13,15,15,17,17,21,21],"right_children":[2,4,-1,6,8,10,12,14,16,18,-1,-1,-1,20,-1,22,-1,24,-1,-1,-1,26,-1,-1,-1,-1,-1],"split_conditions":[2.7363162E0,6.8125755E-2,3.0032194E-1,3.5225756E-2,1.8416566E0,2.6603032E-2,4.7083333E-2,9.968182E-2,7.4325913E-1,1.8366667E-2,-2.4436225E-1,2.0094684E-1,-2.9513702E-2,8.745E-2,-2.8735232E-1,3.6139244E-1,-2.4737033E-1,6.1924243E-3,1.00897476E-1,-1.995122E-1,4.5788925E-2,2.357684E0,2.1720652E-1,-1.0340142E-1,-9.3614834E-4,7.3379E-2,-2.667933E-1],"split_indices":[11,14,0,14,11,14,14,14,10,14,0,0,0,14,0,14,0,14,0,0,0,11,0,0,0,0,0],"split_type":[0,0,0,0,0,0,0,0,0,0,0,0,0,0,0,0,0,0,0,0,0,0,0,0,0,0,0],"sum_hessian":[6.3621452E1,4.0379555E1,2.3241896E1,9.407204E0,3.0972353E1,6.3871355E0,3.0200686E0,2.4734608E1,6.2377453E0,5.0403223E0,1.3468132E0,1.4079347E0,1.6121339E0,2.606781E0,2.2127827E1,5.1202626E0,1.1174828E0,2.4945846E0,2.545738E0,1.4921656E0,1.1146154E0,3.2396655E0,1.8805972E0,1.2190506E0,1.2755339E0,2.0971797E0,1.1424859E0],"tree_param":{"num_deleted":"0","num_feature":"15","num_nodes":"27","size_leaf_vector":"0"}},{"base_weights":[-9.816764E-3,-5.2291936E-1,9.7716063E-1,-1.997249E-2,-7.0054287E-1,-1.810502E-1,2.7273667E-1,-8.4504545E-1,-2.3727564E-2,4.642964E-2,-7.3158497E-1,5.3080225E-1,-8.1097156E-2,-8.738183E-1,-1.837089E-1,4.0883E-1,-4.7647727E-1,-2.9590014E-1,1.876264E-1,-2.2498898E-1,-9.358915E-1,1.3123432E-1,4.902539E-1,-7.913553E-1,3.8782082E-2,-2.5962107E-3,2.547654E-1,-5.6194913E-1,2.307467E-1],"categories":[],"categories_nodes":[],"categories_segments":[],"categories_sizes":[],"default_left":[1,1,0,1,1,1,1,1,1,1,0,0,0,1,0,1,1,0,1,1,0,0,0,0,0,0,0,0,0],"id":9,"left_children":[1,3,-1,5,7,9,11,13,15,17,-1,-1,-1,19,-1,21,23,-1,25,27,-1,-1,-1,-1,-1,-1,-1,-1,-1],"loss_changes":[2.7527548E1,3.1798992E0,0E0,5.378549E-1,2.561078E0,9.461557E-1,4.1528085E-1,2.5275803E-1,1.3056448E0,3.5009846E-1,0E0,0E0,0E0,6.1698437E-1,0E0,1.3393164E-2,5.5525905E-1,0E0,6.3582495E-2,6.073485E-1,0E0,0E0,0E0,0E0,0E0,0E0,0E0,0E0,0E0],"parents":[2147483647,0,0,1,1,3,3,4,4,5,5,6,6,7,7,8,8,9,9,13,13,15,15,16,16,18,18,19,19],"right_children":[2,4,-1,6,8,10,12,14,16,18,-1,-1,-1,20,-1,22,24,-1,26,28,-1,-1,-1,-1,-1,-1,-1,-1,-1],"split_conditions":[2.7363162E0,6.8125755E-2,2.931482E-1,3.5225756E-2,2.104146E0,2.6603032E-2,4.7083333E-2,2.2135334E0,2.391654E0,6.1924243E-3,-2.194755E-1,1.5924068E-1,-2.4329148E-2,1.0061364E-1,-5.5112675E-2,1.5181515E-1,3.5345453E-1,-8.877005E-2,1.8366667E-2,8.596818E-2,-2.8076747E-1,3.93703E-2,1.4707617E-1,-2.374066E-1,1.16346255E-2,-7.7886326E-4,7.642962E-2,-1.6858475E-1,6.9224015E-2],"split_indices":[11,14,0,14,11,14,14,9,11,14,0,0,0,14,0,14,14,0,14,14,0,0,0,0,0,0,0,0,0],"split_type":[0,0,0,0,0,0,0,0,0,0,0,0,0,0,0,0,0,0,0,0,0,0,0,0,0,0,0,0,0],"sum_hessian":[5.234808E1,3.4751766E1,1.7596313E1,9.360277E0,2.539149E1,6.2837825E0,3.0764952E0,2.0719286E1,4.672205E0,5.094436E0,1.1893462E0,1.4897866E0,1.5867085E0,1.9547537E1,1.1717484E0,2.4389942E0,2.233211E0,1.1677012E0,3.926735E0,2.110613E0,1.7436924E1,1.1454824E0,1.2935117E0,1.0535448E0,1.1796663E0,1.2751697E0,2.651565E0,1.0794407E0,1.0311723E0],"tree_param":{"num_deleted":"0","num_feature":"15","num_nodes":"29","size_leaf_vector":"0"}},{"base_weights":[-1.3970548E-2,-4.5504764E-1,9.529456E-1,-9.671324E-2,-6.757211E-1,-1.687671E-1,3.752805E-1,-8.8341916E-1,-8.390713E-2,2.0542838E-1,-2.4611476E-1,-3.5255522E-1,2.3740223E-1,-3.0516976E-1,1.2081226E-1,6.797787E-3,-5.6077E-1,5.173836E-1,-1.4390044E-1,-3.7505242E-1,1.027287E-1],"categories":[],"categories_nodes":[],"categories_segments":[],"categories_sizes":[],"default_left":[1,1,0,1,1,1,0,0,1,0,1,1,1,1,0,0,0,0,0,0,0],"id":10,"left_children":[1,3,-1,5,7,9,-1,-1,11,-1,13,15,17,19,-1,-1,-1,-1,-1,-1,-1],"loss_changes":[1.9514973E1,2.4177542E0,0E0,5.100444E-1,2.2941332E0,4.0034354E-1,0E0,0E0,6.111177E-1,0E0,2.6374185E-1,2.8291294E-1,4.3528727E-1,3.0368668E-1,0E0,0E0,0E0,0E0,0E0,0E0,0E0],"parents":[2147483647,0,0,1,1,3,3,4,4,5,5,8,8,10,10,11,11,12,12,13,13],"right_children":[2,4,-1,6,8,10,-1,-1,12,-1,14,16,18,20,-1,-1,-1,-1,-1,-1,-1],"split_conditions":[2.7363162E0,9.968182E-2,2.858837E-1,1.1780453E0,1.8416566E0,1.1036364E-2,1.1258415E-1,-2.6502576E-1,3.6139244E-1,6.1628517E-2,1.208103E0,1.7927727E-1,6.0709095E-1,8.745E-2,3.624368E-2,2.0393361E-3,-1.68231E-1,1.5521508E-1,-4.317013E-2,-1.1251573E-1,3.0818611E-2],"split_indices":[11,14,0,11,11,14,0,0,14,0,6,14,14,14,0,0,0,0,0,0,0],"split_type":[0,0,0,0,0,0,0,0,0,0,0,0,0,0,0,0,0,0,0,0,0],"sum_hessian":[4.3740974E1,3.0401937E1,1.3339037E1,1.2135047E1,1.8266891E1,1.108523E1,1.0498165E0,1.3156772E1,5.1101203E0,1.6152079E0,9.470022E0,2.730169E0,2.3799512E0,8.302144E0,1.1678776E0,1.3564521E0,1.3737171E0,1.1665198E0,1.2134314E0,7.156578E0,1.1455662E0],"tree_param":{"num_deleted":"0","num_feature":"15","num_nodes":"21","size_leaf_vector":"0"}},{"base_weights":[-8.074328E-3,-3.8079727E-1,9.269272E-1,1.9549584E-2,-5.699365E-1,-1.2921609E-1,2.7674243E-1,-7.718496E-1,-7.437413E-2,4.4241633E-2,-4.8106408E-1,4.7086754E-1,-2.9639758E-2,-2.874101E-1,-8.4025866E-1,1.7979906E-1,-4.1685295E-1,-2.8318185E-1,1.9339494E-1,-5.431692E-1,8.5803844E-2,-7.8064695E-2,3.8921574E-1,-5.45152E-1,-7.805157E-2,2.2478474E-2,2.5249445E-1],"categories":[],"categories_nodes":[],"categories_segments":[],"categories_sizes":[],"default_left":[1,1,0,1,1,1,1,1,1,1,0,0,0,1,0,1,1,0,1,0,0,0,0,0,0,0,0],"id":11,"left_children":[1,3,-1,5,7,9,11,13,15,17,-1,-1,-1,19,-1,21,23,-1,25,-1,-1,-1,-1,-1,-1,-1,-1],"loss_changes":[1.3620483E1,2.1259437E0,0E0,4.1561562E-1,1.8438282E0,4.467571E-1,2.49271E-1,2.0236778E-1,6.501006E-1,3.275287E-1,0E0,0E0,0E0,3.49878E-1,0E0,2.7291313E-1,9.289652E-2,0E0,3.9086655E-2,0E0,0E0,0E0,0E0,0E0,0E0,0E0,0E0],"parents":[2147483647,0,0,1,1,3,3,4,4,5,5,6,6,7,7,8,8,9,9,13,13,15,15,16,16,18,18],"right_children":[2,4,-1,6,8,10,12,14,16,18,-1,-1,-1,20,-1,22,24,-1,26,-1,-1,-1,-1,-1,-1,-1,-1],"split_conditions":[2.7363162E0,6.8125755E-2,2.7807817E-1,3.5225756E-2,1.8416566E0,2.470303E-2,4.7083333E-2,9.968182E-2,2.391654E0,6.1924243E-3,-1.4431924E-1,1.4126027E-1,-8.891928E-3,8.745E-2,-2.520776E-1,2.2014494E0,4.7243637E-1,-8.495456E-2,1.8366667E-2,-1.6295077E-1,2.5741154E-2,-2.341941E-2,1.16764724E-1,-1.6354561E-1,-2.341547E-2,6.7435424E-3,7.574834E-2],"split_indices":[11,14,0,14,11,14,14,14,11,14,0,0,0,14,0,11,14,0,14,0,0,0,0,0,0,0,0],"split_type":[0,0,0,0,0,0,0,0,0,0,0,0,0,0,0,0,0,0,0,0,0,0,0,0,0,0,0],"sum_hessian":[3.707072E1,2.692875E1,1.0141971E1,8.927901E0,1.8000849E1,5.9714694E0,2.9564314E0,1.2393636E1,5.607212E0,4.585246E0,1.3862236E0,1.4811223E0,1.4753091E0,2.177191E0,1.0216445E1,3.4911995E0,2.1160126E0,1.1538038E0,3.4314423E0,1.0216699E0,1.1555212E0,1.845717E0,1.6454827E0,1.0930358E0,1.0229769E0,1.2363249E0,2.1951172E0],"tree_param":{"num_deleted":"0","num_feature":"15","num_nodes":"27","size_leaf_vector":"0"}},{"base_weights":[-1.2200657E-2,-3.2372364E-1,8.979693E-1,-1.539371E-1,-7.261982E-1,-2.4912946E-1,7.8752446E-1,-8.5395527E-1,-9.274147E-2,1.08008515E-2,-4.9925578E-1,-1.1403285E-1,2.241471E-1,-6.6496265E-1,-9.729051E-2,2.0324934E-1,-2.4822032E-1,5.4935944E-1,-7.1515955E-2,-2.5830445E-1,-7.9674166E-1,3.0520868E-1,-5.387042E-1],"categories":[],"categories_nodes":[],"categories_segments":[],"categories_sizes":[],"default_left":[1,1,0,1,1,1,0,0,0,1,1,1,1,1,1,0,0,0,0,0,0,0,0],"id":12,"left_children":[1,3,-1,5,7,9,-1,-1,-1,11,13,15,17,19,21,-1,-1,-1,-1,-1,-1,-1,-1],"loss_changes":[9.722765E0,1.631983E0,0E0,1.918333E0,5.11749E-1,1.1893978E0,0E0,0E0,0E0,2.894746E-1,5.548818E-1,3.4482872E-1,4.234283E-1,1.379795E-1,8.5494924E-1,0E0,0E0,0E0,0E0,0E0,0E0,0E0,0E0],"parents":[2147483647,0,0,1,1,3,3,4,4,5,5,9,9,10,10,11,11,12,12,13,13,14,14],"right_children":[2,4,-1,6,8,10,-1,-1,-1,12,14,16,18,20,22,-1,-1,-1,-1,-1,-1,-1,-1],"split_conditions":[2.7363162E0,5.048091E-1,2.693908E-1,4.2618787E-1,2.200503E0,6.8125755E-2,2.3625734E-1,-2.561866E-1,-2.782244E-2,3.5225756E-2,2.0640504E0,1.1036364E-2,4.2722728E-2,9.968182E-2,2.357684E0,6.0974803E-2,-7.44661E-2,1.6480784E-1,-2.1454787E-2,-7.7491336E-2,-2.3902251E-1,9.156261E-2,-1.6161127E-1],"split_indices":[11,14,0,14,11,14,0,0,0,14,11,14,14,14,11,0,0,0,0,0,0,0,0],"split_type":[0,0,0,0,0,0,0,0,0,0,0,0,0,0,0,0,0,0,0,0,0,0,0],"sum_hessian":[3.226553E1,2.4518078E1,7.7474523E0,1.8216011E1,6.302067E0,1.721115E1,1.0048608E0,4.954703E0,1.3473641E0,8.909377E0,8.301772E0,5.914294E0,2.9950836E0,5.4151444E0,2.8866282E0,1.6048971E0,4.3093967E0,1.0176586E0,1.9774249E0,2.0497947E0,3.3653498E0,1.6712652E0,1.2153628E0],"tree_param":{"num_deleted":"0","num_feature":"15","num_nodes":"23","size_leaf_vector":"0"}},{"base_weights":[-1.1095558E-2,-3.1498367E-1,7.3867524E-1,-1.4157781E-1,-8.1010467E-1,1.7493883E-1,8.653196E-1,-2.354534E-1,6.4450866E-1,-6.372529E-2,-5.5354804E-1,-1.4714558E-1,1.8558857E-1,-7.511033E-1,-9.7578116E-2,2.4043141E-2,-4.7606415E-1,3.128769E-1,-7.552825E-4],"categories":[],"categories_nodes":[],"categories_segments":[],"categories_sizes":[],"default_left":[1,1,1,1,0,0,0,1,0,1,1,1,1,0,0,0,0,0,0],"id":13,"left_children":[1,3,5,7,-1,-1,-1,9,-1,11,13,15,17,-1,-1,-1,-1,-1,-1],"loss_changes":[6.971716E0,1.7525043E0,4.7898483E-1,1.42976E0,0E0,0E0,0E0,8.498472E-1,0E0,2.6965937E-1,4.2671E-1,5.344831E-1,8.002117E-2,0E0,0E0,0E0,0E0,0E0,0E0],"parents":[2147483647,0,0,1,1,2,2,3,3,7,7,9,9,10,10,11,11,12,12],"right_children":[2,4,6,8,-1,-1,-1,10,-1,12,14,16,18,-1,-1,-1,-1,-1,-1],"split_conditions":[2.462059E0,5.048091E-1,2.7363162E0,4.3033636E-1,-2.4303141E-1,5.248165E-2,2.595959E-1,9.968182E-2,1.9335261E-1,6.637424E-2,2.0640504E0,3.9304547E-2,8.4816664E-2,-2.25331E-1,-2.9273435E-2,7.2129425E-3,-1.4281926E-1,9.386308E-2,-2.2658477E-4],"split_indices":[11,14,11,14,0,0,0,14,0,14,11,14,14,0,0,0,0,0,0],"split_type":[0,0,0,0,0,0,0,0,0,0,0,0,0,0,0,0,0,0,0],"sum_hessian":[2.8577139E1,2.0747787E1,7.829351E0,1.6318512E1,4.4292746E0,1.8730626E0,5.9562883E0,1.5203377E1,1.1151356E0,1.0652696E1,4.5506816E0,8.288999E0,2.3636968E0,2.7234461E0,1.8272356E0,6.061261E0,2.2277374E0,1.000941E0,1.3627559E0],"tree_param":{"num_deleted":"0","num_feature":"15","num_nodes":"19","size_leaf_vector":"0"}},{"base_weights":[-1.0157629E-2,-2.2079861E-1,8.2867366E-1,-1.1459167E-1,-7.223456E-1,-2.4360384E-1,2.6178372E-1,4.3627366E-2,-5.533958E-1,-4.265742E-2,5.855661E-1,3.6510217E-1,-6.1591856E-2,-2.8774437E-1,-7.3852086E-1,2.695987E-1,-4.3417582E-1,-2.843253E-1,2.6879513E-1,-6.7529225E-1,4.3429334E-2],"categories":[],"categories_nodes":[],"categories_segments":[],"categories_sizes":[],"default_left":[1,1,0,1,0,1,1,1,1,1,0,0,1,1,0,0,0,0,0,0,0],"id":14,"left_children":[1,3,-1,5,-1,7,9,11,13,15,-1,-1,17,19,-1,-1,-1,-1,-1,-1,-1],"loss_changes":[4.9421654E0,1.1060767E0,0E0,1.015816E0,0E0,1.3695179E0,5.658568E-1,3.1921738E-1,1.4882159E-1,5.7674223E-1,0E0,0E0,6.2575173E-1,6.268649E-1,0E0,0E0,0E0,0E0,0E0,0E0,0E0],"parents":[2147483647,0,0,1,1,3,3,5,5,6,6,7,7,8,8,9,9,12,12,13,13],"right_children":[2,4,-1,6,-1,8,10,12,14,16,-1,-1,18,20,-1,-1,-1,-1,-1,-1,-1],"split_conditions":[2.7363162E0,5.289515E-1,2.486021E-1,1.8197145E0,-2.1670368E-1,6.8125755E-2,3.6139244E-1,1.1036364E-2,4.34103E-1,2.357684E0,1.7566983E-1,1.0953066E-1,3.5225756E-2,9.130454E-2,-2.2155626E-1,8.0879614E-2,-1.3025275E-1,-8.529759E-2,8.063854E-2,-2.0258768E-1,1.30288005E-2],"split_indices":[11,10,0,11,0,14,14,14,14,11,0,0,14,14,0,0,0,0,0,0,0],"split_type":[0,0,0,0,0,0,0,0,0,0,0,0,0,0,0,0,0,0,0,0,0],"sum_hessian":[2.593494E1,2.1318401E1,4.616538E0,1.8606739E1,2.7116628E0,1.411964E1,4.487099E0,7.772422E0,6.3472185E0,2.7601142E0,1.7269852E0,1.3075533E0,6.4648685E0,3.6556885E0,2.69153E0,1.7087222E0,1.0513918E0,3.9448373E0,2.520031E0,1.2056817E0,2.450007E0],"tree_param":{"num_deleted":"0","num_feature":"15","num_nodes":"21","size_leaf_vector":"0"}},{"base_weights":[-1.3506542E-2,-2.295863E-1,6.4214706E-1,-1.0296858E-1,-7.646924E-1,1.6963954E-1,7.8822726E-1,-1.6682725E-2,-6.5579116E-1,-1.0948775E-1,5.60634E-1,1.821152E-2,-5.769485E-1,-5.8764644E-2,2.6304713E-1],"categories":[],"categories_nodes":[],"categories_segments":[],"categories_sizes":[],"default_left":[1,1,1,1,0,0,0,1,0,1,0,1,0,0,0],"id":15,"left_children":[1,3,5,7,-1,-1,-1,9,-1,11,-1,13,-1,-1,-1],"loss_changes":[3.654006E0,1.2324754E0,3.079369E-1,7.9067975E-1,0E0,0E0,0E0,8.951844E-1,0E0,8.607822E-1,0E0,2.4457504E-1,0E0,0E0,0E0],"parents":[2147483647,0,0,1,1,2,2,3,3,7,7,9,9,11,11],"right_children":[2,4,6,8,-1,-1,-1,10,-1,12,-1,14,-1,-1,-1],"split_conditions":[2.462059E0,5.442788E-1,2.7363162E0,8.5759187E-1,-2.2940774E-1,5.0891865E-2,2.3646818E-1,4.3033636E-1,-1.9673736E-1,1.7927727E-1,1.6819021E-1,9.130454E-2,-1.7308456E-1,-1.7629394E-2,7.891414E-2],"split_indices":[11,14,11,10,0,0,0,14,0,14,0,14,0,0,0],"split_type":[0,0,0,0,0,0,0,0,0,0,0,0,0,0,0],"sum_hessian":[2.3751125E1,1.8352606E1,5.3985205E0,1.5805182E1,2.5474224E0,1.7852548E0,3.6132655E0,1.4562423E1,1.2427601E0,1.3243801E1,1.3186215E0,1.115701E1,2.0867908E0,9.066494E0,2.0905168E0],"tree_param":{"num_deleted":"0","num_feature":"15","num_nodes":"15","size_leaf_vector":"0"}},{"base_weights":[-1.4293384E-2,-1.5824658E-1,7.4466276E-1,8.14736E-2,-3.3717093E-1,-2.5980914E-1,1.5727986E-1,-5.3104156E-1,-3.8054794E-2,2.896578E-1,-7.5953733E-3,-2.646219E-1,-7.240886E-1,2.1302544E-1,-2.9113612E-1,3.844922E-2,3.6332723E-1,-1.6816363E-1,2.7943826E-1,-6.2729275E-1,3.7150446E-2,3.4517325E-3,3.0496487E-1,-4.539407E-1,-1.4416666E-2,3.733388E-2,-2.992136E-1,2.8326425E-1,-1.8117587E-1],"categories":[],"categories_nodes":[],"categories_segments":[],"categories_sizes":[],"default_left":[1,1,0,1,1,0,1,1,1,1,1,1,0,1,1,0,0,1,0,0,1,0,0,0,0,0,0,0,0],"id":16,"left_children":[1,3,-1,5,7,-1,9,11,13,15,17,19,-1,21,23,-1,-1,25,-1,-1,27,-1,-1,-1,-1,-1,-1,-1,-1],"loss_changes":[2.6428866E0,8.960998E-1,0E0,2.8562486E-1,6.6354465E-1,0E0,1.8475465E-1,1.7236412E-1,4.2511177E-1,7.235962E-2,2.635757E-1,5.21199E-1,0E0,6.5341964E-2,1.4069298E-1,0E0,0E0,1.09139174E-1,0E0,0E0,2.3547599E-1,0E0,0E0,0E0,0E0,0E0,0E0,0E0,0E0],"parents":[2147483647,0,0,1,1,3,3,4,4,6,6,7,7,8,8,9,9,10,10,11,11,13,13,14,14,17,17,20,20],"right_children":[2,4,-1,6,8,-1,10,12,14,16,18,20,-1,22,24,-1,-1,26,-1,-1,28,-1,-1,-1,-1,-1,-1,-1,-1],"split_conditions":[2.7363162E0,6.8125755E-2,2.2339883E-1,6.1924243E-3,1.8416566E0,-7.7942744E-2,2.6603032E-2,4.34103E-1,2.357684E0,1.8366667E-2,4.8619695E-2,9.130454E-2,-2.172266E-1,1.5181515E-1,4.417121E-1,1.1534766E-2,1.0899817E-1,3.9304547E-2,8.383148E-2,-1.8818784E-1,1.5719849E-1,1.0355198E-3,9.1489464E-2,-1.3618222E-1,-4.325E-3,1.1200164E-2,-8.976408E-2,8.497928E-2,-5.4352764E-2],"split_indices":[11,14,0,14,11,0,14,14,11,14,14,14,0,14,14,0,0,14,0,0,14,0,0,0,0,0,0,0,0],"split_type":[0,0,0,0,0,0,0,0,0,0,0,0,0,0,0,0,0,0,0,0,0,0,0,0,0,0,0,0,0],"sum_hessian":[2.2111668E1,1.9251652E1,2.8600166E0,8.460734E0,1.0790917E1,1.0965856E0,7.3641486E0,6.076862E0,4.714056E0,3.6648328E0,3.6993158E0,3.549309E0,2.5275526E0,2.445834E0,2.268222E0,1.1761488E0,2.488684E0,2.6378307E0,1.0614849E0,1.1220869E0,2.4272223E0,1.0621749E0,1.3836589E0,1.0248357E0,1.2433863E0,1.3056217E0,1.3322091E0,1.0011808E0,1.4260414E0],"tree_param":{"num_deleted":"0","num_feature":"15","num_nodes":"29","size_leaf_vector":"0"}},{"base_weights":[-1.842355E-2,-1.7689607E-1,5.461724E-1,-6.890664E-2,-6.500987E-1,1.1063172E-1,7.486689E-1,-1.5289864E-1,5.697767E-1,-9.841344E-3,-4.7012043E-1,-1.0958116E-1,2.843911E-1,-6.7333764E-1,-6.1065283E-2,4.2591266E-2,-4.1300148E-1],"categories":[],"categories_nodes":[],"categories_segments":[],"categories_sizes":[],"default_left":[1,1,1,1,0,0,0,1,0,1,1,1,0,0,0,0,0],"id":17,"left_children":[1,3,5,7,-1,-1,-1,9,-1,11,13,15,-1,-1,-1,-1,-1],"loss_changes":[2.060383E0,8.695631E-1,3.6299765E-1,9.286414E-1,0E0,0E0,0E0,6.6030836E-1,0E0,3.5748953E-1,3.3566737E-1,4.3436003E-1,0E0,0E0,0E0,0E0,0E0],"parents":[2147483647,0,0,1,1,2,2,3,3,7,7,9,9,10,10,11,11],"right_children":[2,4,6,8,-1,-1,-1,10,-1,12,14,16,-1,-1,-1,-1,-1],"split_conditions":[2.462059E0,5.048091E-1,5.8159524E-1,4.3033636E-1,-1.9502962E-1,3.3189517E-2,2.2460069E-1,9.968182E-2,1.7093302E-1,6.637424E-2,2.0640504E0,3.9304547E-2,8.5317336E-2,-2.020013E-1,-1.8319586E-2,1.2777381E-2,-1.2390045E-1],"split_indices":[11,14,13,14,0,0,0,14,0,14,11,14,0,0,0,0,0],"split_type":[0,0,0,0,0,0,0,0,0,0,0,0,0,0,0,0,0],"sum_hessian":[2.0948174E1,1.6893219E1,4.054955E0,1.46870985E1,2.2061205E0,1.777706E0,2.277249E0,1.3652312E1,1.0347857E0,1.0119674E1,3.532639E0,8.0264225E0,2.0932515E0,1.928491E0,1.604148E0,5.9180236E0,2.1083984E0],"tree_param":{"num_deleted":"0","num_feature":"15","num_nodes":"17","size_leaf_vector":"0"}},{"base_weights":[-1.593188E-2,-1.2033431E-1,6.627824E-1,7.697991E-2,-2.870176E-1,-7.2220206E-2,3.1905535E-1,-1.5692118E-1,-6.948164E-1,5.9658684E-2,-3.6545983E-1,5.011403E-1,7.4739404E-2,-4.0299362E-1,1.5765147E-1,-2.2972248E-1,1.8171054E-1,-1.7656514E-1,-6.042869E-1,-1.1004851E-1,4.5318893E-1,2.5161577E-2,2.31471E-1,-3.990997E-1,1.07579455E-1,-1.9820642E-1,1.9483667E-2],"categories":[],"categories_nodes":[],"categories_segments":[],"categories_sizes":[],"default_left":[1,1,0,1,1,1,1,1,0,1,0,0,0,1,1,0,1,1,0,1,0,0,0,0,0,0,0],"id":18,"left_children":[1,3,-1,5,7,9,11,13,-1,15,-1,-1,-1,17,19,-1,21,23,-1,25,-1,-1,-1,-1,-1,-1,-1],"loss_changes":[1.5637025E0,6.468713E-1,0E0,3.6570844E-1,4.4850677E-1,2.803325E-1,1.3169605E-1,7.8025305E-1,0E0,2.3497549E-1,0E0,0E0,0E0,1.4290828E-1,4.2825648E-1,0E0,2.8501138E-2,2.9523513E-1,0E0,4.170697E-2,0E0,0E0,0E0,0E0,0E0,0E0,0E0],"parents":[2147483647,0,0,1,1,3,3,4,4,5,5,6,6,7,7,9,9,13,13,14,14,16,16,17,17,19,19],"right_children":[2,4,-1,6,8,10,12,14,-1,16,-1,-1,-1,18,20,-1,22,24,-1,26,-1,-1,-1,-1,-1,-1,-1],"split_conditions":[2.7363162E0,6.8125755E-2,1.9883472E-1,3.5225756E-2,5.289515E-1,2.470303E-2,4.2722728E-2,1.8197145E0,-2.0844494E-1,6.1924243E-3,-1.0963795E-1,1.5034209E-1,2.2421822E-2,4.34103E-1,3.6139244E-1,-6.8916745E-2,1.8366667E-2,9.6404545E-2,-1.8128608E-1,1.4777121E-1,1.3595669E-1,7.5484733E-3,6.94413E-2,-1.19729914E-1,3.2273836E-2,-5.946193E-2,5.8451E-3],"split_indices":[11,14,0,14,10,14,14,11,0,14,0,0,0,14,14,0,14,14,0,14,0,0,0,0,0,0,0],"split_type":[0,0,0,0,0,0,0,0,0,0,0,0,0,0,0,0,0,0,0,0,0,0,0,0,0,0,0],"sum_hessian":[1.994213E1,1.7996536E1,1.9455937E0,8.48749E0,9.509047E0,5.68517E0,2.80232E0,8.259039E0,1.2500072E0,4.470984E0,1.2141861E0,1.0033448E0,1.7989752E0,4.4763556E0,3.7826831E0,1.0646236E0,3.4063606E0,2.990072E0,1.4862837E0,2.3141458E0,1.4685374E0,1.1847451E0,2.2216153E0,1.4499466E0,1.5401254E0,1.0615185E0,1.2526273E0],"tree_param":{"num_deleted":"0","num_feature":"15","num_nodes":"27","size_leaf_vector":"0"}},{"base_weights":[-1.8643597E-2,-1.06828175E-1,6.1663634E-1,-1.9132977E-2,-4.3514916E-1,-8.537368E-2,4.71543E-1,-6.344202E-1,4.0146965E-3,2.2641152E-2,-3.829436E-1,-9.94618E-2,1.0799686E-1,-5.464726E-1,-1.174444E-1,2.1617502E-1,-2.8305995E-1,3.5727197E-1,-6.6953495E-2],"categories":[],"categories_nodes":[],"categories_segments":[],"categories_sizes":[],"default_left":[1,1,0,1,1,1,0,0,0,1,1,1,1,0,0,0,0,0,0],"id":19,"left_children":[1,3,-1,5,7,9,-1,-1,-1,11,13,15,17,-1,-1,-1,-1,-1,-1],"loss_changes":[1.191478E0,5.241991E-1,0E0,5.486864E-1,3.397165E-1,4.7886857E-1,0E0,0E0,0E0,1.3244192E-1,1.0739213E-1,3.6977112E-1,3.445529E-1,0E0,0E0,0E0,0E0,0E0,0E0],"parents":[2147483647,0,0,1,1,3,3,4,4,5,5,9,9,10,10,11,11,12,12],"right_children":[2,4,-1,6,8,10,-1,-1,-1,12,14,16,18,-1,-1,-1,-1,-1,-1],"split_conditions":[2.7363162E0,4.542E-1,1.8499091E-1,3.3844846E-1,2.200503E0,9.968182E-2,1.414629E-1,-1.9032608E-1,1.2044089E-3,2.4348484E-2,2.0640504E0,1.1036364E-2,4.1439395E-2,-1.6394179E-1,-3.5233323E-2,6.4852506E-2,-8.491799E-2,1.07181594E-1,-2.008605E-2],"split_indices":[11,14,0,14,11,14,0,0,0,14,11,14,14,0,0,0,0,0,0],"split_type":[0,0,0,0,0,0,0,0,0,0,0,0,0,0,0,0,0,0,0],"sum_hessian":[1.9092213E1,1.749547E1,1.5967431E0,1.4642661E1,2.852809E0,1.3628798E1,1.013864E0,1.6565422E0,1.1962669E0,1.0677051E1,2.9517467E0,4.3249154E0,6.352135E0,1.171748E0,1.7799987E0,1.525273E0,2.7996423E0,2.1898417E0,4.1622934E0],"tree_param":{"num_deleted":"0","num_feature":"15","num_nodes":"19","size_leaf_vector":"0"}},{"base_weights":[-1.4834711E-2,-1.4778918E-1,3.329106E-1,-5.8359116E-2,-5.8781636E-1,5.3015125E-1,-5.0137892E-2,-1.2070291E-1,2.8534085E-1,6.626421E-1,1.8759845E-1,-1.8585572E-1,2.970686E-1,1.1570771E-2,-3.817436E-1,-1.5316695E-1,3.4653664E-1,-6.610657E-1,-1.363936E-1],"categories":[],"categories_nodes":[],"categories_segments":[],"categories_sizes":[],"default_left":[1,1,1,1,0,1,0,1,0,0,0,1,0,1,1,0,0,0,0],"id":20,"left_children":[1,3,5,7,-1,9,-1,11,-1,-1,-1,13,-1,15,17,-1,-1,-1,-1],"loss_changes":[9.461774E-1,5.4523903E-1,4.5522064E-1,3.2049823E-1,0E0,4.957807E-2,0E0,3.8191968E-1,0E0,0E0,0E0,4.2977592E-1,0E0,4.089122E-1,2.9020578E-1,0E0,0E0,0E0,0E0],"parents":[2147483647,0,0,1,1,2,2,3,3,5,5,7,7,11,11,13,13,14,14],"right_children":[2,4,6,8,-1,10,-1,12,-1,-1,-1,14,-1,16,18,-1,-1,-1,-1],"split_conditions":[2.2014494E0,4.542E-1,2.5486365E-1,2.0593815E0,-1.7634492E-1,7.605152E-2,-1.5041368E-2,3.1644243E-1,8.560225E-2,1.9879265E-1,5.6279536E-2,3.9304547E-2,8.912058E-2,2.4348484E-2,6.637424E-2,-4.5950085E-2,1.03961E-1,-1.9831972E-1,-4.0918082E-2],"split_indices":[11,14,14,6,0,14,0,14,0,0,0,14,0,14,14,0,0,0,0],"split_type":[0,0,0,0,0,0,0,0,0,0,0,0,0,0,0,0,0,0,0],"sum_hessian":[1.8400682E1,1.3727294E1,4.6733885E0,1.2349947E1,1.3773472E0,2.8314018E0,1.8419865E0,1.1002935E1,1.3470113E0,1.3679062E0,1.4634956E0,9.998728E0,1.004208E0,5.4484324E0,4.5502954E0,4.016056E0,1.4323759E0,1.3354994E0,3.2147958E0],"tree_param":{"num_deleted":"0","num_feature":"15","num_nodes":"19","size_leaf_vector":"0"}},{"base_weights":[-9.108369E-3,-8.311205E-2,5.444288E-1,-2.2883918E-3,-6.213058E-1,-7.003202E-2,4.5366395E-1,1.5365487E-2,-5.833794E-1,-6.962761E-2,3.4932372E-1,-1.3218626E-1,2.416343E-1],"categories":[],"categories_nodes":[],"categories_segments":[],"categories_sizes":[],"default_left":[1,1,0,1,0,1,0,1,0,1,0,0,0],"id":21,"left_children":[1,3,-1,5,-1,7,-1,9,-1,11,-1,-1,-1],"loss_changes":[8.1392056E-1,7.563E-1,0E0,5.305688E-1,0E0,6.632986E-1,0E0,4.1521415E-1,0E0,2.6193476E-1,0E0,0E0,0E0],"parents":[2147483647,0,0,1,1,3,3,5,5,7,7,9,9],"right_children":[2,4,-1,6,-1,8,-1,10,-1,12,-1,-1,-1],"split_conditions":[1.4977334E0,5.442788E-1,1.6332865E-1,4.3033636E-1,-1.8639176E-1,2.499288E-1,1.3609919E-1,2.2014494E0,-1.7501383E-1,2.0593815E0,1.0479712E-1,-3.965588E-2,7.249029E-2],"split_indices":[13,14,0,14,0,14,0,11,0,6,0,0,0],"split_type":[0,0,0,0,0,0,0,0,0,0,0,0,0],"sum_hessian":[1.7764668E1,1.6419374E1,1.3452921E0,1.5148664E1,1.2707105E0,1.3925999E1,1.222666E0,1.2771478E1,1.1545215E0,1.0811448E1,1.9600292E0,9.4812E0,1.330248E0],"tree_param":{"num_deleted":"0","num_feature":"15","num_nodes":"13","size_leaf_vector":"0"}},{"base_weights":[-3.53343E-3,-6.7249425E-2,4.885693E-1,1.8590635E-2,-4.8714426E-1,2.6664168E-1,-3.1785548E-2,-7.816814E-2,2.7048326E-1,8.028339E-3,-2.9182303E-1,-1.6591337E-1,1.607106E-1,-3.4005886E-1,-9.009944E-2],"categories":[],"categories_nodes":[],"categories_segments":[],"categories_sizes":[],"default_left":[1,1,0,1,0,0,1,1,0,1,1,0,0,0,0],"id":22,"left_children":[1,3,-1,5,-1,-1,7,9,-1,11,13,-1,-1,-1,-1],"loss_changes":[6.013315E-1,6.193154E-1,0E0,1.9616975E-1,0E0,0E0,2.0870936E-1,2.3023473E-1,0E0,2.8667775E-1,4.2341948E-3,0E0,0E0,0E0,0E0],"parents":[2147483647,0,0,1,1,3,3,6,6,7,7,9,9,10,10],"right_children":[2,4,-1,6,-1,-1,8,10,-1,12,14,-1,-1,-1,-1],"split_conditions":[1.3604153E0,4.542E-1,1.4657079E-1,1.1372727E-2,-1.4614329E-1,7.99925E-2,3.1644243E-1,9.968182E-2,8.114498E-2,3.4948483E-2,2.2014494E0,-4.9774013E-2,4.8213184E-2,-1.0201766E-1,-2.7029833E-2],"split_indices":[13,14,0,14,0,0,14,14,0,14,11,0,0,0,0],"split_type":[0,0,0,0,0,0,0,0,0,0,0,0,0,0,0],"sum_hessian":[1.7130404E1,1.5931042E1,1.1993612E0,1.402052E1,1.9105215E0,1.6420579E0,1.2378463E1,1.1374467E1,1.0039957E0,8.790479E0,2.5839884E0,4.068651E0,4.721827E0,1.5319132E0,1.0520753E0],"tree_param":{"num_deleted":"0","num_feature":"15","num_nodes":"15","size_leaf_vector":"0"}},{"base_weights":[-1.4157306E-3,-6.2564015E-2,4.3620208E-1,2.9123027E-2,-6.5972435E-1,-4.0140256E-2,3.0626056E-1,3.1947353E-1,-1.0697292E-1,5.7032615E-1,-7.8702904E-2,-1.640914E-1,1.939693E-1,-2.2509214E-1,1.4417034E-1],"categories":[],"categories_nodes":[],"categories_segments":[],"categories_sizes":[],"default_left":[1,1,0,1,0,1,1,0,1,0,0,1,0,0,0],"id":23,"left_children":[1,3,-1,5,-1,7,9,-1,11,-1,-1,13,-1,-1,-1],"loss_changes":[5.057867E-1,9.2610306E-1,0E0,3.0630443E-1,0E0,3.499385E-1,3.6799586E-1,0E0,2.3515064E-1,0E0,0E0,2.2957972E-1,0E0,0E0,0E0],"parents":[2147483647,0,0,1,1,3,3,5,5,6,6,8,8,11,11],"right_children":[2,4,-1,6,-1,8,10,-1,12,-1,-1,14,-1,-1,-1],"split_conditions":[2.682557E0,5.289515E-1,1.3086063E-1,2.2014494E0,-1.9791731E-1,1.1036364E-2,2.391654E0,9.584206E-2,2.0593815E0,1.7109784E-1,-2.3610873E-2,2.1220334E0,5.819079E-2,-6.7527644E-2,4.3251105E-2],"split_indices":[11,10,0,11,0,14,11,0,6,0,0,9,0,0,0],"split_type":[0,0,0,0,0,0,0,0,0,0,0,0,0,0,0],"sum_hessian":[1.6881304E1,1.5563634E1,1.3176697E0,1.4316701E1,1.2469327E0,1.2138229E1,2.178472E0,1.3098696E0,1.082836E1,1.0065334E0,1.1719387E0,9.4832E0,1.3451593E0,8.141844E0,1.3413565E0],"tree_param":{"num_deleted":"0","num_feature":"15","num_nodes":"15","size_leaf_vector":"0"}},{"base_weights":[1.0177398E-2,-4.2500395E-2,4.3162537E-1,1.1018527E-1,-2.0657925E-1,-2.0638932E-1,1.8072663E-1,-6.6752054E-2,-5.7575846E-1,3.054299E-1,9.882185E-3,-2.3454295E-1,2.5036386E-1,9.044923E-2,3.509901E-1,-2.715862E-1,1.8299608E-1,-3.6190742E-1,7.319729E-2,-4.8014753E-2,-5.618275E-1],"categories":[],"categories_nodes":[],"categories_segments":[],"categories_sizes":[],"default_left":[1,1,0,1,1,0,1,1,0,1,1,1,0,0,0,0,0,1,0,0,0],"id":24,"left_children":[1,3,-1,5,7,-1,9,11,-1,13,15,17,-1,-1,-1,-1,-1,19,-1,-1,-1],"loss_changes":[4.011436E-1,4.295421E-1,0E0,2.3968497E-1,3.8354003E-1,0E0,1.6623661E-1,4.3437684E-1,0E0,1.2905806E-2,2.6338768E-1,2.2769323E-1,0E0,0E0,0E0,0E0,0E0,2.1142048E-1,0E0,0E0,0E0],"parents":[2147483647,0,0,1,1,3,3,4,4,6,6,7,7,9,9,10,10,11,11,17,17],"right_children":[2,4,-1,6,8,-1,10,12,-1,14,16,18,-1,-1,-1,-1,-1,20,-1,-1,-1],"split_conditions":[1.3063676E0,6.8125755E-2,1.2948762E-1,4.8242426E-3,2.391654E0,-6.19168E-2,2.6821213E-2,2.104146E0,-1.7272754E-1,1.8066667E-2,3.6937878E-2,4.3033636E-1,7.510916E-2,2.713477E-2,1.0529703E-1,-8.147587E-2,5.4898825E-2,9.968182E-2,2.1959187E-2,-1.4404426E-2,-1.6854826E-1],"split_indices":[13,14,0,14,11,0,14,11,0,14,14,14,0,0,0,0,0,14,0,0,0],"split_type":[0,0,0,0,0,0,0,0,0,0,0,0,0,0,0,0,0,0,0,0,0],"sum_hessian":[1.624248E1,1.5237112E1,1.005367E0,8.062713E0,7.1743984E0,1.1182871E0,6.944426E0,6.059983E0,1.114416E0,3.5589216E0,3.3855045E0,4.133351E0,1.9266319E0,1.1443676E0,2.414554E0,1.0726452E0,2.312859E0,2.7989383E0,1.3344126E0,1.5715818E0,1.2273563E0],"tree_param":{"num_deleted":"0","num_feature":"15","num_nodes":"21","size_leaf_vector":"0"}},{"base_weights":[8.2184334E-4,5.6713756E-2,-3.68155E-1,-2.9286945E-2,3.277318E-1,2.8079298E-1,-8.9453205E-2,4.0644574E-1,6.352698E-2,-2.9414168E-1,-5.0616376E-3,2.9037663E-1,-1.1994609E-1,-4.6687955E-1,2.1184485E-2],"categories":[],"categories_nodes":[],"categories_segments":[],"categories_sizes":[],"default_left":[1,1,0,1,1,0,1,0,0,0,1,0,1,0,0],"id":25,"left_children":[1,3,-1,5,7,-1,9,-1,-1,-1,11,-1,13,-1,-1],"loss_changes":[3.705393E-1,3.7299073E-1,0E0,2.630491E-1,5.399075E-2,0E0,1.9611335E-1,0E0,0E0,0E0,3.442828E-1,0E0,3.659625E-1,0E0,0E0],"parents":[2147483647,0,0,1,1,3,3,4,4,6,6,10,10,12,12],"right_children":[2,4,-1,6,8,-1,10,-1,-1,-1,12,-1,14,-1,-1],"split_conditions":[5.289515E-1,2.2014494E0,-1.10446505E-1,1.1036364E-2,2.6716828E0,8.4237896E-2,2.4348484E-2,1.2193373E-1,1.9058095E-2,-8.824251E-2,3.9304547E-2,8.711299E-2,5.5E-2,-1.4006387E-1,6.3553457E-3],"split_indices":[10,11,0,14,11,0,14,0,0,0,14,0,14,0,0],"split_type":[0,0,0,0,0,0,0,0,0,0,0,0,0,0,0],"sum_hessian":[1.5954995E1,1.45910635E1,1.3639321E0,1.1753367E1,2.8376958E0,1.31407E0,1.0439298E1,1.7715333E0,1.0661626E0,2.3219817E0,8.117316E0,1.8450384E0,6.2722774E0,1.1462865E0,5.125991E0],"tree_param":{"num_deleted":"0","num_feature":"15","num_nodes":"15","size_leaf_vector":"0"}},{"base_weights":[-1.3739925E-3,-5.4999124E-2,3.8766485E-1,1.4881395E-4,-3.0991906E-1,-5.2580394E-2,3.372686E-1,4.172204E-2,-1.9870012E-1,-1.0825225E-1,2.9352906E-1,-4.8222443E-1,2.466829E-2,5.5114336E-2,-4.2515558E-1,2.9011008E-1,-3.4680897E-1],"categories":[],"categories_nodes":[],"categories_segments":[],"categories_sizes":[],"default_left":[1,1,0,1,0,1,0,1,1,1,0,0,1,0,0,0,0],"id":26,"left_children":[1,3,-1,5,-1,7,-1,9,11,13,-1,-1,15,-1,-1,-1,-1],"loss_changes":[3.7027904E-1,2.1902111E-1,0E0,2.631388E-1,0E0,1.8471181E-1,0E0,3.5684526E-1,3.409249E-1,3.405481E-1,0E0,0E0,4.8096824E-1,0E0,0E0,0E0,0E0],"parents":[2147483647,0,0,1,1,3,3,5,5,7,7,8,8,9,9,12,12],"right_children":[2,4,-1,6,-1,8,-1,10,12,14,-1,-1,16,-1,-1,-1,-1],"split_conditions":[2.682557E0,4.542E-1,1.1629946E-1,3.2957274E-1,-9.297572E-2,6.8125755E-2,1.0118058E-1,3.5225756E-2,9.130454E-2,2.470303E-2,8.8058725E-2,-1.4466734E-1,2.1675825E0,1.6534302E-2,-1.2754668E-1,8.7033026E-2,-1.04042694E-1],"split_indices":[11,14,0,14,0,14,0,14,14,14,0,0,11,0,0,0,0],"split_type":[0,0,0,0,0,0,0,0,0,0,0,0,0,0,0,0,0],"sum_hessian":[1.5726752E1,1.4576197E1,1.1505555E0,1.2805371E1,1.7708254E0,1.1803246E1,1.0021257E0,7.6078043E0,4.1954417E0,5.125309E0,2.4824955E0,1.3380998E0,2.8573418E0,3.9269927E0,1.1983161E0,1.7942699E0,1.0630718E0],"tree_param":{"num_deleted":"0","num_feature":"15","num_nodes":"17","size_leaf_vector":"0"}},{"base_weights":[-5.673369E-3,-5.1463597E-2,3.410104E-1,-7.3662708E-3,-2.5763604E-1,-5.507571E-2,2.977037E-1,9.715552E-3,-2.5177306E-1,-7.622839E-2,2.4520686E-1,3.3669267E-2,-3.3003718E-1],"categories":[],"categories_nodes":[],"categories_segments":[],"categories_sizes":[],"default_left":[1,1,0,1,0,1,0,1,0,1,0,0,0],"id":27,"left_children":[1,3,-1,5,-1,7,-1,9,-1,11,-1,-1,-1],"loss_changes":[2.8093833E-1,1.3924834E-1,0E0,2.1752469E-1,0E0,1.654941E-1,0E0,2.3295523E-1,0E0,2.4872912E-1,0E0,0E0,0E0],"parents":[2147483647,0,0,1,1,3,3,5,5,7,7,9,9],"right_children":[2,4,-1,6,-1,8,-1,10,-1,12,-1,-1,-1],"split_conditions":[2.682557E0,4.542E-1,1.02303125E-1,3.3844846E-1,-7.729082E-2,9.968182E-2,8.9311115E-2,6.637424E-2,-7.553192E-2,4.1439395E-2,7.356206E-2,1.010078E-2,-9.901116E-2],"split_indices":[11,14,0,14,0,14,0,14,0,14,0,0,0],"split_type":[0,0,0,0,0,0,0,0,0,0,0,0,0],"sum_hessian":[1.5591698E1,1.4524806E1,1.0668917E0,1.2818782E1,1.7060248E0,1.1793828E1,1.0249537E0,9.5866375E0,2.2071905E0,7.518879E0,2.0677583E0,5.852239E0,1.6666397E0],"tree_param":{"num_deleted":"0","num_feature":"15","num_nodes":"13","size_leaf_vector":"0"}},{"base_weights":[-3.0596491E-3,-8.030589E-2,1.8606056E-1,3.2716777E-4,-2.9288167E-1,2.804721E-1,-2.977714E-2,-8.369401E-2,2.640199E-1,-5.479739E-1,8.115497E-2,7.90054E-3,4.9842048E-1,3.0845664E-2,-3.2808706E-1,-1.13978654E-1,2.640451E-1,1.16049744E-1,-2.5810385E-1],"categories":[],"categories_nodes":[],"categories_segments":[],"categories_sizes":[],"default_left":[1,1,1,1,1,1,0,1,0,0,0,0,0,1,0,1,0,0,0],"id":28,"left_children":[1,3,5,7,9,11,-1,13,-1,-1,-1,-1,-1,15,-1,17,-1,-1,-1],"loss_changes":[2.5610012E-1,2.129653E-1,1.1204748E-1,2.4371289E-1,3.7043935E-1,2.1207374E-1,0E0,2.4371657E-1,0E0,0E0,0E0,0E0,0E0,2.5286227E-1,0E0,1.8800956E-1,0E0,0E0,0E0],"parents":[2147483647,0,0,1,1,2,2,3,3,4,4,5,5,7,7,13,13,15,15],"right_children":[2,4,6,8,10,12,-1,14,-1,-1,-1,-1,-1,16,-1,18,-1,-1,-1],"split_conditions":[2.104146E0,9.968182E-2,2.5486365E-1,6.637424E-2,4.3033636E-1,1.1082121E-1,-8.933142E-3,3.9304547E-2,7.9205975E-2,-1.6439217E-1,2.4346493E-2,2.370162E-3,1.4952615E-1,2.4348484E-2,-9.8426126E-2,1.1036364E-2,7.921353E-2,3.4814924E-2,-7.743116E-2],"split_indices":[11,14,14,14,14,14,0,14,0,0,0,0,0,14,0,14,0,0,0],"split_type":[0,0,0,0,0,0,0,0,0,0,0,0,0,0,0,0,0,0,0],"sum_hessian":[1.5507718E1,1.1418995E1,4.0887227E0,9.002629E0,2.4163659E0,2.636158E0,1.4525645E0,7.3449078E0,1.6577214E0,1.1601315E0,1.2562344E0,1.6317283E0,1.0044298E0,5.596012E0,1.7488959E0,3.7675083E0,1.8285038E0,1.5262939E0,2.2412145E0],"tree_param":{"num_deleted":"0","num_feature":"15","num_nodes":"19","size_leaf_vector":"0"}},{"base_weights":[-2.2722485E-3,1.1835988E-1,-1.350607E-1,-1.283464E-2,3.3026177E-1,-4.4751507E-1,-6.311744E-3,1.4435706E-1,-3.8591626E-1,1.7783788E-1,-1.2364732E-1,-1.9849412E-1,2.894664E-1,3.3543774E-1,-7.179465E-2,-4.1520295E-1,1.3288371E-1,3.9865512E-1,-1.985502E-1],"categories":[],"categories_nodes":[],"categories_segments":[],"categories_sizes":[],"default_left":[1,1,1,1,0,0,1,1,0,1,1,0,0,0,0,0,1,0,0],"id":29,"left_children":[1,3,5,7,-1,-1,9,11,-1,13,15,-1,-1,-1,-1,-1,17,-1,-1],"loss_changes":[2.761361E-1,2.556307E-1,3.269583E-1,4.396926E-1,0E0,0E0,1.6934852E-1,3.2284808E-1,0E0,1.4464131E-1,4.1085327E-1,0E0,0E0,0E0,0E0,0E0,3.6871296E-1,0E0,0E0],"parents":[2147483647,0,0,1,1,2,2,3,3,6,6,7,7,9,9,10,10,16,16],"right_children":[2,4,6,8,-1,-1,10,12,-1,14,16,-1,-1,-1,-1,-1,18,-1,-1],"split_conditions":[6.8125755E-2,3.4948483E-2,9.058182E-2,2.470303E-2,9.9078536E-2,-1.3425453E-1,1.7927727E-1,4.8242426E-3,-1.15774885E-1,2.1316738E0,4.3033636E-1,-5.954824E-2,8.683993E-2,1.0063133E-1,-2.1538395E-2,-1.24560885E-1,5.442788E-1,1.1959654E-1,-5.956506E-2],"split_indices":[14,14,14,14,0,0,14,14,0,11,14,0,0,0,0,0,14,0,0],"split_type":[0,0,0,0,0,0,0,0,0,0,0,0,0,0,0,0,0,0,0],"sum_hessian":[1.5240564E1,8.042754E0,7.1978097E0,5.547543E0,2.4952114E0,1.3779234E0,5.8198867E0,4.334389E0,1.213154E0,2.0643713E0,3.755515E0,1.1795535E0,3.1548355E0,1.0547515E0,1.00962E0,1.468261E0,2.287254E0,1.1568089E0,1.1304452E0],"tree_param":{"num_deleted":"0","num_feature":"15","num_nodes":"19","size_leaf_vector":"0"}},{"base_weights":[-1.0003259E-2,-8.699644E-2,2.2160985E-1,-2.7950827E-2,-3.6113626E-1,3.3241013E-1,-1.4101288E-3,-8.5336804E-2,2.4025615E-1,9.381756E-4,-3.0690202E-1,-1.11269236E-1,2.0462945E-1,1.5727535E-2,-3.571089E-1],"categories":[],"categories_nodes":[],"categories_segments":[],"categories_sizes":[],"default_left":[1,1,1,1,0,0,0,1,0,1,0,1,0,0,0],"id":30,"left_children":[1,3,5,7,-1,-1,-1,9,-1,11,-1,13,-1,-1,-1],"loss_changes":[3.0787686E-1,1.9813505E-1,1.07206866E-1,2.0009361E-1,0E0,0E0,0E0,1.9812754E-1,0E0,2.1580888E-1,0E0,1.9586909E-1,0E0,0E0,0E0],"parents":[2147483647,0,0,1,1,2,2,3,3,7,7,9,9,11,11],"right_children":[2,4,6,8,-1,-1,-1,10,-1,12,-1,14,-1,-1,-1],"split_conditions":[2.2014494E0,4.34103E-1,2.5486365E-1,1.4958484E-1,-1.0834088E-1,9.972304E-2,-4.2303864E-4,6.8125755E-2,7.207685E-2,3.5225756E-2,-9.207061E-2,2.470303E-2,6.138884E-2,4.718261E-3,-1.0713267E-1],"split_indices":[11,14,14,14,0,0,0,14,0,14,0,14,0,0,0],"split_type":[0,0,0,0,0,0,0,0,0,0,0,0,0,0,0],"sum_hessian":[1.5183681E1,1.1864165E1,3.319515E0,1.0668325E1,1.1958396E0,1.8900234E0,1.4294918E0,9.349679E0,1.3186469E0,7.4460406E0,1.9036381E0,5.093771E0,2.3522696E0,3.9759073E0,1.1178639E0],"tree_param":{"num_deleted":"0","num_feature":"15","num_nodes":"15","size_leaf_vector":"0"}}]},"name":"gbtree"},"learner_model_param":{"base_score":"5E-1","boost_from_average":"1","num_class":"0","num_feature":"15","num_target":"1"},"objective":{"name":"binary:logistic","reg_loss_param":{"scale_pos_weight":"1"}}},"version":[2,0,3]}