{"learner":{"attributes":{"niter":"41"},"feature_names":[],"feature_types":[],"gradient_booster":{"model":{"gbtree_model_param":{"num_parallel_tree":"1","num_trees":"42"},"iteration_indptr":[0,1,2,3,4,5,6,7,8,9,10,11,12,13,14,15,16,17,18,19,20,21,22,23,24,25,26,27,28,29,30,31,32,33,34,35,36,37,38,39,40,41,42],"tree_info":[0,0,0,0,0,0,0,0,0,0,0,0,0,0,0,0,0,0,0,0,0,0,0,0,0,0,0,0,0,0,0,0,0,0,0,0,0,0,0,0,0,0],"trees":[{"base_weights":[-0E0,-1.8833063E0,1.9398998E0,-5E-1,-1.9456706E0,6E-1,1.9725558E0,-7.368421E-1,-1.1764706E-1,-1.9521368E0,-5E-1,1.2727273E0,-1.5384616E-1,-3.3333334E-1,-9.0909094E-1,5E-1,-4.6153846E-1,-5E-1,2.2222222E-1,-5E-1,-0E0,-6.666667E-1,-0E0],"categories":[],"categories_nodes":[],"categories_segments":[],"categories_sizes":[],"default_left":[1,1,1,1,1,1,0,1,1,0,0,0,1,1,0,0,1,0,0,0,0,0,0],"id":0,"left_children":[1,3,5,7,9,11,-1,13,15,-1,-1,-1,17,19,-1,-1,21,-1,-1,-1,-1,-1,-1],"loss_changes":[1.1106414E3,1.23341675E1,5.3688965E0,6.377709E-1,4.0039062E-1,2.7314684E0,0E0,2.71132E-2,1.1334841E0,0E0,0E0,0E0,5.3418803E-1,1.6666666E-1,0E0,0E0,3.076923E-1,0E0,0E0,0E0,0E0,0E0,0E0],"parents":[2147483647,0,0,1,1,2,2,3,3,4,4,5,5,7,7,8,8,12,12,13,13,16,16],"right_children":[2,4,6,8,10,12,-1,14,16,-1,-1,-1,18,20,-1,-1,22,-1,-1,-1,-1,-1,-1],"split_conditions":[2.123733E0,4.6451516E-2,2.6458857E0,2.1548485E-2,2.0459623E0,3.6885303E-1,5.917668E-1,1.07227275E-2,2.825606E-2,-5.85641E-1,-1.5E-1,3.818182E-1,2.3510587E0,4.8242426E-3,-2.7272728E-1,1.5E-1,3.6645457E-2,-1.5E-1,6.666667E-2,-1.5E-1,-0E0,-2.0000002E-1,-0E0],"split_indices":[11,14,11,14,6,14,0,14,14,0,0,0,11,14,0,0,14,0,0,0,0,0,0],"split_type":[0,0,0,0,0,0,0,0,0,0,0,0,0,0,0,0,0,0,0,0,0,0,0],"sum_hessian":[3.02E2,1.5325E2,1.4875E2,7E0,1.4625E2,4E0,1.4475E2,3.75E0,3.25E0,1.4525E2,1E0,1.75E0,2.25E0,2E0,1.75E0,1E0,2.25E0,1E0,1.25E0,1E0,1E0,1.25E0,1E0],"tree_param":{"num_deleted":"0","num_feature":"15","num_nodes":"23","size_leaf_vector":"0"}},{"base_weights":[-8.952654E-4,-1.4529071E0,1.5006818E0,-4.1243678E-1,-1.5031979E0,4.8800653E-1,1.5267881E0,-6.1031187E-1,-9.464823E-2,-9.899931E-1,-1.5299184E0,1.0565835E0,-1.3369776E-1,1.5340647E0,4.7869822E-1,1.7847027E-1,-2.6777467E-1,-1.1507944E0,9.858318E-2],"categories":[],"categories_nodes":[],"categories_segments":[],"categories_sizes":[],"default_left":[1,1,1,1,1,1,1,0,1,1,0,0,0,0,0,0,0,0,0],"id":1,"left_children":[1,3,5,7,9,11,13,-1,15,17,-1,-1,-1,-1,-1,-1,-1,-1,-1],"loss_changes":[6.1076086E2,6.83197E0,2.8956604E0,4.4178784E-1,3.430786E-1,1.884216E0,2.859497E-1,0E0,2.4789484E-1,1.7829933E0,0E0,0E0,0E0,0E0,0E0,0E0,0E0,0E0,0E0],"parents":[2147483647,0,0,1,1,2,2,3,3,4,4,5,5,6,6,8,8,9,9],"right_children":[2,4,6,8,10,12,14,-1,16,18,-1,-1,-1,-1,-1,-1,-1,-1,-1],"split_conditions":[2.123733E0,4.6451516E-2,2.6458857E0,2.1548485E-2,9.911667E-2,3.6885303E-1,3.188251E0,-1.8309356E-1,3.197273E-2,9.1633335E-2,-4.5897555E-1,3.1697506E-1,-4.010933E-2,4.602194E-1,1.4360948E-1,5.3541083E-2,-8.0332406E-2,-3.4523833E-1,2.9574955E-2],"split_indices":[11,14,11,14,14,14,10,0,14,14,0,0,0,0,0,0,0,0,0],"split_type":[0,0,0,0,0,0,0,0,0,0,0,0,0,0,0,0,0,0,0],"sum_hessian":[2.78126E2,1.4141315E2,1.3671286E2,6.944233E0,1.344689E2,3.9307454E0,1.3278212E2,3.7122538E0,3.231979E0,8.537831E0,1.25931076E2,1.6877372E0,2.2430081E0,1.3140613E2,1.3759805E0,1.2419126E0,1.9900663E0,7.389169E0,1.1486619E0],"tree_param":{"num_deleted":"0","num_feature":"15","num_nodes":"19","size_leaf_vector":"0"}},{"base_weights":[-5.792752E-4,-1.2414544E0,1.2948143E0,-4.6858528E-1,-1.3079444E0,6.03288E-1,1.3381083E0,-3.3236957E-1,-8.4982556E-1,1.9300066E-1,1.0764885E0,-1.8927383E-1,-4.1215712E-1,7.245222E-1,-3.6912936E-1,-4.4911554E-1,2.343486E-1,-4.7585675E-1,-1.6886422E-1,8.548415E-1,2.145583E-1,-5.7047015E-1,-4.611044E-2],"categories":[],"categories_nodes":[],"categories_segments":[],"categories_sizes":[],"default_left":[1,1,1,1,0,1,0,1,0,1,0,1,1,1,1,0,0,0,0,0,0,0,0],"id":2,"left_children":[1,3,5,7,-1,9,-1,11,-1,13,-1,15,17,19,21,-1,-1,-1,-1,-1,-1,-1,-1],"loss_changes":[3.8122525E2,5.6118317E0,2.6666718E0,2.9676747E-1,0E0,1.4730709E0,0E0,3.4562707E-2,0E0,2.016956E0,0E0,6.973256E-1,4.5886636E-3,3.903401E-2,2.0186174E-1,0E0,0E0,0E0,0E0,0E0,0E0,0E0,0E0],"parents":[2147483647,0,0,1,1,2,2,3,3,5,5,7,7,9,9,11,11,12,12,13,13,14,14],"right_children":[2,4,6,8,-1,10,-1,12,-1,14,-1,16,18,20,22,-1,-1,-1,-1,-1,-1,-1,-1],"split_conditions":[2.123733E0,6.996061E-2,2.9548693E0,1.557262E0,-3.9238334E-1,5.869506E-1,4.014325E-1,2.825606E-2,-2.549477E-1,2.7304244E-1,3.2294655E-1,1.8669698E-2,5.55197E-2,2.4609017E0,5.1701665E-1,-1.3473468E-1,7.030458E-2,-1.4275703E-1,-5.065927E-2,2.5645244E-1,6.4367495E-2,-1.7114106E-1,-1.3833133E-2],"split_indices":[11,14,11,10,0,7,0,14,0,14,0,14,14,11,14,0,0,0,0,0,0,0,0],"split_type":[0,0,0,0,0,0,0,0,0,0,0,0,0,0,0,0,0,0,0,0,0,0,0],"sum_hessian":[2.3516566E2,1.201316E2,1.1503406E2,1.0153729E1,1.09977875E2,7.657479E0,1.0737658E2,8.859923E0,1.2938064E0,4.855442E0,2.8020368E0,4.378853E0,4.4810705E0,2.3471806E0,2.5082614E0,2.676786E0,1.7020669E0,2.7937121E0,1.6873585E0,1.3308169E0,1.0163636E0,1.0732418E0,1.4350197E0],"tree_param":{"num_deleted":"0","num_feature":"15","num_nodes":"23","size_leaf_vector":"0"}},{"base_weights":[2.4549197E-4,-1.1076145E0,1.1722902E0,-4.79446E-1,-1.2006289E0,5.1435393E-1,1.2205088E0,-5.5988705E-1,3.010703E-1,-1.2117296E0,-4.1089487E-1,1.6500959E-1,9.5048887E-1,-2.4272113E-1,-8.3807516E-1,6.375327E-1,-3.066903E-1,-3.684949E-1,1.746247E-1,1.9931535E-1,7.472888E-1,-4.713469E-1,-3.795197E-2,-7.710891E-2,-4.800448E-1],"categories":[],"categories_nodes":[],"categories_segments":[],"categories_sizes":[],"default_left":[1,1,1,1,1,1,0,1,0,0,0,1,0,1,0,1,1,1,0,0,0,0,0,0,0],"id":3,"left_children":[1,3,5,7,9,11,-1,13,-1,-1,-1,15,-1,17,-1,19,21,23,-1,-1,-1,-1,-1,-1,-1],"loss_changes":[2.5160399E2,5.244629E0,2.3593597E0,1.0797334E0,2.569275E-1,1.086092E0,0E0,9.882536E-1,0E0,0E0,0E0,1.4748341E0,0E0,4.6950895E-1,0E0,4.58622E-3,1.3908795E-1,1.6622281E-1,0E0,0E0,0E0,0E0,0E0,0E0,0E0],"parents":[2147483647,0,0,1,1,2,2,3,3,4,4,5,5,7,7,11,11,13,13,15,15,16,16,17,17],"right_children":[2,4,6,8,10,12,-1,14,-1,-1,-1,16,-1,18,-1,20,22,24,-1,-1,-1,-1,-1,-1,-1],"split_conditions":[2.123733E0,9.911667E-2,2.9548693E0,9.1633335E-2,1.8400211E0,5.869506E-1,3.6615264E-1,4.6451516E-2,9.0321094E-2,-3.635189E-1,-1.2326846E-1,2.7304244E-1,2.8514668E-1,3.4737878E-2,-2.5142255E-1,9.9700004E-2,5.1701665E-1,1.07227275E-2,5.2387413E-2,5.979461E-2,2.2418666E-1,-1.4140408E-1,-1.1385591E-2,-2.3132674E-2,-1.4401345E-1],"split_indices":[11,14,11,14,11,7,0,14,0,0,0,14,0,14,0,14,14,14,0,0,0,0,0,0,0],"split_type":[0,0,0,0,0,0,0,0,0,0,0,0,0,0,0,0,0,0,0,0,0,0,0,0,0],"sum_hessian":[1.9177087E2,9.86131E1,9.315778E1,1.35123825E1,8.5100716E1,7.1577954E0,8.5999985E1,1.2506153E1,1.0062298E0,8.339415E1,1.7065662E0,4.7396655E0,2.41813E0,6.718645E0,5.7875075E0,2.1921375E0,2.5475278E0,5.2527094E0,1.4659357E0,1.0030994E0,1.189038E0,1.1121721E0,1.4353557E0,1.9223853E0,3.3303242E0],"tree_param":{"num_deleted":"0","num_feature":"15","num_nodes":"25","size_leaf_vector":"0"}},{"base_weights":[1.1908086E-3,-1.0007688E0,1.097867E0,-1.0343523E0,6.265882E-1,4.805295E-1,1.1457243E0,-1.262957E-1,-1.080165E0,6.493385E-1,-2.2432007E-1,-3.841005E-1,3.7461904E-1,-1.09427E0,-3.7299857E-1,9.0407276E-1,2.5509775E-1,-1.4408831E-1,-4.685283E-1,-6.811147E-1,-1.1327578E0,-1.07398726E-1,-4.5263326E-1,-2.8266248E-1,7.3128897E-1,-8.38448E-1,2.4999435E-1],"categories":[],"categories_nodes":[],"categories_segments":[],"categories_sizes":[],"default_left":[1,1,1,1,0,1,0,1,1,1,0,1,0,1,1,0,1,0,0,1,0,0,0,0,0,0,0],"id":4,"left_children":[1,3,5,7,-1,9,-1,11,13,15,-1,17,-1,19,21,-1,23,-1,-1,25,-1,-1,-1,-1,-1,-1,-1],"loss_changes":[1.7102518E2,5.0932465E0,1.644844E0,3.1944275E0,0E0,9.86709E-1,0E0,7.8672886E-1,3.5079956E-1,3.6786628E-1,0E0,9.091675E-3,0E0,4.065094E-1,1.4949203E-2,0E0,1.1624606E0,0E0,0E0,1.5018845E0,0E0,0E0,0E0,0E0,0E0,0E0,0E0],"parents":[2147483647,0,0,1,1,2,2,3,3,5,5,7,7,8,8,9,9,11,11,13,13,14,14,16,16,19,19],"right_children":[2,4,6,8,-1,10,-1,12,14,16,-1,18,-1,20,22,-1,24,-1,-1,26,-1,-1,-1,-1,-1,-1,-1],"split_conditions":[2.1413052E0,2.1234224E0,2.9548693E0,2.470303E-2,1.8797648E-1,2.929388E0,3.437173E-1,1.8669698E-2,1.8400211E0,4.339167E-1,-6.729602E-2,7.7984845E-3,1.1238571E-1,9.911667E-2,1.9923637E0,2.7122185E-1,5.869506E-1,-4.3226495E-2,-1.405585E-1,9.1633335E-2,-3.3982736E-1,-3.221962E-2,-1.3578999E-1,-8.4798746E-2,2.193867E-1,-2.515344E-1,7.499831E-2],"split_indices":[11,6,11,14,0,11,0,14,11,14,0,14,0,14,11,0,7,0,0,14,0,0,0,0,0,0,0],"split_type":[0,0,0,0,0,0,0,0,0,0,0,0,0,0,0,0,0,0,0,0,0,0,0,0,0,0,0],"sum_hessian":[1.5364375E2,8.033474E1,7.330901E1,7.906743E1,1.2673056E0,6.068535E0,6.724048E1,3.9779024E0,7.508953E1,4.959506E0,1.1090286E0,2.780216E0,1.1976864E0,7.30844E1,2.005133E0,2.2272158E0,2.7322903E0,1.4278253E0,1.3523906E0,7.821338E0,6.5263054E1,1.0042784E0,1.0008545E0,1.4740561E0,1.2582341E0,6.7759027E0,1.0454353E0],"tree_param":{"num_deleted":"0","num_feature":"15","num_nodes":"27","size_leaf_vector":"0"}},{"base_weights":[2.766614E-3,-9.259262E-1,1.0270562E0,-2.9344866E-1,-1.0620422E0,3.920729E-1,1.0943133E0,-3.5661674E-1,2.0794632E-1,-1.0774701E0,-3.2035777E-1,1.0988428E-1,7.897925E-1,-1.1779797E-1,-6.226401E-1,4.7949016E-1,-2.1668072E-1,-2.46224E-1,2.5151494E-1,-3.8909164E-1,2.2431534E-2,-1.0509026E-1,-4.5633823E-1],"categories":[],"categories_nodes":[],"categories_segments":[],"categories_sizes":[],"default_left":[1,1,1,1,1,1,0,1,0,0,0,1,0,1,0,0,1,1,0,0,0,0,0],"id":5,"left_children":[1,3,5,7,9,11,-1,13,-1,-1,-1,15,-1,17,-1,-1,19,21,-1,-1,-1,-1,-1],"loss_changes":[1.1808114E2,5.293331E0,2.0918121E0,4.831047E-1,2.635002E-1,7.2258735E-1,0E0,6.7858195E-1,0E0,0E0,0E0,7.532793E-1,0E0,4.1622633E-1,0E0,0E0,1.548779E-1,1.3138929E-1,0E0,0E0,0E0,0E0,0E0],"parents":[2147483647,0,0,1,1,2,2,3,3,4,4,5,5,7,7,11,11,13,13,16,16,17,17],"right_children":[2,4,6,8,10,12,-1,14,-1,-1,-1,16,-1,18,-1,-1,20,22,-1,-1,-1,-1,-1],"split_conditions":[2.123733E0,9.911667E-2,2.9548693E0,9.1633335E-2,1.8400211E0,5.869506E-1,3.2829398E-1,4.6451516E-2,6.2383898E-2,-3.2324103E-1,-9.6107334E-2,2.7304244E-1,2.3693775E-1,3.4737878E-2,-1.8679203E-1,1.4384705E-1,5.1701665E-1,2.470303E-2,7.545449E-2,-1.1672749E-1,6.7294603E-3,-3.152708E-2,-1.3690147E-1],"split_indices":[11,14,11,14,11,7,0,14,0,0,0,14,0,14,0,0,14,14,0,0,0,0,0],"split_type":[0,0,0,0,0,0,0,0,0,0,0,0,0,0,0,0,0,0,0,0,0,0,0],"sum_hessian":[1.22132835E2,6.4105934E1,5.8026905E1,1.1911895E1,5.2194035E1,6.211612E0,5.1815292E1,1.0835534E1,1.0763603E0,5.068696E1,1.507078E0,4.380126E0,1.8314861E0,6.4699955E0,4.3655386E0,1.8349957E0,2.54513E0,5.0479107E0,1.4220847E0,1.1143781E0,1.4307519E0,3.9170117E0,1.1308992E0],"tree_param":{"num_deleted":"0","num_feature":"15","num_nodes":"23","size_leaf_vector":"0"}},{"base_weights":[3.0854295E-3,-8.337281E-1,9.9660164E-1,-2.48906E-1,-9.948663E-1,3.9914474E-1,1.0564401E0,-2.974152E-1,1.5450032E-1,-1.0329783E0,-2.4691847E-1,5.8873177E-1,-2.0769218E-1,-3.521559E-1,2.3143565E-2,-7.489711E-2,-2.9769304E-1,7.105394E-1,2.0243439E-1,-2.2254999E-1,-6.719134E-1,-3.445787E-1,2.8064726E-2],"categories":[],"categories_nodes":[],"categories_segments":[],"categories_sizes":[],"default_left":[1,1,1,1,1,1,0,1,0,0,1,1,0,1,0,0,0,0,0,1,0,0,0],"id":6,"left_children":[1,3,5,7,9,11,-1,13,-1,-1,15,17,-1,19,-1,-1,-1,-1,-1,21,-1,-1,-1],"loss_changes":[8.238865E1,4.8216705E0,1.1980324E0,2.9944128E-1,9.375992E-1,7.817018E-1,0E0,2.1705687E-1,0E0,0E0,6.8997294E-3,7.393229E-2,0E0,2.74436E-1,0E0,0E0,0E0,0E0,0E0,2.7802774E-1,0E0,0E0,0E0],"parents":[2147483647,0,0,1,1,2,2,3,3,4,4,5,5,7,7,10,10,11,11,13,13,19,19],"right_children":[2,4,6,8,10,12,-1,14,-1,-1,16,18,-1,20,-1,-1,-1,-1,-1,22,-1,-1,-1],"split_conditions":[2.3194427E0,1.171197E-1,2.9548693E0,2.2309823E0,1.8400211E0,2.929388E0,3.1693205E-1,9.1633335E-2,4.63501E-2,-3.098935E-1,2.6998937E-1,5.875833E-1,-6.2307656E-2,6.996061E-2,6.94307E-3,-2.2469133E-2,-8.930792E-2,2.1316183E-1,6.073032E-2,3.795E-2,-2.0157403E-1,-1.0337362E-1,8.419418E-3],"split_indices":[11,14,11,9,11,11,0,14,0,0,14,14,0,14,0,0,0,0,0,14,0,0,0],"split_type":[0,0,0,0,0,0,0,0,0,0,0,0,0,0,0,0,0,0,0,0,0,0,0],"sum_hessian":[9.709832E1,5.2792973E1,4.430535E1,1.19537325E1,4.083924E1,4.7317343E0,3.9573616E1,1.0905141E1,1.0485917E0,3.849655E1,2.3426883E0,3.6280878E0,1.1036463E0,9.230339E0,1.6748016E0,1.0979584E0,1.2447299E0,2.1201894E0,1.5078983E0,7.7749496E0,1.4553901E0,4.9767485E0,2.798201E0],"tree_param":{"num_deleted":"0","num_feature":"15","num_nodes":"23","size_leaf_vector":"0"}},{"base_weights":[2.278884E-3,-7.558411E-1,9.473539E-1,-2.002664E-1,-9.4706535E-1,3.3199173E-1,1.0264183E0,-3.3540957E-2,-3.603753E-1,-9.8682743E-1,-7.924021E-2,5.692336E-2,7.450892E-1,-2.3531076E-1,1.9279201E-1,-5.009832E-1,1.8758511E-2,3.7796268E-1,-1.6032067E-1,4.5205485E-2,-4.6254122E-1,3.1756234E-1,2.6081756E-2,-2.221207E-1,-6.6062075E-1,-3.2947034E-1,5.813397E-2],"categories":[],"categories_nodes":[],"categories_segments":[],"categories_sizes":[],"default_left":[1,1,1,1,1,1,0,1,1,0,0,1,0,1,1,1,0,0,1,0,0,0,0,0,0,0,0],"id":7,"left_children":[1,3,5,7,9,11,-1,13,15,-1,-1,17,-1,19,21,23,-1,-1,25,-1,-1,-1,-1,-1,-1,-1,-1],"loss_changes":[5.729871E1,4.524929E0,1.3910999E0,3.2509547E-1,1.0517483E0,5.8606195E-1,0E0,3.7829873E-1,3.4742522E-1,0E0,0E0,3.676664E-1,0E0,2.952989E-1,7.462235E-2,6.0780406E-2,0E0,0E0,1.4213088E-1,0E0,0E0,0E0,0E0,0E0,0E0,0E0,0E0],"parents":[2147483647,0,0,1,1,2,2,3,3,4,4,5,5,7,7,8,8,11,11,13,13,14,14,15,15,18,18],"right_children":[2,4,6,8,10,12,-1,14,16,-1,-1,18,-1,20,22,24,-1,-1,26,-1,-1,-1,-1,-1,-1,-1,-1],"split_conditions":[2.3194427E0,1.171197E-1,2.9548693E0,4.6451516E-2,2.1246843E0,8.161788E-1,3.0792552E-1,2.1548485E-2,9.1633335E-2,-2.9604825E-1,-2.3772065E-2,2.5777688E0,2.2352676E-1,1.07227275E-2,3.197273E-2,6.996061E-2,5.6275534E-3,1.1338881E-1,3.1844395E-1,1.3561646E-2,-1.3876237E-1,9.5268704E-2,7.824527E-3,-6.663621E-2,-1.9818623E-1,-9.884111E-2,1.7440192E-2],"split_indices":[11,14,11,14,9,14,0,14,14,0,0,11,0,14,14,14,0,0,14,0,0,0,0,0,0,0,0],"split_type":[0,0,0,0,0,0,0,0,0,0,0,0,0,0,0,0,0,0,0,0,0,0,0,0,0,0,0],"sum_hessian":[7.79731E1,4.33771E1,3.4595997E1,1.1631303E1,3.1745798E1,4.5308867E0,3.0065111E1,6.2904186E0,5.340884E0,3.0223871E1,1.5219274E0,3.4028406E0,1.1280464E0,3.3047001E0,2.9857183E0,3.6615503E0,1.6793342E0,1.0747651E0,2.3280754E0,1.8374388E0,1.4672613E0,1.190123E0,1.7955953E0,2.2036011E0,1.4579492E0,1.0256935E0,1.302382E0],"tree_param":{"num_deleted":"0","num_feature":"15","num_nodes":"27","size_leaf_vector":"0"}},{"base_weights":[3.040367E-3,-7.051204E-1,8.756183E-1,-1.5182827E-1,-9.318415E-1,2.83592E-1,1.0005887E0,-2.0078689E-1,1.6622606E-1,-9.660678E-1,-1.4074329E-1,5.6126293E-2,6.5863097E-1,-8.215112E-2,-6.054376E-1,3.7457252E-1,-3.1115344E-1,-3.481948E-1,-2.895112E-3,6.375012E-1,-4.974307E-2,1.9335774E-1,-1.58688E-1],"categories":[],"categories_nodes":[],"categories_segments":[],"categories_sizes":[],"default_left":[1,1,1,1,1,1,0,1,0,0,0,1,0,1,0,1,0,0,1,0,0,0,0],"id":8,"left_children":[1,3,5,7,9,11,-1,13,-1,-1,-1,15,-1,17,-1,19,-1,-1,21,-1,-1,-1,-1],"loss_changes":[4.0388786E1,4.3848267E0,1.8825569E0,2.1529043E-1,5.51775E-1,5.174513E-1,0E0,4.5802364E-1,0E0,0E0,0E0,7.175483E-1,0E0,1.9584815E-1,0E0,3.893879E-1,0E0,0E0,2.8144458E-1,0E0,0E0,0E0,0E0],"parents":[2147483647,0,0,1,1,2,2,3,3,4,4,5,5,7,7,11,11,13,13,15,15,18,18],"right_children":[2,4,6,8,10,12,-1,14,-1,-1,-1,16,-1,18,-1,20,-1,-1,22,-1,-1,-1,-1],"split_conditions":[2.123733E0,9.911667E-2,2.9548693E0,9.1633335E-2,2.2109046E0,5.869506E-1,3.0017662E-1,6.996061E-2,4.986782E-2,-2.8982034E-1,-4.2222988E-2,2.5777688E0,1.975893E-1,6.2621213E-3,-1.8163128E-1,3.6885303E-1,-9.334604E-2,-1.04458444E-1,2.825606E-2,1.9125037E-1,-1.4922922E-2,5.8007322E-2,-4.76064E-2],"split_indices":[11,14,11,14,9,7,0,14,0,0,0,11,0,14,0,14,0,0,14,0,0,0,0],"split_type":[0,0,0,0,0,0,0,0,0,0,0,0,0,0,0,0,0,0,0,0,0,0,0],"sum_hessian":[6.336274E1,3.5082577E1,2.8280163E1,1.0682526E1,2.4400051E1,5.498974E0,2.2781189E1,9.577023E0,1.1055036E0,2.3176178E1,1.2238733E0,4.1385484E0,1.3604251E0,8.336066E0,1.240956E0,2.206001E0,1.9325475E0,1.1345059E0,7.2015605E0,1.0518168E0,1.1541842E0,3.0802445E0,4.121316E0],"tree_param":{"num_deleted":"0","num_feature":"15","num_nodes":"23","size_leaf_vector":"0"}},{"base_weights":[4.185901E-3,-6.3196903E-1,8.2699376E-1,-1.3026056E-1,-8.878046E-1,2.5722542E-1,9.763775E-1,-1.7300977E-1,1.3862072E-1,-9.294571E-1,-6.1707165E-2,3.8169596E-1,-1.7041503E-1,-6.880831E-2,-5.5583245E-1,7.703097E-1,-5.937651E-2,-2.9889917E-1,-1.1720589E-3,-3.4999093E-1,2.9356223E-1,1.695068E-1,-1.1298474E-1],"categories":[],"categories_nodes":[],"categories_segments":[],"categories_sizes":[],"default_left":[1,1,1,1,1,1,0,1,0,0,0,1,0,1,0,0,1,0,1,0,0,0,0],"id":9,"left_children":[1,3,5,7,9,11,-1,13,-1,-1,-1,15,-1,17,-1,-1,19,-1,21,-1,-1,-1,-1],"loss_changes":[2.8201132E1,3.7848978E0,1.7481842E0,1.5541904E-1,6.292429E-1,3.9703757E-1,0E0,3.7306547E-1,0E0,0E0,0E0,9.2670393E-1,0E0,1.4354289E-1,0E0,0E0,4.4489023E-1,0E0,1.7467912E-1,0E0,0E0,0E0,0E0],"parents":[2147483647,0,0,1,1,2,2,3,3,4,4,5,5,7,7,11,11,13,13,16,16,18,18],"right_children":[2,4,6,8,10,12,-1,14,-1,-1,-1,16,-1,18,-1,-1,20,-1,22,-1,-1,-1,-1],"split_conditions":[2.123733E0,9.911667E-2,2.9548693E0,9.1633335E-2,1.8057556E0,2.929388E0,2.9291326E-1,6.996061E-2,4.1586217E-2,-2.7883714E-1,-1.851215E-2,4.339167E-1,-5.112451E-2,6.2621213E-3,-1.6674975E-1,2.3109291E-1,7.029576E-1,-8.966976E-2,2.470303E-2,-1.04997285E-1,8.806867E-2,5.085204E-2,-3.389542E-2],"split_indices":[11,14,11,14,11,11,0,14,0,0,0,14,0,14,0,0,14,0,14,0,0,0,0],"split_type":[0,0,0,0,0,0,0,0,0,0,0,0,0,0,0,0,0,0,0,0,0,0,0],"sum_hessian":[5.187875E1,2.9388742E1,2.249001E1,1.043475E1,1.8953993E1,5.237072E0,1.7252937E1,9.310964E0,1.1237855E0,1.792508E1,1.0289142E0,4.139618E0,1.0974543E0,8.2461605E0,1.0648036E0,1.8038555E0,2.3357623E0,1.0965626E0,7.1495976E0,1.285564E0,1.0501982E0,2.6256413E0,4.523956E0],"tree_param":{"num_deleted":"0","num_feature":"15","num_nodes":"23","size_leaf_vector":"0"}},{"base_weights":[3.8982534E-3,-5.259463E-1,8.295583E-1,-6.041567E-1,7.053874E-1,2.661703E-1,9.518464E-1,-1.0353876E-1,-7.29445E-1,-8.8672705E-2,6.9506174E-1,-1.9047573E-1,1.6912472E-1,-8.115527E-1,-8.399652E-3,1.1680136E-1,-2.2777292E-1,8.5557245E-2,-3.527425E-1,-4.0257525E-1,-8.9158547E-1,-1.5378319E-1,1.4112955E-1,-4.479054E-1,-7.588395E-2,-7.7198803E-1,3.9154314E-2],"categories":[],"categories_nodes":[],"categories_segments":[],"categories_sizes":[],"default_left":[1,1,1,1,0,1,0,1,1,1,0,1,0,1,1,0,0,0,1,1,0,0,0,0,0,0,0],"id":10,"left_children":[1,3,5,7,-1,9,-1,11,13,15,-1,17,-1,19,21,-1,-1,-1,23,25,-1,-1,-1,-1,-1,-1,-1],"loss_changes":[1.9713991E1,3.0700111E0,9.6008873E-1,1.5773411E0,0E0,7.5095284E-1,0E0,1.8488136E-1,1.231247E0,1.22795485E-1,0E0,2.6997703E-1,0E0,2.5523472E-1,9.01452E-2,0E0,0E0,0E0,5.9986055E-2,8.288592E-1,0E0,0E0,0E0,0E0,0E0,0E0,0E0],"parents":[2147483647,0,0,1,1,2,2,3,3,5,5,7,7,8,8,9,9,11,11,13,13,14,14,18,18,19,19],"right_children":[2,4,6,8,-1,10,-1,12,14,16,-1,18,-1,20,22,-1,-1,-1,24,26,-1,-1,-1,-1,-1,-1,-1],"split_conditions":[2.3300514E0,2.1234224E0,2.9548693E0,4.1645456E-2,2.1161623E-1,6.4311665E-1,2.8555393E-1,3.3701517E-2,1.8400211E0,2.7304244E-1,2.0851853E-1,1.07227275E-2,5.073742E-2,9.911667E-2,3.9885604E-1,3.504041E-2,-6.833188E-2,2.5667174E-2,2.1548485E-2,6.769697E-2,-2.6747566E-1,-4.6134956E-2,4.2338867E-2,-1.3437162E-1,-2.2765186E-2,-2.3159643E-1,1.1746295E-2],"split_indices":[11,6,11,14,0,14,0,14,11,14,0,14,0,14,14,0,0,0,14,14,0,0,0,0,0,0,0],"split_type":[0,0,0,0,0,0,0,0,0,0,0,0,0,0,0,0,0,0,0,0,0,0,0,0,0,0,0],"sum_hessian":[4.306616E1,2.6453411E1,1.6612747E1,2.5352451E1,1.1009581E0,3.529363E0,1.30833845E1,5.44042E0,1.9912031E1,2.3655107E0,1.1638521E0,4.353698E0,1.0867226E0,1.77637E1,2.1483314E0,1.0196406E0,1.3458703E0,1.7868364E0,2.5668614E0,3.8941646E0,1.3869535E1,1.074841E0,1.0734905E0,1.4504827E0,1.1163787E0,1.7135206E0,2.180644E0],"tree_param":{"num_deleted":"0","num_feature":"15","num_nodes":"27","size_leaf_vector":"0"}},{"base_weights":[6.18187E-3,-4.2421818E-1,8.3912915E-1,-5.110467E-1,5.356852E-1,8.962118E-1,7.995742E-2,-3.0493575E-1,-9.197744E-1,2.123516E-1,9.47529E-1,-3.9872047E-1,3.939946E-1,-4.8245913E-1,2.896827E-1,-2.7210304E-1,-7.0871335E-1],"categories":[],"categories_nodes":[],"categories_segments":[],"categories_sizes":[],"default_left":[1,1,1,1,0,1,0,1,0,0,0,1,0,1,0,0,0],"id":11,"left_children":[1,3,5,7,-1,9,-1,11,-1,-1,-1,13,-1,15,-1,-1,-1],"loss_changes":[1.3761583E1,2.383977E0,4.9495792E-1,1.7186198E0,0E0,2.2212029E-1,0E0,1.2891906E0,0E0,0E0,0E0,1.0462265E0,0E0,4.9225044E-1,0E0,0E0,0E0],"parents":[2147483647,0,0,1,1,2,2,3,3,5,5,7,7,11,11,13,13],"right_children":[2,4,6,8,-1,10,-1,12,-1,-1,-1,14,-1,16,-1,-1,-1],"split_conditions":[2.6458857E0,1.4466171E0,2.634904E0,5.442788E-1,1.6070557E-1,2.9356356E0,2.3987226E-2,2.123733E0,-2.7593234E-1,6.370548E-2,2.8425872E-1,2.132822E0,1.1819839E-1,9.911667E-2,8.690481E-2,-8.1630915E-2,-2.1261401E-1],"split_indices":[11,6,10,14,0,11,0,9,0,0,0,11,0,14,0,0,0],"split_type":[0,0,0,0,0,0,0,0,0,0,0,0,0,0,0,0,0],"sum_hessian":[3.6393555E1,2.4318445E1,1.207511E1,2.2729998E1,1.5884472E0,1.106278E1,1.0123308E0,1.6271006E1,6.458992E0,1.1308568E0,9.931923E0,1.4724723E1,1.5462826E0,1.33945465E1,1.3301758E0,8.082562E0,5.3119845E0],"tree_param":{"num_deleted":"0","num_feature":"15","num_nodes":"17","size_leaf_vector":"0"}},{"base_weights":[1.11096585E-2,-3.5283932E-1,7.858806E-1,-1.2983103E-1,-7.290623E-1,1.9939466E-1,8.975764E-1,-2.191154E-1,5.6774354E-1,-8.8625747E-1,-4.637449E-3,-3.061321E-1,4.727721E-1,5.572546E-2,-4.4225898E-1,-1.8172109E-1,4.1550955E-1,-5.212868E-1,1.143443E-1],"categories":[],"categories_nodes":[],"categories_segments":[],"categories_sizes":[],"default_left":[1,1,1,1,1,0,0,1,0,0,0,1,0,1,1,0,0,0,0],"id":12,"left_children":[1,3,5,7,9,-1,-1,11,-1,-1,-1,13,-1,15,17,-1,-1,-1,-1],"loss_changes":[9.432073E0,1.8165967E0,5.21081E-1,1.0909543E0,9.366245E-1,0E0,0E0,1.0164781E0,0E0,0E0,0E0,6.8810034E-1,0E0,4.6590942E-1,4.950328E-1,0E0,0E0,0E0,0E0],"parents":[2147483647,0,0,1,1,2,2,3,3,4,4,7,7,11,11,13,13,14,14],"right_children":[2,4,6,8,10,-1,-1,12,-1,-1,-1,14,-1,16,18,-1,-1,-1,-1],"split_conditions":[2.6458857E0,4.542E-1,2.9548693E0,2.1234224E0,2.3194427E0,5.98184E-2,2.6927292E-1,3.4629092E-1,1.7032307E-1,-2.6587725E-1,-1.3912348E-3,2.470303E-2,1.4183164E-1,1.8669698E-2,1.9277074E0,-5.451633E-2,1.2465287E-1,-1.5638605E-1,3.4303293E-2],"split_indices":[11,14,11,6,11,0,0,14,0,0,0,14,0,14,11,0,0,0,0],"split_type":[0,0,0,0,0,0,0,0,0,0,0,0,0,0,0,0,0,0,0],"sum_hessian":[3.1466406E1,2.1779884E1,9.686521E0,1.4518847E1,7.2610373E0,1.9952314E0,7.69129E0,1.34794655E1,1.0393822E0,5.782813E0,1.4782245E0,1.2468837E1,1.0106293E0,3.5698805E0,8.898955E0,2.4487176E0,1.1211629E0,7.848113E0,1.0508429E0],"tree_param":{"num_deleted":"0","num_feature":"15","num_nodes":"19","size_leaf_vector":"0"}},{"base_weights":[2.0063678E-2,-2.3803721E-1,8.647145E-1,-3.6645404E-1,1.6532816E-1,-1.7519432E-4,-7.7302754E-1,-1.617895E-1,3.757143E-1,-5.421078E-2,2.4148242E-1,1.5333737E-1,-4.1353703E-1,5.6172484E-1,4.91091E-2,4.8049472E-2,-3.3172444E-1,-7.946601E-2,2.5869796E-1],"categories":[],"categories_nodes":[],"categories_segments":[],"categories_sizes":[],"default_left":[1,1,0,1,1,1,0,1,1,1,0,0,0,0,0,1,0,0,0],"id":13,"left_children":[1,3,-1,5,7,9,-1,11,13,15,-1,-1,-1,-1,-1,17,-1,-1,-1],"loss_changes":[6.445578E0,1.236789E0,0E0,2.6111062E0,4.8558497E-1,1.466054E-1,0E0,3.1053114E-1,2.1891594E-1,2.7625144E-1,0E0,0E0,0E0,0E0,0E0,2.2406632E-1,0E0,0E0,0E0],"parents":[2147483647,0,0,1,1,3,3,4,4,5,5,7,7,8,8,9,9,15,15],"right_children":[2,4,-1,6,8,10,-1,12,14,16,-1,-1,-1,-1,-1,18,-1,-1,-1],"split_conditions":[2.9548693E0,1.8400211E0,2.5941437E-1,9.911667E-2,3.3749697E-1,9.1633335E-2,-2.3190828E-1,1.7223485E-1,5.5637276E-1,5.648788E-2,7.244473E-2,4.6001215E-2,-1.24061115E-1,1.6851746E-1,1.4732731E-2,3.4737878E-2,-9.951734E-2,-2.3839803E-2,7.760939E-2],"split_indices":[11,11,0,14,14,14,0,14,14,14,0,0,0,0,0,14,0,0,0],"split_type":[0,0,0,0,0,0,0,0,0,0,0,0,0,0,0,0,0,0,0],"sum_hessian":[2.7622002E1,2.1707117E1,5.914885E0,1.6534609E1,5.1725082E0,9.224638E0,7.3099713E0,2.1150002E0,3.057508E0,8.172832E0,1.051806E0,1.1128677E0,1.0021325E0,1.4893776E0,1.5681303E0,6.5763774E0,1.5964543E0,4.4844704E0,2.0919068E0],"tree_param":{"num_deleted":"0","num_feature":"15","num_nodes":"19","size_leaf_vector":"0"}},{"base_weights":[2.1513587E-2,-1.9285312E-1,8.2788813E-1,-1.0787947E-1,-8.2310873E-1,6.447095E-2,-4.7581398E-1,-3.162805E-2,6.620245E-1,-8.0364156E-1,1.593368E-1,1.0947115E-1,-5.288444E-1,8.522429E-3,5.6692123E-1],"categories":[],"categories_nodes":[],"categories_segments":[],"categories_sizes":[],"default_left":[1,1,0,1,0,1,1,1,0,0,0,1,0,0,0],"id":14,"left_children":[1,3,-1,5,-1,7,9,11,-1,-1,-1,13,-1,-1,-1],"loss_changes":[4.601934E0,1.0418999E0,0E0,1.2834297E0,0E0,8.4405977E-1,1.4650794E0,9.9116033E-1,0E0,0E0,0E0,5.119372E-1,0E0,0E0,0E0],"parents":[2147483647,0,0,1,1,3,3,5,5,6,6,7,7,11,11],"right_children":[2,4,-1,6,-1,8,10,12,-1,-1,-1,14,-1,-1,-1],"split_conditions":[2.9548693E0,2.999558E0,2.4836645E-1,4.542E-1,-2.4693263E-1,3.680303E-1,2.3194427E0,1.7865758E-1,1.9860736E-1,-2.4109247E-1,4.7801044E-2,2.1128511E0,-1.5865333E-1,2.5567287E-3,1.7007637E-1],"split_indices":[11,10,0,14,0,14,11,14,0,0,0,11,0,0,0],"split_type":[0,0,0,0,0,0,0,0,0,0,0,0,0,0,0],"sum_hessian":[2.4698694E1,2.0112757E1,4.5859385E0,1.8755262E1,1.3574941E0,1.3334023E1,5.4212384E0,1.2302584E1,1.0314397E0,3.4007134E0,2.0205252E0,1.01905575E1,2.1120267E0,9.182762E0,1.0077945E0],"tree_param":{"num_deleted":"0","num_feature":"15","num_nodes":"15","size_leaf_vector":"0"}},{"base_weights":[1.731056E-2,-1.5997753E-1,7.872969E-1,-2.2863889E-1,4.237725E-1,-3.0073595E-1,3.2297745E-1,-3.6152065E-1,3.3310467E-1,-1.9116512E-1,-7.1700704E-1,-2.779728E-1,3.5814753E-1],"categories":[],"categories_nodes":[],"categories_segments":[],"categories_sizes":[],"default_left":[1,1,0,1,0,1,0,1,0,1,0,0,0],"id":15,"left_children":[1,3,-1,5,-1,7,-1,9,-1,11,-1,-1,-1],"loss_changes":[3.3510733E0,8.999186E-1,0E0,8.3590066E-1,0E0,7.733414E-1,0E0,8.284414E-1,0E0,6.7852664E-1,0E0,0E0,0E0],"parents":[2147483647,0,0,1,1,3,3,5,5,7,7,9,9],"right_children":[2,4,-1,6,-1,8,-1,10,-1,12,-1,-1,-1],"split_conditions":[2.9548693E0,1.4466171E0,2.3618908E-1,2.1246843E0,1.2713176E-1,1.051286E0,9.689324E-2,4.3358484E-1,9.9931404E-2,3.3842272E-1,-2.1510212E-1,-8.339184E-2,1.07444264E-1],"split_indices":[11,6,0,9,0,7,0,14,0,14,0,0,0],"split_type":[0,0,0,0,0,0,0,0,0,0,0,0,0],"sum_hessian":[2.2625648E1,1.9035086E1,3.5905638E0,1.7576092E1,1.458993E0,1.5946651E1,1.6294414E0,1.4943244E1,1.0034076E0,1.1141697E1,3.8015466E0,1.0047809E1,1.0938886E0],"tree_param":{"num_deleted":"0","num_feature":"15","num_nodes":"13","size_leaf_vector":"0"}},{"base_weights":[3.0468388E-2,-2.2407132E-1,4.5640382E-1,5.1740125E-2,-6.5874213E-1,1.8474227E-1,7.436213E-1,-2.3542285E-2,2.4664286E-1,3.896353E-1,-9.212409E-2,1.046551E-1,-3.6164305E-1,3.1063652E-2,-1.7839146E-1,-1.5483421E-2,3.3683476E-1,1.5838744E-1,-1.4159128E-1],"categories":[],"categories_nodes":[],"categories_segments":[],"categories_sizes":[],"default_left":[1,1,1,1,0,1,0,1,0,0,1,1,0,0,0,1,0,0,0],"id":16,"left_children":[1,3,5,7,-1,9,-1,11,-1,-1,13,15,-1,-1,-1,17,-1,-1,-1],"loss_changes":[2.4954054E0,1.7709222E0,5.3255916E-1,1.4945929E-1,0E0,3.61689E-1,0E0,3.8352945E-1,0E0,0E0,4.0093563E-2,1.8815073E-1,0E0,0E0,0E0,1.3815443E-1,0E0,0E0,0E0],"parents":[2147483647,0,0,1,1,2,2,3,3,5,5,7,7,10,10,11,11,15,15],"right_children":[2,4,6,8,-1,10,-1,12,-1,-1,14,16,-1,-1,-1,18,-1,-1,-1],"split_conditions":[1.8400211E0,9.911667E-2,2.9548693E0,6.769697E-2,-1.9762264E-1,2.5777688E0,2.230864E-1,4.6451516E-2,7.399286E-2,1.16890594E-1,2.896699E0,3.4737878E-2,-1.0849292E-1,9.319096E-3,-5.351744E-2,1.07227275E-2,1.0105043E-1,4.7516234E-2,-4.2477384E-2],"split_indices":[11,14,11,14,0,11,0,14,0,0,11,14,0,0,0,14,0,0,0],"split_type":[0,0,0,0,0,0,0,0,0,0,0,0,0,0,0,0,0,0,0],"sum_hessian":[2.1073362E1,1.3487275E1,7.5860863E0,8.790445E0,4.69683E0,4.743095E0,2.8429916E0,6.9753733E0,1.815072E0,2.491772E0,2.251323E0,5.5582995E0,1.4170741E0,1.1908014E0,1.0605216E0,4.278009E0,1.2802905E0,1.6908231E0,2.5871859E0],"tree_param":{"num_deleted":"0","num_feature":"15","num_nodes":"19","size_leaf_vector":"0"}},{"base_weights":[2.9508019E-2,-1.294991E-1,5.43785E-1,1.7691145E-2,-5.258965E-1,1.6979739E-1,6.9793254E-1,-5.5470113E-2,4.4873405E-1,-7.059984E-1,-6.567077E-2,9.119986E-2,-3.7488282E-1,-7.25279E-3,4.2220822E-1,-1.4605892E-1,-4.8810646E-1,1.0021354E-1,-3.116269E-1],"categories":[],"categories_nodes":[],"categories_segments":[],"categories_sizes":[],"default_left":[1,1,1,1,1,0,0,1,0,0,0,1,1,1,0,0,0,0,0],"id":17,"left_children":[1,3,5,7,9,-1,-1,11,-1,-1,-1,13,15,17,-1,-1,-1,-1,-1],"loss_changes":[1.7644724E0,9.7968274E-1,1.7463076E-1,4.3786806E-1,3.2961035E-1,0E0,0E0,6.003666E-1,0E0,0E0,0E0,2.9918143E-1,3.2308877E-2,2.9247126E-1,0E0,0E0,0E0,0E0,0E0],"parents":[2147483647,0,0,1,1,2,2,3,3,4,4,7,7,11,11,12,12,13,13],"right_children":[2,4,6,8,10,-1,-1,12,-1,-1,-1,14,16,18,-1,-1,-1,-1,-1],"split_conditions":[2.6458857E0,4.542E-1,2.9548693E0,3.4629092E-1,2.3194427E0,5.093922E-2,2.0937978E-1,9.455454E-2,1.3462022E-1,-2.1179953E-1,-1.9701233E-2,6.769697E-2,1.7865758E-1,4.6451516E-2,1.2666248E-1,-4.3817677E-2,-1.4643194E-1,3.0064063E-2,-9.3488075E-2],"split_indices":[11,14,11,14,11,0,0,14,0,0,0,14,14,14,0,0,0,0,0],"split_type":[0,0,0,0,0,0,0,0,0,0,0,0,0,0,0,0,0,0,0],"sum_hessian":[1.9716354E1,1.5631507E1,4.0848475E0,1.2095556E1,3.5359502E0,1.8056254E0,2.279222E0,1.1085344E1,1.0102124E0,2.1575868E0,1.3783634E0,8.0865755E0,2.9987688E0,6.986617E0,1.0999583E0,1.7506748E0,1.2480941E0,5.659245E0,1.327372E0],"tree_param":{"num_deleted":"0","num_feature":"15","num_nodes":"19","size_leaf_vector":"0"}},{"base_weights":[2.2104578E-2,-1.7064911E-1,3.6372846E-1,5.4206386E-2,-5.1704323E-1,1.587236E-1,7.845097E-1,-2.4053855E-2,3.1706256E-1,-8.6197145E-2,5.722146E-1,6.259777E-2,-2.6841804E-1,2.397576E-1,-2.8114343E-1,-1.291615E-1,1.9604874E-1,-3.465977E-1,-6.7986205E-2,1.0851262E-1,-3.2162222E-1,3.9455387E-1,3.7627826E-3],"categories":[],"categories_nodes":[],"categories_segments":[],"categories_sizes":[],"default_left":[1,1,1,1,0,1,0,1,0,1,0,1,0,0,1,1,1,0,0,0,0,0,0],"id":18,"left_children":[1,3,5,7,-1,9,-1,11,-1,13,-1,15,-1,-1,17,19,21,-1,-1,-1,-1,-1,-1],"loss_changes":[1.371126E0,1.07092E0,5.215878E-1,1.9326617E-1,0E0,6.863252E-1,0E0,1.8372896E-1,0E0,3.736403E-1,0E0,1.950017E-1,0E0,0E0,2.4932683E-2,1.8693663E-1,1.6290747E-1,0E0,0E0,0E0,0E0,0E0,0E0],"parents":[2147483647,0,0,1,1,2,2,3,3,5,5,7,7,9,9,11,11,14,14,15,15,16,16],"right_children":[2,4,6,8,-1,10,-1,12,-1,14,-1,16,-1,-1,18,20,22,-1,-1,-1,-1,-1,-1],"split_conditions":[1.8400211E0,9.455454E-2,5.373662E-1,6.769697E-2,-1.5511298E-1,5.869506E-1,2.3535292E-1,4.6451516E-2,9.511877E-2,1.7400606E-1,1.7166439E-1,1.8669698E-2,-8.052541E-2,7.192728E-2,2.608075E0,7.7984845E-3,2.470303E-2,-1.0397931E-1,-2.0395862E-2,3.255379E-2,-9.648667E-2,1.1836617E-1,1.1288348E-3],"split_indices":[11,14,9,14,0,7,0,14,0,14,0,14,0,0,11,14,14,0,0,0,0,0,0],"split_type":[0,0,0,0,0,0,0,0,0,0,0,0,0,0,0,0,0,0,0,0,0,0,0],"sum_hessian":[1.8879585E1,1.238954E1,6.490046E0,8.024253E0,4.3652864E0,5.2899776E0,1.2000685E0,6.883359E0,1.1408939E0,3.8192697E0,1.4707078E0,5.6305857E0,1.2527734E0,1.3433282E0,2.4759414E0,2.3237169E0,3.3068686E0,1.4153196E0,1.060622E0,1.2348973E0,1.0888196E0,1.1095352E0,2.1973333E0],"tree_param":{"num_deleted":"0","num_feature":"15","num_nodes":"23","size_leaf_vector":"0"}},{"base_weights":[2.9634545E-2,-5.9910927E-2,6.157283E-1,2.1623634E-2,-6.365408E-1,-4.42675E-2,4.414841E-1,-1.5016331E-1,2.1278132E-1,4.406096E-2,-3.5957065E-1,4.076304E-1,-5.877512E-2,-2.0870359E-1,1.2676778E-1,-4.190441E-1,-7.401405E-2],"categories":[],"categories_nodes":[],"categories_segments":[],"categories_sizes":[],"default_left":[1,1,0,1,0,1,0,1,1,1,1,0,0,0,0,0,0],"id":19,"left_children":[1,3,-1,5,-1,7,-1,9,11,13,15,-1,-1,-1,-1,-1,-1],"loss_changes":[1.0275038E0,8.2642365E-1,0E0,4.6525162E-1,0E0,4.3574807E-1,0E0,4.6699297E-1,2.7486572E-1,1.6538689E-1,6.14869E-2,0E0,0E0,0E0,0E0,0E0,0E0],"parents":[2147483647,0,0,1,1,3,3,5,5,7,7,8,8,9,9,10,10],"right_children":[2,4,-1,6,-1,8,-1,10,12,14,16,-1,-1,-1,-1,-1,-1],"split_conditions":[2.9548693E0,2.2835476E0,1.847185E-1,1.4294571E0,-1.9096224E-1,1.8400211E0,1.3244523E-1,6.996061E-2,4.7092575E-1,6.2621213E-3,4.3195605E-1,1.2228913E-1,-1.7632537E-2,-6.261108E-2,3.8030338E-2,-1.2571324E-1,-2.2204217E-2],"split_indices":[11,10,0,6,0,11,0,14,14,14,14,0,0,0,0,0,0],"split_type":[0,0,0,0,0,0,0,0,0,0,0,0,0,0,0,0,0],"sum_hessian":[1.7875313E1,1.6285011E1,1.5903021E0,1.5110859E1,1.174152E0,1.3834325E1,1.2765346E0,1.00924E1,3.7419245E0,5.645665E0,4.4467344E0,1.8869196E0,1.8550048E0,1.0162961E0,4.6293693E0,3.2933562E0,1.1533784E0],"tree_param":{"num_deleted":"0","num_feature":"15","num_nodes":"17","size_leaf_vector":"0"}},{"base_weights":[2.4637064E-2,-5.225041E-2,5.709617E-1,1.8423192E-2,-5.63941E-1,9.999117E-2,-2.3983051E-1,-2.1461616E-3,5.6380945E-1,-5.850867E-1,1.3633232E-1,1.01700336E-1,-5.134896E-1,-1.3267565E-1,1.4310972E-1],"categories":[],"categories_nodes":[],"categories_segments":[],"categories_sizes":[],"default_left":[1,1,0,1,0,1,1,1,0,0,0,1,0,0,0],"id":20,"left_children":[1,3,-1,5,-1,7,9,11,-1,-1,-1,13,-1,-1,-1],"loss_changes":[7.923308E-1,6.189762E-1,0E0,3.5586447E-1,0E0,6.0185826E-1,6.091209E-1,6.568917E-1,0E0,0E0,0E0,1.1894863E-1,0E0,0E0,0E0],"parents":[2147483647,0,0,1,1,3,3,5,5,6,6,7,7,11,11],"right_children":[2,4,-1,6,-1,8,10,12,-1,-1,-1,14,-1,-1,-1],"split_conditions":[2.9548693E0,2.2835476E0,1.7128852E-1,4.542E-1,-1.691823E-1,3.3842272E-1,2.3194427E0,1.7865758E-1,1.6914284E-1,-1.7552602E-1,4.0899698E-2,6.2621213E-3,-1.540469E-1,-3.9802697E-2,4.293292E-2],"split_indices":[11,10,0,14,0,14,11,14,0,0,0,14,0,0,0],"split_type":[0,0,0,0,0,0,0,0,0,0,0,0,0,0,0],"sum_hessian":[1.715232E1,1.5828978E1,1.3233447E0,1.4755038E1,1.0739387E0,1.1679084E1,3.0759547E0,1.0387113E1,1.2919712E0,1.3142653E0,1.7616895E0,9.299607E0,1.087505E0,1.065411E0,8.234197E0],"tree_param":{"num_deleted":"0","num_feature":"15","num_nodes":"15","size_leaf_vector":"0"}},{"base_weights":[9.825007E-3,-6.331126E-2,5.03729E-1,2.535939E-2,-3.9530343E-1,-5.019036E-2,4.941631E-1,-5.583594E-1,-6.954972E-2,1.09056875E-1,-2.4875571E-1,2.1591337E-2,2.969071E-1,-4.184772E-1,-7.7320635E-2,1.5977298E-1,-2.4822347E-1,2.5208193E-1,-3.6990803E-1],"categories":[],"categories_nodes":[],"categories_segments":[],"categories_sizes":[],"default_left":[1,1,0,1,1,1,0,0,0,1,1,1,0,0,1,0,0,0,0],"id":21,"left_children":[1,3,-1,5,7,9,-1,-1,-1,11,13,15,-1,-1,17,-1,-1,-1,-1],"loss_changes":[6.7417014E-1,4.9209136E-1,0E0,5.158233E-1,1.477142E-1,4.333727E-1,0E0,0E0,0E0,1.22152835E-1,1.4287725E-1,2.789184E-1,0E0,0E0,5.002371E-1,0E0,0E0,0E0,0E0],"parents":[2147483647,0,0,1,1,3,3,4,4,5,5,9,9,10,10,11,11,14,14],"right_children":[2,4,-1,6,8,10,-1,-1,-1,12,14,16,-1,-1,18,-1,-1,-1,-1],"split_conditions":[1.1508093E0,4.542E-1,1.511187E-1,3.7617424E-1,2.3194427E0,5.648788E-2,1.4824894E-1,-1.6750783E-1,-2.0864915E-2,3.795E-2,9.1633335E-2,2.470303E-2,8.907213E-2,-1.2554316E-1,1.6546212E-1,4.7931895E-2,-7.446704E-2,7.5624585E-2,-1.1097241E-1],"split_indices":[7,14,0,14,11,14,0,0,0,14,14,14,0,0,14,0,0,0,0],"split_type":[0,0,0,0,0,0,0,0,0,0,0,0,0,0,0,0,0,0,0],"sum_hessian":[1.6780666E1,1.5375683E1,1.4049842E0,1.2863603E1,2.5120807E0,1.1847299E1,1.0163039E0,1.1982454E0,1.3138353E0,6.824722E0,5.0225763E0,5.4172964E0,1.4074256E0,1.7997706E0,3.2228055E0,3.8522606E0,1.5650357E0,1.5811474E0,1.6416582E0],"tree_param":{"num_deleted":"0","num_feature":"15","num_nodes":"19","size_leaf_vector":"0"}},{"base_weights":[6.19637E-3,-1.2545788E-1,2.666837E-1,8.893179E-3,-4.511857E-1,1.1007034E-1,5.044949E-1,-7.271997E-2,2.2755302E-1,-6.061806E-1,-5.393119E-2,3.6306548E-1,-7.4221626E-2,2.2469457E-2,-2.7002278E-1,-2.6064503E-1,2.0346414E-1,-1.3426626E-1,2.1254098E-1,9.538473E-2,-3.5217577E-1],"categories":[],"categories_nodes":[],"categories_segments":[],"categories_sizes":[],"default_left":[1,1,1,1,1,1,0,1,0,0,0,0,1,1,0,0,0,1,0,0,0],"id":22,"left_children":[1,3,5,7,9,11,-1,13,-1,-1,-1,-1,15,17,-1,-1,-1,19,-1,-1,-1],"loss_changes":[6.3059485E-1,5.3993887E-1,1.7410937E-1,1.8877335E-1,1.8869156E-1,2.5991306E-1,0E0,1.5229076E-1,0E0,0E0,0E0,0E0,2.4566123E-1,2.1249801E-1,0E0,0E0,0E0,2.3362239E-1,0E0,0E0,0E0],"parents":[2147483647,0,0,1,1,2,2,3,3,4,4,5,5,7,7,12,12,13,13,17,17],"right_children":[2,4,6,8,10,12,-1,14,-1,-1,-1,-1,16,18,-1,-1,-1,20,-1,-1,-1],"split_conditions":[1.8400211E0,9.911667E-2,5.869506E-1,6.769697E-2,4.3195605E-1,2.319985E0,1.5134847E-1,4.1645456E-2,6.826591E-2,-1.8185419E-1,-1.6179359E-2,1.0891965E-1,2.9382772E0,2.1548485E-2,-8.100684E-2,-7.8193516E-2,6.1039243E-2,1.07227275E-2,6.37623E-2,2.861542E-2,-1.05652735E-1],"split_indices":[11,14,7,14,14,11,0,14,0,0,0,0,11,14,0,0,0,14,0,0,0],"split_type":[0,0,0,0,0,0,0,0,0,0,0,0,0,0,0,0,0,0,0,0,0],"sum_hessian":[1.641216E1,1.1246421E1,5.1657395E0,8.650923E0,2.5954983E0,3.9965875E0,1.1691521E0,6.785656E0,1.8652664E0,1.4887246E0,1.1067737E0,1.2755132E0,2.7210743E0,5.175051E0,1.6106046E0,1.6647902E0,1.0562842E0,2.9971554E0,2.177896E0,1.7330248E0,1.2641306E0],"tree_param":{"num_deleted":"0","num_feature":"15","num_nodes":"21","size_leaf_vector":"0"}},{"base_weights":[4.3906565E-3,-1.11037426E-1,2.3294672E-1,4.76717E-2,-3.2974678E-1,9.535768E-2,4.5801115E-1,-8.1101984E-2,2.921846E-1,-1.57844E-1,-5.145453E-1,2.7314118E-1,-1.07056655E-1,3.9678212E-2,-2.5818887E-1,-3.201052E-1,4.6574835E-2,-3.343205E-1,1.7591092E-1,-1.3007171E-1,2.854941E-1,8.4772535E-2,-3.0395585E-1],"categories":[],"categories_nodes":[],"categories_segments":[],"categories_sizes":[],"default_left":[1,1,1,1,1,1,0,1,0,1,0,0,1,1,0,0,0,0,0,1,0,0,0],"id":23,"left_children":[1,3,5,7,9,11,-1,13,-1,15,-1,-1,17,19,-1,-1,-1,-1,-1,21,-1,-1,-1],"loss_changes":[4.7502378E-1,4.3188775E-1,1.432336E-1,2.6996884E-1,8.295673E-2,2.0948859E-1,0E0,1.3656521E-1,0E0,1.5156421E-1,0E0,0E0,2.556314E-1,2.1981646E-1,0E0,0E0,0E0,0E0,0E0,1.481773E-1,0E0,0E0,0E0],"parents":[2147483647,0,0,1,1,2,2,3,3,4,4,5,5,7,7,9,9,12,12,13,13,19,19],"right_children":[2,4,6,8,10,12,-1,14,-1,16,-1,-1,18,20,-1,-1,-1,-1,-1,22,-1,-1,-1],"split_conditions":[1.8400211E0,6.996061E-2,5.869506E-1,3.795E-2,4.3358484E-1,2.5777688E0,1.3740335E-1,2.470303E-2,8.765538E-2,9.824546E-2,-1.543636E-1,8.194236E-2,2.9382772E0,1.8669698E-2,-7.745667E-2,-9.603156E-2,1.3972451E-2,-1.0029615E-1,5.277328E-2,7.7984845E-3,8.564823E-2,2.5431762E-2,-9.118676E-2],"split_indices":[11,14,7,14,14,11,0,14,0,14,0,0,11,14,0,0,0,0,0,14,0,0,0],"split_type":[0,0,0,0,0,0,0,0,0,0,0,0,0,0,0,0,0,0,0,0,0,0,0],"sum_hessian":[1.6025305E1,1.0989457E1,5.0358467E0,6.821433E0,4.1680245E0,4.0088186E0,1.0270281E0,4.9059873E0,1.9154456E0,3.1199422E0,1.0480826E0,1.9482372E0,2.0605817E0,3.377999E0,1.5279883E0,1.4238261E0,1.696116E0,1.042125E0,1.0184567E0,2.276679E0,1.10132E0,1.2476319E0,1.029047E0],"tree_param":{"num_deleted":"0","num_feature":"15","num_nodes":"23","size_leaf_vector":"0"}},{"base_weights":[2.7264794E-4,5.6179937E-2,-4.381932E-1,-2.7586583E-2,5.894386E-1,-9.17621E-2,3.7141314E-1,-1.2698494E-2,-4.7952908E-1,-1.2651597E-1,5.522631E-1,-1.9775592E-2,-5.3465116E-1],"categories":[],"categories_nodes":[],"categories_segments":[],"categories_sizes":[],"default_left":[1,1,0,1,0,1,0,1,0,1,0,0,0],"id":24,"left_children":[1,3,-1,5,-1,7,-1,9,-1,11,-1,-1,-1],"loss_changes":[4.338252E-1,7.171997E-1,0E0,4.0579814E-1,0E0,4.0188843E-1,0E0,8.466906E-1,0E0,4.6291387E-1,0E0,0E0,0E0],"parents":[2147483647,0,0,1,1,3,3,5,5,7,7,9,9],"right_children":[2,4,-1,6,-1,8,-1,10,-1,12,-1,-1,-1],"split_conditions":[2.7417126E0,2.9356356E0,-1.3145797E-1,1.4466171E0,1.7683159E-1,5.442788E-1,1.1142395E-1,4.3195605E-1,-1.4385873E-1,2.5030607E-1,1.6567893E-1,-5.932678E-3,-1.6039535E-1],"split_indices":[10,11,0,6,0,14,0,14,0,14,0,0,0],"split_type":[0,0,0,0,0,0,0,0,0,0,0,0,0],"sum_hessian":[1.5693193E1,1.4691768E1,1.0014257E0,1.3516765E1,1.1750025E0,1.2307271E1,1.2094944E0,1.1080719E1,1.2265515E0,9.86864E0,1.212079E0,8.653838E0,1.2148015E0],"tree_param":{"num_deleted":"0","num_feature":"15","num_nodes":"13","size_leaf_vector":"0"}},{"base_weights":[5.0052407E-4,-7.055698E-2,3.1319717E-1,1.8417967E-2,-3.894487E-1,-4.237772E-2,3.4311926E-1,3.060484E-2,-2.329429E-1,-7.017035E-2,3.840578E-1,3.7156332E-2,-2.9629892E-1],"categories":[],"categories_nodes":[],"categories_segments":[],"categories_sizes":[],"default_left":[1,1,0,1,0,1,0,1,0,1,0,0,0],"id":25,"left_children":[1,3,-1,5,-1,7,-1,9,-1,11,-1,-1,-1],"loss_changes":[3.8494623E-1,4.078779E-1,0E0,2.5135908E-1,0E0,1.6004318E-1,0E0,3.416069E-1,0E0,1.9835952E-1,0E0,0E0,0E0],"parents":[2147483647,0,0,1,1,3,3,5,5,7,7,9,9],"right_children":[2,4,-1,6,-1,8,-1,10,-1,12,-1,-1,-1],"split_conditions":[2.6458857E0,4.542E-1,9.395915E-2,3.4629092E-1,-1.1683462E-1,9.455454E-2,1.0293578E-1,6.769697E-2,-6.988287E-2,4.2951517E-2,1.1521734E-1,1.11469E-2,-8.888968E-2],"split_indices":[11,14,0,14,0,14,0,14,0,14,0,0,0],"split_type":[0,0,0,0,0,0,0,0,0,0,0,0,0],"sum_hessian":[1.5330199E1,1.3122572E1,2.2076273E0,1.0996616E1,2.1259558E0,9.994732E0,1.0018841E0,7.833906E0,2.160826E0,6.7195306E0,1.1143757E0,5.123476E0,1.5960542E0],"tree_param":{"num_deleted":"0","num_feature":"15","num_nodes":"13","size_leaf_vector":"0"}},{"base_weights":[2.4703771E-3,-5.019714E-2,3.3570248E-1,2.1320825E-2,-5.181558E-1,-5.8110226E-2,4.4239494E-1,-1.3581342E-1,3.2090354E-1,6.038925E-3,-6.1714524E-1,-5.9603274E-2,2.8187674E-1],"categories":[],"categories_nodes":[],"categories_segments":[],"categories_sizes":[],"default_left":[1,1,0,1,0,1,0,1,0,1,0,0,0],"id":26,"left_children":[1,3,-1,5,-1,7,-1,9,-1,11,-1,-1,-1],"loss_changes":[3.0045572E-1,5.071632E-1,0E0,4.8790708E-1,0E0,4.120068E-1,0E0,7.605323E-1,0E0,1.8974495E-1,0E0,0E0,0E0],"parents":[2147483647,0,0,1,1,3,3,5,5,7,7,9,9],"right_children":[2,4,-1,6,-1,8,-1,10,-1,12,-1,-1,-1],"split_conditions":[1.1279726E0,5.442788E-1,1.0071075E-1,4.3195605E-1,-1.5544675E-1,2.1128511E0,1.3271849E-1,9.911667E-2,9.627107E-2,9.1633335E-2,-1.8514358E-1,-1.7880984E-2,8.4563024E-2],"split_indices":[13,14,0,14,0,11,0,14,0,14,0,0,0],"split_type":[0,0,0,0,0,0,0,0,0,0,0,0,0],"sum_hessian":[1.5159328E1,1.3823828E1,1.3355008E0,1.2819124E1,1.0047036E0,1.1509901E1,1.3092225E0,1.008417E1,1.4257314E0,8.551445E0,1.5327255E0,7.5408406E0,1.0106041E0],"tree_param":{"num_deleted":"0","num_feature":"15","num_nodes":"13","size_leaf_vector":"0"}},{"base_weights":[3.5329189E-3,-4.9104664E-2,3.4780324E-1,1.4576463E-1,-1.3277502E-1,-8.580773E-2,2.4793763E-1,-4.3176973E-1,3.0070001E-2,3.2859603E-1,2.1711666E-2,-4.7904644E-2,-7.0004815E-1,1.7388847E-1,-2.4677747E-1,9.781774E-3,4.180379E-1,3.177427E-1,-2.0564044E-1],"categories":[],"categories_nodes":[],"categories_segments":[],"categories_sizes":[],"default_left":[1,1,0,1,1,0,1,1,1,0,0,0,0,1,0,1,0,0,0],"id":27,"left_children":[1,3,-1,5,7,-1,9,11,13,-1,-1,-1,-1,15,-1,17,-1,-1,-1],"loss_changes":[3.0130383E-1,2.554569E-1,0E0,1.3547213E-1,5.3172916E-1,0E0,5.8664724E-2,3.6003876E-1,3.5476267E-1,0E0,0E0,0E0,0E0,2.2594239E-1,0E0,3.6105135E-1,0E0,0E0,0E0],"parents":[2147483647,0,0,1,1,3,3,4,4,6,6,7,7,8,8,13,13,15,15],"right_children":[2,4,-1,6,8,-1,10,12,14,-1,-1,-1,-1,16,-1,18,-1,-1,-1],"split_conditions":[1.420445E0,2.470303E-2,1.0434098E-1,5.0272727E-3,6.769697E-2,-2.574232E-2,1.9772727E-2,4.4754546E-2,4.542E-1,9.857881E-2,6.5135E-3,-1.4371394E-2,-2.1001445E-1,3.3842272E-1,-7.4033245E-2,9.489394E-2,1.2541138E-1,9.532282E-2,-6.1692134E-2],"split_indices":[6,14,0,14,14,0,14,14,14,0,0,0,0,14,0,14,0,0,0],"split_type":[0,0,0,0,0,0,0,0,0,0,0,0,0,0,0,0,0,0,0],"sum_hessian":[1.46843605E1,1.3480597E1,1.2037644E0,3.8265004E0,9.654096E0,1.2204823E0,2.606018E0,2.821751E0,6.8323445E0,1.5875001E0,1.0185181E0,1.645647E0,1.1761042E0,4.7412357E0,2.091109E0,3.4573913E0,1.2838445E0,1.2275488E0,2.2298424E0],"tree_param":{"num_deleted":"0","num_feature":"15","num_nodes":"19","size_leaf_vector":"0"}},{"base_weights":[3.8337493E-3,-7.169496E-2,1.931792E-1,5.406444E-2,-2.3841478E-1,3.4676978E-1,8.018934E-3,-8.002272E-2,3.1516066E-1,-4.1383913E-1,2.2119473E-1,-4.6625353E-2,6.2655956E-2,5.4781128E-2,-1.9793145E-1,-1.3686848E-1,-5.785154E-1,-1.2510791E-1,2.5132063E-1],"categories":[],"categories_nodes":[],"categories_segments":[],"categories_sizes":[],"default_left":[1,1,1,1,1,0,1,1,0,1,0,0,0,1,0,0,0,0,0],"id":28,"left_children":[1,3,5,7,9,-1,11,13,-1,15,-1,-1,-1,17,-1,-1,-1,-1,-1],"loss_changes":[2.3772107E-1,2.6280606E-1,1.3186207E-1,2.9163212E-1,5.196722E-1,0E0,1.238658E-2,1.0343169E-1,0E0,1.1199641E-1,0E0,0E0,0E0,1.5522468E-1,0E0,0E0,0E0,0E0,0E0],"parents":[2147483647,0,0,1,1,2,2,3,3,4,4,6,6,7,7,9,9,13,13],"right_children":[2,4,6,8,10,-1,12,14,-1,16,-1,-1,-1,18,-1,-1,-1,-1,-1],"split_conditions":[2.123733E0,6.996061E-2,2.8527576E-1,3.795E-2,4.3195605E-1,1.0403094E-1,5.5017424E-1,1.9425757E-2,9.45482E-2,9.911667E-2,6.6358425E-2,-1.3987606E-2,1.8796787E-2,9.236364E-3,-5.937944E-2,-4.1060545E-2,-1.7355463E-1,-3.7532374E-2,7.5396195E-2],"split_indices":[11,14,14,14,14,0,14,14,0,14,0,0,0,14,0,0,0,0,0],"split_type":[0,0,0,0,0,0,0,0,0,0,0,0,0,0,0,0,0,0,0],"sum_hessian":[1.4654206E1,1.0919743E1,3.7344635E0,6.609676E0,4.310067E0,1.5641723E0,2.1702912E0,4.82519E0,1.7844859E0,3.1915119E0,1.1185551E0,1.1583858E0,1.0119054E0,2.5011008E0,2.3240893E0,1.8727881E0,1.3187239E0,1.495627E0,1.0054737E0],"tree_param":{"num_deleted":"0","num_feature":"15","num_nodes":"19","size_leaf_vector":"0"}},{"base_weights":[3.6238611E-3,4.8942957E-2,-3.1175125E-1,-2.9376375E-2,2.275481E-1,8.173421E-2,-2.094774E-1,4.5411757E-1,1.9493947E-2,-1.12972185E-1,2.3070511E-1,-3.1970894E-1,-4.942496E-2,2.1239847E-1,-1.9839865E-1,8.6614504E-2,-3.1256807E-1,9.1574945E-2,2.867778E-1],"categories":[],"categories_nodes":[],"categories_segments":[],"categories_sizes":[],"default_left":[1,1,0,1,1,1,1,0,1,1,1,0,0,0,0,0,0,0,0],"id":29,"left_children":[1,3,-1,5,7,9,11,-1,13,15,17,-1,-1,-1,-1,-1,-1,-1,-1],"loss_changes":[2.3513716E-1,2.0693439E-1,0E0,2.3398954E-1,2.0224492E-1,2.413354E-1,6.2102497E-2,0E0,1.8418197E-1,1.8197094E-1,9.105414E-3,0E0,0E0,0E0,0E0,0E0,0E0,0E0,0E0],"parents":[2147483647,0,0,1,1,3,3,4,4,5,5,6,6,8,8,9,9,10,10],"right_children":[2,4,-1,6,8,10,12,-1,14,16,18,-1,-1,-1,-1,-1,-1,-1,-1],"split_conditions":[1.6206753E0,1.8400211E0,-9.352538E-2,6.996061E-2,2.5030607E-1,2.1548485E-2,9.824546E-2,1.3623528E-1,2.53343E0,1.07227275E-2,3.795E-2,-9.591269E-2,-1.4827489E-2,6.371954E-2,-5.9519596E-2,2.5984352E-2,-9.377042E-2,2.7472485E-2,8.6033344E-2],"split_indices":[10,11,0,14,14,14,14,0,11,14,14,0,0,0,0,0,0,0,0],"split_type":[0,0,0,0,0,0,0,0,0,0,0,0,0,0,0,0,0,0,0],"sum_hessian":[1.4384217E1,1.3315591E1,1.0686271E0,9.837373E0,3.478218E0,6.421748E0,3.4156241E0,1.0988687E0,2.3793495E0,2.8883266E0,3.5334215E0,1.4319105E0,1.9837136E0,1.2754148E0,1.1039346E0,1.7272283E0,1.1610982E0,1.7713681E0,1.7620535E0],"tree_param":{"num_deleted":"0","num_feature":"15","num_nodes":"19","size_leaf_vector":"0"}},{"base_weights":[1.2468224E-3,-4.3035228E-2,2.845556E-1,3.949694E-2,-3.9508745E-1,-7.150391E-2,2.686733E-1,6.1827343E-2,-4.1368002E-1,-7.537019E-2,1.7722854E-1,1.135448E-1,-2.8726816E-1,2.5492236E-1,-3.5716087E-2],"categories":[],"categories_nodes":[],"categories_segments":[],"categories_sizes":[],"default_left":[1,1,0,1,0,1,0,1,0,1,1,0,0,0,0],"id":30,"left_children":[1,3,-1,5,-1,7,-1,9,-1,11,13,-1,-1,-1,-1],"loss_changes":[2.0279427E-1,4.2250285E-1,0E0,3.3093005E-1,0E0,4.3823832E-1,0E0,1.3018507E-1,0E0,1.9565023E-1,8.034785E-2,0E0,0E0,0E0,0E0],"parents":[2147483647,0,0,1,1,3,3,5,5,7,7,9,9,10,10],"right_children":[2,4,-1,6,-1,8,-1,10,-1,12,14,-1,-1,-1,-1],"split_conditions":[1.1279726E0,4.542E-1,8.536669E-2,9.1633335E-2,-1.1852624E-1,5.648788E-2,8.060199E-2,2.0813636E-2,-1.2410401E-1,1.07227275E-2,4.464697E-2,3.406344E-2,-8.618045E-2,7.647671E-2,-1.0714826E-2],"split_indices":[13,14,0,14,0,14,0,14,0,14,14,0,0,0,0],"split_type":[0,0,0,0,0,0,0,0,0,0,0,0,0,0,0],"sum_hessian":[1.4188588E1,1.3004105E1,1.1844844E0,1.1253693E1,1.7504117E0,8.04508E0,3.2086124E0,6.3788347E0,1.666245E0,3.0726845E0,3.3061504E0,1.8698217E0,1.2028629E0,2.2779136E0,1.0282369E0],"tree_param":{"num_deleted":"0","num_feature":"15","num_nodes":"15","size_leaf_vector":"0"}},{"base_weights":[-4.4502704E-3,-6.395376E-2,1.7230996E-1,-7.1899407E-3,-3.1315804E-1,5.492786E-4,3.1305894E-1,-8.3836325E-2,1.2772393E-1,9.141284E-3,-2.7775848E-1,3.4756017E-1,-5.1099423E-2,-1.3598418E-1,1.3129392E-1,-8.744479E-2,1.0913915E-2,-2.012193E-1,-1.625453E-2,2.9263172E-1,-3.974256E-2],"categories":[],"categories_nodes":[],"categories_segments":[],"categories_sizes":[],"default_left":[1,1,1,1,0,0,0,1,1,1,0,0,1,1,1,0,0,0,0,0,0],"id":31,"left_children":[1,3,5,7,-1,-1,-1,9,11,13,-1,-1,15,17,19,-1,-1,-1,-1,-1,-1],"loss_changes":[1.6879773E-1,1.6682242E-1,9.7706184E-2,1.219563E-1,0E0,0E0,0E0,1.3712564E-1,1.865624E-1,1.24458134E-1,0E0,0E0,8.256225E-3,2.2032008E-2,1.1577109E-1,0E0,0E0,0E0,0E0,0E0,0E0],"parents":[2147483647,0,0,1,1,2,2,3,3,7,7,8,8,9,9,12,12,13,13,14,14],"right_children":[2,4,6,8,-1,-1,-1,10,12,14,-1,-1,16,18,20,-1,-1,-1,-1,-1,-1],"split_conditions":[2.3194427E0,4.3358484E-1,4.9073485E-1,6.769697E-2,-9.394742E-2,1.6478357E-4,9.391769E-2,4.1645456E-2,9.455454E-2,1.8669698E-2,-8.332755E-2,1.0426805E-1,1.7688486E-1,6.2621213E-3,2.470303E-2,-2.6233438E-2,3.2741746E-3,-6.0365792E-2,-4.876359E-3,8.778952E-2,-1.1922768E-2],"split_indices":[11,14,14,14,0,0,0,14,14,14,0,0,14,14,14,0,0,0,0,0,0],"split_type":[0,0,0,0,0,0,0,0,0,0,0,0,0,0,0,0,0,0,0,0,0],"sum_hessian":[1.4000963E1,1.0952253E1,3.0487103E0,9.758346E0,1.1939069E0,1.8252273E0,1.2234831E0,6.4644175E0,3.2939289E0,5.0135093E0,1.4509081E0,1.0542693E0,2.2396595E0,2.2395468E0,2.7739625E0,1.1535056E0,1.086154E0,1.0091138E0,1.2304329E0,1.0616151E0,1.7123474E0],"tree_param":{"num_deleted":"0","num_feature":"15","num_nodes":"21","size_leaf_vector":"0"}},{"base_weights":[-3.1683145E-3,-4.5637146E-2,2.7231094E-1,1.1753107E-1,-1.1663763E-1,-3.3145107E-2,3.012866E-1,-4.1643566E-1,4.851344E-2,1.6855414E-1,-2.5633544E-1,-8.721947E-2,-6.32541E-1,1.5923277E-1,-1.7812613E-1,2.5347639E-2,3.7811148E-1,3.0253392E-1,-1.6773489E-1],"categories":[],"categories_nodes":[],"categories_segments":[],"categories_sizes":[],"default_left":[1,1,0,1,1,1,0,1,1,0,0,0,0,1,0,1,0,0,0],"id":32,"left_children":[1,3,-1,5,7,9,-1,11,13,-1,-1,-1,-1,15,-1,17,-1,-1,-1],"loss_changes":[1.8657129E-1,1.7304026E-1,0E0,1.3923481E-1,5.195378E-1,1.9922799E-1,0E0,2.0711523E-1,2.1401769E-1,0E0,0E0,0E0,0E0,1.5154348E-1,0E0,2.9069743E-1,0E0,0E0,0E0],"parents":[2147483647,0,0,1,1,3,3,4,4,5,5,7,7,8,8,13,13,15,15],"right_children":[2,4,-1,6,8,10,-1,12,14,-1,-1,-1,-1,16,-1,18,-1,-1,-1],"split_conditions":[1.420445E0,2.470303E-2,8.1693284E-2,1.8669698E-2,6.769697E-2,7.883333E-3,9.038599E-2,4.4754546E-2,4.542E-1,5.0566245E-2,-7.690063E-2,-2.6165841E-2,-1.8976231E-1,3.680303E-1,-5.343784E-2,9.489394E-2,1.1343345E-1,9.076018E-2,-5.032047E-2],"split_indices":[6,14,0,14,14,14,0,14,14,0,0,0,0,14,0,14,0,0,0],"split_type":[0,0,0,0,0,0,0,0,0,0,0,0,0,0,0,0,0,0,0],"sum_hessian":[1.3884998E1,1.2753248E1,1.1317494E0,3.668109E0,9.085139E0,2.465812E0,1.2022969E0,2.686608E0,6.3985314E0,1.423856E0,1.041956E0,1.6209065E0,1.0657016E0,4.4983764E0,1.9001554E0,3.4834216E0,1.0149547E0,1.1974777E0,2.2859437E0],"tree_param":{"num_deleted":"0","num_feature":"15","num_nodes":"19","size_leaf_vector":"0"}},{"base_weights":[-1.3684668E-3,-6.646458E-2,1.7067012E-1,-1.1819914E-1,2.2979087E-1,2.9241475E-1,2.361317E-2,3.2010447E-4,-5.578411E-1,-5.438589E-2,2.1314605E-1,9.463645E-3,-2.2416244E-1,-8.764706E-2,2.6246324E-1],"categories":[],"categories_nodes":[],"categories_segments":[],"categories_sizes":[],"default_left":[1,1,1,1,0,0,0,1,0,1,0,1,0,0,0],"id":33,"left_children":[1,3,5,7,-1,-1,-1,9,-1,11,-1,13,-1,-1,-1],"loss_changes":[1.7745301E-1,2.031188E-1,7.101002E-2,5.4385704E-1,0E0,0E0,0E0,1.1891534E-1,0E0,9.024898E-2,0E0,1.9172879E-1,0E0,0E0,0E0],"parents":[2147483647,0,0,1,1,2,2,3,3,7,7,9,9,11,11],"right_children":[2,4,6,8,-1,-1,-1,10,-1,12,-1,14,-1,-1,-1],"split_conditions":[2.123733E0,4.3195605E-1,2.8527576E-1,9.911667E-2,6.8937264E-2,8.772443E-2,7.083951E-3,8.890757E-2,-1.6735235E-1,5.648788E-2,6.394382E-2,3.795E-2,-6.724874E-2,-2.6294118E-2,7.873897E-2],"split_indices":[11,14,14,14,0,0,0,14,0,14,0,14,0,0,0],"split_type":[0,0,0,0,0,0,0,0,0,0,0,0,0,0,0],"sum_hessian":[1.3832472E1,1.0480512E1,3.3519604E0,9.434078E0,1.0464334E0,1.2930404E0,2.05892E0,8.217946E0,1.2161323E0,7.129736E0,1.0882096E0,5.8673882E0,1.262348E0,4.7122273E0,1.1551604E0],"tree_param":{"num_deleted":"0","num_feature":"15","num_nodes":"15","size_leaf_vector":"0"}},{"base_weights":[9.022308E-4,-3.512584E-2,2.3170726E-1,1.4738438E-1,-9.367231E-2,-1.0137023E-1,3.0014753E-1,-3.0807844E-1,5.1765393E-2,-7.667458E-2,-5.5288774E-1,1.5488522E-1,-1.5692982E-1,-2.4009798E-1,1.3928232E-1,2.162448E-2,3.2584542E-1,2.6265123E-1,-1.7163786E-1],"categories":[],"categories_nodes":[],"categories_segments":[],"categories_sizes":[],"default_left":[1,1,0,1,1,0,0,1,1,1,0,1,0,0,0,1,0,0,0],"id":34,"left_children":[1,3,-1,5,7,-1,-1,9,11,13,-1,15,-1,-1,-1,17,-1,-1,-1],"loss_changes":[1.2935323E-1,1.5781356E-1,0E0,1.6957799E-1,3.5319853E-1,0E0,0E0,2.133851E-1,1.814117E-1,1.5633279E-1,0E0,1.15733564E-1,0E0,0E0,0E0,2.3604773E-1,0E0,0E0,0E0],"parents":[2147483647,0,0,1,1,3,3,4,4,7,7,8,8,9,9,11,11,15,15],"right_children":[2,4,-1,6,8,-1,-1,10,12,14,-1,16,-1,-1,-1,18,-1,-1,-1],"split_conditions":[1.420445E0,1.9772727E-2,6.951218E-2,5.0272727E-3,6.769697E-2,-3.041107E-2,9.004426E-2,4.0610608E-2,4.542E-1,3.0490909E-2,-1.6586633E-1,3.3842272E-1,-4.707895E-2,-7.20294E-2,4.1784696E-2,9.489394E-2,9.775363E-2,7.879537E-2,-5.149136E-2],"split_indices":[6,14,0,14,14,0,0,14,14,14,0,14,0,0,0,14,0,0,0],"split_type":[0,0,0,0,0,0,0,0,0,0,0,0,0,0,0,0,0,0,0],"sum_hessian":[1.3576983E1,1.2477144E1,1.0998386E0,2.6618423E0,9.815302E0,1.1407324E0,1.5211099E0,3.5150647E0,6.3002377E0,2.4820912E0,1.0329735E0,4.389267E0,1.9109706E0,1.3492625E0,1.1328287E0,3.0996375E0,1.2896295E0,1.2195894E0,1.8800483E0],"tree_param":{"num_deleted":"0","num_feature":"15","num_nodes":"19","size_leaf_vector":"0"}},{"base_weights":[4.6810257E-4,-6.5452814E-2,1.7477949E-1,4.805266E-2,-2.1909414E-1,2.964822E-1,3.213506E-2,-7.700241E-2,3.0056527E-1,-3.732853E-1,1.691183E-1,-1.5382951E-1,2.0742294E-1,5.8057774E-2,-1.9659391E-1,-1.313995E-1,-5.229715E-1,8.392916E-2,5.9374105E-3],"categories":[],"categories_nodes":[],"categories_segments":[],"categories_sizes":[],"default_left":[1,1,1,1,1,0,1,1,0,1,0,0,0,1,0,0,0,0,0],"id":35,"left_children":[1,3,5,7,9,-1,11,13,-1,15,-1,-1,-1,17,-1,-1,-1,-1,-1],"loss_changes":[1.7923944E-1,2.0799842E-1,6.476712E-2,2.5468788E-1,3.6188334E-1,0E0,1.3269362E-1,1.0347889E-1,0E0,7.1908295E-2,0E0,0E0,0E0,4.152188E-3,0E0,0E0,0E0,0E0,0E0],"parents":[2147483647,0,0,1,1,2,2,3,3,4,4,6,6,7,7,9,9,13,13],"right_children":[2,4,6,8,10,-1,12,14,-1,16,-1,-1,-1,18,-1,-1,-1,-1,-1],"split_conditions":[2.123733E0,6.996061E-2,2.5777688E0,3.795E-2,4.3195605E-1,8.8944666E-2,2.9356356E0,1.9425757E-2,9.0169586E-2,9.911667E-2,5.0735492E-2,-4.6148855E-2,6.2226884E-2,7.7984845E-3,-5.8978174E-2,-3.9419852E-2,-1.5689147E-1,2.517875E-2,1.7812232E-3],"split_indices":[11,14,11,14,14,0,11,14,0,14,0,0,0,14,0,0,0,0,0],"split_type":[0,0,0,0,0,0,0,0,0,0,0,0,0,0,0,0,0,0,0],"sum_hessian":[1.3602997E1,1.0323407E1,3.27959E0,6.3324385E0,3.9909687E0,1.1877468E0,2.0918431E0,4.6999006E0,1.6325374E0,2.8839612E0,1.1070075E0,1.0744096E0,1.0174334E0,2.4488425E0,2.2510583E0,1.8202909E0,1.0636702E0,1.2286654E0,1.2201772E0],"tree_param":{"num_deleted":"0","num_feature":"15","num_nodes":"19","size_leaf_vector":"0"}},{"base_weights":[5.7339174E-4,-6.0922354E-2,1.4293686E-1,4.1022755E-2,-2.1723354E-1,2.232147E-1,2.8436366E-2,-1.1779436E-1,1.701024E-1,-3.241229E-1,-6.074474E-2,5.387051E-2,-2.8168908E-1,4.2279776E-2,2.4005048E-1,-7.849177E-2,-1.26333255E-2],"categories":[],"categories_nodes":[],"categories_segments":[],"categories_sizes":[],"default_left":[1,1,1,1,1,0,0,1,1,0,1,0,0,0,0,0,0],"id":36,"left_children":[1,3,5,7,9,-1,-1,11,13,-1,15,-1,-1,-1,-1,-1,-1],"loss_changes":[1.3495183E-1,1.805535E-1,3.6383346E-2,1.7092845E-1,5.4089636E-2,0E0,0E0,1.2464702E-1,2.9812858E-2,0E0,1.5875585E-3,0E0,0E0,0E0,0E0,0E0,0E0],"parents":[2147483647,0,0,1,1,2,2,3,3,4,4,7,7,8,8,10,10],"right_children":[2,4,6,8,10,-1,-1,12,14,-1,16,-1,-1,-1,-1,-1,-1],"split_conditions":[1.8400211E0,6.996061E-2,2.5777688E0,2.1548485E-2,9.824546E-2,6.696441E-2,8.53091E-3,1.07227275E-2,3.795E-2,-9.723688E-2,4.2064545E-1,1.6161153E-2,-8.450673E-2,1.2683934E-2,7.2015144E-2,-2.3547532E-2,-3.789998E-3],"split_indices":[11,14,11,14,14,0,0,14,14,0,14,0,0,0,0,0,0],"split_type":[0,0,0,0,0,0,0,0,0,0,0,0,0,0,0,0,0],"sum_hessian":[1.3420037E1,9.771274E0,3.6487637E0,6.360533E0,3.4107401E0,1.5867833E0,2.0619805E0,2.8909693E0,3.4695637E0,1.3900487E0,2.0206914E0,1.7398962E0,1.1510731E0,1.794589E0,1.6749748E0,1.0148731E0,1.0058181E0],"tree_param":{"num_deleted":"0","num_feature":"15","num_nodes":"17","size_leaf_vector":"0"}},{"base_weights":[-2.390923E-3,-4.446292E-2,1.9359268E-1,3.4294363E-2,-2.8479E-1,-5.8082826E-2,2.5711992E-1,-3.5646638E-1,-6.498337E-2,1.1798065E-2,-2.388898E-1,-1.2686789E-1,1.0502484E-1,2.8191882E-1,-2.6005983E-2],"categories":[],"categories_nodes":[],"categories_segments":[],"categories_sizes":[],"default_left":[1,1,0,1,1,1,0,0,0,1,0,0,1,0,0],"id":37,"left_children":[1,3,-1,5,7,9,-1,-1,-1,11,-1,-1,13,-1,-1],"loss_changes":[1.2645997E-1,2.4787931E-1,0E0,2.2834247E-1,2.7449429E-2,1.0572918E-1,0E0,0E0,0E0,1.01584814E-1,0E0,0E0,1.1464175E-1,0E0,0E0],"parents":[2147483647,0,0,1,1,3,3,4,4,5,5,9,9,12,12],"right_children":[2,4,-1,6,8,10,-1,-1,-1,12,-1,-1,14,-1,-1],"split_conditions":[2.6458857E0,4.3358484E-1,5.807781E-2,9.1633335E-2,2.3194427E0,5.648788E-2,7.713598E-2,-1.0693992E-1,-1.949501E-2,1.8669698E-2,-7.166694E-2,-3.8060367E-2,2.470303E-2,8.457565E-2,-7.8017954E-3],"split_indices":[11,14,0,14,11,14,0,0,0,14,0,0,14,0,0],"split_type":[0,0,0,0,0,0,0,0,0,0,0,0,0,0,0],"sum_hessian":[1.3293056E1,1.1580243E1,1.7128129E0,9.367676E0,2.2125676E0,7.1449256E0,2.2227497E0,1.199649E0,1.0129187E0,5.827411E0,1.3175145E0,2.1976955E0,3.6297157E0,1.054532E0,2.5751836E0],"tree_param":{"num_deleted":"0","num_feature":"15","num_nodes":"15","size_leaf_vector":"0"}},{"base_weights":[-4.0788637E-3,8.951433E-2,-6.986526E-2,-3.6279377E-2,2.1997409E-1,-3.9040452E-1,5.338373E-2,1.256553E-1,-2.383908E-1,2.9614818E-1,-4.002761E-2,-2.0404868E-1,1.3381204E-1,2.9253284E-2,-3.7529048E-1,3.1513098E-1,-1.2277022E-1],"categories":[],"categories_nodes":[],"categories_segments":[],"categories_sizes":[],"default_left":[1,1,1,1,0,0,1,0,0,0,1,1,1,0,0,0,0],"id":38,"left_children":[1,3,5,7,-1,-1,9,-1,-1,-1,11,13,15,-1,-1,-1,-1],"loss_changes":[9.336079E-2,1.1100648E-1,3.7123683E-1,1.626544E-1,0E0,0E0,1.7707597E-1,0E0,0E0,0E0,2.024428E-1,1.5306339E-1,2.0551442E-1,0E0,0E0,0E0,0E0],"parents":[2147483647,0,0,1,1,2,2,3,3,6,6,10,10,11,11,12,12],"right_children":[2,4,6,8,-1,-1,10,-1,-1,-1,12,14,16,-1,-1,-1,-1],"split_conditions":[4.4754546E-2,2.0434849E-2,6.769697E-2,1.07227275E-2,6.599223E-2,-1.1712136E-1,9.489394E-2,3.769659E-2,-7.1517244E-2,8.8844456E-2,4.3195605E-1,2.5030607E-1,5.442788E-1,8.775986E-3,-1.1258715E-1,9.45393E-2,-3.6831066E-2],"split_indices":[14,14,14,14,0,0,14,0,0,0,14,14,14,0,0,0,0],"split_type":[0,0,0,0,0,0,0,0,0,0,0,0,0,0,0,0,0],"sum_hessian":[1.3147249E1,5.277854E0,7.8693953E0,3.0545068E0,2.2233472E0,1.5835017E0,6.2858934E0,1.9058214E0,1.1486852E0,1.1435592E0,5.142334E0,2.5564752E0,2.585859E0,1.4331304E0,1.1233448E0,1.381446E0,1.204413E0],"tree_param":{"num_deleted":"0","num_feature":"15","num_nodes":"17","size_leaf_vector":"0"}},{"base_weights":[-6.7238384E-3,-4.866035E-2,1.9180639E-1,2.4659865E-2,-2.7333784E-1,-4.365819E-2,2.3763919E-1,-3.3680665E-1,-6.963493E-2,4.439204E-2,-2.9782534E-1,-7.058464E-2,2.687681E-1,7.152446E-2,-1.9895312E-1],"categories":[],"categories_nodes":[],"categories_segments":[],"categories_sizes":[],"default_left":[1,1,0,1,1,1,0,0,0,1,0,1,0,0,0],"id":39,"left_children":[1,3,-1,5,7,9,-1,-1,-1,11,-1,13,-1,-1,-1],"loss_changes":[1.2706904E-1,2.1220906E-1,0E0,1.6055128E-1,1.7292619E-2,2.0701131E-1,0E0,0E0,0E0,2.0733742E-1,0E0,1.1674694E-1,0E0,0E0,0E0],"parents":[2147483647,0,0,1,1,3,3,4,4,5,5,9,9,11,11],"right_children":[2,4,-1,6,8,10,-1,-1,-1,12,-1,14,-1,-1,-1],"split_conditions":[2.6458857E0,4.3358484E-1,5.7541918E-2,9.824546E-2,2.3194427E0,6.996061E-2,7.129176E-2,-1.01042E-1,-2.089048E-2,3.795E-2,-8.93476E-2,1.9425757E-2,8.063044E-2,2.145734E-2,-5.9685938E-2],"split_indices":[11,14,0,14,11,14,0,0,0,14,0,14,0,0,0],"split_type":[0,0,0,0,0,0,0,0,0,0,0,0,0,0,0],"sum_hessian":[1.31412945E1,1.1472747E1,1.6685475E0,9.321165E0,2.1515825E0,7.659284E0,1.6618809E0,1.1422611E0,1.0093213E0,6.3015895E0,1.3576944E0,4.6197276E0,1.6818619E0,2.402681E0,2.2170465E0],"tree_param":{"num_deleted":"0","num_feature":"15","num_nodes":"15","size_leaf_vector":"0"}},{"base_weights":[-8.348755E-3,-5.325419E-2,1.3952148E-1,1.2780508E-2,-3.538966E-1,2.9134393E-1,-9.428601E-2,-6.1911143E-2,1.7136697E-1,7.4126884E-2,-3.6719152E-1,2.7928504E-1,5.2929837E-3,-1.2644787E-1,1.4369531E-1,2.6612157E-1,1.9692035E-2],"categories":[],"categories_nodes":[],"categories_segments":[],"categories_sizes":[],"default_left":[1,1,1,1,0,0,0,1,1,1,0,0,0,0,1,0,0],"id":40,"left_children":[1,3,5,7,-1,-1,-1,9,11,13,-1,-1,-1,-1,15,-1,-1],"loss_changes":[1.0061443E-1,2.3259617E-1,1.5331483E-1,1.3361406E-1,0E0,0E0,0E0,3.5090664E-1,6.286876E-2,1.0501188E-1,0E0,0E0,0E0,0E0,7.201602E-2,0E0,0E0],"parents":[2147483647,0,0,1,1,2,2,3,3,7,7,8,8,9,9,14,14],"right_children":[2,4,6,8,-1,-1,-1,10,12,14,-1,-1,-1,-1,16,-1,-1],"split_conditions":[4.3195605E-1,2.5030607E-1,5.442788E-1,6.769697E-2,-1.0616898E-1,8.740318E-2,-2.8285803E-2,4.4754546E-2,9.489394E-2,5.0272727E-3,-1.1015746E-1,8.378552E-2,1.5878952E-3,-3.7934363E-2,1.9772727E-2,7.983647E-2,5.907611E-3],"split_indices":[14,14,14,14,0,0,0,14,14,14,0,0,0,0,14,0,0],"split_type":[0,0,0,0,0,0,0,0,0,0,0,0,0,0,0,0,0],"sum_hessian":[1.3033408E1,1.0488197E1,2.5452116E0,9.384438E0,1.1037588E0,1.3939611E0,1.1512505E0,6.7941227E0,2.5903153E0,5.223589E0,1.5705339E0,1.1568689E0,1.4334463E0,1.1346481E0,4.0889406E0,1.4808445E0,2.6080964E0],"tree_param":{"num_deleted":"0","num_feature":"15","num_nodes":"17","size_leaf_vector":"0"}},{"base_weights":[-8.290563E-3,-4.3939155E-2,2.2853485E-1,2.2913795E-2,-3.3686072E-1,-6.865979E-2,2.1157584E-1,4.5233194E-2,-3.5313946E-1,-8.738949E-2,1.6365212E-1,9.4727635E-2,-2.1618772E-1,5.7885718E-2,2.2962916E-1],"categories":[],"categories_nodes":[],"categories_segments":[],"categories_sizes":[],"default_left":[1,1,0,1,0,1,0,1,0,1,1,0,0,0,0],"id":41,"left_children":[1,3,-1,5,-1,7,-1,9,-1,11,13,-1,-1,-1,-1],"loss_changes":[1.2871744E-1,2.634016E-1,0E0,2.1435897E-1,0E0,2.9273725E-1,0E0,1.24022394E-1,0E0,1.1307125E-1,1.4891997E-2,0E0,0E0,0E0,0E0],"parents":[2147483647,0,0,1,1,3,3,5,5,7,7,9,9,10,10],"right_children":[2,4,-1,6,-1,8,-1,10,-1,12,14,-1,-1,-1,-1],"split_conditions":[5.2752984E-1,4.542E-1,6.856046E-2,9.1633335E-2,-1.0105822E-1,5.648788E-2,6.3472755E-2,2.0813636E-2,-1.0594184E-1,7.7984845E-3,3.795E-2,2.8418291E-2,-6.485632E-2,1.7365716E-2,6.888875E-2],"split_indices":[13,14,0,14,0,14,0,14,0,14,14,0,0,0,0],"split_type":[0,0,0,0,0,0,0,0,0,0,0,0,0,0,0],"sum_hessian":[1.3056961E1,1.2056587E1,1.0003744E0,1.0566735E1,1.4898515E0,7.542025E0,3.0247102E0,5.986353E0,1.5556722E0,2.9474275E0,3.0389254E0,1.330568E0,1.6168594E0,1.8886429E0,1.1502825E0],"tree_param":{"num_deleted":"0","num_feature":"15","num_nodes":"15","size_leaf_vector":"0"}}]},"name":"gbtree"},"learner_model_param":{"base_score":"5E-1","boost_from_average":"1","num_class":"0","num_feature":"15","num_target":"1"},"objective":{"name":"binary:logistic","reg_loss_param":{"scale_pos_weight":"1"}}},"version":[2,0,3]}