{"learner":{"attributes":{"niter":"407"},"feature_names":[],"feature_types":[],"gradient_booster":{"model":{"gbtree_model_param":{"num_parallel_tree":"1","num_trees":"408"},"iteration_indptr":[0,1,2,3,4,5,6,7,8,9,10,11,12,13,14,15,16,17,18,19,20,21,22,23,24,25,26,27,28,29,30,31,32,33,34,35,36,37,38,39,40,41,42,43,44,45,46,47,48,49,50,51,52,53,54,55,56,57,58,59,60,61,62,63,64,65,66,67,68,69,70,71,72,73,74,75,76,77,78,79,80,81,82,83,84,85,86,87,88,89,90,91,92,93,94,95,96,97,98,99,100,101,102,103,104,105,106,107,108,109,110,111,112,113,114,115,116,117,118,119,120,121,122,123,124,125,126,127,128,129,130,131,132,133,134,135,136,137,138,139,140,141,142,143,144,145,146,147,148,149,150,151,152,153,154,155,156,157,158,159,160,161,162,163,164,165,166,167,168,169,170,171,172,173,174,175,176,177,178,179,180,181,182,183,184,185,186,187,188,189,190,191,192,193,194,195,196,197,198,199,200,201,202,203,204,205,206,207,208,209,210,211,212,213,214,215,216,217,218,219,220,221,222,223,224,225,226,227,228,229,230,231,232,233,234,235,236,237,238,239,240,241,242,243,244,245,246,247,248,249,250,251,252,253,254,255,256,257,258,259,260,261,262,263,264,265,266,267,268,269,270,271,272,273,274,275,276,277,278,279,280,281,282,283,284,285,286,287,288,289,290,291,292,293,294,295,296,297,298,299,300,301,302,303,304,305,306,307,308,309,310,311,312,313,314,315,316,317,318,319,320,321,322,323,324,325,326,327,328,329,330,331,332,333,334,335,336,337,338,339,340,341,342,343,344,345,346,347,348,349,350,351,352,353,354,355,356,357,358,359,360,361,362,363,364,365,366,367,368,369,370,371,372,373,374,375,376,377,378,379,380,381,382,383,384,385,386,387,388,389,390,391,392,393,394,395,396,397,398,399,400,401,402,403,404,405,406,407,408],"tree_info":[0,0,0,0,0,0,0,0,0,0,0,0,0,0,0,0,0,0,0,0,0,0,0,0,0,0,0,0,0,0,0,0,0,0,0,0,0,0,0,0,0,0,0,0,0,0,0,0,0,0,0,0,0,0,0,0,0,0,0,0,0,0,0,0,0,0,0,0,0,0,0,0,0,0,0,0,0,0,0,0,0,0,0,0,0,0,0,0,0,0,0,0,0,0,0,0,0,0,0,0,0,0,0,0,0,0,0,0,0,0,0,0,0,0,0,0,0,0,0,0,0,0,0,0,0,0,0,0,0,0,0,0,0,0,0,0,0,0,0,0,0,0,0,0,0,0,0,0,0,0,0,0,0,0,0,0,0,0,0,0,0,0,0,0,0,0,0,0,0,0,0,0,0,0,0,0,0,0,0,0,0,0,0,0,0,0,0,0,0,0,0,0,0,0,0,0,0,0,0,0,0,0,0,0,0,0,0,0,0,0,0,0,0,0,0,0,0,0,0,0,0,0,0,0,0,0,0,0,0,0,0,0,0,0,0,0,0,0,0,0,0,0,0,0,0,0,0,0,0,0,0,0,0,0,0,0,0,0,0,0,0,0,0,0,0,0,0,0,0,0,0,0,0,0,0,0,0,0,0,0,0,0,0,0,0,0,0,0,0,0,0,0,0,0,0,0,0,0,0,0,0,0,0,0,0,0,0,0,0,0,0,0,0,0,0,0,0,0,0,0,0,0,0,0,0,0,0,0,0,0,0,0,0,0,0,0,0,0,0,0,0,0,0,0,0,0,0,0,0,0,0,0,0,0,0,0,0,0,0,0,0,0,0,0,0,0,0,0,0,0,0,0,0,0,0,0,0,0,0,0,0,0,0,0,0,0,0,0,0,0,0,0,0,0,0,0,0,0,0,0,0,0,0,0,0,0,0,0],"trees":[{"base_weights":[-0E0,-1.8589743E0,1.9594594E0,-1.8834951E0,4E-1,4.6153846E-1,1.9794168E0,-8.235294E-1,-1.9319727E0,1E0,-2.2222222E-1,-9.3333334E-1,-0E0,-1.9516407E0,-4.6153846E-1,5E-1,-1.1111112E0],"categories":[],"categories_nodes":[],"categories_segments":[],"categories_sizes":[],"default_left":[1,1,1,1,0,1,0,1,1,0,0,0,0,0,1,0,0],"id":0,"left_children":[1,3,5,7,-1,9,-1,11,13,-1,-1,-1,-1,-1,15,-1,-1],"loss_changes":[1.1073457E3,9.394592E0,3.5108643E0,6.3479004E0,0E0,1.4188035E0,0E0,7.6862764E-1,3.350525E0,0E0,0E0,0E0,0E0,0E0,2.58547E0,0E0,0E0],"parents":[2147483647,0,0,1,1,2,2,3,3,5,5,7,7,8,8,14,14],"right_children":[2,4,6,8,-1,10,-1,12,14,-1,-1,-1,-1,-1,16,-1,-1],"split_conditions":[2.2980394E0,2.0719266E0,2.56171E0,3.9304547E-2,1.20000005E-1,2.3942976E0,5.938251E-1,3.2933332E-2,2.1196425E0,3E-1,-6.666667E-2,-2.8E-1,-0E0,-5.8549225E-1,8.8882035E-1,1.5E-1,-3.3333337E-1],"split_indices":[11,6,11,14,0,11,0,14,11,0,0,0,0,0,10,0,0],"split_type":[0,0,0,0,0,0,0,0,0,0,0,0,0,0,0,0,0],"sum_hessian":[3.02E2,1.55E2,1.47E2,1.535E2,1.5E0,2.25E0,1.4475E2,7.5E0,1.46E2,1E0,1.25E0,6.5E0,1E0,1.4375E2,2.25E0,1E0,1.25E0],"tree_param":{"num_deleted":"0","num_feature":"15","num_nodes":"17","size_leaf_vector":"0"}},{"base_weights":[2.3718148E-6,-1.4306238E0,1.5174682E0,-1.4513576E0,3.287948E-1,3.9843616E-1,1.5331224E0,-6.1997205E-1,-1.4920847E0,-8.355072E-1,-2.0779517E-1,-1.5075699E0,-3.8528034E-1,-2.3582658E-1,-1.010332E0,3.8086292E-1,-5.776637E-1],"categories":[],"categories_nodes":[],"categories_segments":[],"categories_sizes":[],"default_left":[1,1,1,1,0,0,0,1,1,1,1,0,0,0,0,0,0],"id":1,"left_children":[1,3,5,7,-1,-1,-1,9,11,13,15,-1,-1,-1,-1,-1,-1],"loss_changes":[6.0809973E2,5.736847E0,1.7703247E0,3.906311E0,0E0,0E0,0E0,5.7034206E-1,1.7382812E0,3.0352163E-1,1.135869E0,0E0,0E0,0E0,0E0,0E0,0E0],"parents":[2147483647,0,0,1,1,2,2,3,3,7,7,8,8,9,9,10,10],"right_children":[2,4,6,8,-1,-1,-1,10,12,14,16,-1,-1,-1,-1,-1,-1],"split_conditions":[2.2980394E0,2.0719266E0,2.56171E0,3.9304547E-2,9.8638445E-2,1.1953085E-1,4.5993674E-1,1.8581819E-2,2.1196425E0,8.159091E-3,2.510909E-2,-4.5227098E-1,-1.15584105E-1,-7.074798E-2,-3.030996E-1,1.1425888E-1,-1.7329912E-1],"split_indices":[11,6,11,14,0,0,0,14,11,14,14,0,0,0,0,0,0],"split_type":[0,0,0,0,0,0,0,0,0,0,0,0,0,0,0,0,0],"sum_hessian":[2.7811075E2,1.4318088E2,1.3492987E2,1.4168626E2,1.4946129E0,2.2264454E0,1.3270341E2,7.3742466E0,1.3431203E2,4.1677766E0,3.20647E0,1.3210172E2,2.210307E0,1.47098E0,2.6967967E0,1.2258167E0,1.9806533E0],"tree_param":{"num_deleted":"0","num_feature":"15","num_nodes":"17","size_leaf_vector":"0"}},{"base_weights":[-5.0483365E-4,-1.2189423E0,1.3109338E0,-6.2290275E-1,-1.3012348E0,4.7591633E-1,1.336392E0,-6.9644755E-1,1.994076E-1,-1.3263938E0,-1.5627894E-1,-5.412109E-2,9.527751E-1,-7.694435E-1,1.440687E-1,-1.3356063E0,-5.511788E-1,6.280855E-1,-8.899133E-1,4.8629928E-1,-6.0294145E-1,-1.9521236E-1,-8.18236E-1],"categories":[],"categories_nodes":[],"categories_segments":[],"categories_sizes":[],"default_left":[1,1,1,1,1,1,0,1,0,1,1,1,0,1,0,0,0,0,0,0,0,0,0],"id":2,"left_children":[1,3,5,7,9,11,-1,13,-1,15,17,19,-1,21,-1,-1,-1,-1,-1,-1,-1,-1,-1],"loss_changes":[3.7885217E2,5.217865E0,1.7914276E0,1.15661E0,2.877121E0,1.2980163E0,0E0,1.0722504E0,0E0,1.1138916E-2,2.5360384E0,1.2665629E0,0E0,2.4864006E-1,0E0,0E0,0E0,0E0,0E0,0E0,0E0,0E0,0E0],"parents":[2147483647,0,0,1,1,2,2,3,3,4,4,5,5,7,7,9,9,10,10,11,11,13,13],"right_children":[2,4,6,8,10,12,-1,14,-1,16,18,20,-1,22,-1,-1,-1,-1,-1,-1,-1,-1,-1],"split_conditions":[2.2980394E0,1.0061364E-1,2.8035688E0,8.9933336E-2,2.1196425E0,7.610721E-1,4.0091762E-1,1.2270899E0,5.9822284E-2,1.8412156E0,8.8882035E-1,2.451776E0,2.8583255E-1,8.159091E-3,4.3220613E-2,-4.006819E-1,-1.6535366E-1,1.8842566E-1,-2.66974E-1,1.4588979E-1,-1.8088244E-1,-5.8563713E-2,-2.454708E-1],"split_indices":[11,14,11,14,11,13,0,9,0,11,10,11,0,14,0,0,0,0,0,0,0,0,0],"split_type":[0,0,0,0,0,0,0,0,0,0,0,0,0,0,0,0,0,0,0,0,0,0,0],"sum_hessian":[2.3509288E2,1.21904144E2,1.13188736E2,1.5828537E1,1.0607561E2,3.931499E0,1.0925723E2,1.4669596E1,1.1589407E0,1.0363979E2,2.4358191E0,2.2817721E0,1.649727E0,1.3575194E1,1.0944012E0,1.0170822E2,1.9315678E0,1.2467399E0,1.1890794E0,1.2070832E0,1.0746889E0,1.4547956E0,1.2120399E1],"tree_param":{"num_deleted":"0","num_feature":"15","num_nodes":"23","size_leaf_vector":"0"}},{"base_weights":[-1.4826353E-4,-1.0808536E0,1.190612E0,-4.851187E-1,-1.1768394E0,4.0395433E-1,1.2195328E0,-5.4933226E-1,1.6435005E-1,-1.2038054E0,-1.3927057E-1,-4.6296112E-2,8.4020567E-1,-6.132486E-1,1.2052338E-1,-1.2138238E0,-4.7162396E-1,5.2867967E-1,-7.8069884E-1,4.1426212E-1,-4.959379E-1,-1.6173893E-1,-6.536922E-1,-9.4196296E-1,-5.069614E-1],"categories":[],"categories_nodes":[],"categories_segments":[],"categories_sizes":[],"default_left":[1,1,1,1,1,1,0,1,0,1,1,1,0,1,0,0,0,0,0,0,0,0,1,0,0],"id":3,"left_children":[1,3,5,7,9,11,-1,13,-1,15,17,19,-1,21,-1,-1,-1,-1,-1,-1,-1,-1,23,-1,-1],"loss_changes":[2.4947476E2,5.240387E0,1.6057892E0,7.4936724E-1,2.2616196E0,9.750504E-1,0E0,6.9951725E-1,0E0,4.7317505E-2,1.8395393E0,8.87415E-1,0E0,1.4085388E-1,0E0,0E0,0E0,0E0,0E0,0E0,0E0,0E0,3.276825E-2,0E0,0E0],"parents":[2147483647,0,0,1,1,2,2,3,3,4,4,5,5,7,7,9,9,10,10,11,11,13,13,22,22],"right_children":[2,4,6,8,10,12,-1,14,-1,16,18,20,-1,22,-1,-1,-1,-1,-1,-1,-1,-1,24,-1,-1],"split_conditions":[2.2980394E0,1.0061364E-1,2.8035688E0,8.9933336E-2,2.1196425E0,7.610721E-1,3.6585987E-1,1.2270899E0,4.9305018E-2,1.8412156E0,8.8882035E-1,2.451776E0,2.5206172E-1,8.159091E-3,3.6157016E-2,-3.6414716E-1,-1.414872E-1,1.586039E-1,-2.3420966E-1,1.2427864E-1,-1.4878137E-1,-4.8521683E-2,1.8581819E-2,-2.825889E-1,-1.5208843E-1],"split_indices":[11,14,11,14,11,13,0,9,0,11,10,11,0,14,0,0,0,0,0,0,0,0,14,0,0],"split_type":[0,0,0,0,0,0,0,0,0,0,0,0,0,0,0,0,0,0,0,0,0,0,0,0,0],"sum_hessian":[1.9186304E2,1.00627884E2,9.1235146E1,1.4803595E1,8.5824295E1,3.766016E0,8.746913E1,1.361195E1,1.1916442E0,8.349409E1,2.3302033E0,2.2931538E0,1.4728624E0,1.2503406E1,1.1085445E0,8.1718124E1,1.7759659E0,1.2276106E0,1.1025928E0,1.1716957E0,1.121458E0,1.4388875E0,1.1064518E1,1.9040704E0,9.160448E0],"tree_param":{"num_deleted":"0","num_feature":"15","num_nodes":"25","size_leaf_vector":"0"}},{"base_weights":[-1.1349939E-3,-9.7890776E-1,1.1108491E0,-3.896655E-1,-1.09281E0,3.4915984E-1,1.1451882E0,-4.5973456E-1,2.898236E-1,-1.1345873E0,-3.0499676E-1,-3.857415E-2,7.505681E-1,-1.7194782E-1,-7.049838E-1,4.488023E-1,-6.753036E-1,3.5450533E-1,-4.1065583E-1,-4.550825E-1,3.04342E-1,-2.0822516E-1,-8.0663526E-1,-1.756253E-1,-6.0776407E-1,5.143569E-1,-1.8214336E-2],"categories":[],"categories_nodes":[],"categories_segments":[],"categories_sizes":[],"default_left":[1,1,1,1,1,1,0,1,0,0,1,1,0,1,0,0,1,0,0,1,1,0,0,0,0,0,0],"id":4,"left_children":[1,3,5,7,9,11,-1,13,-1,-1,15,17,-1,19,-1,-1,21,-1,-1,23,25,-1,-1,-1,-1,-1,-1],"loss_changes":[1.6952916E2,5.1426163E0,1.5083313E0,8.4712625E-1,1.924057E0,7.4267733E-1,0E0,8.6541414E-1,0E0,0E0,1.6544003E0,6.258499E-1,0E0,1.1842045E0,0E0,0E0,5.5665135E-2,0E0,0E0,1.1786771E-1,2.4580583E-1,0E0,0E0,0E0,0E0,0E0,0E0],"parents":[2147483647,0,0,1,1,2,2,3,3,4,4,5,5,7,7,10,10,11,11,13,13,16,16,19,19,20,20],"right_children":[2,4,6,8,10,12,-1,14,-1,-1,16,18,-1,20,-1,-1,22,-1,-1,24,26,-1,-1,-1,-1,-1,-1],"split_conditions":[2.2980394E0,1.0061364E-1,2.8035688E0,9.185E-2,1.8412156E0,7.610721E-1,3.4355646E-1,3.9304547E-2,8.694708E-2,-3.403762E-1,1.7987424E-1,2.451776E0,2.2517043E-1,2.1798484E-2,-2.1149515E-1,1.346407E-1,2.0585175E0,1.0635161E-1,-1.2319675E-1,1.0615151E-2,3.0289393E-2,-6.246755E-2,-2.4199058E-1,-5.268759E-2,-1.8232922E-1,1.5430708E-1,-5.464301E-3],"split_indices":[11,14,11,14,11,13,0,14,0,0,14,11,0,14,0,0,11,0,0,14,14,0,0,0,0,0,0],"split_type":[0,0,0,0,0,0,0,0,0,0,0,0,0,0,0,0,0,0,0,0,0,0,0,0,0,0,0],"sum_hessian":[1.5392204E2,8.196741E1,7.195464E1,1.3994051E1,6.797335E1,3.5857532E0,6.836889E1,1.2979059E1,1.0149921E0,6.413228E1,3.8410733E0,2.2837265E0,1.3020267E0,6.75433E0,6.224729E0,1.1955104E0,2.645563E0,1.1334985E0,1.1502278E0,4.264053E0,2.4902775E0,1.1480472E0,1.4975157E0,2.2662838E0,1.9977689E0,1.1481172E0,1.3421602E0],"tree_param":{"num_deleted":"0","num_feature":"15","num_nodes":"27","size_leaf_vector":"0"}},{"base_weights":[-1.2023405E-3,-8.93825E-1,1.0523823E0,-3.109862E-1,-1.0293206E0,3.061042E-1,1.0940824E0,-1.7273729E-1,-8.094857E-1,-1.0779104E0,-2.672491E-1,-3.140505E-2,6.764193E-1,-4.1139516E-1,-4.235321E-2,3.8314816E-1,-5.9926796E-1,3.043107E-1,-3.4163287E-1,-1.4080705E-1,-6.4144343E-1,4.9389556E-1,-2.2424133E-1,-1.789486E-1,-7.227181E-1,-4.0302554E-1,2.0396848E-1,-3.3782178E-1,2.407501E-1],"categories":[],"categories_nodes":[],"categories_segments":[],"categories_sizes":[],"default_left":[1,1,1,1,1,1,0,1,0,0,1,1,0,1,1,0,1,0,0,1,0,0,1,0,0,0,0,0,0],"id":5,"left_children":[1,3,5,7,9,11,-1,13,-1,-1,15,17,-1,19,21,-1,23,-1,-1,25,-1,-1,27,-1,-1,-1,-1,-1,-1],"loss_changes":[1.1704476E2,5.000538E0,1.4414711E0,8.347455E-1,1.7200966E0,5.723325E-1,0E0,3.6663184E-1,0E0,0E0,1.2186925E0,4.4374E-1,0E0,1.739741E-1,9.979938E-1,0E0,4.824984E-2,0E0,0E0,3.7442097E-1,0E0,0E0,4.7639254E-1,0E0,0E0,0E0,0E0,0E0,0E0],"parents":[2147483647,0,0,1,1,2,2,3,3,4,4,5,5,7,7,10,10,11,11,13,13,14,14,16,16,19,19,22,22],"right_children":[2,4,6,8,10,12,-1,14,-1,-1,16,18,-1,20,22,-1,24,-1,-1,26,-1,-1,28,-1,-1,-1,-1,-1,-1],"split_conditions":[2.2980394E0,1.0061364E-1,2.8035688E0,1.1524413E0,1.8412156E0,7.610721E-1,3.2822472E-1,1.8581819E-2,-2.4284571E-1,-3.2337314E-1,1.7987424E-1,2.451776E0,2.029258E-1,1.0615151E-2,2.8054547E-2,1.1494445E-1,2.0585175E0,9.1293216E-2,-1.0248987E-1,6.798485E-3,-1.9243304E-1,1.4816867E-1,9.185E-2,-5.368458E-2,-2.1681544E-1,-1.20907664E-1,6.1190546E-2,-1.0134654E-1,7.2225034E-2],"split_indices":[11,14,11,10,11,13,0,14,0,0,14,11,0,14,14,0,11,0,0,14,0,0,14,0,0,0,0,0,0],"split_type":[0,0,0,0,0,0,0,0,0,0,0,0,0,0,0,0,0,0,0,0,0,0,0,0,0,0,0,0,0],"sum_hessian":[1.2245545E2,6.637368E1,5.608177E1,1.3141268E1,5.3232414E1,3.4092531E0,5.267252E1,1.1342238E1,1.7990296E0,4.9652138E1,3.5802777E0,2.2624369E0,1.1468163E0,3.245799E0,8.096439E0,1.1579516E0,2.422326E0,1.0957426E0,1.1666942E0,2.2322502E0,1.0135487E0,1.6161803E0,6.480259E0,1.1060482E0,1.3162777E0,1.1719643E0,1.060286E0,5.427907E0,1.0523515E0],"tree_param":{"num_deleted":"0","num_feature":"15","num_nodes":"29","size_leaf_vector":"0"}},{"base_weights":[-3.165274E-3,-8.1797856E-1,1.0052614E0,-2.5998878E-1,-9.764695E-1,1.08201966E-1,1.0431936E0,-1.3829951E-1,-7.318629E-1,-1.033568E0,-2.3691843E-1,3.5970598E-1,1.0564511E0,-3.613928E-1,-1.917889E-2,3.283435E-1,-5.350586E-1,-5.291083E-2,-4.9606192E-1,2.9588792E-1,-2.8592756E-1,-1.538368E-1,-6.530641E-1,5.616597E-2,5.1012254E-1,-6.9919664E-1,4.6979155E-2],"categories":[],"categories_nodes":[],"categories_segments":[],"categories_sizes":[],"default_left":[1,1,1,1,1,0,1,1,0,0,1,0,0,1,1,0,1,0,0,1,1,0,0,0,0,0,0],"id":6,"left_children":[1,3,5,7,9,-1,11,13,-1,-1,15,-1,-1,17,19,-1,21,-1,-1,23,25,-1,-1,-1,-1,-1,-1],"loss_changes":[8.175199E1,4.6125565E0,1.4001732E0,6.7601156E-1,1.5494576E0,0E0,5.5122375E-3,3.1179386E-1,0E0,0E0,9.0758765E-1,0E0,0E0,1.4485705E-1,8.304638E-1,0E0,4.4551432E-2,0E0,0E0,2.0554936E-1,7.6400495E-1,0E0,0E0,0E0,0E0,0E0,0E0],"parents":[2147483647,0,0,1,1,2,2,3,3,4,4,6,6,7,7,10,10,13,13,14,14,16,16,19,19,20,20],"right_children":[2,4,6,8,10,-1,12,14,-1,-1,16,-1,-1,18,20,-1,22,-1,-1,24,26,-1,-1,-1,-1,-1,-1],"split_conditions":[2.2980394E0,1.0061364E-1,2.56171E0,1.1524413E0,1.8412156E0,3.2460593E-2,2.8035688E0,1.8581819E-2,-2.1955888E-1,-3.1007043E-1,1.7987424E-1,1.079118E-1,3.1693533E-1,8.159091E-3,4.6451516E-2,9.850306E-2,2.0585175E0,-1.587325E-2,-1.4881858E-1,3.3828788E-2,5.587879E-2,-4.6151042E-2,-1.9591923E-1,1.6849792E-2,1.5303677E-1,-2.09759E-1,1.4093747E-2],"split_indices":[11,14,11,10,11,0,11,14,0,0,14,0,0,14,14,0,11,0,0,14,14,0,0,0,0,0,0],"split_type":[0,0,0,0,0,0,0,0,0,0,0,0,0,0,0,0,0,0,0,0,0,0,0,0,0,0,0],"sum_hessian":[9.749304E1,5.4027466E1,4.3465576E1,1.2535361E1,4.1492104E1,1.9196739E0,4.1545902E1,1.0993411E1,1.5419503E0,3.814916E1,3.3429444E0,1.3258154E0,4.022009E1,3.1187212E0,7.87469E0,1.1193657E0,2.2235787E0,1.3710346E0,1.7476866E0,3.5602763E0,4.3144135E0,1.0701272E0,1.1534514E0,2.2758455E0,1.2844307E0,1.4339883E0,2.8804255E0],"tree_param":{"num_deleted":"0","num_feature":"15","num_nodes":"27","size_leaf_vector":"0"}},{"base_weights":[-6.8404777E-3,-7.458156E-1,9.605875E-1,-8.025592E-1,7.15528E-1,2.2865623E-1,1.0266447E0,-1.5061638E-1,-9.017184E-1,4.2089295E-1,-2.6346928E-2,-3.0018964E-1,1.174043E-1,-9.4366765E-1,-2.959863E-1,-7.504491E-2,-4.564416E-1,1.7600551E-2,1.6346176E-1,-5.5974466E-1,-9.9331874E-1,8.230066E-3,-5.5533844E-1,-3.374497E-1,2.3627944E-1,-7.5260186E-1,1.924612E-1],"categories":[],"categories_nodes":[],"categories_segments":[],"categories_sizes":[],"default_left":[1,1,1,1,0,1,0,1,1,0,0,1,1,1,1,1,0,0,0,1,0,0,0,0,0,0,0],"id":7,"left_children":[1,3,5,7,-1,9,-1,11,13,-1,-1,15,17,19,21,23,-1,-1,-1,25,-1,-1,-1,-1,-1,-1,-1],"loss_changes":[5.729498E1,4.341501E0,1.4434586E0,2.721836E0,0E0,2.1500775E-1,0E0,3.1732115E-1,6.905422E-1,0E0,0E0,1.34509E-1,1.2012266E-2,1.15730286E-1,3.14572E-1,3.3805403E-1,0E0,0E0,0E0,1.0626113E0,0E0,0E0,0E0,0E0,0E0,0E0,0E0],"parents":[2147483647,0,0,1,1,2,2,3,3,5,5,7,7,8,8,11,11,12,12,13,13,14,14,15,15,19,19],"right_children":[2,4,6,8,-1,10,-1,12,14,-1,-1,16,18,20,22,24,-1,-1,-1,26,-1,-1,-1,-1,-1,-1,-1],"split_conditions":[2.2980394E0,2.0719266E0,2.8035688E0,3.9304547E-2,2.1465841E-1,2.4870453E0,3.079934E-1,2.1798484E-2,1.8412156E0,1.262679E-1,-7.904079E-3,1.0615151E-2,3.1310607E-2,1.0061364E-1,2.1509442E0,6.798485E-3,-1.3693249E-1,5.2801655E-3,4.903853E-2,9.185E-2,-2.9799563E-1,2.46902E-3,-1.6660154E-1,-1.0123491E-1,7.088383E-2,-2.2578056E-1,5.773836E-2],"split_indices":[11,6,11,14,0,11,0,14,11,0,0,14,14,14,11,14,0,0,0,14,0,0,0,0,0,0,0],"split_type":[0,0,0,0,0,0,0,0,0,0,0,0,0,0,0,0,0,0,0,0,0,0,0,0,0,0,0],"sum_hessian":[7.814135E1,4.4431316E1,3.371003E1,4.3204506E1,1.2268121E0,3.159822E0,3.0550207E1,6.036331E0,3.7168175E1,1.4307195E0,1.7291025E0,3.7972116E0,2.2391195E0,3.423909E1,2.9290853E0,2.162102E0,1.6351095E0,1.143458E0,1.0956616E0,5.3264313E0,2.8912659E1,1.7935469E0,1.1355383E0,1.1276917E0,1.0344102E0,4.2390575E0,1.0873736E0],"tree_param":{"num_deleted":"0","num_feature":"15","num_nodes":"27","size_leaf_vector":"0"}},{"base_weights":[-6.779763E-3,-6.3738877E-1,9.791842E-1,-6.9272494E-1,5.876151E-1,3.1282696E-1,1.0010267E0,-1.2497286E-1,-7.923814E-1,-2.9978967E-1,8.581514E-2,-8.9399713E-1,-1.5790136E-1,-3.5951668E-3,-4.4552362E-1,4.717938E-1,-2.4597397E-1,-4.781459E-1,-9.577331E-1,-4.318015E-1,2.9344025E-1,-6.67644E-1,1.6037971E-1,-6.342817E-3,-6.94443E-1],"categories":[],"categories_nodes":[],"categories_segments":[],"categories_sizes":[],"default_left":[1,1,1,1,0,0,0,1,1,1,1,1,1,0,0,0,0,1,0,1,0,0,0,0,0],"id":8,"left_children":[1,3,5,7,-1,-1,-1,9,11,13,15,17,19,-1,-1,-1,-1,21,-1,23,-1,-1,-1,-1,-1],"loss_changes":[4.0488056E1,3.0988808E0,5.6617737E-2,2.0766354E0,0E0,0E0,0E0,2.8105345E-1,1.9557457E0,1.7150128E-1,6.1789733E-1,2.7941132E-1,8.318901E-1,0E0,0E0,0E0,0E0,7.960633E-1,0E0,4.3749374E-1,0E0,0E0,0E0,0E0,0E0],"parents":[2147483647,0,0,1,1,2,2,3,3,7,7,8,8,9,9,10,10,11,11,12,12,17,17,19,19],"right_children":[2,4,6,8,-1,-1,-1,10,12,14,16,18,20,-1,-1,-1,-1,22,-1,24,-1,-1,-1,-1,-1],"split_conditions":[2.56171E0,2.0719266E0,2.8035688E0,3.9304547E-2,1.7628452E-1,9.3848094E-2,3.0030805E-1,1.8581819E-2,1.8412156E0,8.159091E-3,2.510909E-2,1.0061364E-1,4.3346515E-1,-1.0785501E-3,-1.336571E-1,1.4153814E-1,-7.37922E-2,9.185E-2,-2.8731993E-1,2.2166011E0,8.803208E-2,-2.0029321E-1,4.8113916E-2,-1.9028452E-3,-2.0833291E-1],"split_indices":[11,6,11,14,0,0,0,14,11,14,14,14,14,0,0,0,0,14,0,11,0,0,0,0,0],"split_type":[0,0,0,0,0,0,0,0,0,0,0,0,0,0,0,0,0,0,0,0,0,0,0,0,0],"sum_hessian":[6.3114902E1,3.8710037E1,2.4404867E1,3.7452724E1,1.2573127E0,1.2608752E0,2.3143993E1,5.9289536E0,3.152377E1,3.010208E0,2.9187458E0,2.6819452E1,4.7043176E0,1.3305743E0,1.6796335E0,1.1541383E0,1.7646073E0,4.6941338E0,2.2125319E1,2.9545932E0,1.7497241E0,3.5846875E0,1.1094465E0,1.5186496E0,1.4359436E0],"tree_param":{"num_deleted":"0","num_feature":"15","num_nodes":"25","size_leaf_vector":"0"}},{"base_weights":[-5.9992364E-3,-5.595071E-1,9.4760644E-1,-2.0397073E-1,-7.999769E-1,9.879572E-1,3.4629342E-1,-8.7983325E-2,-7.9622424E-1,-8.9637333E-1,4.1675904E-1,-1.647587E-1,4.2030513E-1,-9.4165766E-1,-1.4819291E-1,-2.0839638E-1,1.2258853E-1,-8.954101E-2,-6.0803396E-1],"categories":[],"categories_nodes":[],"categories_segments":[],"categories_sizes":[],"default_left":[1,1,1,1,1,0,0,1,0,1,0,1,0,0,0,1,0,0,0],"id":9,"left_children":[1,3,5,7,9,-1,-1,11,-1,13,-1,15,-1,-1,-1,17,-1,-1,-1],"loss_changes":[2.834296E1,2.7410707E0,1.3643456E-1,9.6364045E-1,2.7101574E0,0E0,0E0,6.041788E-1,0E0,4.9661922E-1,0E0,1.8388274E-1,0E0,0E0,0E0,4.8385635E-1,0E0,0E0,0E0],"parents":[2147483647,0,0,1,1,2,2,3,3,4,4,7,7,9,9,11,11,15,15],"right_children":[2,4,6,8,10,-1,-1,12,-1,14,-1,16,-1,-1,-1,18,-1,-1,-1],"split_conditions":[2.56171E0,1.7865758E-1,5.607197E-1,1.0587717E0,2.2980394E0,2.9638717E-1,1.0388803E-1,2.0960708E0,-2.3886728E-1,2.2227125E0,1.2502772E-1,1.0680554E0,1.2609154E-1,-2.8249732E-1,-4.4457875E-2,1.0061364E-1,3.677656E-2,-2.6862305E-2,-1.824102E-1],"split_indices":[11,14,14,10,11,0,0,9,0,9,0,11,0,0,0,14,0,0,0],"split_type":[0,0,0,0,0,0,0,0,0,0,0,0,0,0,0,0,0,0,0],"sum_hessian":[5.169284E1,3.2969437E1,1.8723402E1,1.4047832E1,1.8921604E1,1.6943426E1,1.7799766E0,1.2707702E1,1.3401296E0,1.7776546E1,1.145058E0,1.1627292E1,1.08041E0,1.6518171E1,1.2583755E0,1.0332861E1,1.2944312E0,8.907697E0,1.4251639E0],"tree_param":{"num_deleted":"0","num_feature":"15","num_nodes":"19","size_leaf_vector":"0"}},{"base_weights":[-5.932471E-3,-4.8526E-1,9.1088116E-1,-1.7047325E-1,-7.395987E-1,1.6856284E-1,9.5385486E-1,-6.828885E-2,-7.253122E-1,-8.438552E-1,3.5988453E-1,-1.3438074E-1,3.5085762E-1,-8.9756805E-1,-1.2665789E-1,-3.4595433E-1,-5.071572E-2,1.753782E-1,-1.854544E-1],"categories":[],"categories_nodes":[],"categories_segments":[],"categories_sizes":[],"default_left":[1,1,1,1,1,0,0,1,0,1,0,1,0,0,0,0,1,0,0],"id":10,"left_children":[1,3,5,7,9,-1,-1,11,-1,13,-1,15,-1,-1,-1,-1,17,-1,-1],"loss_changes":[1.9839487E1,2.246817E0,3.3372593E-1,7.750895E-1,2.1484585E0,0E0,0E0,4.1798347E-1,0E0,4.6410275E-1,0E0,1.999373E-1,0E0,0E0,0E0,0E0,3.364396E-1,0E0,0E0],"parents":[2147483647,0,0,1,1,2,2,3,3,4,4,7,7,9,9,11,11,16,16],"right_children":[2,4,6,8,10,-1,-1,12,-1,14,-1,16,-1,-1,-1,-1,18,-1,-1],"split_conditions":[2.56171E0,1.7865758E-1,2.8035688E0,1.0587717E0,2.2980394E0,5.0568856E-2,2.8615648E-1,2.0960708E0,-2.1759365E-1,2.2227125E0,1.07965365E-1,1.8581819E-2,1.0525729E-1,-2.6927042E-1,-3.799737E-2,-1.03786305E-1,4.6451516E-2,5.2613463E-2,-5.563632E-2],"split_indices":[11,14,11,10,11,0,0,9,0,9,0,14,0,0,0,0,14,0,0],"split_type":[0,0,0,0,0,0,0,0,0,0,0,0,0,0,0,0,0,0,0],"sum_hessian":[4.3139935E1,2.8638103E1,1.4501832E1,1.3544622E1,1.5093481E1,1.0629594E0,1.3438872E1,1.2386488E1,1.1581345E0,1.3998589E1,1.0948926E0,1.1286243E1,1.1002444E0,1.278927E1,1.2093174E0,2.3099098E0,8.976334E0,3.2392302E0,5.7371035E0],"tree_param":{"num_deleted":"0","num_feature":"15","num_nodes":"19","size_leaf_vector":"0"}},{"base_weights":[-5.4356433E-3,-4.1352004E-1,8.738296E-1,-4.8375234E-1,5.959716E-1,1.4516963E-1,9.2784303E-1,-7.527603E-2,-5.965275E-1,-1.6585347E-1,2.0661494E-1,-7.463269E-1,-1.2169166E-2,7.179839E-2,-2.531234E-1,-3.3840635E-1,-8.502387E-1,-2.6978153E-1,3.8866484E-1,-3.7239477E-1,-5.86859E-2,-7.040348E-1,1.0314841E-1,1.5073222E-1,-5.4421854E-1],"categories":[],"categories_nodes":[],"categories_segments":[],"categories_sizes":[],"default_left":[1,1,1,1,0,0,0,1,1,1,0,1,1,0,1,1,0,1,0,0,0,0,0,0,0],"id":11,"left_children":[1,3,5,7,-1,-1,-1,9,11,13,-1,15,17,-1,19,21,-1,23,-1,-1,-1,-1,-1,-1,-1],"loss_changes":[1.3861662E1,2.1583796E0,3.4735966E-1,1.1165547E0,0E0,0E0,0E0,2.0276873E-1,1.7078218E0,1.332641E-1,0E0,3.7331104E-1,6.2307197E-1,0E0,7.739651E-2,8.519553E-1,0E0,5.027238E-1,0E0,0E0,0E0,0E0,0E0,0E0,0E0],"parents":[2147483647,0,0,1,1,2,2,3,3,7,7,8,8,9,9,11,11,12,12,14,14,15,15,17,17],"right_children":[2,4,6,8,-1,-1,-1,10,12,14,-1,16,18,-1,20,22,-1,24,-1,-1,-1,-1,-1,-1,-1],"split_conditions":[2.56171E0,2.0719266E0,2.8035688E0,3.9304547E-2,1.7879148E-1,4.355089E-2,2.7835292E-1,3.1310607E-2,1.8412156E0,8.159091E-3,6.1984483E-2,1.0061364E-1,4.3346515E-1,2.1539519E-2,1.8581819E-2,6.725606E-2,-2.550716E-1,2.2166011E0,1.16599455E-1,-1.1171844E-1,-1.760577E-2,-2.1121044E-1,3.0944524E-2,4.5219667E-2,-1.6326557E-1],"split_indices":[11,6,11,14,0,0,0,14,11,14,0,14,14,0,14,14,0,11,0,0,0,0,0,0,0],"split_type":[0,0,0,0,0,0,0,0,0,0,0,0,0,0,0,0,0,0,0,0,0,0,0,0,0],"sum_hessian":[3.6624786E1,2.537667E1,1.1248117E1,2.4212927E1,1.1637444E0,1.03074E0,1.0217377E1,5.599349E0,1.8613577E1,4.549227E0,1.0501217E0,1.4594998E1,4.018579E0,1.2694819E0,3.2797453E0,3.8272498E0,1.0767749E1,2.6453722E0,1.3732069E0,1.4655254E0,1.81422E0,1.7684464E0,2.0588033E0,1.2226663E0,1.4227058E0],"tree_param":{"num_deleted":"0","num_feature":"15","num_nodes":"25","size_leaf_vector":"0"}},{"base_weights":[-3.8006832E-3,-3.246666E-1,8.989344E-1,-5.0428793E-2,-6.26722E-1,2.1132383E-2,-4.5756683E-1,-7.4355507E-1,9.778968E-2,-6.768805E-2,3.671678E-1,-8.177518E-1,-3.352976E-2,7.492651E-2,-3.7057757E-1,-1.1294202E-1,3.60206E-1],"categories":[],"categories_nodes":[],"categories_segments":[],"categories_sizes":[],"default_left":[1,1,0,1,1,1,0,1,0,1,0,0,0,1,0,0,0],"id":12,"left_children":[1,3,-1,5,7,9,-1,11,-1,13,-1,-1,-1,15,-1,-1,-1],"loss_changes":[9.723695E0,2.019223E0,0E0,4.194289E-1,1.0625696E0,4.2187056E-1,0E0,5.0921154E-1,0E0,5.0825596E-1,0E0,0E0,0E0,4.905792E-1,0E0,0E0,0E0],"parents":[2147483647,0,0,1,1,3,3,4,4,5,5,7,7,9,9,13,13],"right_children":[2,4,-1,6,8,10,-1,12,-1,14,-1,-1,-1,16,-1,-1,-1],"split_conditions":[2.8035688E0,1.7865758E-1,2.6968035E-1,1.0587717E0,2.2980394E0,1.0636185E0,-1.3727005E-1,2.180777E0,2.9336905E-2,7.052879E-2,1.10150345E-1,-2.4532555E-1,-1.0058928E-2,3.3828788E-2,-1.1117328E-1,-3.3882607E-2,1.08061805E-1],"split_indices":[11,14,0,10,11,11,0,9,0,14,0,0,0,14,0,0,0],"split_type":[0,0,0,0,0,0,0,0,0,0,0,0,0,0,0,0,0],"sum_hessian":[3.156211E1,2.3757984E1,7.8041263E0,1.3064031E1,1.0693954E1,1.191744E1,1.14659E0,9.186307E0,1.5076476E0,1.01233635E1,1.7940768E0,8.179806E0,1.0065013E0,7.394374E0,2.7289896E0,4.8225937E0,2.57178E0],"tree_param":{"num_deleted":"0","num_feature":"15","num_nodes":"17","size_leaf_vector":"0"}},{"base_weights":[-3.0117098E-3,-2.6966867E-1,8.663629E-1,-1.0524436E-1,-7.0951176E-1,-1.8657172E-1,6.290892E-1,-8.2241786E-1,-7.1159646E-2,-4.2074256E-2,-6.442581E-1,1.9480214E-2,-3.9941153E-1,-5.2992955E-2,3.0437866E-1],"categories":[],"categories_nodes":[],"categories_segments":[],"categories_sizes":[],"default_left":[1,1,0,1,1,1,0,0,0,1,0,1,0,0,0],"id":13,"left_children":[1,3,-1,5,7,9,-1,-1,-1,11,-1,13,-1,-1,-1],"loss_changes":[6.9115353E0,1.5747471E0,0E0,1.1789318E0,3.7620616E-1,1.082245E0,0E0,0E0,0E0,3.1173885E-1,0E0,2.7921686E-1,0E0,0E0,0E0],"parents":[2147483647,0,0,1,1,3,3,4,4,5,5,9,9,11,11],"right_children":[2,4,-1,6,8,10,-1,-1,-1,12,-1,14,-1,-1,-1],"split_conditions":[2.8035688E0,5.062803E-1,2.5990888E-1,4.2979696E-1,2.2036076E0,1.7865758E-1,1.8872677E-1,-2.4672537E-1,-2.1347895E-2,1.0587717E0,-1.9327743E-1,1.0636185E0,-1.1982346E-1,-1.5897887E-2,9.13136E-2],"split_indices":[11,14,0,14,11,14,0,0,0,10,0,11,0,0,0],"split_type":[0,0,0,0,0,0,0,0,0,0,0,0,0,0,0],"sum_hessian":[2.7805824E1,2.180695E1,5.998874E0,1.6775229E1,5.0317216E0,1.5774171E1,1.0010573E0,4.0304976E0,1.0012237E0,1.2818981E1,2.9551895E0,1.1741834E1,1.0771483E0,1.0009568E1,1.732265E0],"tree_param":{"num_deleted":"0","num_feature":"15","num_nodes":"15","size_leaf_vector":"0"}},{"base_weights":[-3.6903538E-3,-2.2230494E-1,8.2980615E-1,-6.6800766E-2,-6.3565737E-1,-1.4712463E-1,5.986608E-1,-8.044618E-1,5.6992393E-2,-2.4143589E-1,4.2809016E-1,-3.0999622E-1,7.0688695E-2,8.804987E-2,-3.6571166E-1,-2.2304223E-1,3.6233947E-1],"categories":[],"categories_nodes":[],"categories_segments":[],"categories_sizes":[],"default_left":[1,1,0,1,1,1,0,0,0,1,0,1,1,0,0,0,0],"id":14,"left_children":[1,3,-1,5,7,9,-1,-1,-1,11,-1,13,15,-1,-1,-1,-1],"loss_changes":[4.9525456E0,1.3407272E0,0E0,9.836113E-1,7.19908E-1,9.57896E-1,0E0,0E0,0E0,3.2519817E-1,0E0,2.9402292E-1,3.692369E-1,0E0,0E0,0E0,0E0],"parents":[2147483647,0,0,1,1,3,3,4,4,5,5,9,9,11,11,12,12],"right_children":[2,4,-1,6,8,10,-1,-1,-1,12,-1,14,16,-1,-1,-1,-1],"split_conditions":[2.8035688E0,4.551197E-1,2.4894185E-1,1.9475348E0,2.2625751E0,2.0960708E0,1.7959826E-1,-2.4133854E-1,1.7097719E-2,2.1085696E0,1.2842706E-1,8.159091E-3,1.1187273E-1,2.6414962E-2,-1.097135E-1,-6.691267E-2,1.0870185E-1],"split_indices":[11,14,0,6,11,9,0,0,0,11,0,14,14,0,0,0,0],"split_type":[0,0,0,0,0,0,0,0,0,0,0,0,0,0,0,0,0],"sum_hessian":[2.516738E1,2.0518854E1,4.6485248E0,1.5753833E1,4.765022E0,1.4752108E1,1.0017248E0,3.7015076E0,1.0635142E0,1.3172616E1,1.5794916E0,1.0805855E1,2.3667622E0,1.255546E0,9.550308E0,1.296379E0,1.0703831E0],"tree_param":{"num_deleted":"0","num_feature":"15","num_nodes":"17","size_leaf_vector":"0"}},{"base_weights":[9.275417E-3,-1.7117776E-1,7.894435E-1,-4.875542E-2,-6.3515604E-1,-1.2238873E-1,4.4592518E-1,-8.180903E-1,-2.1004906E-1,5.001318E-3,-5.7026863E-1,1.21043906E-1,-1.2592898E-1,-1.0969905E-1,3.1958055E-1,-3.2525623E-1,1.2852521E-1],"categories":[],"categories_nodes":[],"categories_segments":[],"categories_sizes":[],"default_left":[1,1,0,1,1,1,0,0,0,1,0,1,1,0,0,0,0],"id":15,"left_children":[1,3,-1,5,7,9,-1,-1,-1,11,-1,13,15,-1,-1,-1,-1],"loss_changes":[3.4770103E0,1.1107571E0,0E0,6.7333215E-1,1.4802921E-1,8.9125395E-1,0E0,0E0,0E0,2.144917E-1,0E0,3.7690789E-1,3.791852E-1,0E0,0E0,0E0,0E0],"parents":[2147483647,0,0,1,1,3,3,4,4,5,5,9,9,11,11,12,12],"right_children":[2,4,-1,6,8,10,-1,-1,-1,12,-1,14,16,-1,-1,-1,-1],"split_conditions":[2.8035688E0,5.442788E-1,2.3683305E-1,4.324909E-1,7.736864E-1,1.7865758E-1,1.3377756E-1,-2.454271E-1,-6.301472E-2,4.6451516E-2,-1.7108059E-1,2.1181818E-2,9.37303E-2,-3.2909717E-2,9.587417E-2,-9.757687E-2,3.8557567E-2],"split_indices":[11,14,0,14,14,14,0,0,0,14,0,14,14,0,0,0,0],"split_type":[0,0,0,0,0,0,0,0,0,0,0,0,0,0,0,0,0],"sum_hessian":[2.273764E1,1.9100317E1,3.6373222E0,1.5987136E1,3.113182E0,1.4570851E1,1.416284E0,1.530245E0,1.582937E0,1.2114087E1,2.4567647E0,6.462197E0,5.65189E0,3.1956341E0,3.2665627E0,3.013224E0,2.6386662E0],"tree_param":{"num_deleted":"0","num_feature":"15","num_nodes":"17","size_leaf_vector":"0"}},{"base_weights":[2.877256E-3,-2.0543776E-1,5.408179E-1,-4.6947427E-2,-7.461567E-1,1.8460794E-1,7.589447E-1,-1.2267791E-1,4.7047454E-1,3.3216473E-1,-1.1062202E-1,-2.0727353E-1,4.476809E-1,1.0821031E-1,-3.5460052E-1,-1.1444859E-1,4.249026E-1,-4.9998817E-1,-1.8048263E-1],"categories":[],"categories_nodes":[],"categories_segments":[],"categories_sizes":[],"default_left":[1,1,1,1,0,1,0,1,0,0,0,1,0,1,1,0,0,0,0],"id":16,"left_children":[1,3,5,7,-1,9,-1,11,-1,-1,-1,13,-1,15,17,-1,-1,-1,-1],"loss_changes":[2.617504E0,1.408785E0,3.6639595E-1,6.1005765E-1,0E0,2.0216262E-1,0E0,7.243518E-1,0E0,0E0,0E0,5.9994483E-1,0E0,3.7386537E-1,1.2417257E-1,0E0,0E0,0E0,0E0],"parents":[2147483647,0,0,1,1,2,2,3,3,5,5,7,7,11,11,13,13,14,14],"right_children":[2,4,6,8,-1,10,-1,12,-1,-1,-1,14,-1,16,18,-1,-1,-1,-1],"split_conditions":[2.2980394E0,4.551197E-1,5.8159524E-1,1.8723477E0,-2.2384702E-1,2.4608183E-1,2.2768341E-1,3.323515E-1,1.4114237E-1,9.964942E-2,-3.3186607E-2,2.510909E-2,1.3430427E-1,1.8581819E-2,6.725606E-2,-3.4334578E-2,1.2747078E-1,-1.4999646E-1,-5.414479E-2],"split_indices":[11,14,13,6,0,14,0,14,0,0,0,14,0,14,14,0,0,0,0],"split_type":[0,0,0,0,0,0,0,0,0,0,0,0,0,0,0,0,0,0,0],"sum_hessian":[2.1366362E1,1.5847568E1,5.5187936E0,1.309586E1,2.7517083E0,2.797194E0,2.7215996E0,1.2089354E1,1.0065062E0,1.7816267E0,1.0155674E0,1.1082229E1,1.0071253E0,3.6123357E0,7.4698925E0,2.4960406E0,1.1162951E0,3.0508761E0,4.4190164E0],"tree_param":{"num_deleted":"0","num_feature":"15","num_nodes":"19","size_leaf_vector":"0"}},{"base_weights":[1.2032679E-2,-1.1663011E-1,7.090495E-1,-3.6592856E-3,-5.087461E-1,-7.046255E-2,3.560295E-1,-6.866159E-1,1.6231723E-2,3.965169E-2,-2.8055763E-1,-1.5058364E-1,2.0482893E-1,-4.6177402E-1,1.0894927E-1,3.597874E-2,-4.4918287E-1,4.359812E-1,2.9728515E-2,-6.0621107E-1,-5.9799574E-2],"categories":[],"categories_nodes":[],"categories_segments":[],"categories_sizes":[],"default_left":[1,1,0,1,1,1,0,0,0,1,1,1,1,1,0,0,0,0,0,0,0],"id":17,"left_children":[1,3,-1,5,7,9,-1,-1,-1,11,13,15,17,19,-1,-1,-1,-1,-1,-1,-1],"loss_changes":[1.9590433E0,8.185798E-1,0E0,3.9478272E-1,3.9728963E-1,3.3062634E-1,0E0,0E0,0E0,3.4310797E-1,3.9427528E-1,3.055488E-1,2.1947785E-1,1.6792631E-1,0E0,0E0,0E0,0E0,0E0,0E0,0E0],"parents":[2147483647,0,0,1,1,3,3,4,4,5,5,9,9,10,10,11,11,12,12,13,13],"right_children":[2,4,-1,6,8,10,-1,-1,-1,12,14,16,18,20,-1,-1,-1,-1,-1,-1,-1],"split_conditions":[2.8035688E0,4.551197E-1,2.1271487E-1,2.0960708E0,2.2036076E0,1.0061364E-1,1.06808856E-1,-2.0598477E-1,4.869517E-3,3.4737878E-2,2.1039176E0,2.510909E-2,4.6451516E-2,3.295015E-1,3.268478E-2,1.0793622E-2,-1.3475487E-1,1.3079438E-1,8.9185545E-3,-1.8186332E-1,-1.7939873E-2],"split_indices":[11,14,0,9,11,14,0,0,0,14,11,14,14,14,0,0,0,0,0,0,0],"split_type":[0,0,0,0,0,0,0,0,0,0,0,0,0,0,0,0,0,0,0,0,0],"sum_hessian":[1.9922659E1,1.75211E1,2.4015586E0,1.4385801E1,3.1352985E0,1.2810644E1,1.5751576E0,2.1118717E0,1.0234267E0,8.937581E0,3.873063E0,4.194783E0,4.742798E0,2.5166621E0,1.3564011E0,3.123041E0,1.0717423E0,1.4020462E0,3.3407514E0,1.4776357E0,1.0390264E0],"tree_param":{"num_deleted":"0","num_feature":"15","num_nodes":"21","size_leaf_vector":"0"}},{"base_weights":[6.112595E-3,-1.0201488E-1,6.626856E-1,-1.6516246E-2,-5.152871E-1,-8.868686E-2,4.3571836E-1,-6.5973383E-1,-1.1036028E-1,1.1196408E-2,-5.8658713E-1,-5.3324316E-2,2.2672467E-1,5.602989E-2,-5.346758E-1,2.395598E-2,3.0980834E-1],"categories":[],"categories_nodes":[],"categories_segments":[],"categories_sizes":[],"default_left":[1,1,0,1,1,1,0,0,0,1,0,1,1,0,0,0,0],"id":18,"left_children":[1,3,-1,5,7,9,-1,-1,-1,11,-1,13,15,-1,-1,-1,-1],"loss_changes":[1.4790411E0,6.252657E-1,0E0,5.574264E-1,1.0509336E-1,7.2959036E-1,0E0,0E0,0E0,1.9412643E-1,0E0,6.028745E-1,4.6594605E-2,0E0,0E0,0E0,0E0],"parents":[2147483647,0,0,1,1,3,3,4,4,5,5,9,9,11,11,12,12],"right_children":[2,4,-1,6,8,10,-1,-1,-1,12,-1,14,16,-1,-1,-1,-1],"split_conditions":[2.8035688E0,5.442788E-1,1.9880567E-1,4.324909E-1,7.9811364E-1,2.499288E-1,1.3071552E-1,-1.9792016E-1,-3.3108085E-2,2.0994806E0,-1.7597614E-1,1.0061364E-1,9.501212E-2,1.6808968E-2,-1.6040275E-1,7.186794E-3,9.2942506E-2],"split_indices":[11,14,0,14,14,14,0,0,0,11,0,14,14,0,0,0,0],"split_type":[0,0,0,0,0,0,0,0,0,0,0,0,0,0,0,0,0],"sum_hessian":[1.8881197E1,1.693662E1,1.944576E0,1.4895063E1,2.0415578E0,1.3538406E1,1.3566574E0,1.0409576E0,1.0006003E0,1.2090464E1,1.4479429E0,9.88413E0,2.2063336E0,8.774356E0,1.1097738E0,1.015734E0,1.1905997E0],"tree_param":{"num_deleted":"0","num_feature":"15","num_nodes":"17","size_leaf_vector":"0"}},{"base_weights":[-2.3795355E-3,-1.7280982E-1,3.396137E-1,4.0614408E-2,-5.9008044E-1,1.4290927E-1,7.0812356E-1,-7.499415E-2,3.0078506E-1,5.881189E-1,-1.0500251E-1,4.0077522E-2,-3.7040663E-1,-4.406016E-1,1.2358626E-1,-1.166168E-1,2.326174E-1,4.6299508E-1,-2.5051197E-1,9.567375E-2,-2.3954469E-1],"categories":[],"categories_nodes":[],"categories_segments":[],"categories_sizes":[],"default_left":[1,1,1,1,0,1,0,1,0,0,1,1,0,0,1,1,0,0,0,0,0],"id":19,"left_children":[1,3,5,7,-1,9,-1,11,-1,-1,13,15,-1,-1,17,19,-1,-1,-1,-1,-1],"loss_changes":[1.1761193E0,1.2224671E0,3.854561E-1,3.185063E-1,0E0,6.8315274E-1,0E0,2.7362955E-1,0E0,0E0,3.9696598E-1,2.196417E-1,0E0,0E0,5.523605E-1,1.321072E-1,0E0,0E0,0E0,0E0,0E0],"parents":[2147483647,0,0,1,1,2,2,3,3,5,5,7,7,10,10,11,11,14,14,15,15],"right_children":[2,4,6,8,-1,10,-1,12,-1,-1,14,16,-1,-1,18,20,-1,-1,-1,-1,-1],"split_conditions":[1.8412156E0,1.0061364E-1,5.373662E-1,5.587879E-2,-1.7702414E-1,5.9251517E-2,2.1243708E-1,3.9304547E-2,9.0235524E-2,1.7643568E-1,1.0734697E-1,2.1798484E-2,-1.1112199E-1,-1.3218048E-1,3.912288E-1,8.159091E-3,6.978522E-2,1.3889854E-1,-7.51536E-2,2.8702125E-2,-7.186341E-2],"split_indices":[11,14,9,14,0,14,0,14,0,0,14,14,0,0,14,14,0,0,0,0,0],"split_type":[0,0,0,0,0,0,0,0,0,0,0,0,0,0,0,0,0,0,0,0,0],"sum_hessian":[1.8171509E1,1.2457891E1,5.713618E0,8.839406E0,3.6184852E0,4.630003E0,1.0836152E0,6.6127415E0,2.226665E0,1.1652E0,3.4648027E0,5.381015E0,1.2317264E0,1.0280303E0,2.4367726E0,3.184061E0,2.196954E0,1.1530306E0,1.283742E0,1.2489291E0,1.9351319E0],"tree_param":{"num_deleted":"0","num_feature":"15","num_nodes":"21","size_leaf_vector":"0"}},{"base_weights":[4.67251E-3,-7.778375E-2,5.842833E-1,-1.3504872E-1,3.8255182E-1,-2.0107321E-1,2.637285E-1,-1.1359105E-1,-4.6358442E-1,-2.0443822E-1,8.91413E-2,-5.48588E-1,-1.3850656E-1,1.9329837E-2,-3.3576822E-1,2.3335356E-1,-1.2134227E-1],"categories":[],"categories_nodes":[],"categories_segments":[],"categories_sizes":[],"default_left":[1,1,0,1,0,1,0,1,1,1,1,0,0,0,0,0,0],"id":20,"left_children":[1,3,-1,5,-1,7,-1,9,11,13,15,-1,-1,-1,-1,-1,-1],"loss_changes":[9.2015785E-1,4.9730596E-1,0E0,4.683454E-1,0E0,2.7116627E-1,0E0,2.3740871E-1,1.2441695E-2,2.569236E-1,1.612379E-1,0E0,0E0,0E0,0E0,0E0,0E0],"parents":[2147483647,0,0,1,1,3,3,5,5,7,7,8,8,9,9,10,10],"right_children":[2,4,-1,6,-1,8,-1,10,12,14,16,-1,-1,-1,-1,-1,-1],"split_conditions":[2.8035688E0,1.5184344E0,1.75285E-1,2.0696437E0,1.1476555E-1,4.34103E-1,7.911855E-2,9.37303E-2,1.7584187E0,2.510909E-2,9.0309083E-1,-1.645764E-1,-4.155197E-2,5.7989513E-3,-1.0073047E-1,7.000607E-2,-3.6402684E-2],"split_indices":[11,6,0,9,0,14,0,14,11,14,11,0,0,0,0,0,0],"split_type":[0,0,0,0,0,0,0,0,0,0,0,0,0,0,0,0,0],"sum_hessian":[1.730223E1,1.5905318E1,1.3969132E0,1.4774077E1,1.1312407E0,1.310079E1,1.6732876E0,1.0900796E1,2.1999934E0,7.5217724E0,3.3790243E0,1.1989304E0,1.001063E0,3.0972703E0,4.424502E0,1.9407026E0,1.4383216E0],"tree_param":{"num_deleted":"0","num_feature":"15","num_nodes":"17","size_leaf_vector":"0"}},{"base_weights":[8.510324E-3,-1.09029435E-1,3.7125355E-1,-1.5373003E-2,-5.786701E-1,9.406952E-2,5.9775454E-1,-7.8225255E-2,3.650872E-1,1.8840802E-1,-5.8704093E-2,4.2869244E-2,-4.134887E-1,-9.6560545E-2,1.8807985E-1,-5.5990493E-1,-4.3031596E-2,6.386129E-2,-2.6939654E-1,3.4394464E-1,-7.661673E-2],"categories":[],"categories_nodes":[],"categories_segments":[],"categories_sizes":[],"default_left":[1,1,1,1,0,1,0,1,0,0,0,1,1,1,1,0,0,0,0,0,0],"id":21,"left_children":[1,3,5,7,-1,9,-1,11,-1,-1,-1,13,15,17,19,-1,-1,-1,-1,-1,-1],"loss_changes":[7.999212E-1,6.168248E-1,2.3169822E-1,3.3674353E-1,0E0,5.7887614E-2,0E0,5.0020635E-1,0E0,0E0,0E0,2.1327384E-1,1.5204853E-1,1.7183584E-1,2.3510206E-1,0E0,0E0,0E0,0E0,0E0,0E0],"parents":[2147483647,0,0,1,1,2,2,3,3,5,5,7,7,11,11,12,12,13,13,14,14],"right_children":[2,4,6,8,-1,10,-1,12,-1,-1,-1,14,16,18,20,-1,-1,-1,-1,-1,-1],"split_conditions":[2.2980394E0,4.551197E-1,5.8159524E-1,3.7024242E-1,-1.7360103E-1,8.4309086E-2,1.7932637E-1,1.0061364E-1,1.09526165E-1,5.6522407E-2,-1.7611228E-2,3.4737878E-2,1.827342E0,1.889091E-2,6.966818E-2,-1.6797149E-1,-1.2909479E-2,1.9158388E-2,-8.0818966E-2,1.03183396E-1,-2.2985019E-2],"split_indices":[11,14,13,14,0,14,0,14,0,0,0,14,11,14,14,0,0,0,0,0,0],"split_type":[0,0,0,0,0,0,0,0,0,0,0,0,0,0,0,0,0,0,0,0,0],"sum_hessian":[1.6811949E1,1.3225816E1,3.5861328E0,1.1887856E1,1.3379601E0,2.2490902E0,1.3370426E0,1.0884176E1,1.0036794E0,1.2462653E0,1.002825E0,8.636775E0,2.247402E0,4.5770082E0,4.059767E0,1.2442471E0,1.0031549E0,2.700751E0,1.8762571E0,2.3667374E0,1.6930293E0],"tree_param":{"num_deleted":"0","num_feature":"15","num_nodes":"21","size_leaf_vector":"0"}},{"base_weights":[4.0809656E-3,-1.2124326E-1,2.6604798E-1,3.0905329E-2,-4.872113E-1,9.134576E-2,5.444663E-1,-5.5006772E-2,2.6776665E-1,-1.6707204E-1,-6.062963E-1,3.058199E-1,-1.9061121E-1,4.651362E-2,-2.7479383E-1,-1.09699205E-1,2.38715E-1,6.479337E-2,-2.0930375E-1],"categories":[],"categories_nodes":[],"categories_segments":[],"categories_sizes":[],"default_left":[1,1,1,1,1,1,0,1,0,0,0,0,0,1,0,1,0,0,0],"id":22,"left_children":[1,3,5,7,9,11,-1,13,-1,-1,-1,-1,-1,15,-1,17,-1,-1,-1],"loss_changes":[6.018977E-1,7.067988E-1,2.3858714E-1,2.124296E-1,4.006034E-2,3.5120964E-1,0E0,1.9037043E-1,0E0,0E0,0E0,0E0,0E0,2.1532589E-1,0E0,8.586784E-2,0E0,0E0,0E0],"parents":[2147483647,0,0,1,1,2,2,3,3,4,4,5,5,7,7,13,13,15,15],"right_children":[2,4,6,8,10,12,-1,14,-1,-1,-1,-1,-1,16,-1,18,-1,-1,-1],"split_conditions":[1.8412156E0,1.0061364E-1,5.869506E-1,6.725606E-2,4.34103E-1,2.3812933E0,1.633399E-1,3.9304547E-2,8.033E-2,-5.0121617E-2,-1.818889E-1,9.174597E-2,-5.7183366E-2,2.1798484E-2,-8.2438156E-2,8.159091E-3,7.1614504E-2,1.9438012E-2,-6.279113E-2],"split_indices":[11,14,7,14,14,11,0,14,0,0,0,0,0,14,0,14,0,0,0],"split_type":[0,0,0,0,0,0,0,0,0,0,0,0,0,0,0,0,0,0,0],"sum_hessian":[1.635081E1,1.1423178E1,4.9276323E0,8.715374E0,2.7078028E0,3.8438053E0,1.0838269E0,6.959029E0,1.7563453E0,1.3856609E0,1.322142E0,2.1350894E0,1.708716E0,5.2995286E0,1.6595007E0,3.160258E0,2.1392703E0,1.2754139E0,1.8848443E0],"tree_param":{"num_deleted":"0","num_feature":"15","num_nodes":"19","size_leaf_vector":"0"}},{"base_weights":[1.5352276E-3,-9.376024E-2,3.1084225E-1,6.6890724E-2,-2.6893488E-1,7.355791E-2,5.2818954E-1,-8.1264004E-2,2.8737918E-1,-3.674572E-1,2.5901785E-2,1.2825376E-1,-1.575921E-2,6.7545414E-2,-2.4512005E-1,-1.7010474E-1,-5.554113E-1,-2.4328482E-1,2.835341E-1,-3.8594505E-1,1.2584455E-1],"categories":[],"categories_nodes":[],"categories_segments":[],"categories_sizes":[],"default_left":[1,1,1,1,1,1,0,1,0,1,0,0,0,1,0,1,0,0,0,0,0],"id":23,"left_children":[1,3,5,7,9,11,-1,13,-1,15,-1,-1,-1,17,-1,19,-1,-1,-1,-1,-1],"loss_changes":[5.283612E-1,4.0397987E-1,1.7882699E-1,2.8322536E-1,2.0589712E-1,1.7554628E-2,0E0,1.515843E-1,0E0,9.5924675E-2,0E0,0E0,0E0,3.164467E-1,0E0,3.0059394E-1,0E0,0E0,0E0,0E0,0E0],"parents":[2147483647,0,0,1,1,2,2,3,3,4,4,5,5,7,7,9,9,13,13,15,15],"right_children":[2,4,6,8,10,12,-1,14,-1,16,-1,-1,-1,18,-1,20,-1,-1,-1,-1,-1],"split_conditions":[2.2980394E0,6.966818E-2,5.8159524E-1,3.4737878E-2,4.324909E-1,2.5273814E0,1.5845686E-1,1.889091E-2,8.621375E-2,1.7865758E-1,7.770536E-3,3.8476128E-2,-4.727763E-3,6.798485E-3,-7.3536016E-2,9.726818E-2,-1.6662338E-1,-7.298545E-2,8.506024E-2,-1.1578352E-1,3.7753366E-2],"split_indices":[11,14,13,14,14,11,0,14,0,14,0,0,0,14,0,14,0,0,0,0,0],"split_type":[0,0,0,0,0,0,0,0,0,0,0,0,0,0,0,0,0,0,0,0,0],"sum_hessian":[1.5936628E1,1.2715834E1,3.220795E0,6.9553227E0,5.7605104E0,2.1796467E0,1.0411482E0,4.5377016E0,2.4176211E0,4.1330924E0,1.627418E0,1.0814521E0,1.0981945E0,2.6860673E0,1.8516344E0,2.945422E0,1.1876706E0,1.0494385E0,1.6366289E0,1.527385E0,1.418037E0],"tree_param":{"num_deleted":"0","num_feature":"15","num_nodes":"21","size_leaf_vector":"0"}},{"base_weights":[-1.2048046E-3,-8.432637E-2,2.7562115E-1,2.5333678E-2,-2.8630126E-1,4.0357575E-1,-4.46913E-2,-6.3163124E-2,2.7235612E-1,-4.4952214E-1,2.099498E-2,3.7326287E-2,-2.7679777E-1,-5.5110073E-1,-1.14515856E-1,-1.3443242E-1,1.859027E-1,7.874337E-2,-2.893147E-1,3.9607912E-1,-4.359079E-2],"categories":[],"categories_nodes":[],"categories_segments":[],"categories_sizes":[],"default_left":[1,1,1,1,1,0,0,1,0,1,0,1,0,0,0,1,1,0,0,0,0],"id":24,"left_children":[1,3,5,7,9,-1,-1,11,-1,13,-1,15,-1,-1,-1,17,19,-1,-1,-1,-1],"loss_changes":[4.0567103E-1,3.073152E-1,1.8494022E-1,2.2923315E-1,2.5262678E-1,0E0,0E0,1.8105935E-1,0E0,4.616624E-2,0E0,1.8550101E-1,0E0,0E0,0E0,1.3826293E-1,2.0017503E-1,0E0,0E0,0E0,0E0],"parents":[2147483647,0,0,1,1,2,2,3,3,4,4,7,7,9,9,11,11,15,15,16,16],"right_children":[2,4,6,8,10,-1,-1,12,-1,14,-1,16,-1,-1,-1,18,20,-1,-1,-1,-1],"split_conditions":[2.2980394E0,1.0061364E-1,3.9645606E-1,6.725606E-2,4.324909E-1,1.2107273E-1,-1.340739E-2,3.9304547E-2,8.170684E-2,1.8556855E0,6.298494E-3,1.8581819E-2,-8.3039336E-2,-1.6533023E-1,-3.4354758E-2,8.159091E-3,2.510909E-2,2.3623012E-2,-8.6794406E-2,1.18823744E-1,-1.3077238E-2],"split_indices":[11,14,14,14,14,0,0,14,0,11,0,14,0,0,0,14,14,0,0,0,0],"split_type":[0,0,0,0,0,0,0,0,0,0,0,0,0,0,0,0,0,0,0,0,0],"sum_hessian":[1.56199665E1,1.2547695E1,3.0722713E0,8.699155E0,3.8485405E0,2.0095687E0,1.0627025E0,6.952644E0,1.7465111E0,2.2112184E0,1.6373221E0,5.2897377E0,1.6629059E0,1.2017767E0,1.0094416E0,2.4976165E0,2.7921212E0,1.2578869E0,1.2397296E0,1.0785092E0,1.7136121E0],"tree_param":{"num_deleted":"0","num_feature":"15","num_nodes":"21","size_leaf_vector":"0"}},{"base_weights":[-4.690141E-3,5.8360577E-2,-3.9919496E-1,1.0763229E-1,-2.9323593E-1,2.631883E-2,5.573473E-1,1.2345616E-1,-2.6966536E-1,1.9722974E-2,3.740402E-1,-5.478668E-1,1.1029409E-1,1.2613161E-1,-3.1987858E-1],"categories":[],"categories_nodes":[],"categories_segments":[],"categories_sizes":[],"default_left":[1,1,0,1,0,1,0,1,1,1,0,0,0,0,0],"id":25,"left_children":[1,3,-1,5,-1,7,-1,9,11,13,-1,-1,-1,-1,-1],"loss_changes":[4.2899752E-1,2.9029617E-1,0E0,4.9110222E-1,0E0,4.0023395E-1,0E0,2.6023245E-1,4.2697102E-1,3.4160542E-1,0E0,0E0,0E0,0E0,0E0],"parents":[2147483647,0,0,1,1,3,3,5,5,7,7,8,8,9,9],"right_children":[2,4,-1,6,-1,8,-1,10,12,14,-1,-1,-1,-1,-1],"split_conditions":[4.6511486E-1,5.442788E-1,-1.19758494E-1,4.324909E-1,-8.797078E-2,1.06515154E-1,1.672042E-1,6.669243E-2,2.0994806E0,4.6580303E-2,1.1221206E-1,-1.6436005E-1,3.308823E-2,3.7839483E-2,-9.5963575E-2],"split_indices":[10,14,0,14,0,14,0,14,11,14,0,0,0,0,0],"split_type":[0,0,0,0,0,0,0,0,0,0,0,0,0,0,0],"sum_hessian":[1.5310337E1,1.393524E1,1.3750975E0,1.2831015E1,1.1042254E0,1.176271E1,1.0683049E0,9.295101E0,2.467609E0,7.3366766E0,1.9584242E0,1.1694466E0,1.2981623E0,6.0649214E0,1.2717553E0],"tree_param":{"num_deleted":"0","num_feature":"15","num_nodes":"15","size_leaf_vector":"0"}},{"base_weights":[-1.2580098E-2,-7.28255E-2,3.3663502E-1,5.89308E-3,-5.716449E-1,-5.0020505E-2,3.4449553E-1,-1.4346436E-1,4.0628102E-1,4.579693E-2,-2.377259E-1,-1.2878814E-1,3.111627E-1,-4.5021653E-1,-3.685269E-2],"categories":[],"categories_nodes":[],"categories_segments":[],"categories_sizes":[],"default_left":[1,1,0,1,0,1,0,1,0,1,1,0,0,0,0],"id":26,"left_children":[1,3,-1,5,-1,7,-1,9,-1,11,13,-1,-1,-1,-1],"loss_changes":[3.646284E-1,5.7703805E-1,0E0,2.7486843E-1,0E0,5.93518E-1,0E0,2.0994845E-1,0E0,2.5078517E-1,3.0822894E-1,0E0,0E0,0E0,0E0],"parents":[2147483647,0,0,1,1,3,3,5,5,7,7,9,9,10,10],"right_children":[2,4,-1,6,-1,8,-1,10,-1,12,14,-1,-1,-1,-1],"split_conditions":[2.56171E0,4.6511486E-1,1.0099051E-1,1.5184344E0,-1.7149347E-1,4.324909E-1,1.03348665E-1,2.510909E-2,1.2188431E-1,1.8581819E-2,6.725606E-2,-3.8636446E-2,9.3348816E-2,-1.3506496E-1,-1.1055808E-2],"split_indices":[11,10,0,6,0,14,0,14,0,14,14,0,0,0,0],"split_type":[0,0,0,0,0,0,0,0,0,0,0,0,0,0,0],"sum_hessian":[1.5166129E1,1.3609691E1,1.5564378E0,1.2608183E1,1.0015085E0,1.1552746E1,1.0554367E0,1.0158108E1,1.3946381E0,3.548157E0,6.6099505E0,2.4505851E0,1.0975716E0,2.6088848E0,4.0010657E0],"tree_param":{"num_deleted":"0","num_feature":"15","num_nodes":"15","size_leaf_vector":"0"}},{"base_weights":[-6.441085E-3,1.4113086E-1,-1.6170269E-1,-4.317441E-2,2.7102795E-1,-3.3422408E-1,7.586599E-2,1.0540963E-1,-2.3554416E-1,1.0429064E-1,3.1230056E-1,-8.141547E-2,-5.976666E-1,3.4791017E-1,-1.2860417E-1,-4.0436646E-1,3.4303632E-1],"categories":[],"categories_nodes":[],"categories_segments":[],"categories_sizes":[],"default_left":[1,1,1,1,1,1,1,0,0,0,0,1,0,0,0,0,0],"id":27,"left_children":[1,3,5,7,9,11,13,-1,-1,-1,-1,15,-1,-1,-1,-1,-1],"loss_changes":[3.835834E-1,2.1774869E-1,3.5893115E-1,1.511859E-1,3.1174421E-3,2.776757E-1,2.8053296E-1,0E0,0E0,0E0,0E0,6.40156E-1,0E0,0E0,0E0,0E0,0E0],"parents":[2147483647,0,0,1,1,2,2,3,3,4,4,5,5,6,6,11,11],"right_children":[2,4,6,8,10,12,14,-1,-1,-1,-1,16,-1,-1,-1,-1,-1],"split_conditions":[6.983636E-2,2.0954546E-2,1.8412156E0,1.0615151E-2,3.4078788E-2,4.34103E-1,2.2166011E0,3.162289E-2,-7.066325E-2,3.1287193E-2,9.369017E-2,9.726818E-2,-1.793E-1,1.0437305E-1,-3.8581252E-2,-1.2130994E-1,1.029109E-1],"split_indices":[14,14,11,14,14,14,11,0,0,0,0,14,0,0,0,0,0],"split_type":[0,0,0,0,0,0,0,0,0,0,0,0,0,0,0,0,0],"sum_hessian":[1.4745378E1,7.6065607E0,7.1388173E0,3.4207025E0,4.1858587E0,3.8998847E0,3.2389324E0,2.1850462E0,1.2356561E0,1.5303336E0,2.6555247E0,2.6581123E0,1.2417724E0,1.0887921E0,2.1501405E0,1.5364217E0,1.1216906E0],"tree_param":{"num_deleted":"0","num_feature":"15","num_nodes":"17","size_leaf_vector":"0"}},{"base_weights":[-9.548337E-3,-7.699428E-2,2.2266985E-1,5.564273E-2,-2.3204088E-1,3.4857368E-1,-5.6597136E-2,-9.493542E-2,2.8540516E-1,-3.1658795E-1,1.0260603E-2,5.3720616E-2,-2.587564E-1,-9.350896E-2,-4.132292E-1,-2.3472607E-1,2.5713313E-1],"categories":[],"categories_nodes":[],"categories_segments":[],"categories_sizes":[],"default_left":[1,1,1,1,1,0,0,1,0,1,0,1,0,0,0,0,0],"id":28,"left_children":[1,3,5,7,9,-1,-1,11,-1,13,-1,15,-1,-1,-1,-1,-1],"loss_changes":[2.6210937E-1,2.774455E-1,1.5253693E-1,2.9485232E-1,1.2870586E-1,0E0,0E0,1.460316E-1,0E0,5.991134E-2,0E0,2.75839E-1,0E0,0E0,0E0,0E0,0E0],"parents":[2147483647,0,0,1,1,2,2,3,3,4,4,7,7,9,9,11,11],"right_children":[2,4,6,8,10,-1,-1,12,-1,14,-1,16,-1,-1,-1,-1,-1],"split_conditions":[2.2980394E0,6.966818E-2,3.9645606E-1,3.4737878E-2,4.324909E-1,1.0457211E-1,-1.6979141E-2,1.889091E-2,8.562155E-2,1.0061364E-1,3.078181E-3,6.798485E-3,-7.762692E-2,-2.805269E-2,-1.23968765E-1,-7.041782E-2,7.7139944E-2],"split_indices":[11,14,14,14,14,0,0,14,0,14,0,14,0,0,0,0,0],"split_type":[0,0,0,0,0,0,0,0,0,0,0,0,0,0,0,0,0],"sum_hessian":[1.4640552E1,1.1863369E1,2.7771819E0,6.739275E0,5.1240945E0,1.7431378E0,1.034044E0,4.425663E0,2.3136122E0,3.5713456E0,1.5527487E0,2.6725705E0,1.7530924E0,1.6742435E0,1.8971022E0,1.0416003E0,1.63097E0],"tree_param":{"num_deleted":"0","num_feature":"15","num_nodes":"17","size_leaf_vector":"0"}},{"base_weights":[-1.0328394E-2,4.4576522E-2,-2.8114268E-1,-6.263051E-3,3.4131092E-1,5.331305E-2,-3.3958936E-1,-5.3901955E-2,3.2467252E-1,3.9463088E-2,-3.343223E-1,4.468516E-1,8.202621E-2,-8.037095E-2,2.1945325E-1],"categories":[],"categories_nodes":[],"categories_segments":[],"categories_sizes":[],"default_left":[1,1,0,1,0,1,0,1,1,1,0,0,0,0,0],"id":29,"left_children":[1,3,-1,5,-1,7,-1,9,11,13,-1,-1,-1,-1,-1],"loss_changes":[2.4341658E-1,2.0992324E-1,0E0,2.711163E-1,0E0,3.5712036E-1,0E0,2.5471562E-1,6.557688E-2,1.8620183E-1,0E0,0E0,0E0,0E0,0E0],"parents":[2147483647,0,0,1,1,3,3,5,5,7,7,8,8,9,9],"right_children":[2,4,-1,6,-1,8,-1,10,12,14,-1,-1,-1,-1,-1],"split_conditions":[4.551197E-1,2.5273814E0,-8.434281E-2,2.2166011E0,1.0239328E-1,9.726818E-2,-1.0187681E-1,6.966818E-2,1.7865758E-1,3.4737878E-2,-1.002967E-1,1.340555E-1,2.4607865E-2,-2.4111286E-2,6.5835975E-2],"split_indices":[14,11,0,11,0,14,0,14,14,14,0,0,0,0,0],"split_type":[0,0,0,0,0,0,0,0,0,0,0,0,0,0,0],"sum_hessian":[1.4527853E1,1.2773541E1,1.754311E0,1.17408695E1,1.0326724E0,1.0673271E1,1.0675983E0,8.224936E0,2.4483354E0,6.815131E0,1.4098042E0,1.0686597E0,1.3796757E0,4.4235115E0,2.39162E0],"tree_param":{"num_deleted":"0","num_feature":"15","num_nodes":"15","size_leaf_vector":"0"}},{"base_weights":[-6.5394873E-3,3.8884476E-2,-3.223278E-1,-3.4545064E-2,2.0783488E-1,5.4541405E-2,-3.1256816E-1,3.7565985E-1,-8.3771184E-2,-4.5343317E-2,3.1892392E-1,4.8798263E-2,-2.6000252E-1,-9.284154E-2,2.2645564E-1],"categories":[],"categories_nodes":[],"categories_segments":[],"categories_sizes":[],"default_left":[1,1,0,1,1,1,0,0,0,1,0,1,0,0,0],"id":30,"left_children":[1,3,-1,5,7,9,-1,-1,-1,11,-1,13,-1,-1,-1],"loss_changes":[2.3359306E-1,1.8539451E-1,0E0,2.862958E-1,2.514255E-1,2.5435406E-1,0E0,0E0,0E0,1.636189E-1,0E0,1.7285492E-1,0E0,0E0,0E0],"parents":[2147483647,0,0,1,1,3,3,4,4,5,5,9,9,11,11],"right_children":[2,4,-1,6,8,10,-1,-1,-1,12,-1,14,-1,-1,-1],"split_conditions":[1.6617556E0,1.8412156E0,-9.6698344E-2,1.0061364E-1,2.4870453E0,6.725606E-2,-9.377045E-2,1.1269796E-1,-2.5131356E-2,3.9304547E-2,9.567718E-2,2.1798484E-2,-7.800076E-2,-2.7852464E-2,6.7936696E-2],"split_indices":[10,11,0,14,11,14,0,0,0,14,0,14,0,0,0],"split_type":[0,0,0,0,0,0,0,0,0,0,0,0,0,0,0],"sum_hessian":[1.4410906E1,1.336527E1,1.0456363E0,9.870755E0,3.4945145E0,8.08418E0,1.7865757E0,2.0350559E0,1.4594585E0,6.4687533E0,1.6154261E0,5.0337906E0,1.4349631E0,3.0664406E0,1.9673499E0],"tree_param":{"num_deleted":"0","num_feature":"15","num_nodes":"15","size_leaf_vector":"0"}},{"base_weights":[-8.436826E-3,-6.1718594E-2,2.5006214E-1,2.1379275E-2,-4.0283918E-1,-4.0985547E-2,2.5006863E-1,5.1516797E-2,-2.405009E-1,-5.9704404E-2,2.359844E-1,-3.8802513E-1,1.4927837E-2,6.846128E-2,-3.1808826E-1],"categories":[],"categories_nodes":[],"categories_segments":[],"categories_sizes":[],"default_left":[1,1,0,1,0,1,0,1,1,1,0,0,0,0,0],"id":31,"left_children":[1,3,-1,5,-1,7,-1,9,11,13,-1,-1,-1,-1,-1],"loss_changes":[2.2434813E-1,3.8783044E-1,0E0,1.7721727E-1,0E0,1.9801192E-1,0E0,1.7197233E-1,1.3249427E-1,2.0718884E-1,0E0,0E0,0E0,0E0,0E0],"parents":[2147483647,0,0,1,1,3,3,5,5,7,7,8,8,9,9],"right_children":[2,4,-1,6,-1,8,-1,10,12,14,-1,-1,-1,-1,-1],"split_conditions":[1.0626986E0,4.34103E-1,7.5018644E-2,1.1560303E-1,-1.2085176E-1,6.983636E-2,7.50206E-2,3.7581816E-2,9.37303E-2,2.9865151E-2,7.079532E-2,-1.1640754E-1,4.478351E-3,2.0538384E-2,-9.5426485E-2],"split_indices":[9,14,0,14,0,14,0,14,14,14,0,0,0,0,0],"split_type":[0,0,0,0,0,0,0,0,0,0,0,0,0,0,0],"sum_hessian":[1.416811E1,1.2378E1,1.7901094E0,1.0707059E1,1.6709415E0,9.057744E0,1.6493149E0,6.695339E0,2.3624048E0,4.598877E0,2.0964625E0,1.1684481E0,1.1939566E0,3.5653856E0,1.0334913E0],"tree_param":{"num_deleted":"0","num_feature":"15","num_nodes":"15","size_leaf_vector":"0"}},{"base_weights":[-1.2434931E-2,-7.744377E-2,2.1199392E-1,1.0474072E-2,-2.2148767E-1,3.0653676E-1,-2.5791212E-3,-8.4694505E-2,3.6153194E-1,-3.7107748E-1,9.872327E-2,1.8170618E-2,-2.9628158E-1,-1.0042675E-1,1.7367716E-1,8.982055E-2,-2.148323E-1],"categories":[],"categories_nodes":[],"categories_segments":[],"categories_sizes":[],"default_left":[1,1,1,1,1,0,0,1,0,0,0,1,0,1,0,0,0],"id":32,"left_children":[1,3,5,7,9,-1,-1,11,-1,-1,-1,13,-1,15,-1,-1,-1],"loss_changes":[2.3731393E-1,1.6026872E-1,7.520415E-2,3.2127976E-1,2.652318E-1,0E0,0E0,1.7198576E-1,0E0,0E0,0E0,1.2980959E-1,0E0,1.0832177E-1,0E0,0E0,0E0],"parents":[2147483647,0,0,1,1,2,2,3,3,4,4,7,7,11,11,13,13],"right_children":[2,4,6,8,10,-1,-1,12,-1,-1,-1,14,-1,16,-1,-1,-1],"split_conditions":[2.2980394E0,9.438182E-2,3.9645606E-1,6.725606E-2,4.324909E-1,9.196103E-2,-7.737364E-4,3.9304547E-2,1.08459584E-1,-1.11323245E-1,2.9616982E-2,2.1798484E-2,-8.888447E-2,8.159091E-3,5.210315E-2,2.6946167E-2,-6.44497E-2],"split_indices":[11,14,14,14,14,0,0,14,0,0,0,14,0,14,0,0,0],"split_type":[0,0,0,0,0,0,0,0,0,0,0,0,0,0,0,0,0],"sum_hessian":[1.4140401E1,1.1472241E1,2.6681597E0,7.6998744E0,3.772367E0,1.5545995E0,1.1135603E0,6.654614E0,1.0452602E0,2.4629307E0,1.3094363E0,5.092815E0,1.5617994E0,3.0902362E0,2.0025787E0,1.2411673E0,1.8490688E0],"tree_param":{"num_deleted":"0","num_feature":"15","num_nodes":"17","size_leaf_vector":"0"}},{"base_weights":[-6.744061E-3,-4.9321074E-2,2.540935E-1,-1.0839896E-1,2.2897094E-1,-3.6067426E-2,-4.1047955E-1,2.5370257E-2,-2.807847E-1,-6.82045E-2,3.942061E-1,6.3735105E-2,-1.7169425E-1],"categories":[],"categories_nodes":[],"categories_segments":[],"categories_sizes":[],"default_left":[1,1,0,1,0,1,0,1,0,1,0,0,0],"id":33,"left_children":[1,3,-1,5,-1,7,-1,9,-1,11,-1,-1,-1],"loss_changes":[1.7888118E-1,2.502951E-1,0E0,2.4720682E-1,0E0,1.6906646E-1,0E0,3.5569155E-1,0E0,1.2634203E-1,0E0,0E0,0E0],"parents":[2147483647,0,0,1,1,3,3,5,5,7,7,9,9],"right_children":[2,4,-1,6,-1,8,-1,10,-1,12,-1,-1,-1],"split_conditions":[2.56171E0,4.324909E-1,7.622805E-2,2.2166011E0,6.869128E-2,1.179394E-1,-1.2314387E-1,9.37303E-2,-8.4235415E-2,2.510909E-2,1.1826184E-1,1.9120533E-2,-5.1508278E-2],"split_indices":[11,14,0,11,0,14,0,14,0,14,0,0,0],"split_type":[0,0,0,0,0,0,0,0,0,0,0,0,0],"sum_hessian":[1.3978727E1,1.2714266E1,1.2644613E0,1.0991413E1,1.7228533E0,9.771159E0,1.2202535E0,8.526788E0,1.2443713E0,7.4514217E0,1.0753664E0,3.444347E0,4.007075E0],"tree_param":{"num_deleted":"0","num_feature":"15","num_nodes":"13","size_leaf_vector":"0"}},{"base_weights":[-3.596319E-3,3.8313925E-2,-2.6241803E-1,-2.5864543E-2,4.051654E-1,7.630001E-2,-1.872235E-1,-1.4779297E-1,1.3127601E-1,-3.3458647E-1,8.41603E-2,2.476452E-1,8.590679E-3,3.927438E-2,3.68871E-1,-2.3254839E-1,1.8515095E-1],"categories":[],"categories_nodes":[],"categories_segments":[],"categories_sizes":[],"default_left":[1,1,0,1,0,1,1,0,1,0,0,1,1,0,0,0,0],"id":34,"left_children":[1,3,-1,5,-1,7,9,-1,11,-1,-1,13,15,-1,-1,-1,-1],"loss_changes":[1.7109695E-1,3.3185363E-1,0E0,2.2129819E-1,0E0,1.228826E-1,2.3443429E-1,0E0,1.01729035E-1,0E0,0E0,7.890917E-2,2.3792851E-1,0E0,0E0,0E0,0E0],"parents":[2147483647,0,0,1,1,3,3,5,5,6,6,8,8,11,11,12,12],"right_children":[2,4,-1,6,-1,8,10,-1,12,-1,-1,14,16,-1,-1,-1,-1],"split_conditions":[5.442788E-1,4.324909E-1,-7.872541E-2,6.983636E-2,1.2154963E-1,6.116667E-3,2.0994806E0,-4.433789E-2,2.5495455E-2,-1.0037594E-1,2.524809E-2,1.8581819E-2,3.7581816E-2,1.1782315E-2,1.10661305E-1,-6.976452E-2,5.554529E-2],"split_indices":[14,14,0,14,0,14,11,0,14,0,0,14,14,0,0,0,0],"split_type":[0,0,0,0,0,0,0,0,0,0,0,0,0,0,0,0,0],"sum_hessian":[1.3846363E1,1.26499605E1,1.1964034E0,1.1557534E1,1.0924256E0,7.3996077E0,4.1579266E0,1.1251119E0,6.274496E0,2.54376E0,1.6141667E0,2.6974127E0,3.577083E0,1.4790692E0,1.2183435E0,1.3779832E0,2.1991E0],"tree_param":{"num_deleted":"0","num_feature":"15","num_nodes":"17","size_leaf_vector":"0"}},{"base_weights":[-1.2939355E-3,5.3352952E-2,-2.1116371E-1,-3.5784528E-2,1.8371549E-1,-3.4731334E-1,4.4487532E-2,6.8077594E-2,-3.4393844E-1,3.2079503E-1,-1.5987507E-1,-5.356908E-2,1.9011283E-1,5.6825582E-2,4.4610196E-1,1.3357325E-1,-1.8792705E-1,2.8187004E-1,-1.672708E-2],"categories":[],"categories_nodes":[],"categories_segments":[],"categories_sizes":[],"default_left":[1,1,1,1,1,0,0,1,0,1,0,1,1,0,0,0,0,0,0],"id":35,"left_children":[1,3,5,7,9,-1,-1,11,-1,13,-1,15,17,-1,-1,-1,-1,-1,-1],"loss_changes":[1.8000926E-1,1.5150082E-1,1.2827206E-1,2.8727314E-1,2.97513E-1,0E0,0E0,1.141111E-1,0E0,1.0925868E-1,0E0,1.3287222E-1,7.521464E-2,0E0,0E0,0E0,0E0,0E0,0E0],"parents":[2147483647,0,0,1,1,2,2,3,3,4,4,7,7,9,9,11,11,12,12],"right_children":[2,4,6,8,10,-1,-1,12,-1,14,-1,16,18,-1,-1,-1,-1,-1,-1],"split_conditions":[4.34103E-1,6.669243E-2,2.1102214E0,4.6580303E-2,2.2166011E0,-1.0419401E-1,1.334626E-2,2.0954546E-2,-1.0318153E-1,9.726818E-2,-4.796252E-2,8.586364E-3,3.690909E-2,1.7047675E-2,1.3383059E-1,4.0071975E-2,-5.637812E-2,8.456101E-2,-5.0181244E-3],"split_indices":[14,14,11,14,11,0,0,14,0,14,0,14,14,0,0,0,0,0,0],"split_type":[0,0,0,0,0,0,0,0,0,0,0,0,0,0,0,0,0,0,0],"sum_hessian":[1.3713316E1,1.1471971E1,2.2413454E0,7.24416E0,4.227811E0,1.228534E0,1.0128114E0,6.0007195E0,1.2434407E0,3.0695302E0,1.1582805E0,3.2861092E0,2.71461E0,1.4559476E0,1.6135827E0,1.3757365E0,1.9103726E0,1.6291503E0,1.08546E0],"tree_param":{"num_deleted":"0","num_feature":"15","num_nodes":"19","size_leaf_vector":"0"}},{"base_weights":[-3.8526042E-3,-5.8451544E-2,1.8753764E-1,5.433356E-3,-3.4005922E-1,2.8050306E-1,-1.245286E-2,-8.71247E-2,1.370835E-1,6.5339394E-2,-1.9361915E-1,3.267702E-1,-4.373585E-2,-1.4785518E-1,3.0973887E-1,-2.6633683E-1,-5.220159E-2,-2.5476056E-1,1.9447134E-1],"categories":[],"categories_nodes":[],"categories_segments":[],"categories_sizes":[],"default_left":[1,1,1,1,0,0,0,1,1,1,1,0,1,0,0,0,0,0,0],"id":36,"left_children":[1,3,5,7,-1,-1,-1,9,11,13,15,-1,17,-1,-1,-1,-1,-1,-1],"loss_changes":[1.6400611E-1,2.2056592E-1,6.834918E-2,1.4468603E-1,0E0,0E0,0E0,1.2643605E-1,1.8186775E-1,2.3491769E-1,3.1121358E-2,0E0,2.1961367E-1,0E0,0E0,0E0,0E0,0E0,0E0],"parents":[2147483647,0,0,1,1,2,2,3,3,7,7,8,8,9,9,10,10,12,12],"right_children":[2,4,6,8,-1,-1,-1,10,12,14,16,-1,18,-1,-1,-1,-1,-1,-1],"split_conditions":[2.2980394E0,4.34103E-1,3.9645606E-1,5.587879E-2,-1.0201777E-1,8.4150925E-2,-3.7358582E-3,1.889091E-2,9.438182E-2,9.889394E-3,3.4737878E-2,9.803106E-2,1.4903486E-1,-4.4356555E-2,9.292167E-2,-7.9901055E-2,-1.5660478E-2,-7.6428175E-2,5.8341406E-2],"split_indices":[11,14,14,14,0,0,0,14,14,14,14,0,14,0,0,0,0,0,0],"split_type":[0,0,0,0,0,0,0,0,0,0,0,0,0,0,0,0,0,0,0],"sum_hessian":[1.3645796E1,1.1157445E1,2.4883504E0,9.89369E0,1.263755E0,1.4238791E0,1.0644711E0,6.007948E0,3.8857424E0,2.6296418E0,3.3783064E0,1.5024493E0,2.3832932E0,1.6154655E0,1.0141762E0,1.6477088E0,1.7305975E0,1.2269034E0,1.1563896E0],"tree_param":{"num_deleted":"0","num_feature":"15","num_nodes":"19","size_leaf_vector":"0"}},{"base_weights":[-2.7750575E-3,-5.0037548E-2,2.2602323E-1,1.969412E-2,-3.4268403E-1,-5.7080496E-2,1.9062334E-1,3.820386E-2,-3.635751E-1,3.7464952E-1,-1.08216465E-1,-8.797085E-2,2.0367582E-1,1.2049016E-1,-1.9822572E-1],"categories":[],"categories_nodes":[],"categories_segments":[],"categories_sizes":[],"default_left":[1,1,0,1,0,1,1,1,0,0,0,1,0,0,0],"id":37,"left_children":[1,3,-1,5,-1,7,9,11,-1,-1,-1,13,-1,-1,-1],"loss_changes":[1.6919324E-1,2.703954E-1,0E0,1.6020979E-1,0E0,2.6568228E-1,2.4717638E-1,1.7412959E-1,0E0,0E0,0E0,1.3750343E-1,0E0,0E0,0E0],"parents":[2147483647,0,0,1,1,3,3,5,5,6,6,7,7,11,11],"right_children":[2,4,-1,6,-1,8,10,12,-1,-1,-1,14,-1,-1,-1],"split_conditions":[1.0626986E0,4.34103E-1,6.7806974E-2,9.37303E-2,-1.0280521E-1,6.983636E-2,9.0309083E-1,3.4078788E-2,-1.09072536E-1,1.1239486E-1,-3.246494E-2,8.586364E-3,6.1102748E-2,3.614705E-2,-5.9467718E-2],"split_indices":[9,14,0,14,0,14,11,14,0,0,0,14,0,0,0],"split_type":[0,0,0,0,0,0,0,0,0,0,0,0,0,0,0],"sum_hessian":[1.3600498E1,1.191959E1,1.6809078E0,1.0379153E1,1.5404366E0,7.6218014E0,2.7573524E0,6.4820013E0,1.1398001E0,1.549492E0,1.2078604E0,3.943438E0,2.5385633E0,1.3320576E0,2.6113803E0],"tree_param":{"num_deleted":"0","num_feature":"15","num_nodes":"15","size_leaf_vector":"0"}},{"base_weights":[-4.6922234E-3,-5.893147E-2,1.86315E-1,3.650865E-2,-1.8019885E-1,2.516875E-1,2.2959191E-2,-2.033446E-1,1.0386637E-1,-3.003878E-1,1.334706E-1,2.2714879E-1,1.8110221E-2,-8.309143E-2,-3.9511484E-1,-1.9203162E-1,1.7241535E-1],"categories":[],"categories_nodes":[],"categories_segments":[],"categories_sizes":[],"default_left":[1,1,1,1,1,0,0,0,1,1,0,0,1,0,0,0,0],"id":38,"left_children":[1,3,5,7,9,-1,-1,-1,11,13,-1,-1,15,-1,-1,-1,-1],"loss_changes":[1.6258708E-1,1.4728174E-1,3.134945E-2,1.444633E-1,2.4829102E-1,0E0,0E0,0E0,6.59008E-2,5.5686295E-2,0E0,0E0,1.9498976E-1,0E0,0E0,0E0,0E0],"parents":[2147483647,0,0,1,1,2,2,3,3,4,4,8,8,9,9,12,12],"right_children":[2,4,6,8,10,-1,-1,-1,12,14,-1,-1,16,-1,-1,-1,-1],"split_conditions":[2.2980394E0,6.966818E-2,3.9645606E-1,6.798485E-3,4.324909E-1,7.5506255E-2,6.8877577E-3,-6.1003383E-2,1.889091E-2,1.0061364E-1,4.004118E-2,6.814464E-2,3.4737878E-2,-2.492743E-2,-1.1853445E-1,-5.7609487E-2,5.1724605E-2],"split_indices":[11,14,14,14,14,0,0,0,14,14,0,0,14,0,0,0,0],"split_type":[0,0,0,0,0,0,0,0,0,0,0,0,0,0,0,0,0],"sum_hessian":[1.3633782E1,1.1157048E1,2.4767344E0,6.634495E0,4.5225534E0,1.3826764E0,1.0940582E0,1.0120002E0,5.6224947E0,3.300313E0,1.2222406E0,1.6301817E0,3.992313E0,1.5718286E0,1.7284844E0,1.5868093E0,2.4055035E0],"tree_param":{"num_deleted":"0","num_feature":"15","num_nodes":"17","size_leaf_vector":"0"}},{"base_weights":[-5.2506714E-3,-6.243594E-2,1.2815404E-1,2.5030483E-2,-2.0788139E-1,-1.01598784E-1,2.4870339E-1,-1.2773526E-1,1.1950876E-1,-3.0684698E-1,-5.6737207E-2,3.5897887E-1,7.7695595E-3,8.48711E-2,-2.866511E-1,3.0825126E-1,1.4669466E-3,-2.0301925E-1,1.5975292E-1],"categories":[],"categories_nodes":[],"categories_segments":[],"categories_sizes":[],"default_left":[1,1,1,1,1,0,1,1,1,0,0,0,0,0,0,0,1,0,0],"id":39,"left_children":[1,3,5,7,9,-1,11,13,15,-1,-1,-1,-1,-1,-1,-1,17,-1,-1],"loss_changes":[1.1909721E-1,1.4343205E-1,1.5535975E-1,1.260791E-1,4.523331E-2,0E0,8.6766824E-2,1.3978493E-1,1.16749935E-1,0E0,0E0,0E0,0E0,0E0,0E0,0E0,1.6970953E-1,0E0,0E0],"parents":[2147483647,0,0,1,1,2,2,3,3,4,4,6,6,7,7,8,8,16,16],"right_children":[2,4,6,8,10,-1,12,14,16,-1,-1,-1,-1,-1,-1,-1,18,-1,-1],"split_conditions":[1.8412156E0,6.966818E-2,1.0734697E-1,1.8581819E-2,9.726818E-2,-3.0479636E-2,2.3610916E0,8.159091E-3,2.510909E-2,-9.20541E-2,-1.7021162E-2,1.07693665E-1,2.330868E-3,2.5461331E-2,-8.599533E-2,9.2475384E-2,3.7725758E-2,-6.0905777E-2,4.792588E-2],"split_indices":[11,14,14,14,14,0,11,14,14,0,0,0,0,0,0,0,14,0,0],"split_type":[0,0,0,0,0,0,0,0,0,0,0,0,0,0,0,0,0,0,0],"sum_hessian":[1.3562713E1,9.865674E0,3.6970391E0,6.6777716E0,3.187902E0,1.3263583E0,2.3706808E0,2.417237E0,4.260535E0,1.3039476E0,1.8839544E0,1.2902054E0,1.0804753E0,1.2332561E0,1.183981E0,1.0193212E0,3.2412133E0,1.2909076E0,1.9503057E0],"tree_param":{"num_deleted":"0","num_feature":"15","num_nodes":"19","size_leaf_vector":"0"}},{"base_weights":[-4.8791217E-3,-5.0782997E-2,1.5776405E-1,4.480679E-3,-3.0857697E-1,2.1903716E-1,1.3053746E-2,-8.070517E-2,1.4812046E-1,3.284763E-2,-3.1139123E-1,3.5666373E-1,-2.0105505E-2,-9.694066E-2,2.0279269E-1,-1.9752225E-1,1.6786347E-1,7.0366696E-2,-1.969685E-1],"categories":[],"categories_nodes":[],"categories_segments":[],"categories_sizes":[],"default_left":[1,1,1,1,0,0,0,1,1,1,0,0,1,1,0,0,0,0,0],"id":40,"left_children":[1,3,5,7,-1,-1,-1,9,11,13,-1,-1,15,17,-1,-1,-1,-1,-1],"loss_changes":[1.15841776E-1,1.7263196E-1,2.7488217E-2,1.4513257E-1,0E0,0E0,0E0,2.0615503E-1,1.6169325E-1,1.5016636E-1,0E0,0E0,1.4602846E-1,8.132647E-2,0E0,0E0,0E0,0E0,0E0],"parents":[2147483647,0,0,1,1,2,2,3,3,7,7,8,8,9,9,12,12,13,13],"right_children":[2,4,6,8,-1,-1,-1,10,12,14,-1,-1,16,18,-1,-1,-1,-1,-1],"split_conditions":[2.2980394E0,4.34103E-1,3.9645606E-1,6.725606E-2,-9.257309E-2,6.571115E-2,3.916124E-3,3.9304547E-2,9.438182E-2,2.1798484E-2,-9.341738E-2,1.0699912E-1,1.4903486E-1,8.159091E-3,6.083781E-2,-5.9256677E-2,5.0359044E-2,2.111001E-2,-5.909055E-2],"split_indices":[11,14,14,14,0,0,0,14,14,14,0,0,14,14,0,0,0,0,0],"split_type":[0,0,0,0,0,0,0,0,0,0,0,0,0,0,0,0,0,0,0],"sum_hessian":[1.3442905E1,1.10203285E1,2.4225771E0,9.884082E0,1.1362462E0,1.3411032E0,1.0814738E0,6.4795275E0,3.4045546E0,4.916862E0,1.5626653E0,1.0199791E0,2.3845756E0,3.0313637E0,1.8854984E0,1.200575E0,1.1840006E0,1.2451854E0,1.7861784E0],"tree_param":{"num_deleted":"0","num_feature":"15","num_nodes":"19","size_leaf_vector":"0"}},{"base_weights":[-3.99759E-3,-5.04815E-2,1.8091244E-1,2.744004E-2,-2.9311192E-1,4.4238588E-1,-1.6029516E-1,-4.944542E-2,2.1359514E-1,9.962962E-2,-2.9168922E-1,-1.4789118E-1,1.9024922E-1,-7.331091E-2,-3.6327708E-1,5.190636E-2,2.819829E-1],"categories":[],"categories_nodes":[],"categories_segments":[],"categories_sizes":[],"default_left":[1,1,1,1,0,0,0,1,0,1,1,0,1,0,0,0,0],"id":41,"left_children":[1,3,5,7,-1,-1,-1,9,-1,11,13,-1,15,-1,-1,-1,-1],"loss_changes":[1.3221774E-1,2.3917274E-1,3.4702474E-1,1.560887E-1,0E0,0E0,0E0,3.1824267E-1,0E0,1.5604654E-1,2.5039047E-2,0E0,4.3888927E-2,0E0,0E0,0E0,0E0],"parents":[2147483647,0,0,1,1,2,2,3,3,7,7,9,9,10,10,12,12],"right_children":[2,4,6,8,-1,-1,-1,10,-1,12,14,-1,16,-1,-1,-1,-1],"split_conditions":[4.324909E-1,1.0210151E-1,5.442788E-1,6.669243E-2,-8.793358E-2,1.3271578E-1,-4.808855E-2,3.690909E-2,6.407855E-2,6.116667E-3,4.6580303E-2,-4.4367354E-2,2.0954546E-2,-2.1993274E-2,-1.0898313E-1,1.5571908E-2,8.4594876E-2],"split_indices":[14,14,14,14,0,0,0,14,0,14,14,0,14,0,0,0,0],"split_type":[0,0,0,0,0,0,0,0,0,0,0,0,0,0,0,0,0],"sum_hessian":[1.3319968E1,1.1225118E1,2.0948503E0,9.167767E0,2.0573516E0,1.0181181E0,1.076732E0,7.0078015E0,2.1599643E0,4.702586E0,2.3052154E0,1.0908928E0,3.6116936E0,1.068829E0,1.2363863E0,2.0643303E0,1.5473633E0],"tree_param":{"num_deleted":"0","num_feature":"15","num_nodes":"17","size_leaf_vector":"0"}},{"base_weights":[-4.5891516E-3,-4.546336E-2,1.9647922E-1,1.4734757E-2,-2.973343E-1,-6.636117E-2,2.4934392E-1,1.7210048E-2,-2.6578817E-1,3.632347E-1,1.5519772E-2,-7.8062415E-2,1.781418E-1,1.0915811E-1,-1.668915E-1],"categories":[],"categories_nodes":[],"categories_segments":[],"categories_sizes":[],"default_left":[1,1,0,1,0,1,1,1,0,0,0,1,0,0,0],"id":42,"left_children":[1,3,-1,5,-1,7,9,11,-1,-1,-1,13,-1,-1,-1],"loss_changes":[1.2644699E-1,1.9686747E-1,0E0,2.296184E-1,0E0,1.5644027E-1,7.656889E-2,1.2675925E-1,0E0,0E0,0E0,1.0667075E-1,0E0,0E0,0E0],"parents":[2147483647,0,0,1,1,3,3,5,5,6,6,7,7,11,11],"right_children":[2,4,-1,6,-1,8,10,12,-1,-1,-1,14,-1,-1,-1],"split_conditions":[1.0626986E0,4.34103E-1,5.8943767E-2,9.726818E-2,-8.9200296E-2,6.983636E-2,1.9429586E0,3.7581816E-2,-7.973646E-2,1.0897041E-1,4.6559316E-3,8.586364E-3,5.344254E-2,3.2747436E-2,-5.006745E-2],"split_indices":[9,14,0,14,0,14,11,14,0,0,0,14,0,0,0],"split_type":[0,0,0,0,0,0,0,0,0,0,0,0,0,0,0],"sum_hessian":[1.3298744E1,1.1695179E1,1.6035651E0,1.0199063E1,1.4961163E0,8.112133E0,2.08693E0,6.3604474E0,1.7516855E0,1.0312014E0,1.0557288E0,4.3186927E0,2.0417547E0,1.316055E0,3.0026376E0],"tree_param":{"num_deleted":"0","num_feature":"15","num_nodes":"15","size_leaf_vector":"0"}},{"base_weights":[-1.1544408E-3,-4.7384206E-2,1.7940305E-1,9.646477E-3,-3.2882366E-1,3.7979823E-1,-1.0526668E-1,-3.893343E-2,1.6190104E-1,3.878181E-2,-3.2606232E-1,-1.4236088E-1,8.675875E-2,2.1576174E-1,-5.3724367E-2],"categories":[],"categories_nodes":[],"categories_segments":[],"categories_sizes":[],"default_left":[1,1,1,1,0,0,0,1,0,1,0,0,1,0,0],"id":43,"left_children":[1,3,5,7,-1,-1,-1,9,-1,11,-1,-1,13,-1,-1],"loss_changes":[1.280058E-1,1.9882189E-1,2.1838614E-1,8.845738E-2,0E0,0E0,0E0,2.185295E-1,0E0,8.322279E-2,0E0,0E0,1.3969487E-1,0E0,0E0],"parents":[2147483647,0,0,1,1,2,2,3,3,7,7,9,9,12,12],"right_children":[2,4,6,8,-1,-1,-1,10,-1,12,-1,-1,14,-1,-1],"split_conditions":[4.324909E-1,1.7865758E-1,5.442788E-1,9.37303E-2,-9.86471E-2,1.1393947E-1,-3.1580005E-2,6.983636E-2,4.8570316E-2,6.116667E-3,-9.78187E-2,-4.2708267E-2,2.9865151E-2,6.472852E-2,-1.611731E-2],"split_indices":[14,14,14,14,0,0,0,14,0,14,0,0,14,0,0],"split_type":[0,0,0,0,0,0,0,0,0,0,0,0,0,0,0],"sum_hessian":[1.3316887E1,1.1189505E1,2.1273828E0,1.0107128E1,1.0823765E0,1.0523807E0,1.075002E0,8.226563E0,1.8805647E0,7.1549215E0,1.0716419E0,1.0862767E0,6.068645E0,2.8842435E0,3.1844015E0],"tree_param":{"num_deleted":"0","num_feature":"15","num_nodes":"15","size_leaf_vector":"0"}},{"base_weights":[-5.6432155E-3,-6.0700793E-2,1.8771498E-1,-4.851778E-3,-3.2127276E-1,2.2160012E-1,6.0096417E-2,-9.683978E-2,1.245733E-1,1.2589482E-2,-2.9565746E-1,2.8759056E-1,-3.155838E-2,-9.820011E-2,1.9330442E-1,-1.9475257E-1,1.4545152E-1,7.05153E-2,-1.9858855E-1],"categories":[],"categories_nodes":[],"categories_segments":[],"categories_sizes":[],"default_left":[1,1,1,1,0,0,0,1,1,1,0,0,1,1,0,0,0,0,0],"id":44,"left_children":[1,3,5,7,-1,-1,-1,9,11,13,-1,-1,15,17,-1,-1,-1,-1,-1],"loss_changes":[1.6326034E-1,1.7102525E-1,1.4115945E-3,1.404222E-1,0E0,0E0,0E0,1.5307605E-1,1.3421395E-1,1.2683582E-1,0E0,0E0,1.2690258E-1,8.179735E-2,0E0,0E0,0E0,0E0,0E0],"parents":[2147483647,0,0,1,1,2,2,3,3,7,7,8,8,9,9,12,12,13,13],"right_children":[2,4,6,8,-1,-1,-1,10,12,14,-1,-1,16,18,-1,-1,-1,-1,-1],"split_conditions":[2.2980394E0,4.34103E-1,3.9645606E-1,5.587879E-2,-9.6381836E-2,6.648004E-2,1.8028926E-2,3.642121E-2,9.438182E-2,2.1798484E-2,-8.869724E-2,8.627717E-2,1.4903486E-1,8.159091E-3,5.799133E-2,-5.8425773E-2,4.3635458E-2,2.115459E-2,-5.9576567E-2],"split_indices":[11,14,14,14,0,0,0,14,14,14,0,0,14,14,0,0,0,0,0],"split_type":[0,0,0,0,0,0,0,0,0,0,0,0,0,0,0,0,0,0,0],"sum_hessian":[1.3265288E1,1.0859253E1,2.406036E0,9.781402E0,1.0778515E0,1.319309E0,1.0867268E0,5.8648024E0,3.916599E0,4.3869195E0,1.4778825E0,1.5041449E0,2.4124541E0,3.0026865E0,1.3842331E0,1.2030591E0,1.2093952E0,1.2311536E0,1.7715329E0],"tree_param":{"num_deleted":"0","num_feature":"15","num_nodes":"19","size_leaf_vector":"0"}},{"base_weights":[-5.360469E-3,-5.1887557E-2,1.7707764E-1,1.6823811E-2,-2.618681E-1,3.487563E-1,-8.294824E-2,-5.6541312E-2,1.9366762E-1,4.4493407E-2,-3.4185192E-1,-1.3379191E-1,1.0245573E-1,2.4439943E-1,-1.7859977E-2],"categories":[],"categories_nodes":[],"categories_segments":[],"categories_sizes":[],"default_left":[1,1,1,1,0,0,0,1,0,1,0,0,1,0,0],"id":45,"left_children":[1,3,5,7,-1,-1,-1,9,-1,11,-1,-1,13,-1,-1],"loss_changes":[1.2938432E-1,1.7835227E-1,1.6749647E-1,1.409947E-1,0E0,0E0,0E0,2.4173756E-1,0E0,8.2821734E-2,0E0,0E0,1.0023342E-1,0E0,0E0],"parents":[2147483647,0,0,1,1,2,2,3,3,7,7,9,9,12,12],"right_children":[2,4,6,8,-1,-1,-1,10,-1,12,-1,-1,14,-1,-1],"split_conditions":[4.324909E-1,1.0210151E-1,5.442788E-1,6.669243E-2,-7.856043E-2,1.046269E-1,-2.4884472E-2,4.6580303E-2,5.8100287E-2,6.116667E-3,-1.0255558E-1,-4.0137574E-2,1.889091E-2,7.331983E-2,-5.3579933E-3],"split_indices":[14,14,14,14,0,0,0,14,0,14,0,0,14,0,0],"split_type":[0,0,0,0,0,0,0,0,0,0,0,0,0,0,0],"sum_hessian":[1.3160198E1,1.1056144E1,2.104054E0,9.02334E0,2.032804E0,1.0617864E0,1.0422676E0,6.858365E0,2.1649745E0,5.6881275E0,1.1702375E0,1.0745822E0,4.6135454E0,1.6434044E0,2.9701412E0],"tree_param":{"num_deleted":"0","num_feature":"15","num_nodes":"15","size_leaf_vector":"0"}},{"base_weights":[-5.5502746E-3,-6.384732E-2,1.5272385E-1,2.6915634E-2,-1.9638878E-1,-1.0196193E-1,3.0111217E-1,-8.021652E-2,2.3161446E-1,-3.3068E-1,1.097362E-1,3.9965358E-2,-1.9640411E-1,-1.4742291E-1,2.572795E-1],"categories":[],"categories_nodes":[],"categories_segments":[],"categories_sizes":[],"default_left":[1,1,1,1,1,0,0,1,0,0,0,1,0,0,0],"id":46,"left_children":[1,3,5,7,9,-1,-1,11,-1,-1,-1,13,-1,-1,-1],"loss_changes":[1.4050731E-1,1.3835715E-1,1.8600744E-1,1.8184958E-1,2.2607653E-1,0E0,0E0,8.646531E-2,0E0,0E0,0E0,1.8446228E-1,0E0,0E0,0E0],"parents":[2147483647,0,0,1,1,2,2,3,3,4,4,7,7,11,11],"right_children":[2,4,6,8,10,-1,-1,12,-1,-1,-1,14,-1,-1,-1],"split_conditions":[2.1196425E0,6.966818E-2,1.0734697E-1,3.7725758E-2,4.324909E-1,-3.058858E-2,9.0333655E-2,1.889091E-2,6.948434E-2,-9.920401E-2,3.292086E-2,9.889394E-3,-5.8921237E-2,-4.4226874E-2,7.718385E-2],"split_indices":[11,14,14,14,14,0,0,14,0,0,0,14,0,0,0],"split_type":[0,0,0,0,0,0,0,0,0,0,0,0,0,0,0],"sum_hessian":[1.3171185E1,1.0061748E1,3.1094368E0,6.4451237E0,3.616624E0,1.2598935E0,1.8495431E0,4.6300454E0,1.8150785E0,2.458093E0,1.1585312E0,2.5983732E0,2.0316722E0,1.5679532E0,1.0304198E0],"tree_param":{"num_deleted":"0","num_feature":"15","num_nodes":"15","size_leaf_vector":"0"}},{"base_weights":[-1.9377696E-3,-3.401651E-2,1.9831932E-1,-8.017952E-2,1.8230684E-1,-2.4905153E-2,-3.0408224E-1,2.7581371E-2,-2.5020242E-1,-6.314788E-2,3.7132978E-1,1.1047379E-2,-1.7774329E-1],"categories":[],"categories_nodes":[],"categories_segments":[],"categories_sizes":[],"default_left":[1,1,0,1,0,1,0,1,0,1,0,0,0],"id":47,"left_children":[1,3,-1,5,-1,7,-1,9,-1,11,-1,-1,-1],"loss_changes":[9.677277E-2,1.437657E-1,0E0,1.3293055E-1,0E0,1.2744927E-1,0E0,3.094063E-1,0E0,7.090827E-2,0E0,0E0,0E0],"parents":[2147483647,0,0,1,1,3,3,5,5,7,7,9,9],"right_children":[2,4,-1,6,-1,8,-1,10,-1,12,-1,-1,-1],"split_conditions":[2.56171E0,4.324909E-1,5.9495796E-2,2.2166011E0,5.4692056E-2,1.179394E-1,-9.122468E-2,9.37303E-2,-7.5060725E-2,3.9304547E-2,1.1139894E-1,3.3142138E-3,-5.332299E-2],"split_indices":[11,14,0,11,0,14,0,14,0,14,0,0,0],"split_type":[0,0,0,0,0,0,0,0,0,0,0,0,0],"sum_hessian":[1.301412E1,1.1932772E1,1.0813484E0,1.0352847E1,1.5799253E0,9.194302E0,1.1585447E0,8.168824E0,1.0254775E0,7.1088142E0,1.0600102E0,4.863511E0,2.2453032E0],"tree_param":{"num_deleted":"0","num_feature":"15","num_nodes":"13","size_leaf_vector":"0"}},{"base_weights":[-1.0362662E-3,4.6350274E-2,-1.9252856E-1,-2.1113252E-2,2.3266159E-1,4.442942E-2,-2.1088421E-1,3.4676793E-1,2.5517311E-2,-7.797309E-2,1.14027426E-1,1.2945445E-1,-2.588582E-1,3.0177504E-1,3.094041E-4,-1.8669337E-1,1.3826442E-1],"categories":[],"categories_nodes":[],"categories_segments":[],"categories_sizes":[],"default_left":[1,1,0,1,1,1,0,0,0,1,1,0,0,0,1,0,0],"id":48,"left_children":[1,3,-1,5,7,9,-1,-1,-1,11,13,-1,-1,-1,15,-1,-1],"loss_changes":[1.3508576E-1,1.5513167E-1,0E0,1.2990732E-1,6.8214625E-2,7.7291414E-2,0E0,0E0,0E0,1.6499653E-1,1.1786274E-1,0E0,0E0,0E0,1.4040188E-1,0E0,0E0],"parents":[2147483647,0,0,1,1,3,3,4,4,5,5,9,9,10,10,14,14],"right_children":[2,4,-1,6,8,10,-1,-1,-1,12,14,-1,-1,-1,16,-1,-1],"split_conditions":[4.34103E-1,9.726818E-2,-5.775857E-2,6.983636E-2,9.0309083E-1,1.8581819E-2,-6.3265264E-2,1.04030386E-1,7.6551936E-3,8.586364E-3,2.5495455E-2,3.8836338E-2,-7.765746E-2,9.053251E-2,3.7581816E-2,-5.6008015E-2,4.1479327E-2],"split_indices":[14,14,0,14,11,14,0,0,0,14,14,0,0,0,14,0,0],"split_type":[0,0,0,0,0,0,0,0,0,0,0,0,0,0,0,0,0],"sum_hessian":[1.29034395E1,1.0951373E1,1.9520663E0,8.691023E0,2.260351E0,7.029179E0,1.6618435E0,1.0228622E0,1.2374886E0,2.5043774E0,4.5248017E0,1.299044E0,1.2053334E0,1.0830238E0,3.441778E0,1.3111615E0,2.1306164E0],"tree_param":{"num_deleted":"0","num_feature":"15","num_nodes":"17","size_leaf_vector":"0"}},{"base_weights":[6.522659E-4,-5.73188E-2,1.3852353E-1,1.073412E-2,-2.6653656E-1,2.7785608E-1,-4.5816388E-2,-7.7273086E-2,1.9684723E-1,1.6127637E-2,-2.5206843E-1,-1.0213949E-1,2.0955129E-1,6.970731E-2,-2.0326625E-1],"categories":[],"categories_nodes":[],"categories_segments":[],"categories_sizes":[],"default_left":[1,1,1,1,0,0,0,1,0,1,0,1,0,0,0],"id":49,"left_children":[1,3,5,7,-1,-1,-1,9,-1,11,-1,13,-1,-1,-1],"loss_changes":[1.1908238E-1,1.5231393E-1,1.2597111E-1,1.6068871E-1,0E0,0E0,0E0,1.1423937E-1,0E0,1.4351569E-1,0E0,8.342035E-2,0E0,0E0,0E0],"parents":[2147483647,0,0,1,1,2,2,3,3,7,7,9,9,11,11],"right_children":[2,4,6,8,-1,-1,-1,10,-1,12,-1,14,-1,-1,-1],"split_conditions":[1.8412156E0,1.0061364E-1,2.3942976E0,5.587879E-2,-7.996097E-2,8.335683E-2,-1.3744917E-2,3.642121E-2,5.905417E-2,2.1798484E-2,-7.562053E-2,8.159091E-3,6.286539E-2,2.0912195E-2,-6.0979877E-2],"split_indices":[11,14,11,14,0,0,0,14,0,14,0,14,0,0,0],"split_type":[0,0,0,0,0,0,0,0,0,0,0,0,0,0,0],"sum_hessian":[1.2905757E1,9.496851E0,3.4089057E0,7.8818054E0,1.6150457E0,1.6525385E0,1.7563672E0,5.7483788E0,2.133427E0,4.3380857E0,1.4102929E0,2.9849217E0,1.3531641E0,1.2209053E0,1.7640163E0],"tree_param":{"num_deleted":"0","num_feature":"15","num_nodes":"15","size_leaf_vector":"0"}},{"base_weights":[-4.5564375E-4,-4.5696177E-2,1.5960553E-1,1.1093993E-2,-3.1764442E-1,2.1426514E-1,1.9680686E-2,-4.4607487E-2,1.7470655E-1,3.4823433E-2,-2.8659764E-1,-7.851049E-2,1.9707446E-1,5.5710897E-2,-2.3814502E-1],"categories":[],"categories_nodes":[],"categories_segments":[],"categories_sizes":[],"default_left":[1,1,1,1,0,0,0,1,0,1,0,1,0,0,0],"id":50,"left_children":[1,3,5,7,-1,-1,-1,9,-1,11,-1,13,-1,-1,-1],"loss_changes":[1.069082E-1,1.8116961E-1,2.0670451E-2,1.03318155E-1,0E0,0E0,0E0,1.7559637E-1,0E0,1.5115371E-1,0E0,1.2166886E-1,0E0,0E0,0E0],"parents":[2147483647,0,0,1,1,2,2,3,3,7,7,9,9,11,11],"right_children":[2,4,6,8,-1,-1,-1,10,-1,12,-1,14,-1,-1,-1],"split_conditions":[2.2980394E0,4.34103E-1,3.9645606E-1,9.726818E-2,-9.529333E-2,6.427954E-2,5.904206E-3,6.966818E-2,5.2411966E-2,3.4737878E-2,-8.59793E-2,1.889091E-2,5.912234E-2,1.6713269E-2,-7.144351E-2],"split_indices":[11,14,14,14,0,0,0,14,0,14,0,14,0,0,0],"split_type":[0,0,0,0,0,0,0,0,0,0,0,0,0,0,0],"sum_hessian":[1.2756575E1,1.0502579E1,2.2539961E0,9.48174E0,1.0208389E0,1.2387924E0,1.0152036E0,7.616187E0,1.8655527E0,6.378577E0,1.2376102E0,4.059261E0,2.3193161E0,2.5588112E0,1.5004497E0],"tree_param":{"num_deleted":"0","num_feature":"15","num_nodes":"15","size_leaf_vector":"0"}},{"base_weights":[-4.859348E-3,-4.0984023E-2,1.7493679E-1,1.3257819E-2,-2.730995E-1,-8.7240644E-2,1.5539876E-1,-3.3360983E-3,-2.930166E-1,2.5987265E-1,-1.1763223E-1,-1.5274271E-1,1.0696505E-1,4.3471552E-2,3.6816245E-1,2.241177E-1,-3.261844E-2],"categories":[],"categories_nodes":[],"categories_segments":[],"categories_sizes":[],"default_left":[1,1,0,1,0,1,1,1,0,1,0,0,1,0,0,0,0],"id":51,"left_children":[1,3,-1,5,-1,7,9,11,-1,13,-1,-1,15,-1,-1,-1,-1],"loss_changes":[9.602838E-2,1.5725142E-1,0E0,1.6847146E-1,0E0,1.197662E-1,1.6894951E-1,1.1487479E-1,0E0,7.3520005E-2,0E0,0E0,7.3177405E-2,0E0,0E0,0E0,0E0],"parents":[2147483647,0,0,1,1,3,3,5,5,6,6,7,7,9,9,12,12],"right_children":[2,4,-1,6,-1,8,10,12,-1,14,-1,-1,16,-1,-1,-1,-1],"split_conditions":[1.0626986E0,4.34103E-1,5.2481037E-2,6.669243E-2,-8.1929855E-2,4.6580303E-2,2.2166011E0,1.8581819E-2,-8.790499E-2,9.726818E-2,-3.528967E-2,-4.5822814E-2,2.9865151E-2,1.30414665E-2,1.1044874E-1,6.723531E-2,-9.785533E-3],"split_indices":[9,14,0,14,0,14,11,14,0,14,0,0,14,0,0,0,0],"split_type":[0,0,0,0,0,0,0,0,0,0,0,0,0,0,0,0,0],"sum_hessian":[1.2680941E1,1.1202238E1,1.4787029E0,9.84459E0,1.3576475E0,5.9933367E0,3.8512537E0,4.9792676E0,1.0140692E0,2.8202815E0,1.0309722E0,1.9513371E0,3.0279305E0,1.4080133E0,1.412268E0,1.3169743E0,1.7109561E0],"tree_param":{"num_deleted":"0","num_feature":"15","num_nodes":"17","size_leaf_vector":"0"}},{"base_weights":[-5.215345E-3,-5.2593254E-2,1.6342981E-1,2.4015566E-2,-1.8620752E-1,1.9899501E-1,4.44699E-2,-5.7942618E-2,2.99156E-1,-3.287943E-1,1.0783708E-1,1.7165078E-2,-2.157152E-1,-8.315526E-2,1.5056878E-1,7.432968E-2,-1.814257E-1],"categories":[],"categories_nodes":[],"categories_segments":[],"categories_sizes":[],"default_left":[1,1,1,1,1,0,0,1,0,0,0,1,0,1,0,0,0],"id":52,"left_children":[1,3,5,7,9,-1,-1,11,-1,-1,-1,13,-1,15,-1,-1,-1],"loss_changes":[1.177867E-1,1.2142122E-1,4.8613697E-3,2.0105933E-1,2.1481076E-1,0E0,0E0,8.801826E-2,0E0,0E0,0E0,8.943023E-2,0E0,7.421864E-2,0E0,0E0,0E0],"parents":[2147483647,0,0,1,1,2,2,3,3,4,4,7,7,11,11,13,13],"right_children":[2,4,6,8,10,-1,-1,12,-1,-1,-1,14,-1,16,-1,-1,-1],"split_conditions":[2.2980394E0,9.438182E-2,3.9645606E-1,6.725606E-2,4.324909E-1,5.9698503E-2,1.33409705E-2,3.9304547E-2,8.97468E-2,-9.8638296E-2,3.2351125E-2,2.1798484E-2,-6.4714566E-2,8.159091E-3,4.5170635E-2,2.2298906E-2,-5.4427713E-2],"split_indices":[11,14,14,14,14,0,0,14,0,0,0,14,0,14,0,0,0],"split_type":[0,0,0,0,0,0,0,0,0,0,0,0,0,0,0,0,0],"sum_hessian":[1.2665913E1,1.0425261E1,2.2406523E0,7.1474657E0,3.2777953E0,1.2070057E0,1.0336465E0,6.1152706E0,1.0321951E0,2.1278093E0,1.149986E0,4.746772E0,1.3684988E0,2.9243264E0,1.8224453E0,1.2172397E0,1.7070866E0],"tree_param":{"num_deleted":"0","num_feature":"15","num_nodes":"17","size_leaf_vector":"0"}},{"base_weights":[-1.0087162E-3,-3.9965313E-2,1.459898E-1,2.3302814E-2,-2.438058E-1,-4.0078584E-2,1.7013088E-1,4.5650695E-2,-2.8864127E-1,-1.2596044E-1,1.0196023E-1,2.4243724E-1,-1.9011531E-2],"categories":[],"categories_nodes":[],"categories_segments":[],"categories_sizes":[],"default_left":[1,1,0,1,0,1,0,1,0,0,1,0,0],"id":53,"left_children":[1,3,-1,5,-1,7,-1,9,-1,-1,11,-1,-1],"loss_changes":[8.349845E-2,1.5406911E-1,0E0,9.702682E-2,0E0,1.7469999E-1,0E0,7.565042E-2,0E0,0E0,9.716463E-2,0E0,0E0],"parents":[2147483647,0,0,1,1,3,3,5,5,7,7,10,10],"right_children":[2,4,-1,6,-1,8,-1,10,-1,-1,12,-1,-1],"split_conditions":[4.324909E-1,1.0210151E-1,4.379694E-2,6.669243E-2,-7.314174E-2,4.6580303E-2,5.1039267E-2,6.116667E-3,-8.659238E-2,-3.7788134E-2,1.889091E-2,7.2731175E-2,-5.7034595E-3],"split_indices":[14,14,0,14,0,14,0,14,0,0,14,0,0],"split_type":[0,0,0,0,0,0,0,0,0,0,0,0,0],"sum_hessian":[1.2562049E1,1.0505954E1,2.0560954E0,8.693379E0,1.812575E0,6.580015E0,2.1133637E0,5.4995584E0,1.0804566E0,1.0531149E0,4.446444E0,1.5927733E0,2.8536706E0],"tree_param":{"num_deleted":"0","num_feature":"15","num_nodes":"13","size_leaf_vector":"0"}},{"base_weights":[-3.7912657E-3,-4.8507433E-2,1.2001036E-1,3.7548896E-2,-1.7955877E-1,-1.0130989E-1,2.5239158E-1,-6.88852E-2,2.3602411E-1,-3.0928066E-1,1.0336503E-1,4.629825E-2,-1.8322149E-1,-1.3182148E-1,2.4860595E-1],"categories":[],"categories_nodes":[],"categories_segments":[],"categories_sizes":[],"default_left":[1,1,1,1,1,0,0,1,0,0,0,1,0,0,0],"id":54,"left_children":[1,3,5,7,9,-1,-1,11,-1,-1,-1,13,-1,-1,-1],"loss_changes":[8.08266E-2,1.2702864E-1,1.393369E-1,1.697317E-1,1.934774E-1,0E0,0E0,8.095812E-2,0E0,0E0,0E0,1.6032572E-1,0E0,0E0,0E0],"parents":[2147483647,0,0,1,1,2,2,3,3,4,4,7,7,11,11],"right_children":[2,4,6,8,10,-1,-1,12,-1,-1,-1,14,-1,-1,-1],"split_conditions":[2.1196425E0,6.966818E-2,1.0734697E-1,3.7725758E-2,4.324909E-1,-3.0392967E-2,7.571748E-2,1.889091E-2,7.080723E-2,-9.27842E-2,3.1009508E-2,9.889394E-3,-5.496645E-2,-3.9546445E-2,7.458179E-2],"split_indices":[11,14,14,14,14,0,0,14,0,0,0,14,0,0,0],"split_type":[0,0,0,0,0,0,0,0,0,0,0,0,0,0,0],"sum_hessian":[1.2548788E1,9.6657715E0,2.883016E0,6.2651625E0,3.4006097E0,1.1668838E0,1.7161323E0,4.5032063E0,1.7619561E0,2.2676997E0,1.13291E0,2.5397289E0,1.9634771E0,1.5358855E0,1.0038435E0],"tree_param":{"num_deleted":"0","num_feature":"15","num_nodes":"15","size_leaf_vector":"0"}},{"base_weights":[-7.029568E-4,3.9461136E-2,-1.6675785E-1,-3.101626E-2,1.9338524E-1,6.792305E-2,-1.4922448E-1,2.8156072E-1,-3.7741528E-3,-4.8143383E-2,2.3271702E-1,-2.0920457E-1,5.7289045E-4,1.2853423E-1,-1.7611355E-1,-4.354927E-2,-2.7095836E-1],"categories":[],"categories_nodes":[],"categories_segments":[],"categories_sizes":[],"default_left":[1,1,0,1,1,1,1,0,0,1,0,1,0,0,0,0,0],"id":55,"left_children":[1,3,-1,5,7,9,11,-1,-1,13,-1,15,-1,-1,-1,-1,-1],"loss_changes":[9.611218E-2,1.3203499E-1,0E0,1.1341957E-1,6.690076E-2,1.1629893E-1,3.9083004E-2,0E0,0E0,1.1426182E-1,0E0,1.990585E-2,0E0,0E0,0E0,0E0,0E0],"parents":[2147483647,0,0,1,1,3,3,4,4,5,5,6,6,9,9,11,11],"right_children":[2,4,-1,6,8,10,12,-1,-1,14,-1,16,-1,-1,-1,-1,-1],"split_conditions":[4.34103E-1,9.37303E-2,-5.002736E-2,3.690909E-2,9.0309083E-1,2.0954546E-2,6.669243E-2,8.4468216E-2,-1.1322459E-3,8.586364E-3,6.981511E-2,4.6580303E-2,1.7186714E-4,3.856027E-2,-5.2834067E-2,-1.3064781E-2,-8.128751E-2],"split_indices":[14,14,0,14,11,14,14,0,0,14,0,14,0,0,0,0,0],"split_type":[0,0,0,0,0,0,0,0,0,0,0,0,0,0,0,0,0],"sum_hessian":[1.2424167E1,1.0618262E1,1.8059037E0,7.831117E0,2.7871456E0,4.4945827E0,3.3365343E0,1.6300516E0,1.1570939E0,3.0525155E0,1.4420673E0,2.0993526E0,1.2371817E0,1.2803863E0,1.7721292E0,1.0331428E0,1.0662097E0],"tree_param":{"num_deleted":"0","num_feature":"15","num_nodes":"17","size_leaf_vector":"0"}},{"base_weights":[-1.3824502E-3,-3.371562E-2,1.5961312E-1,2.129064E-2,-2.6935732E-1,-5.280776E-2,1.7946832E-1,9.436794E-3,-1.824667E-1,2.7666703E-1,-3.2314636E-2,-9.560696E-2,1.8196592E-1,9.963203E-2,-2.0000634E-1],"categories":[],"categories_nodes":[],"categories_segments":[],"categories_sizes":[],"default_left":[1,1,0,1,0,1,1,1,0,0,0,1,0,0,0],"id":56,"left_children":[1,3,-1,5,-1,7,9,11,-1,-1,-1,13,-1,-1,-1],"loss_changes":[7.5306304E-2,1.6143043E-1,0E0,1.3448294E-1,0E0,6.657416E-2,8.365801E-2,1.3302422E-1,0E0,0E0,0E0,1.1411996E-1,0E0,0E0,0E0],"parents":[2147483647,0,0,1,1,3,3,5,5,6,6,7,7,11,11],"right_children":[2,4,-1,6,-1,8,10,12,-1,-1,-1,14,-1,-1,-1],"split_conditions":[1.0626986E0,4.34103E-1,4.788394E-2,9.37303E-2,-8.08072E-2,5.8389395E-2,9.0309083E-1,3.4078788E-2,-5.474001E-2,8.300011E-2,-9.694391E-3,8.586364E-3,5.458978E-2,2.9889612E-2,-6.0001902E-2],"split_indices":[9,14,0,14,0,14,11,14,0,0,0,14,0,0,0],"split_type":[0,0,0,0,0,0,0,0,0,0,0,0,0,0,0],"sum_hessian":[1.2432885E1,1.1011913E1,1.4209716E0,9.6653595E0,1.3465538E0,7.0356536E0,2.629706E0,5.3800874E0,1.6555663E0,1.5924659E0,1.0372399E0,3.621189E0,1.7588981E0,1.2775975E0,2.3435917E0],"tree_param":{"num_deleted":"0","num_feature":"15","num_nodes":"15","size_leaf_vector":"0"}},{"base_weights":[-7.064576E-4,-4.640825E-2,1.608071E-1,3.627999E-2,-1.5575767E-1,2.0387407E-1,3.476712E-2,-4.3974638E-2,2.3503466E-1,-2.4068636E-1,6.270269E-2,3.581401E-2,-1.7412056E-1,-8.497166E-2,-2.9866487E-1,-1.0605643E-1,2.2535715E-1,5.4476626E-2,-2.2803442E-1],"categories":[],"categories_nodes":[],"categories_segments":[],"categories_sizes":[],"default_left":[1,1,1,1,1,0,0,1,0,1,0,1,0,0,0,1,0,0,0],"id":57,"left_children":[1,3,5,7,9,-1,-1,11,-1,13,-1,15,-1,-1,-1,17,-1,-1,-1],"loss_changes":[1.0657182E-1,1.0729547E-1,1.0201991E-2,1.2537678E-1,1.0840349E-1,0E0,0E0,6.8333715E-2,0E0,9.182647E-3,0E0,1.4589353E-1,0E0,0E0,0E0,7.6544136E-2,0E0,0E0,0E0],"parents":[2147483647,0,0,1,1,2,2,3,3,4,4,7,7,9,9,11,11,15,15],"right_children":[2,4,6,8,10,-1,-1,12,-1,14,-1,16,-1,-1,-1,18,-1,-1,-1],"split_conditions":[2.2980394E0,6.966818E-2,3.9645606E-1,4.6068184E-2,4.324909E-1,6.1162222E-2,1.0430137E-2,2.8054547E-2,7.05104E-2,1.0061364E-1,1.8810809E-2,1.8581819E-2,-5.223617E-2,-2.5491498E-2,-8.959946E-2,8.159091E-3,6.760715E-2,1.6342988E-2,-6.841033E-2],"split_indices":[11,14,14,14,14,0,0,14,0,14,0,14,0,0,0,14,0,0,0],"split_type":[0,0,0,0,0,0,0,0,0,0,0,0,0,0,0,0,0,0,0],"sum_hessian":[1.2426756E1,1.0241494E1,2.1852615E0,6.212171E0,4.029323E0,1.168469E0,1.0167925E0,4.980042E0,1.2321291E0,2.8281221E0,1.2012007E0,3.5366452E0,1.443397E0,1.4362669E0,1.3918554E0,2.2746005E0,1.2620447E0,1.2210232E0,1.0535773E0],"tree_param":{"num_deleted":"0","num_feature":"15","num_nodes":"19","size_leaf_vector":"0"}},{"base_weights":[-1.9062195E-4,-5.2477855E-2,1.2500547E-1,1.9229606E-2,-2.1903096E-1,2.6865122E-1,-5.749244E-2,-6.930548E-2,2.4387196E-1,-2.8503358E-1,-3.9627485E-2,2.4491027E-2,-2.4545895E-1,-1.3607103E-1,1.3015857E-1,1.8495359E-1,-6.340747E-3],"categories":[],"categories_nodes":[],"categories_segments":[],"categories_sizes":[],"default_left":[1,1,1,1,1,0,0,1,0,0,0,1,0,0,1,0,0],"id":58,"left_children":[1,3,5,7,9,-1,-1,11,-1,-1,-1,13,-1,-1,15,-1,-1],"loss_changes":[9.377487E-2,1.2486539E-1,1.2609124E-1,1.7563802E-1,2.5662556E-2,0E0,0E0,1.1346841E-1,0E0,0E0,0E0,1.05140455E-1,0E0,0E0,2.8240688E-2,0E0,0E0],"parents":[2147483647,0,0,1,1,2,2,3,3,4,4,7,7,11,11,14,14],"right_children":[2,4,6,8,10,-1,-1,12,-1,-1,-1,14,-1,-1,16,-1,-1],"split_conditions":[1.8412156E0,9.438182E-2,2.3942976E0,5.587879E-2,3.8337424E-1,8.059537E-2,-1.7247733E-2,3.642121E-2,7.316159E-2,-8.5510075E-2,-1.1888246E-2,9.889394E-3,-7.363769E-2,-4.082131E-2,2.510909E-2,5.548608E-2,-1.9022241E-3],"split_indices":[11,14,11,14,14,0,0,14,0,0,0,14,0,0,14,0,0],"split_type":[0,0,0,0,0,0,0,0,0,0,0,0,0,0,0,0,0],"sum_hessian":[1.232306E1,9.102361E0,3.2206995E0,6.981222E0,2.1211386E0,1.5380267E0,1.6826727E0,5.5036373E0,1.4775848E0,1.1202227E0,1.0009158E0,4.153167E0,1.3504705E0,1.5342076E0,2.6189592E0,1.6154785E0,1.0034807E0],"tree_param":{"num_deleted":"0","num_feature":"15","num_nodes":"17","size_leaf_vector":"0"}},{"base_weights":[-2.1892386E-3,-4.065926E-2,1.346513E-1,3.2795962E-2,-1.3879156E-1,1.6818646E-1,3.2023177E-2,-7.184043E-2,1.8033843E-1,-2.110705E-1,4.6524007E-2,5.882179E-2,-2.3128375E-1,-2.773907E-1,-7.081186E-2],"categories":[],"categories_nodes":[],"categories_segments":[],"categories_sizes":[],"default_left":[1,1,1,1,1,0,0,1,0,1,0,0,0,0,0],"id":59,"left_children":[1,3,5,7,9,-1,-1,11,-1,13,-1,-1,-1,-1,-1],"loss_changes":[7.5256296E-2,8.467208E-2,5.4234974E-3,1.23580374E-1,7.611355E-2,0E0,0E0,1.1584365E-1,0E0,1.51581615E-2,0E0,0E0,0E0,0E0,0E0],"parents":[2147483647,0,0,1,1,2,2,3,3,4,4,7,7,9,9],"right_children":[2,4,6,8,10,-1,-1,12,-1,14,-1,-1,-1,-1,-1],"split_conditions":[2.2980394E0,6.966818E-2,3.9645606E-1,3.4737878E-2,4.324909E-1,5.045594E-2,9.606954E-3,1.889091E-2,5.410153E-2,9.726818E-2,1.3957202E-2,1.7646538E-2,-6.9385126E-2,-8.321721E-2,-2.124356E-2],"split_indices":[11,14,14,14,14,0,0,14,0,14,0,0,0,0,0],"split_type":[0,0,0,0,0,0,0,0,0,0,0,0,0,0,0],"sum_hessian":[1.2255707E1,1.0114957E1,2.1407495E0,6.1656017E0,3.9493551E0,1.1320438E0,1.0087057E0,3.907505E0,2.2580967E0,2.7412157E0,1.2081394E0,2.4944272E0,1.4130778E0,1.1973498E0,1.5438659E0],"tree_param":{"num_deleted":"0","num_feature":"15","num_nodes":"15","size_leaf_vector":"0"}},{"base_weights":[-3.9562928E-3,-4.1732095E-2,1.0057975E-1,1.05856955E-2,-1.8590194E-1,-1.11450106E-1,2.3113492E-1,-5.5992868E-2,1.820969E-1,2.172278E-2,-2.2019498E-1,-9.62982E-2,1.297393E-1,5.830538E-2,-2.1693969E-1,1.9471437E-1,-2.1151875E-3],"categories":[],"categories_nodes":[],"categories_segments":[],"categories_sizes":[],"default_left":[1,1,1,1,0,0,0,1,0,1,0,1,1,0,0,0,0],"id":60,"left_children":[1,3,5,7,-1,-1,-1,9,-1,11,-1,13,15,-1,-1,-1,-1],"loss_changes":[5.6348324E-2,8.046837E-2,1.3091639E-1,1.0819952E-1,0E0,0E0,0E0,9.343889E-2,0E0,8.4211715E-2,0E0,7.349664E-2,2.9226892E-2,0E0,0E0,0E0,0E0],"parents":[2147483647,0,0,1,1,2,2,3,3,7,7,9,9,11,11,12,12],"right_children":[2,4,6,8,-1,-1,-1,10,-1,12,-1,14,16,-1,-1,-1,-1],"split_conditions":[2.1196425E0,1.0061364E-1,1.0734697E-1,6.725606E-2,-5.5770583E-2,-3.343503E-2,6.934048E-2,3.9304547E-2,5.4629073E-2,1.8581819E-2,-6.6058494E-2,8.159091E-3,2.8054547E-2,1.7491614E-2,-6.508191E-2,5.8414314E-2,-6.345563E-4],"split_indices":[11,14,14,14,0,0,0,14,0,14,0,14,14,0,0,0,0],"split_type":[0,0,0,0,0,0,0,0,0,0,0,0,0,0,0,0,0],"sum_hessian":[1.2206331E1,9.407548E0,2.7987833E0,7.582507E0,1.825041E0,1.1223512E0,1.6764323E0,5.9473505E0,1.6351568E0,4.6257324E0,1.3216181E0,2.2623405E0,2.3633919E0,1.2180717E0,1.044269E0,1.2638546E0,1.0995371E0],"tree_param":{"num_deleted":"0","num_feature":"15","num_nodes":"17","size_leaf_vector":"0"}},{"base_weights":[-4.7209477E-3,-3.6893595E-2,1.5756275E-1,1.5049206E-2,-2.5611615E-1,-6.4563274E-2,1.8957119E-1,6.974351E-3,-2.0849438E-1,-9.085552E-2,1.6684404E-1,7.4935496E-2,-1.8026522E-1],"categories":[],"categories_nodes":[],"categories_segments":[],"categories_sizes":[],"default_left":[1,1,0,1,0,1,0,1,0,1,0,0,0],"id":61,"left_children":[1,3,-1,5,-1,7,-1,9,-1,11,-1,-1,-1],"loss_changes":[7.3948056E-2,1.370953E-1,0E0,1.5679689E-1,0E0,8.270213E-2,0E0,1.12731285E-1,0E0,8.047588E-2,0E0,0E0,0E0],"parents":[2147483647,0,0,1,1,3,3,5,5,7,7,9,9],"right_children":[2,4,-1,6,-1,8,-1,10,-1,12,-1,-1,-1],"split_conditions":[1.0626986E0,4.34103E-1,4.7268827E-2,9.37303E-2,-7.683485E-2,5.8389395E-2,5.687136E-2,3.4078788E-2,-6.254832E-2,8.586364E-3,5.0053213E-2,2.248065E-2,-5.4079566E-2],"split_indices":[9,14,0,14,0,14,0,14,0,14,0,0,0],"split_type":[0,0,0,0,0,0,0,0,0,0,0,0,0],"sum_hessian":[1.2049941E1,1.0701112E1,1.3488293E0,9.40422E0,1.2968926E0,6.890847E0,2.5133722E0,5.238644E0,1.652203E0,3.5177188E0,1.7209255E0,1.2891515E0,2.2285671E0],"tree_param":{"num_deleted":"0","num_feature":"15","num_nodes":"13","size_leaf_vector":"0"}},{"base_weights":[-4.9495357E-3,-3.9969373E-2,1.2488143E-1,3.0837625E-2,-2.2079186E-1,-3.625122E-2,2.2041918E-1,-3.0531752E-1,-2.0425256E-2,6.1753556E-2,-2.4440195E-1,-1.4045389E-1,1.365261E-1,2.3463166E-1,1.6111283E-2],"categories":[],"categories_nodes":[],"categories_segments":[],"categories_sizes":[],"default_left":[1,1,0,1,1,1,0,0,0,1,0,0,1,0,0],"id":62,"left_children":[1,3,-1,5,7,9,-1,-1,-1,11,-1,-1,13,-1,-1],"loss_changes":[6.41821E-2,1.4778127E-1,0E0,1.1978424E-1,4.8312217E-2,1.650505E-1,0E0,0E0,0E0,1.0681019E-1,0E0,0E0,5.219739E-2,0E0,0E0],"parents":[2147483647,0,0,1,1,3,3,4,4,5,5,9,9,12,12],"right_children":[2,4,-1,6,8,10,-1,-1,-1,12,-1,-1,14,-1,-1],"split_conditions":[4.324909E-1,9.472121E-2,3.7464432E-2,6.669243E-2,1.8796287E0,4.01197E-2,6.612576E-2,-9.159526E-2,-6.1275773E-3,6.116667E-3,-7.332059E-2,-4.213617E-2,1.889091E-2,7.03895E-2,4.833385E-3],"split_indices":[14,14,0,14,11,14,0,0,0,14,0,0,14,0,0],"split_type":[0,0,0,0,0,0,0,0,0,0,0,0,0,0,0],"sum_hessian":[1.2018497E1,1.0010474E1,2.0080233E0,7.7896423E0,2.2208319E0,6.350958E0,1.4386847E0,1.1935377E0,1.0272943E0,4.796104E0,1.5548538E0,1.0576051E0,3.7384987E0,1.5374024E0,2.2010963E0],"tree_param":{"num_deleted":"0","num_feature":"15","num_nodes":"15","size_leaf_vector":"0"}},{"base_weights":[-6.6854632E-3,2.3889389E-2,-1.3085735E-1,-2.7921598E-2,1.6891448E-1,4.1255403E-2,-2.2043975E-1,3.0790272E-1,-4.6162724E-2,-1.0035237E-1,9.5985934E-2,2.499317E-1,1.4314721E-2,-1.4091569E-1,1.20260455E-1],"categories":[],"categories_nodes":[],"categories_segments":[],"categories_sizes":[],"default_left":[1,1,0,1,1,1,0,0,0,0,1,0,1,0,0],"id":63,"left_children":[1,3,-1,5,7,9,-1,-1,-1,-1,11,-1,13,-1,-1],"loss_changes":[5.234992E-2,8.924287E-2,0E0,1.3090537E-1,1.0696917E-1,6.830988E-2,0E0,0E0,0E0,0E0,7.150377E-2,0E0,9.8559596E-2,0E0,0E0],"parents":[2147483647,0,0,1,1,3,3,4,4,5,5,10,10,12,12],"right_children":[2,4,-1,6,8,10,-1,-1,-1,-1,12,-1,14,-1,-1],"split_conditions":[4.34103E-1,9.726818E-2,-3.9257206E-2,6.983636E-2,9.0309083E-1,9.384848E-3,-6.613193E-2,9.237082E-2,-1.3848818E-2,-3.0105712E-2,1.889091E-2,7.4979514E-2,3.4078788E-2,-4.227471E-2,3.6078136E-2],"split_indices":[14,14,0,14,11,14,0,0,0,0,14,0,14,0,0],"split_type":[0,0,0,0,0,0,0,0,0,0,0,0,0,0,0],"sum_hessian":[1.1965452E1,1.0249362E1,1.7160908E0,8.146464E0,2.1028972E0,6.5710235E0,1.575441E0,1.0152353E0,1.087662E0,1.5993503E0,4.971673E0,1.009189E0,3.9624841E0,1.4734819E0,2.4890022E0],"tree_param":{"num_deleted":"0","num_feature":"15","num_nodes":"15","size_leaf_vector":"0"}},{"base_weights":[-4.222674E-3,-4.11324E-2,1.2669748E-1,2.2582196E-2,-1.2638907E-1,1.7244756E-1,1.5580981E-2,-5.9839875E-2,1.7478137E-1,-2.0006748E-1,5.3372044E-2,1.3234412E-2,-1.7053567E-1,-4.5899212E-2,-2.7365214E-1,-1.1904931E-1,1.3326792E-1],"categories":[],"categories_nodes":[],"categories_segments":[],"categories_sizes":[],"default_left":[1,1,1,1,1,0,0,1,0,1,0,1,0,0,0,0,0],"id":64,"left_children":[1,3,5,7,9,-1,-1,11,-1,13,-1,15,-1,-1,-1,-1,-1],"loss_changes":[6.807231E-2,6.2078588E-2,1.3102729E-2,9.937547E-2,7.444554E-2,0E0,0E0,4.5476407E-2,0E0,2.8569296E-2,0E0,8.170373E-2,0E0,0E0,0E0,0E0,0E0],"parents":[2147483647,0,0,1,1,2,2,3,3,4,4,7,7,9,9,11,11],"right_children":[2,4,6,8,10,-1,-1,12,-1,14,-1,16,-1,-1,-1,-1,-1],"split_conditions":[2.2980394E0,6.966818E-2,3.9645606E-1,3.7725758E-2,4.324909E-1,5.1734272E-2,4.6742945E-3,2.510909E-2,5.243441E-2,1.0061364E-1,1.6011614E-2,9.889394E-3,-5.1160704E-2,-1.3769764E-2,-8.2095645E-2,-3.5714794E-2,3.9980378E-2],"split_indices":[11,14,14,14,14,0,0,14,0,14,0,14,0,0,0,0,0],"split_type":[0,0,0,0,0,0,0,0,0,0,0,0,0,0,0,0,0],"sum_hessian":[1.200869E1,9.90269E0,2.1060002E0,6.0880523E0,3.8146377E0,1.1008098E0,1.0051904E0,4.342982E0,1.7450703E0,2.6255465E0,1.1890913E0,3.1463838E0,1.1965982E0,1.372908E0,1.2526383E0,1.5007129E0,1.645671E0],"tree_param":{"num_deleted":"0","num_feature":"15","num_nodes":"17","size_leaf_vector":"0"}},{"base_weights":[-4.582282E-3,-4.5401655E-2,9.436156E-2,3.0332047E-3,-1.9806017E-1,2.3426484E-1,-7.066332E-2,-7.031153E-2,1.5640515E-1,2.7753856E-2,-2.53903E-1,-9.273988E-2,2.2302252E-1,8.3865866E-2,-2.0274761E-1],"categories":[],"categories_nodes":[],"categories_segments":[],"categories_sizes":[],"default_left":[1,1,1,1,0,0,0,1,0,1,0,1,0,0,0],"id":65,"left_children":[1,3,5,7,-1,-1,-1,9,-1,11,-1,13,-1,-1,-1],"loss_changes":[5.6654736E-2,7.34674E-2,1.1148836E-1,1.0623297E-1,0E0,0E0,0E0,1.22580916E-1,0E0,1.4031053E-1,0E0,9.181048E-2,0E0,0E0,0E0],"parents":[2147483647,0,0,1,1,2,2,3,3,7,7,9,9,11,11],"right_children":[2,4,6,8,-1,-1,-1,10,-1,12,-1,14,-1,-1,-1],"split_conditions":[1.8412156E0,1.0061364E-1,2.3942976E0,5.587879E-2,-5.9418052E-2,7.027946E-2,-2.1198995E-2,3.642121E-2,4.6921548E-2,2.1798484E-2,-7.617091E-2,8.159091E-3,6.690676E-2,2.5159761E-2,-6.0824286E-2],"split_indices":[11,14,11,14,0,0,0,14,0,14,0,14,0,0,0],"split_type":[0,0,0,0,0,0,0,0,0,0,0,0,0,0,0],"sum_hessian":[1.196678E1,8.854843E0,3.1119366E0,7.4661455E0,1.3886971E0,1.4570875E0,1.654849E0,5.4171476E0,2.048998E0,4.0843306E0,1.332817E0,2.850468E0,1.2338628E0,1.1852735E0,1.6651943E0],"tree_param":{"num_deleted":"0","num_feature":"15","num_nodes":"15","size_leaf_vector":"0"}},{"base_weights":[-4.2868503E-3,-3.7803605E-2,1.18120074E-1,6.84846E-2,-1.1757801E-1,-4.1684408E-2,2.2457339E-1,-2.0583549E-1,-3.3548225E-2,7.188746E-2,-1.8635948E-1,1.7629457E-1,-1.8781653E-1,-2.6633963E-1,-1.3143727E-2],"categories":[],"categories_nodes":[],"categories_segments":[],"categories_sizes":[],"default_left":[1,1,0,1,1,1,0,0,1,0,0,0,1,0,0],"id":66,"left_children":[1,3,-1,5,7,9,-1,-1,11,-1,-1,-1,13,-1,-1],"loss_changes":[5.720821E-2,1.0004887E-1,0E0,1.0022217E-1,4.179001E-2,7.815112E-2,0E0,0E0,1.8067282E-1,0E0,0E0,0E0,3.917203E-2,0E0,0E0],"parents":[2147483647,0,0,1,1,3,3,4,4,5,5,8,8,12,12],"right_children":[2,4,-1,6,8,10,-1,-1,12,-1,-1,-1,14,-1,-1],"split_conditions":[4.324909E-1,3.690909E-2,3.5436023E-2,2.0954546E-2,6.669243E-2,1.0615151E-2,6.737202E-2,-6.175065E-2,9.472121E-2,2.156624E-2,-5.5907845E-2,5.288837E-2,1.8796287E0,-7.990189E-2,-3.9431183E-3],"split_indices":[14,14,0,14,14,14,0,0,14,0,0,0,11,0,0],"split_type":[0,0,0,0,0,0,0,0,0,0,0,0,0,0,0],"sum_hessian":[1.1855696E1,9.849835E0,2.0058606E0,4.2837973E0,5.566038E0,2.9409735E0,1.3428239E0,2.0077353E0,3.5583026E0,1.9294447E0,1.011529E0,1.4471052E0,2.1111975E0,1.0944173E0,1.0167803E0],"tree_param":{"num_deleted":"0","num_feature":"15","num_nodes":"15","size_leaf_vector":"0"}},{"base_weights":[-5.2873758E-3,2.5041223E-2,-1.2825353E-1,-4.0949672E-2,1.7177181E-1,3.624601E-2,-2.251689E-1,2.7363673E-1,-3.725428E-2,-1.1221293E-1,8.2041904E-2,1.9292523E-1,-4.322627E-3,-1.5574755E-1,1.2929492E-1],"categories":[],"categories_nodes":[],"categories_segments":[],"categories_sizes":[],"default_left":[1,1,0,1,1,1,0,0,0,0,1,0,1,0,0],"id":67,"left_children":[1,3,-1,5,7,9,-1,-1,-1,-1,11,-1,13,-1,-1],"loss_changes":[5.0904986E-2,1.1446572E-1,0E0,1.2847894E-1,8.757981E-2,5.5598054E-2,0E0,0E0,0E0,0E0,5.6305457E-2,0E0,1.0581148E-1,0E0,0E0],"parents":[2147483647,0,0,1,1,3,3,4,4,5,5,10,10,12,12],"right_children":[2,4,-1,6,8,10,-1,-1,-1,-1,12,-1,14,-1,-1],"split_conditions":[4.34103E-1,9.37303E-2,-3.847606E-2,5.8389395E-2,9.0309083E-1,6.116667E-3,-6.7550674E-2,8.209102E-2,-1.1176284E-2,-3.366388E-2,1.889091E-2,5.787757E-2,3.4078788E-2,-4.6724267E-2,3.8788475E-2],"split_indices":[14,14,0,14,11,14,0,0,0,0,14,0,14,0,0],"split_type":[0,0,0,0,0,0,0,0,0,0,0,0,0,0,0],"sum_hessian":[1.1788511E1,1.0095015E1,1.693496E0,7.4605927E0,2.634422E0,5.823531E0,1.6370617E0,1.563417E0,1.0710051E0,1.0310003E0,4.792531E0,1.5581614E0,3.2343695E0,1.4385172E0,1.7958523E0],"tree_param":{"num_deleted":"0","num_feature":"15","num_nodes":"15","size_leaf_vector":"0"}},{"base_weights":[-5.612077E-3,-4.1650243E-2,1.2253622E-1,2.3589281E-2,-1.2890178E-1,1.6183057E-1,2.0821242E-2,-6.316516E-2,1.8373165E-1,-2.7217773E-1,-7.9931915E-3,1.4684623E-2,-1.7939155E-1,1.5213385E-1,-1.2781382E-1,-1.1581164E-1,1.336942E-1],"categories":[],"categories_nodes":[],"categories_segments":[],"categories_sizes":[],