{"learner":{"attributes":{"niter":"46"},"feature_names":[],"feature_types":[],"gradient_booster":{"model":{"gbtree_model_param":{"num_parallel_tree":"1","num_trees":"47"},"iteration_indptr":[0,1,2,3,4,5,6,7,8,9,10,11,12,13,14,15,16,17,18,19,20,21,22,23,24,25,26,27,28,29,30,31,32,33,34,35,36,37,38,39,40,41,42,43,44,45,46,47],"tree_info":[0,0,0,0,0,0,0,0,0,0,0,0,0,0,0,0,0,0,0,0,0,0,0,0,0,0,0,0,0,0,0,0,0,0,0,0,0,0,0,0,0,0,0,0,0,0,0],"trees":[{"base_weights":[-0E0,-1.8819672E0,1.8943894E0,-7.906977E-1,-1.9509633E0,2.0689656E-1,1.9655766E0,-8.717949E-1,-0E0,5.263158E-1,-2.857143E-1,-5E-1,-1.1578947E0,-2.2222222E-1,8.5714287E-1,2.2222222E-1,-6.666667E-1,-8E-1,5E-1,-2.2222222E-1,-9.3333334E-1],"categories":[],"categories_nodes":[],"categories_segments":[],"categories_sizes":[],"default_left":[1,1,1,1,0,1,0,1,0,1,1,1,0,0,0,0,0,1,0,0,0],"id":0,"left_children":[1,3,5,7,-1,9,-1,11,-1,13,15,17,-1,-1,-1,-1,-1,19,-1,-1,-1],"loss_changes":[1.0838143E3,9.939636E0,1.7792725E1,6.893263E-1,0E0,1.2911589E0,0E0,4.581647E-1,0E0,1.3667502E0,8.253969E-1,2.2E0,0E0,0E0,0E0,0E0,0E0,1.7777777E-1,0E0,0E0,0E0],"parents":[2147483647,0,0,1,1,2,2,3,3,5,5,7,7,9,9,10,10,11,11,17,17],"right_children":[2,4,6,8,-1,10,-1,12,-1,14,16,18,-1,-1,-1,-1,-1,20,-1,-1,-1],"split_conditions":[2.1027656E0,5.7736367E-2,2.742067E0,4.579091E-2,-5.85289E-1,2.5001354E0,5.8967304E-1,2.6234848E-2,-0E0,1.4351213E-1,4.2634243E-1,2.204394E-2,-3.4736842E-1,-6.666667E-2,2.5714287E-1,6.666667E-2,-2.0000002E-1,7.7151516E-3,1.5E-1,-6.666667E-2,-2.8E-1],"split_indices":[11,14,11,14,0,11,0,14,0,14,14,14,0,0,0,0,0,14,0,0,0],"split_type":[0,0,0,0,0,0,0,0,0,0,0,0,0,0,0,0,0,0,0,0,0],"sum_hessian":[3.02E2,1.515E2,1.505E2,9.75E0,1.4175E2,6.25E0,1.4425E2,8.75E0,1E0,3.75E0,2.5E0,5E0,3.75E0,1.25E0,2.5E0,1.25E0,1.25E0,4E0,1E0,1.25E0,2.75E0],"tree_param":{"num_deleted":"0","num_feature":"15","num_nodes":"21","size_leaf_vector":"0"}},{"base_weights":[-1.4511937E-3,-1.4507394E0,1.4608591E0,-7.516858E-1,-1.5286607E0,3.4082282E-1,1.5349562E0,-8.0549395E-1,-4.432723E-2,-1.7387728E-1,1.2175821E0,-1.8531317E-1,-8.486525E-1,5.99647E-1,-4.374545E-1,5.419853E-1,-8.047079E-1,-1.2962302E0,-1.7777899E-1],"categories":[],"categories_nodes":[],"categories_segments":[],"categories_sizes":[],"default_left":[1,1,1,1,0,1,0,1,0,1,0,0,0,0,1,0,1,0,0],"id":1,"left_children":[1,3,5,7,-1,9,-1,11,-1,13,-1,-1,-1,-1,15,-1,17,-1,-1],"loss_changes":[5.943542E2,6.5231934E0,1.1062225E1,5.768223E-1,0E0,4.7007203E0,0E0,2.414732E-1,0E0,1.7186562E0,0E0,0E0,0E0,0E0,2.5604758E0,0E0,1.2171547E0,0E0,0E0],"parents":[2147483647,0,0,1,1,2,2,3,3,5,5,7,7,9,9,14,14,16,16],"right_children":[2,4,6,8,-1,10,-1,12,-1,14,-1,-1,-1,-1,16,-1,18,-1,-1],"split_conditions":[2.1027656E0,1.0197879E-1,2.9121313E0,2.2895765E0,-4.5859823E-1,5.869506E-1,4.604869E-1,7.7151516E-3,-1.329817E-2,2.2475896E0,3.6527464E-1,-5.5593953E-2,-2.5459576E-1,1.798941E-1,9.199697E-2,1.6259558E-1,2.4331516E-1,-3.8886908E-1,-5.33337E-2],"split_indices":[11,14,11,9,0,7,0,14,0,11,0,0,0,0,14,0,14,0,0],"split_type":[0,0,0,0,0,0,0,0,0,0,0,0,0,0,0,0,0,0,0],"sum_hessian":[2.7844717E2,1.3985023E2,1.3859694E2,1.5093048E1,1.2475719E2,8.947547E0,1.2964938E2,1.3897167E1,1.1958807E0,6.1429944E0,2.804553E0,1.2486122E0,1.2648555E1,1.2371823E0,4.905812E0,1.2081032E0,3.6977088E0,1.4742701E0,2.2234387E0],"tree_param":{"num_deleted":"0","num_feature":"15","num_nodes":"19","size_leaf_vector":"0"}},{"base_weights":[-5.8895606E-4,-1.236552E0,1.2546617E0,-5.791008E-1,-1.3203335E0,2.8107616E-1,1.3284191E0,-2.4495706E-1,-7.0881486E-1,-1.3294752E0,-4.2633495E-1,-1.3635331E-1,1.0425811E0,-5.728793E-1,3.4719434E-1,1.3587213E-1,-8.13096E-1,-1.7370112E-1,-8.533108E-1,6.4836556E-1,-1.3776693E-1,3.9892614E-1,-5.8167064E-1],"categories":[],"categories_nodes":[],"categories_segments":[],"categories_sizes":[],"default_left":[1,1,1,1,1,1,0,1,0,0,0,1,0,1,0,1,0,0,0,0,1,0,0],"id":2,"left_children":[1,3,5,7,9,11,-1,13,-1,-1,-1,15,-1,17,-1,19,-1,-1,-1,-1,21,-1,-1],"loss_changes":[3.6921704E2,5.840454E0,8.105148E0,4.9103594E-1,2.9605103E-1,3.1884425E0,0E0,1.3283236E0,0E0,0E0,0E0,1.4137769E0,0E0,3.1306207E-1,0E0,9.1698873E-1,0E0,0E0,0E0,0E0,1.3451666E0,0E0,0E0],"parents":[2147483647,0,0,1,1,2,2,3,3,4,4,5,5,7,7,11,11,13,13,15,15,20,20],"right_children":[2,4,6,8,10,12,-1,14,-1,-1,-1,16,-1,18,-1,20,-1,-1,-1,-1,22,-1,-1],"split_conditions":[2.1027656E0,1.0197879E-1,2.9121313E0,2.6234848E-2,1.8450531E0,5.869506E-1,3.9852574E-1,1.8478788E-2,-2.1264447E-1,-3.9884257E-1,-1.279005E-1,2.6952202E0,3.1277433E-1,1.1466667E-2,1.04158305E-1,1.2530303E-1,-2.439288E-1,-5.211034E-2,-2.5599325E-1,1.9450967E-1,2.343629E0,1.1967785E-1,-1.745012E-1],"split_indices":[11,14,11,14,11,7,0,14,0,0,0,11,0,14,0,14,0,0,0,0,11,0,0],"split_type":[0,0,0,0,0,0,0,0,0,0,0,0,0,0,0,0,0,0,0,0,0,0,0],"sum_hessian":[2.3598293E2,1.1891249E2,1.17070435E2,1.4334962E1,1.0457753E2,8.583286E0,1.0848715E2,4.816384E0,9.518579E0,1.0303679E2,1.540737E0,6.0744395E0,2.5088463E0,3.120729E0,1.6956547E0,4.901854E0,1.1725857E0,1.9559512E0,1.1647778E0,1.2295793E0,3.6722746E0,1.7082597E0,1.9640149E0],"tree_param":{"num_deleted":"0","num_feature":"15","num_nodes":"23","size_leaf_vector":"0"}},{"base_weights":[-1.29638E-3,-1.0844098E0,1.1486707E0,-1.1153294E0,6.285572E-1,2.8237945E-1,1.2094896E0,-3.6589757E-1,-1.1649798E0,-1.5102701E-1,9.182018E-1,-4.9652836E-1,2.2555631E-1,-1.1889267E0,-3.1584385E-1,4.4264114E-1,-4.2954916E-1,-1.3996825E-1,-6.1668336E-1,7.2374135E-2,-5.1555294E-1,2.1569301E-1,-7.720624E-1],"categories":[],"categories_nodes":[],"categories_segments":[],"categories_sizes":[],"default_left":[1,1,1,1,0,1,0,1,1,1,0,1,0,0,1,0,1,0,0,0,0,0,0],"id":3,"left_children":[1,3,5,7,-1,9,-1,11,13,15,-1,17,-1,-1,19,-1,21,-1,-1,-1,-1,-1,-1],"loss_changes":[2.4275066E2,6.016754E0,4.639E0,3.2554474E0,0E0,2.2070568E0,0E0,6.996347E-1,1.5021362E0,1.0701512E0,0E0,1.9396865E-1,0E0,0E0,3.3925164E-1,0E0,1.0792959E0,0E0,0E0,0E0,0E0,0E0,0E0],"parents":[2147483647,0,0,1,1,2,2,3,3,5,5,7,7,8,8,9,9,11,11,14,14,16,16],"right_children":[2,4,6,8,-1,10,-1,12,14,16,-1,18,-1,-1,20,-1,22,-1,-1,-1,-1,-1,-1],"split_conditions":[2.3152509E0,2.1273012E0,2.9121313E0,3.9057575E-2,1.8856718E-1,5.869506E-1,3.6284688E-1,3.194697E-2,1.8450531E0,1.08442426E-1,2.7546054E-1,1.1466667E-2,6.7666896E-2,-3.56678E-1,1.8096516E-1,1.3279235E-1,2.498556E0,-4.1990474E-2,-1.8500501E-1,2.1712242E-2,-1.5466589E-1,6.4707905E-2,-2.3161873E-1],"split_indices":[11,6,11,14,0,7,0,14,11,14,0,14,0,0,14,0,11,0,0,0,0,0,0],"split_type":[0,0,0,0,0,0,0,0,0,0,0,0,0,0,0,0,0,0,0,0,0,0,0],"sum_hessian":[1.9289508E2,9.936433E1,9.3530754E1,9.794528E1,1.4190465E0,6.5058503E0,8.70249E1,6.605795E0,9.1339485E1,4.3221436E0,2.1837068E0,5.542215E0,1.0635798E0,8.844504E1,2.8944461E0,1.1920491E0,3.1300945E0,1.9425609E0,3.599654E0,1.1997782E0,1.6946678E0,1.2137814E0,1.916313E0],"tree_param":{"num_deleted":"0","num_feature":"15","num_nodes":"23","size_leaf_vector":"0"}},{"base_weights":[6.155927E-4,-9.8011076E-1,1.0644139E0,-3.1225833E-1,-1.0946119E0,2.4920963E-1,1.1321449E0,-3.6545163E-1,1.577779E-1,-1.133676E0,-1.7081678E-1,-1.1690705E-1,8.216455E-1,-5.4956496E-1,-1.4664984E-1,1.8846774E-1,-4.414376E-1,1.9076857E-1,-6.465366E-1,-1.0315366E-1,-6.379002E-1,7.312948E-2,-3.6335513E-1,3.170017E-1,-6.557441E-2,-7.608102E-1,-2.473982E-1,-8.366182E-2,2.887718E-1,-6.53095E-1,1.41227115E-2],"categories":[],"categories_nodes":[],"categories_segments":[],"categories_sizes":[],"default_left":[1,1,1,1,1,1,0,1,0,0,1,1,0,1,1,0,0,1,0,0,1,1,1,0,0,0,0,0,0,0,0],"id":4,"left_children":[1,3,5,7,9,11,-1,13,-1,-1,15,17,-1,19,21,-1,-1,23,-1,-1,25,27,29,-1,-1,-1,-1,-1,-1,-1,-1],"loss_changes":[1.6370166E2,5.901367E0,3.8736572E0,3.9139342E-1,2.3069916E0,1.574843E0,0E0,4.1459775E-1,0E0,0E0,4.7102186E-1,9.672773E-1,0E0,1.8308032E-1,3.590597E-1,0E0,0E0,1.5177917E-1,0E0,0E0,5.5402756E-2,1.6949129E-1,4.1199502E-1,0E0,0E0,0E0,0E0,0E0,0E0,0E0,0E0],"parents":[2147483647,0,0,1,1,2,2,3,3,4,4,5,5,7,7,10,10,11,11,13,13,14,14,17,17,20,20,21,21,22,22],"right_children":[2,4,6,8,10,12,-1,14,-1,-1,16,18,-1,20,22,-1,-1,24,-1,-1,26,28,30,-1,-1,-1,-1,-1,-1,-1,-1],"split_conditions":[2.3152509E0,1.0004546E-1,2.9121313E0,2.2895765E0,1.8450531E0,5.869506E-1,3.3964348E-1,3.422121E-2,4.7333375E-2,-3.4010282E-1,1.8096516E-1,2.6952202E0,2.4649365E-1,7.7151516E-3,6.8439394E-2,5.6540325E-2,-1.3243128E-1,4.6174395E-1,-1.9396098E-1,-3.09461E-2,2.3680303E-2,5.5989392E-2,9.2298485E-2,9.5100515E-2,-1.9672323E-2,-2.2824307E-1,-7.4219465E-2,-2.5098545E-2,8.6631544E-2,-1.9592851E-1,4.2368136E-3],"split_indices":[11,14,11,9,11,7,0,14,0,0,14,11,0,14,14,0,0,14,0,0,14,14,14,0,0,0,0,0,0,0,0],"split_type":[0,0,0,0,0,0,0,0,0,0,0,0,0,0,0,0,0,0,0,0,0,0,0,0,0,0,0,0,0,0,0],"sum_hessian":[1.5490836E2,8.064218E1,7.426617E1,1.2347849E1,6.8294334E1,6.05601E0,6.821016E1,1.1292408E1,1.0554413E0,6.530559E1,2.9887445E0,4.1789947E0,1.8770152E0,5.311382E0,5.981026E0,1.4144499E0,1.5742944E0,3.0480883E0,1.1309065E0,1.2354846E0,4.075897E0,3.2983885E0,2.6826375E0,1.8838011E0,1.1642871E0,2.3788648E0,1.6970326E0,2.264169E0,1.0342195E0,1.1046154E0,1.5780221E0],"tree_param":{"num_deleted":"0","num_feature":"15","num_nodes":"31","size_leaf_vector":"0"}},{"base_weights":[-1.5245109E-3,-8.952128E-1,9.961546E-1,-2.5925815E-1,-1.0308193E0,2.0589213E-1,1.076972E0,-2.7456468E-2,-3.7430716E-1,-1.077327E0,-1.446041E-1,-1.0552853E-1,7.422171E-1,-3.5929862E-1,4.6274793E-1,-7.30544E-1,-2.2082129E-1,1.5648913E-1,-3.7865558E-1,3.881751E-1,-3.4636107E-1,-8.625042E-2,-4.5733762E-1,2.4657916E-1,-3.3529598E-1,1.5376635E-1,-6.198225E-1,-4.512761E-1,1.1507897E-2],"categories":[],"categories_nodes":[],"categories_segments":[],"categories_sizes":[],"default_left":[1,1,1,1,1,1,0,1,1,0,1,1,0,1,0,0,1,0,0,0,1,0,0,0,1,0,0,0,0],"id":5,"left_children":[1,3,5,7,9,11,-1,13,15,-1,17,19,-1,21,-1,-1,23,-1,-1,-1,25,-1,-1,-1,27,-1,-1,-1,-1],"loss_changes":[1.12283554E2,5.4614334E0,3.5786705E0,3.3670878E-1,2.08704E0,1.2069229E0,0E0,1.0438514E0,3.0978978E-1,0E0,3.3186454E-1,7.468333E-1,0E0,6.1742783E-2,0E0,0E0,4.815566E-1,0E0,0E0,0E0,6.4103174E-1,0E0,0E0,0E0,2.631011E-1,0E0,0E0,0E0,0E0],"parents":[2147483647,0,0,1,1,2,2,3,3,4,4,5,5,7,7,8,8,10,10,11,11,13,13,16,16,20,20,24,24],"right_children":[2,4,6,8,10,12,-1,14,16,-1,18,20,-1,22,-1,-1,24,-1,-1,-1,26,-1,-1,-1,28,-1,-1,-1,-1],"split_conditions":[2.3152509E0,1.0004546E-1,2.9121313E0,2.6234848E-2,1.8450531E0,5.869506E-1,3.2309163E-1,1.8478788E-2,3.422121E-2,-3.231981E-1,1.8096516E-1,1.08442426E-1,2.2266515E-1,7.7151516E-3,1.3882439E-1,-2.191632E-1,4.1245453E-2,4.694674E-2,-1.1359668E-1,1.1645254E-1,2.498556E0,-2.5875127E-2,-1.372013E-1,7.397375E-2,9.2298485E-2,4.6129905E-2,-1.8594676E-1,-1.3538283E-1,3.4523692E-3],"split_indices":[11,14,11,14,11,7,0,14,14,0,14,14,0,14,0,0,14,0,0,0,11,0,0,0,14,0,0,0,0],"split_type":[0,0,0,0,0,0,0,0,0,0,0,0,0,0,0,0,0,0,0,0,0,0,0,0,0,0,0,0,0],"sum_hessian":[1.2393271E2,6.542755E1,5.8505157E1,1.2011053E1,5.34165E1,5.757153E0,5.2748005E1,4.394874E0,7.6161785E0,5.054813E1,2.8683684E0,4.150421E0,1.6067318E0,2.7800035E0,1.6148704E0,1.1612543E0,6.4549246E0,1.3994498E0,1.4689186E0,1.1602069E0,2.9902143E0,1.2310803E0,1.5489233E0,1.0428715E0,5.412053E0,1.2117591E0,1.7784553E0,3.82997E0,1.5820831E0],"tree_param":{"num_deleted":"0","num_feature":"15","num_nodes":"29","size_leaf_vector":"0"}},{"base_weights":[-2.3961863E-3,-8.1798714E-1,9.40864E-1,-2.1471527E-1,-9.7717565E-1,1.8695548E-1,1.0339792E0,-2.6377842E-1,1.7211816E-1,-1.0333648E0,-1.2302474E-1,-8.244574E-2,6.7443955E-1,-4.9660942E-1,-1.0838928E-1,1.2999047E-1,-3.2509452E-1,1.7466708E-1,-5.356145E-1,-7.2129376E-2,-6.401718E-1,2.2564165E-2,-2.9373178E-1,9.980823E-3,3.1632733E-1,-1.3937515E-1,2.652739E-1],"categories":[],"categories_nodes":[],"categories_segments":[],"categories_sizes":[],"default_left":[1,1,1,1,1,1,0,1,0,0,1,1,0,1,1,0,0,1,0,0,0,1,0,0,0,0,0],"id":6,"left_children":[1,3,5,7,9,11,-1,13,-1,-1,15,17,-1,19,21,-1,-1,23,-1,-1,-1,25,-1,-1,-1,-1,-1],"loss_changes":[7.772822E1,4.993614E0,3.0957222E0,2.8442818E-1,1.9168892E0,8.9233625E-1,0E0,3.6482006E-1,0E0,0E0,2.3469394E-1,6.7550164E-1,0E0,2.1905649E-1,2.0611405E-1,0E0,0E0,8.877738E-2,0E0,0E0,0E0,2.6276907E-1,0E0,0E0,0E0,0E0,0E0],"parents":[2147483647,0,0,1,1,2,2,3,3,4,4,5,5,7,7,10,10,11,11,13,13,14,14,17,17,21,21],"right_children":[2,4,6,8,10,12,-1,14,-1,-1,16,18,-1,20,22,-1,-1,24,-1,-1,-1,26,-1,-1,-1,-1,-1],"split_conditions":[2.3152509E0,1.0004546E-1,2.9121313E0,2.2895765E0,1.8450531E0,5.869506E-1,3.1019378E-1,2.3680303E-2,5.1635448E-2,-3.1000945E-1,1.8096516E-1,2.6952202E0,2.0233187E-1,7.7151516E-3,6.8439394E-2,3.8997144E-2,-9.752836E-2,2.5453818E0,-1.6068435E-1,-2.1638814E-2,-1.9205156E-1,4.493788E-2,-8.811954E-2,2.994247E-3,9.48982E-2,-4.1812547E-2,7.958217E-2],"split_indices":[11,14,11,9,11,7,0,14,0,0,14,11,0,14,14,0,0,11,0,0,0,14,0,0,0,0,0],"split_type":[0,0,0,0,0,0,0,0,0,0,0,0,0,0,0,0,0,0,0,0,0,0,0,0,0,0,0],"sum_hessian":[9.9035286E1,5.318319E1,4.5852097E1,1.1594118E1,4.1589073E1,5.3712726E0,4.0480824E1,1.05714245E1,1.0226943E0,3.8825195E1,2.7638776E0,3.9945922E0,1.3766804E0,3.3523872E0,7.219037E0,1.3856212E0,1.3782563E0,2.9407015E0,1.0538908E0,1.2269655E0,2.1254215E0,4.744837E0,2.4742E0,1.854833E0,1.0858684E0,3.101336E0,1.6435009E0],"tree_param":{"num_deleted":"0","num_feature":"15","num_nodes":"27","size_leaf_vector":"0"}},{"base_weights":[-3.0243834E-3,-7.408613E-1,8.8532263E-1,-1.7350774E-1,-9.2754084E-1,1.6089615E-1,9.972397E-1,5.3615667E-2,-2.9565915E-1,-9.957279E-1,-1.0511063E-1,-7.100852E-2,6.1533064E-1,-2.4920854E-1,4.473972E-1,-4.2458153E-1,-2.8127711E-3,1.4093018E-1,-3.3819458E-1,3.4861234E-1,-2.8401423E-1,-6.0326643E-2,-3.2255578E-1,-6.430309E-1,-2.3809963E-1,3.0105639E-1,-2.7891988E-1,-6.0931104E-1,1.2317626E-1,2.2858457E-1,-4.396262E-1],"categories":[],"categories_nodes":[],"categories_segments":[],"categories_sizes":[],"default_left":[1,1,1,1,1,1,0,1,1,0,1,1,0,1,0,1,1,0,0,0,1,0,0,0,1,0,0,0,0,0,0],"id":7,"left_children":[1,3,5,7,9,11,-1,13,15,-1,17,19,-1,21,-1,23,25,-1,-1,-1,27,-1,-1,-1,29,-1,-1,-1,-1,-1,-1],"loss_changes":[5.361144E1,4.57119E0,2.8484898E0,3.5686213E-1,1.7676907E0,6.927316E-1,0E0,7.2504336E-1,3.0636686E-1,0E0,2.583724E-1,5.436221E-1,0E0,2.9733494E-2,0E0,7.704079E-2,3.773512E-1,0E0,0E0,0E0,5.8508223E-1,0E0,0E0,0E0,5.3648496E-1,0E0,0E0,0E0,0E0,0E0,0E0],"parents":[2147483647,0,0,1,1,2,2,3,3,4,4,5,5,7,7,8,8,10,10,11,11,13,13,15,15,16,16,20,20,24,24],"right_children":[2,4,6,8,10,12,-1,14,16,-1,18,20,-1,22,-1,24,26,-1,-1,-1,28,-1,-1,-1,30,-1,-1,-1,-1,-1,-1],"split_conditions":[2.3152509E0,1.0004546E-1,2.9121313E0,2.6234848E-2,1.8450531E0,5.869506E-1,2.9917192E-1,1.8478788E-2,6.756666E-2,-2.987184E-1,2.1407628E0,1.08442426E-1,1.8459919E-1,7.7151516E-3,1.3421917E-1,3.422121E-2,9.438182E-2,4.2279053E-2,-1.0145838E-1,1.045837E-1,3.178773E-1,-1.8097993E-2,-9.676674E-2,-1.9290927E-1,4.1245453E-2,9.031692E-2,-8.3675966E-2,-1.8279332E-1,3.695288E-2,6.8575375E-2,-1.3188787E-1],"split_indices":[11,14,11,14,11,7,0,14,14,0,11,14,0,14,0,14,14,0,0,0,14,0,0,0,14,0,0,0,0,0,0],"split_type":[0,0,0,0,0,0,0,0,0,0,0,0,0,0,0,0,0,0,0,0,0,0,0,0,0,0,0,0,0,0,0],"sum_hessian":[7.979201E1,4.3679237E1,3.6112766E1,1.1291558E1,3.238768E1,5.158704E0,3.0954063E1,4.145205E0,7.1463532E0,2.9713446E1,2.674234E0,3.9743016E0,1.1844021E0,2.550766E0,1.594439E0,4.649583E0,2.4967706E0,1.4932953E0,1.1809385E0,1.1237944E0,2.850507E0,1.2232263E0,1.3275398E0,1.0137866E0,3.635796E0,1.1456103E0,1.3511603E0,1.3086627E0,1.5418445E0,1.0560312E0,2.5797648E0],"tree_param":{"num_deleted":"0","num_feature":"15","num_nodes":"31","size_leaf_vector":"0"}},{"base_weights":[-4.354014E-3,-6.643729E-1,8.311948E-1,-7.315326E-1,7.940086E-1,2.5833252E-1,9.9935675E-1,-1.00682236E-1,-8.447174E-1,-8.3401226E-2,6.7277807E-1,-1.965215E-1,2.07545E-1,-8.980853E-1,-1.7480826E-1,3.5485423E-1,-3.065084E-1,-1.5075275E-2,-3.600516E-1,-4.824219E-1,-9.5936453E-1,2.4020338E-2,-2.8586152E-1,-6.7728335E-1,2.2251949E-1,-2.1334168E-1,2.2962885E-1,-8.6545134E-1,-1.8551226E-3],"categories":[],"categories_nodes":[],"categories_segments":[],"categories_sizes":[],"default_left":[1,1,1,1,0,1,0,1,1,1,0,1,0,1,1,0,1,1,0,1,0,0,0,0,0,0,0,0,0],"id":8,"left_children":[1,3,5,7,-1,9,-1,11,13,15,-1,17,-1,19,21,-1,23,25,-1,27,-1,-1,-1,-1,-1,-1,-1,-1,-1],"loss_changes":[3.6964867E1,4.248289E0,2.591692E0,2.508028E0,0E0,1.1979296E0,0E0,2.3752078E-1,9.3902206E-1,6.27801E-1,0E0,1.6055271E-1,0E0,2.5427246E-1,8.423034E-2,0E0,9.45927E-1,2.2827637E-1,0E0,1.0344652E0,0E0,0E0,0E0,0E0,0E0,0E0,0E0,0E0,0E0],"parents":[2147483647,0,0,1,1,2,2,3,3,5,5,7,7,8,8,9,9,11,11,13,13,14,14,16,16,17,17,19,19],"right_children":[2,4,6,8,-1,10,-1,12,14,16,-1,18,-1,20,22,-1,24,26,-1,28,-1,-1,-1,-1,-1,-1,-1,-1,-1],"split_conditions":[2.3152509E0,2.1273012E0,3.2199664E0,3.9057575E-2,2.3820259E-1,5.8159524E-1,2.9980704E-1,3.194697E-2,1.8450531E0,1.18492424E-1,2.0183343E-1,1.9015152E-2,6.22635E-2,1.0197879E-1,1.8096516E-1,1.0645627E-1,3.0512577E-1,1.039394E-2,-1.08015485E-1,6.756666E-2,-2.8780937E-1,7.206102E-3,-8.575846E-2,-2.03185E-1,6.6755846E-2,-6.400251E-2,6.888866E-2,-2.5963542E-1,-5.5653683E-4],"split_indices":[11,6,11,14,0,13,0,14,11,14,0,14,0,14,14,0,14,14,0,14,0,0,0,0,0,0,0,0,0],"split_type":[0,0,0,0,0,0,0,0,0,0,0,0,0,0,0,0,0,0,0,0,0,0,0,0,0,0,0,0,0],"sum_hessian":[6.5027374E1,3.6444168E1,2.8583206E1,3.531622E1,1.1279465E0,7.061985E0,2.1521221E1,5.6598487E0,2.9656372E1,4.3083067E0,2.753678E0,4.5938606E0,1.065988E0,2.7152664E1,2.5037086E0,1.2541789E0,3.054128E0,2.695373E0,1.8984877E0,4.6286397E0,2.2524023E1,1.1781197E0,1.325589E0,1.6308721E0,1.4232558E0,1.5597682E0,1.135605E0,2.1300302E0,2.4986095E0],"tree_param":{"num_deleted":"0","num_feature":"15","num_nodes":"29","size_leaf_vector":"0"}},{"base_weights":[-2.7942741E-3,-4.934727E-1,9.291361E-1,-1.8040953E-2,-6.82574E-1,3.4783533E-1,9.742155E-1,-1.0453408E-1,3.4581593E-1,-8.934995E-1,-1.9740615E-2,1.635871E-1,-3.5394076E-1,-2.390544E-1,-9.258108E-1,2.6075134E-1,-7.365641E-1,-6.3239336E-2,5.468537E-1,-8.114177E-1,-5.7367004E-2,-5.370727E-2,5.4121405E-1,1.7186987E-1,-3.3582345E-1,2.8272602E-1,-2.8396958E-1,2.6506293E-1,-3.6175376E-1,6.497668E-1,1.4860508E-1],"categories":[],"categories_nodes":[],"categories_segments":[],"categories_sizes":[],"default_left":[1,1,1,1,1,0,0,1,0,1,1,1,1,0,0,1,0,1,0,0,1,1,1,0,0,0,0,0,0,0,0],"id":9,"left_children":[1,3,5,7,9,-1,-1,11,-1,13,15,17,19,-1,-1,21,-1,23,-1,-1,25,27,29,-1,-1,-1,-1,-1,-1,-1,-1],"loss_changes":[2.5527042E1,3.275116E0,1.6571808E-1,3.9593935E-1,3.6360207E0,0E0,0E0,7.26919E-1,0E0,1.9741726E-1,1.6660904E0,5.131869E-1,6.9956934E-1,0E0,0E0,5.5892324E-1,0E0,3.3680654E-1,0E0,0E0,4.2033517E-1,4.633367E-1,4.262829E-2,0E0,0E0,0E0,0E0,0E0,0E0,0E0,0E0],"parents":[2147483647,0,0,1,1,2,2,3,3,4,4,7,7,9,9,10,10,11,11,12,12,15,15,17,17,20,20,21,21,22,22],"right_children":[2,4,6,8,10,-1,-1,12,-1,14,16,18,20,-1,-1,22,-1,24,-1,-1,26,28,30,-1,-1,-1,-1,-1,-1,-1,-1],"split_conditions":[2.9121313E0,9.438182E-2,3.2199664E0,6.756666E-2,1.8450531E0,1.04350604E-1,2.9226467E-1,2.6234848E-2,1.0374478E-1,1.0197879E-1,9.548147E-1,2.1427274E-2,3.422121E-2,-7.171632E-2,-2.7774325E-1,3.590697E-1,-2.2096924E-1,1.1466667E-2,1.6405612E-1,-2.4342532E-1,4.1736364E-2,1.8096516E-1,1.5453603E0,5.1560964E-2,-1.0074704E-1,8.481781E-2,-8.519088E-2,7.9518884E-2,-1.0852613E-1,1.9493005E-1,4.4581525E-2],"split_indices":[11,14,11,14,11,0,0,14,0,14,10,14,14,0,0,14,0,14,0,0,14,14,13,0,0,0,0,0,0,0,0],"split_type":[0,0,0,0,0,0,0,0,0,0,0,0,0,0,0,0,0,0,0,0,0,0,0,0,0,0,0,0,0,0,0],"sum_hessian":[5.3821205E1,3.5565697E1,1.8255508E1,1.043238E1,2.5133318E1,1.9410932E0,1.6314415E1,9.004587E0,1.4277924E0,1.880214E1,6.3311787E0,4.505311E0,4.4992766E0,1.2797675E0,1.7522371E1,5.0078535E0,1.323325E0,3.3548367E0,1.1504741E0,1.086828E0,3.4124486E0,2.7419956E0,2.265858E0,1.9996115E0,1.3552253E0,1.2654876E0,2.146961E0,1.4161168E0,1.3258787E0,1.2619444E0,1.0039135E0],"tree_param":{"num_deleted":"0","num_feature":"15","num_nodes":"31","size_leaf_vector":"0"}},{"base_weights":[-2.3263255E-3,-4.250161E-1,8.931049E-1,-4.8725483E-1,7.069996E-1,9.494714E-1,2.9901564E-1,-6.347803E-1,1.8068358E-2,-2.4256696E-1,-8.846179E-1,2.0489922E-1,-5.0490844E-1,-3.139607E-1,1.3807844E-1,-2.9590314E-2,4.5636767E-1,-7.438346E-2,-6.3378185E-1,3.1295332E-1,-2.3948938E-1],"categories":[],"categories_nodes":[],"categories_segments":[],"categories_sizes":[],"default_left":[1,1,1,1,0,0,0,1,1,1,0,1,0,1,0,1,0,0,0,0,0],"id":10,"left_children":[1,3,5,7,-1,-1,-1,9,11,13,-1,15,-1,17,-1,19,-1,-1,-1,-1,-1],"loss_changes":[1.7877794E1,2.6049633E0,2.2334385E-1,2.3227406E0,0E0,0E0,0E0,2.1396704E0,8.8300174E-1,3.348568E-1,0E0,4.0207374E-1,0E0,6.6835314E-1,0E0,3.8764387E-1,0E0,0E0,0E0,0E0,0E0],"parents":[2147483647,0,0,1,1,2,2,3,3,7,7,8,8,9,9,11,11,13,13,15,15],"right_children":[2,4,6,8,-1,-1,-1,10,12,14,-1,16,-1,18,-1,20,-1,-1,-1,-1,-1],"split_conditions":[2.9121313E0,2.1273012E0,2.5972426E-1,1.8450531E0,2.120999E-1,2.8484145E-1,8.970469E-2,1.0197879E-1,9.548147E-1,9.2298485E-2,-2.653854E-1,3.590697E-1,-1.5147254E-1,3.9057575E-2,4.1423533E-2,1.2552425E-1,1.369103E-1,-2.2315038E-2,-1.9013457E-1,9.3886E-2,-7.184681E-2],"split_indices":[11,6,14,11,0,0,0,14,10,14,0,14,0,14,0,14,0,0,0,0,0],"split_type":[0,0,0,0,0,0,0,0,0,0,0,0,0,0,0,0,0,0,0,0,0],"sum_hessian":[4.5231678E1,3.1083847E1,1.414783E1,3.0003794E1,1.0800531E0,1.2375464E1,1.7723663E0,2.3025484E1,6.9783106E0,9.7267E0,1.3298783E1,5.589644E0,1.3886666E0,8.338013E0,1.3886871E0,3.3490493E0,2.2405949E0,5.4717307E0,2.8662822E0,1.085919E0,2.2631304E0],"tree_param":{"num_deleted":"0","num_feature":"15","num_nodes":"21","size_leaf_vector":"0"}},{"base_weights":[1.9791466E-3,-3.5673165E-1,8.534613E-1,-1.500714E-1,-7.451334E-1,2.2578225E-1,9.2257345E-1,-2.3778069E-1,5.6264526E-1,-8.9634264E-1,-6.277522E-2,2.1290395E-2,-5.351768E-1,-6.702827E-2,3.659091E-1,-7.222658E-1,-1.1496679E-1,1.4661686E-1,-2.8090456E-1,-2.2471866E-1,-8.104885E-1,-5.0436264E-1,2.1542223E-1],"categories":[],"categories_nodes":[],"categories_segments":[],"categories_sizes":[],"default_left":[1,1,1,1,1,0,0,1,0,0,0,1,1,1,0,1,1,0,0,0,0,0,0],"id":11,"left_children":[1,3,5,7,9,-1,-1,11,-1,-1,-1,13,15,17,-1,19,21,-1,-1,-1,-1,-1,-1],"loss_changes":[1.2423746E1,2.1856515E0,3.146839E-1,1.3799317E0,9.4335794E-1,0E0,0E0,1.4331441E0,0E0,0E0,0E0,3.5396025E-1,5.953741E-1,4.7348738E-1,0E0,7.1652174E-2,6.036694E-1,0E0,0E0,0E0,0E0,0E0,0E0],"parents":[2147483647,0,0,1,1,2,2,3,3,4,4,7,7,11,11,12,12,13,13,15,15,16,16],"right_children":[2,4,6,8,10,-1,-1,12,-1,-1,-1,14,16,18,-1,20,22,-1,-1,-1,-1,-1,-1],"split_conditions":[2.9121313E0,4.551197E-1,3.2199664E0,3.680303E-1,2.173245E0,6.773467E-2,2.7677205E-1,9.438182E-2,1.6879359E-1,-2.689028E-1,-1.8832566E-2,6.756666E-2,2.1027656E0,2.6234848E-2,1.09772734E-1,1.0197879E-1,1.4351213E-1,4.398506E-2,-8.427137E-2,-6.74156E-2,-2.4314657E-1,-1.513088E-1,6.462667E-2],"split_indices":[11,14,11,14,11,0,0,14,0,0,0,14,11,14,0,14,14,0,0,0,0,0,0],"split_type":[0,0,0,0,0,0,0,0,0,0,0,0,0,0,0,0,0,0,0,0,0,0,0],"sum_hessian":[3.8678673E1,2.7622828E1,1.1055846E1,1.8934544E1,8.688284E0,1.5198061E0,9.53604E0,1.7453083E1,1.4814605E0,6.855519E0,1.8327647E0,9.823732E0,7.6293507E0,8.460883E0,1.3628495E0,4.7816215E0,2.8477292E0,4.3900533E0,4.07083E0,1.2543988E0,3.5272224E0,1.0654362E0,1.7822931E0],"tree_param":{"num_deleted":"0","num_feature":"15","num_nodes":"23","size_leaf_vector":"0"}},{"base_weights":[-1.6181205E-3,-3.0029172E-1,8.097326E-1,-1.2310943E-1,-6.8266946E-1,8.9308536E-1,1.8977752E-1,-1.9936599E-1,6.004698E-1,-8.5911256E-1,-5.046029E-2,-2.967207E-1,5.408775E-1,6.270871E-2,-4.2361233E-1,-1.2696669E-1,3.1486073E-1,-4.98594E-1,-1.6260955E-1],"categories":[],"categories_nodes":[],"categories_segments":[],"categories_sizes":[],"default_left":[1,1,1,1,1,0,0,1,0,0,0,1,0,1,1,0,0,0,0],"id":12,"left_children":[1,3,5,7,9,-1,-1,11,-1,-1,-1,13,-1,15,17,-1,-1,-1,-1],"loss_changes":[8.756505E0,1.7051175E0,3.3296347E-1,1.1827699E0,8.6487865E-1,0E0,0E0,1.4706516E0,0E0,0E0,0E0,7.888044E-1,0E0,2.901957E-1,1.6318035E-1,0E0,0E0,0E0,0E0],"parents":[2147483647,0,0,1,1,2,2,3,3,4,4,7,7,11,11,13,13,14,14],"right_children":[2,4,6,8,10,-1,-1,12,-1,-1,-1,14,-1,16,18,-1,-1,-1,-1],"split_conditions":[2.9121313E0,4.551197E-1,2.5972426E-1,2.1273012E0,2.173245E0,2.6792562E-1,5.6933258E-2,3.680303E-1,1.8014096E-1,-2.577338E-1,-1.5138088E-2,2.546212E-2,1.6226326E-1,1.8478788E-2,2.1027656E0,-3.8090006E-2,9.445822E-2,-1.495782E-1,-4.8782866E-2],"split_indices":[11,14,14,6,11,0,0,14,0,0,0,14,0,14,11,0,0,0,0],"split_type":[0,0,0,0,0,0,0,0,0,0,0,0,0,0,0,0,0,0,0],"sum_hessian":[3.413136E1,2.5408058E1,8.723301E0,1.826607E1,7.141988E0,7.301106E0,1.4221953E0,1.717998E1,1.0860908E0,5.303054E0,1.8389336E0,1.5712653E1,1.4673256E0,4.2317457E0,1.1480908E1,2.6984031E0,1.5333424E0,8.211564E0,3.2693436E0],"tree_param":{"num_deleted":"0","num_feature":"15","num_nodes":"19","size_leaf_vector":"0"}},{"base_weights":[6.7342552E-3,-2.154433E-1,8.60596E-1,4.1711465E-2,-4.178926E-1,1.4364523E-1,-4.9767068E-1,-7.720123E-1,3.2078438E-2,-3.480763E-2,3.1010368E-1,-3.7715313E-1,4.038131E-1,1.8176503E-1,-4.5904663E-1,1.4820254E-1,4.731147E-1,2.1224383E-2,-6.700501E-1,6.899987E-1,8.141129E-2,3.0674607E-1,9.842662E-3,3.9252165E-1,-3.3347607E-1,-5.203584E-1,6.1238444E-1],"categories":[],"categories_nodes":[],"categories_segments":[],"categories_sizes":[],"default_left":[1,1,0,1,1,1,0,0,1,1,1,1,1,1,0,1,0,0,0,0,1,0,0,0,0,0,0],"id":13,"left_children":[1,3,-1,5,7,9,-1,-1,11,13,15,17,19,21,-1,23,-1,-1,-1,-1,25,-1,-1,-1,-1,-1,-1],"loss_changes":[6.1604776E0,1.3602121E0,0E0,7.461362E-1,2.33876E0,3.404063E-1,0E0,0E0,1.2712711E0,6.5806955E-1,8.40621E-2,4.8308808E-1,3.4401542E-1,1.0134058E-1,0E0,6.471832E-1,0E0,0E0,0E0,0E0,1.3326257E0,0E0,0E0,0E0,0E0,0E0,0E0],"parents":[2147483647,0,0,1,1,3,3,4,4,5,5,8,8,9,9,10,10,11,11,12,12,13,13,15,15,20,20],"right_children":[2,4,-1,6,8,10,-1,-1,12,14,16,18,20,22,-1,24,-1,-1,-1,-1,26,-1,-1,-1,-1,-1,-1],"split_conditions":[3.2199664E0,1.224E-1,2.581788E-1,1.0818101E0,1.8450531E0,3.7065152E-2,-1.4930122E-1,-2.316037E-1,3.3940756E-1,2.6471213E-2,9.2298485E-2,2.343629E0,6.061803E-1,1.1872727E-2,-1.37714E-1,6.8439394E-2,1.4193441E-1,6.367315E-3,-2.0101504E-1,2.0699961E-1,7.4970603E-1,9.202382E-2,2.9527987E-3,1.177565E-1,-1.0004283E-1,-1.5610752E-1,1.8371534E-1],"split_indices":[11,14,0,10,11,14,0,0,14,14,14,11,14,14,0,14,0,0,0,0,14,0,0,0,0,0,0],"split_type":[0,0,0,0,0,0,0,0,0,0,0,0,0,0,0,0,0,0,0,0,0,0,0,0,0,0,0],"sum_hessian":[3.0495975E1,2.4792557E1,5.703419E0,1.1270514E1,1.3522043E1,1.0096195E1,1.1743181E0,7.1664634E0,6.3555803E0,5.2542434E0,4.8419523E0,3.018275E0,3.337305E0,3.8568726E0,1.3973708E0,3.387085E0,1.4548671E0,1.671863E0,1.3464121E0,1.1639352E0,2.17337E0,1.7792282E0,2.0776443E0,2.3700395E0,1.0170455E0,1.028138E0,1.145232E0],"tree_param":{"num_deleted":"0","num_feature":"15","num_nodes":"27","size_leaf_vector":"0"}},{"base_weights":[6.0229255E-3,-1.7738189E-1,8.2302564E-1,-7.760503E-2,-6.617291E-1,-1.4625771E-1,5.594888E-1,8.142851E-2,-4.6587402E-1,3.982934E-3,3.3710584E-1,-5.5933714E-1,6.295998E-2,9.43326E-2,-2.65076E-1,-8.203973E-1,-2.2930764E-1],"categories":[],"categories_nodes":[],"categories_segments":[],"categories_sizes":[],"default_left":[1,1,0,1,0,1,0,1,1,1,0,1,0,0,0,0,0],"id":14,"left_children":[1,3,-1,5,-1,7,-1,9,11,13,-1,15,-1,-1,-1,-1,-1],"loss_changes":[4.437956E0,1.1188643E0,0E0,1.0095772E0,0E0,1.4890699E0,0E0,2.46098E-1,4.5259523E-1,2.8275993E-1,0E0,4.3887496E-1,0E0,0E0,0E0,0E0,0E0],"parents":[2147483647,0,0,1,1,3,3,5,5,7,7,8,8,9,9,11,11],"right_children":[2,4,-1,6,-1,8,-1,10,12,14,-1,16,-1,-1,-1,-1,-1],"split_conditions":[3.2199664E0,1.6580977E0,2.469077E-1,1.0937047E0,-1.9851874E-1,1.7802273E-1,1.6784663E-1,9.8778784E-2,1.5143964E0,6.8439394E-2,1.0113176E-1,4.3033636E-1,1.8887993E-2,2.829978E-2,-7.95228E-2,-2.461192E-1,-6.879229E-2],"split_indices":[11,10,0,7,0,14,0,14,13,14,0,14,0,0,0,0,0],"split_type":[0,0,0,0,0,0,0,0,0,0,0,0,0,0,0,0,0],"sum_hessian":[2.7643234E1,2.3214758E1,4.4284763E0,2.0211384E1,3.0033743E0,1.8940773E1,1.2706113E0,1.1496325E1,7.4444475E0,9.603091E0,1.893233E0,6.277345E0,1.1671028E0,7.675175E0,1.9279165E0,2.6752987E0,3.6020463E0],"tree_param":{"num_deleted":"0","num_feature":"15","num_nodes":"17","size_leaf_vector":"0"}},{"base_weights":[4.9213977E-3,-1.4547002E-1,7.81816E-1,-2.1558753E-1,4.1715613E-1,-2.8111947E-1,5.4700226E-1,-4.2291433E-1,1.1398887E-1,-1.9152097E-1,-6.873155E-1,4.6553397E-1,-7.808041E-2,-3.4671387E-1,1.5435076E-1,-2.5066766E-1,1.9047777E-1],"categories":[],"categories_nodes":[],"categories_segments":[],"categories_sizes":[],"default_left":[1,1,0,1,0,1,0,1,1,1,0,0,1,0,0,0,0],"id":15,"left_children":[1,3,-1,5,-1,7,-1,9,11,13,-1,-1,15,-1,-1,-1,-1],"loss_changes":[3.2230318E0,1.0027688E0,0E0,1.2149307E0,0E0,1.1807057E0,0E0,7.914672E-1,4.5000076E-1,5.598283E-1,0E0,0E0,2.710646E-1,0E0,0E0,0E0,0E0],"parents":[2147483647,0,0,1,1,3,3,5,5,7,7,8,8,9,9,12,12],"right_children":[2,4,-1,6,-1,8,-1,10,12,14,-1,-1,16,-1,-1,-1,-1],"split_conditions":[3.2199664E0,2.065084E0,2.3454481E-1,1.6521585E0,1.2514685E-1,2.3152509E0,1.6410068E-1,1.1752576E-1,2.5001354E0,6.756666E-2,-2.0619467E-1,1.396602E-1,6.563986E-1,-1.04014166E-1,4.6305228E-2,-7.5200304E-2,5.7143334E-2],"split_indices":[11,9,0,6,0,11,0,14,11,14,0,0,13,0,0,0,0],"split_type":[0,0,0,0,0,0,0,0,0,0,0,0,0,0,0,0,0],"sum_hessian":[2.5612005E1,2.2139072E1,3.4729316E0,2.0234198E1,1.9048756E0,1.92144E1,1.0197971E0,1.4088134E1,5.126266E0,8.43261E0,5.655524E0,1.308158E0,3.818108E0,5.819128E0,2.613482E0,2.3649223E0,1.4531859E0],"tree_param":{"num_deleted":"0","num_feature":"15","num_nodes":"17","size_leaf_vector":"0"}},{"base_weights":[1.812605E-2,-1.0513275E-1,7.3769826E-1,-2.3904471E-1,1.4639354E-1,6.2466515E-3,-6.5018797E-1,2.5580844E-3,5.6043273E-1,-1.7000324E-1,8.095086E-2,3.43973E-1,-2.434187E-1,5.1341206E-3,-2.6762065E-1,2.613826E-1,-7.0308276E-2,3.647147E-2,4.573586E-1,3.069408E-1,-4.9939263E-1,-4.6501635E-3,3.696929E-1,-2.1304443E-1,1.9424734E-1,-7.8446084E-1,6.872072E-2],"categories":[],"categories_nodes":[],"categories_segments":[],"categories_sizes":[],"default_left":[1,1,0,1,1,1,0,1,0,1,1,1,1,0,0,1,1,0,0,0,1,0,0,0,0,0,0],"id":16,"left_children":[1,3,-1,5,7,9,-1,11,-1,13,15,17,19,-1,-1,21,23,-1,-1,-1,25,-1,-1,-1,-1,-1,-1],"loss_changes":[2.2791138E0,7.782719E-1,0E0,1.4946511E0,4.920842E-1,1.4869048E-1,0E0,6.846024E-1,0E0,5.9042737E-2,2.3329175E-1,1.022349E-1,8.2165325E-1,0E0,0E0,1.1129907E-1,2.3289698E-1,0E0,0E0,0E0,6.399903E-1,0E0,0E0,0E0,0E0,0E0,0E0],"parents":[2147483647,0,0,1,1,3,3,4,4,5,5,7,7,9,9,10,10,11,11,12,12,15,15,16,16,20,20],"right_children":[2,4,-1,6,8,10,-1,12,-1,14,16,18,20,-1,-1,22,24,-1,-1,-1,26,-1,-1,-1,-1,-1,-1],"split_conditions":[3.2199664E0,1.8450531E0,2.2130948E-1,1.0197879E-1,5.869506E-1,1.8478788E-2,-1.950564E-1,2.343629E0,1.6812983E-1,7.7151516E-3,3.9057575E-2,1.655394E-1,1.18492424E-1,1.5402363E-3,-8.02862E-2,2.3680303E-2,9.2298485E-2,1.0941442E-2,1.3720758E-1,9.208224E-2,6.563986E-1,-1.395049E-3,1.10907875E-1,-6.391333E-2,5.8274202E-2,-2.3533826E-1,2.0616217E-2],"split_indices":[11,11,0,14,7,14,0,11,0,14,14,14,14,0,0,14,14,0,0,0,13,0,0,0,0,0,0],"split_type":[0,0,0,0,0,0,0,0,0,0,0,0,0,0,0,0,0,0,0,0,0,0,0,0,0,0,0],"sum_hessian":[2.3822052E1,2.1067244E1,2.7548087E0,1.378028E1,7.286963E0,9.247785E0,4.532496E0,6.154941E0,1.132022E0,2.3731408E0,6.8746433E0,2.4106169E0,3.7443242E0,1.188405E0,1.1847357E0,2.8029988E0,4.071645E0,1.0054625E0,1.4051542E0,1.1254433E0,2.618881E0,1.0879158E0,1.715083E0,2.7712018E0,1.300443E0,1.4902734E0,1.1286076E0],"tree_param":{"num_deleted":"0","num_feature":"15","num_nodes":"27","size_leaf_vector":"0"}},{"base_weights":[2.324624E-2,-7.9814434E-2,6.917543E-1,1.088946E-3,-5.1856136E-1,-5.0348237E-2,4.4946373E-1,-6.149451E-1,-1.616178E-1,-1.2185235E-1,3.8531557E-1,-2.3024178E-1,1.19277686E-1,-1.0121555E-1,-6.248397E-1,4.474231E-1,-1.0852289E-1],"categories":[],"categories_nodes":[],"categories_segments":[],"categories_sizes":[],"default_left":[1,1,0,1,1,1,0,0,0,1,0,1,1,0,0,0,0],"id":17,"left_children":[1,3,-1,5,7,9,-1,-1,-1,11,-1,13,15,-1,-1,-1,-1],"loss_changes":[1.6589229E0,7.482673E-1,0E0,4.558197E-1,1.3511419E-2,5.99866E-1,0E0,0E0,0E0,4.4580534E-1,0E0,5.163519E-1,4.6884596E-1,0E0,0E0,0E0,0E0],"parents":[2147483647,0,0,1,1,3,3,4,4,5,5,9,9,11,11,12,12],"right_children":[2,4,-1,6,8,10,-1,-1,-1,12,-1,14,16,-1,-1,-1,-1],"split_conditions":[3.2199664E0,1.6580977E0,2.075263E-1,1.6521585E0,1.8639363E0,2.065084E0,1.3483912E-1,-1.8448354E-1,-4.8485342E-2,2.1916225E0,1.1559468E-1,4.34103E-1,2.5001354E0,-3.0364666E-2,-1.8745193E-1,1.3422693E-1,-3.255687E-2],"split_indices":[11,10,0,6,11,9,0,0,0,11,0,14,11,0,0,0,0],"split_type":[0,0,0,0,0,0,0,0,0,0,0,0,0,0,0,0,0],"sum_hessian":[2.227697E1,2.0064352E1,2.2126167E0,1.7782787E1,2.2815652E0,1.6749058E1,1.0337286E0,1.2273437E0,1.0542215E0,1.5006411E1,1.7426481E0,1.0383927E1,4.6224833E0,8.772112E0,1.6118153E0,1.4990337E0,3.1234496E0],"tree_param":{"num_deleted":"0","num_feature":"15","num_nodes":"17","size_leaf_vector":"0"}},{"base_weights":[2.1843895E-2,-7.361493E-2,5.849735E-1,1.5384741E-1,-2.9674515E-1,-3.284467E-1,2.4044238E-1,-4.8325276E-1,-8.468496E-2,6.7371833E-1,9.3848445E-2,-2.0604075E-1,-6.544102E-1,4.0911E-1,-2.8231794E-1,-1.616879E-1,2.8116915E-1,-2.8175366E-1,-9.019488E-3,-5.4427075E-1,8.339902E-2,-3.0576132E-2,-2.2332603E-1,1.0779989E-1,4.5913878E-1],"categories":[],"categories_nodes":[],"categories_segments":[],"categories_sizes":[],"default_left":[1,1,0,1,1,0,1,1,1,0,1,1,0,0,1,1,1,0,0,0,0,0,0,0,0],"id":18,"left_children":[1,3,-1,5,7,-1,9,11,13,-1,15,17,-1,-1,19,21,23,-1,-1,-1,-1,-1,-1,-1,-1],"loss_changes":[1.2424752E0,1.0590259E0,0E0,5.194106E-1,3.7122113E-1,0E0,5.413082E-1,1.1814642E-1,7.0970213E-1,0E0,4.4149494E-1,4.959221E-2,0E0,0E0,5.186541E-1,2.6584238E-2,1.0906911E-1,0E0,0E0,0E0,0E0,0E0,0E0,0E0,0E0],"parents":[2147483647,0,0,1,1,3,3,4,4,6,6,7,7,8,8,10,10,11,11,14,14,15,15,16,16],"right_children":[2,4,-1,6,8,-1,10,12,14,-1,16,18,-1,-1,20,22,24,-1,-1,-1,-1,-1,-1,-1,-1],"split_conditions":[1.1616006E0,9.438182E-2,1.7549206E-1,3.0666667E-3,1.8450531E0,-9.853401E-2,1.2089394E-2,4.34103E-1,2.1577559E0,2.021155E-1,3.3325758E-2,1.7511061E-1,-1.9632307E-1,1.22733004E-1,2.9946518E-1,2.216212E-2,6.756666E-2,-8.45261E-2,-2.7058464E-3,-1.6328123E-1,2.5019707E-2,-9.17284E-3,-6.699781E-2,3.2339968E-2,1.3774164E-1],"split_indices":[7,14,0,14,11,0,14,14,11,0,14,14,0,0,14,14,14,0,0,0,0,0,0,0,0],"split_type":[0,0,0,0,0,0,0,0,0,0,0,0,0,0,0,0,0,0,0,0,0,0,0,0,0],"sum_hessian":[2.1312288E1,1.8966467E1,2.3458219E0,9.545817E0,9.420649E0,1.0279123E0,8.517905E0,4.3318896E0,5.0887585E0,1.244329E0,7.2735763E0,2.4948916E0,1.836998E0,1.1486801E0,3.9400785E0,3.1344748E0,4.139102E0,1.4916147E0,1.003277E0,2.0112484E0,1.9288301E0,1.4807658E0,1.6537089E0,2.9100225E0,1.2290794E0],"tree_param":{"num_deleted":"0","num_feature":"15","num_nodes":"25","size_leaf_vector":"0"}},{"base_weights":[1.8105932E-2,-6.0533766E-2,6.181093E-1,-4.4609737E-3,-5.6226265E-1,-1.1474978E-1,1.821358E-1,4.800247E-2,-4.9374765E-1,3.3770612E-1,-2.3862612E-2,-1.2329626E-2,2.6233727E-1,-1.6561225E-1,-6.0681695E-1,9.103145E-2,4.7366333E-1,-2.2192141E-1,2.7537265E-1,1.3142389E-1,-2.2986545E-1],"categories":[],"categories_nodes":[],"categories_segments":[],"categories_sizes":[],"default_left":[1,1,0,1,0,1,1,1,1,1,1,1,0,0,0,0,0,0,0,0,0],"id":19,"left_children":[1,3,-1,5,-1,7,9,11,13,15,17,19,-1,-1,-1,-1,-1,-1,-1,-1,-1],"loss_changes":[1.0618356E0,5.6314296E-1,0E0,4.1382352E-1,0E0,8.017464E-1,2.4774827E-1,1.29129E-1,4.3385208E-2,1.0200381E-1,3.071882E-1,2.9765284E-1,0E0,0E0,0E0,0E0,0E0,0E0,0E0,0E0,0E0],"parents":[2147483647,0,0,1,1,3,3,5,5,6,6,7,7,8,8,9,9,10,10,11,11],"right_children":[2,4,-1,6,-1,8,10,12,14,16,18,20,-1,-1,-1,-1,-1,-1,-1,-1,-1],"split_conditions":[3.2199664E0,2.9993167E0,1.8543279E-1,1.8450531E0,-1.686788E-1,1.0197879E-1,2.5281364E-1,9.2298485E-2,4.34103E-1,1.3952878E-1,7.0064545E-1,3.9057575E-2,7.870118E-2,-4.968368E-2,-1.8204509E-1,2.7309434E-2,1.4209901E-1,-6.657643E-2,8.26118E-2,3.942717E-2,-6.895964E-2],"split_indices":[11,10,0,11,0,14,14,14,14,14,14,14,0,0,0,0,0,0,0,0,0],"split_type":[0,0,0,0,0,0,0,0,0,0,0,0,0,0,0,0,0,0,0,0,0],"sum_hessian":[2.0711117E1,1.9106081E1,1.6050357E0,1.8092922E1,1.0131584E0,1.1613659E1,6.4792633E0,8.735665E0,2.8779943E0,3.3271964E0,3.1520667E0,7.5522833E0,1.1833818E0,1.3691927E0,1.5088015E0,1.7754532E0,1.5517433E0,2.0521526E0,1.099914E0,4.7856493E0,2.766634E0],"tree_param":{"num_deleted":"0","num_feature":"15","num_nodes":"21","size_leaf_vector":"0"}},{"base_weights":[1.363665E-2,-5.38041E-2,5.732241E-1,7.6906765E-3,-4.147459E-1,-3.7244886E-2,2.670118E-1,8.061706E-2,-1.9605225E-1,-2.356511E-1,3.3447272E-1,-4.2800656E-1,5.3957306E-2,2.6026785E-1,-4.6012813E-1,4.3467852E-1,1.2170236E-1,-7.923765E-2,-5.3477263E-1,-1.5938847E-1,3.4103054E-1],"categories":[],"categories_nodes":[],"categories_segments":[],"categories_sizes":[],"default_left":[1,1,0,1,0,1,0,1,1,1,1,1,1,0,0,0,0,0,0,0,0],"id":20,"left_children":[1,3,-1,5,-1,7,-1,9,11,13,15,17,19,-1,-1,-1,-1,-1,-1,-1,-1],"loss_changes":[8.199599E-1,4.3767902E-1,0E0,2.1628347E-1,0E0,3.1471568E-1,0E0,8.7166214E-1,4.345113E-1,6.7455745E-1,7.270926E-2,9.8831296E-2,3.1786197E-1,0E0,0E0,0E0,0E0,0E0,0E0,0E0,0E0],"parents":[2147483647,0,0,1,1,3,3,5,5,7,7,8,8,9,9,10,10,11,11,12,12],"right_children":[2,4,-1,6,-1,8,-1,10,12,14,16,18,20,-1,-1,-1,-1,-1,-1,-1,-1],"split_conditions":[3.2199664E0,1.6580977E0,1.7196724E-1,2.065084E0,-1.2442377E-1,1.2411515E-1,8.010354E-2,3.422121E-2,3.772015E-1,7.7151516E-3,6.8439394E-2,1.7135E-1,2.6525898E0,7.8080356E-2,-1.3803844E-1,1.3040356E-1,3.651071E-2,-2.3771295E-2,-1.604318E-1,-4.781654E-2,1.0230917E-1],"split_indices":[11,10,0,9,0,14,0,14,14,14,14,14,11,0,0,0,0,0,0,0,0],"split_type":[0,0,0,0,0,0,0,0,0,0,0,0,0,0,0,0,0,0,0,0,0],"sum_hessian":[1.9909883E1,1.8575089E1,1.3347951E0,1.6707306E1,1.867783E0,1.49697075E1,1.7375987E0,8.87518E0,6.0945272E0,3.9837296E0,4.891451E0,2.7921038E0,3.3024232E0,1.1916572E0,2.7920725E0,2.6163254E0,2.2751255E0,1.0627191E0,1.7293845E0,2.1496427E0,1.1527805E0],"tree_param":{"num_deleted":"0","num_feature":"15","num_nodes":"21","size_leaf_vector":"0"}},{"base_weights":[1.4243928E-2,-1.4420533E-1,2.4411047E-1,1.5204801E-2,-4.1741765E-1,8.7432176E-2,6.069006E-1,-6.1634634E-2,2.914898E-1,-1.9052817E-1,-5.717725E-1,3.973159E-1,-8.9479186E-2,6.1826583E-2,-2.9830137E-1,-2.4431066E-1,-3.636825E-2,2.5933573E-1,-3.5598275E-1,-1.6945615E-1,2.426608E-1,-5.625826E-1,4.1884296E-2,-9.064701E-3,-2.5389007E-1,3.2059675E-1,5.834797E-2],"categories":[],"categories_nodes":[],"categories_segments":[],"categories_sizes":[],"default_left":[1,1,1,1,1,1,0,1,0,1,0,0,1,1,0,0,0,0,1,1,1,0,0,0,0,0,0],"id":21,"left_children":[1,3,5,7,9,11,-1,13,-1,15,-1,-1,17,19,-1,-1,-1,-1,21,23,25,-1,-1,-1,-1,-1,-1],"loss_changes":[7.7934414E-1,5.604664E-1,4.419161E-1,2.0902616E-1,5.647528E-2,4.3300635E-1,0E0,2.4830574E-1,0E0,1.9404493E-2,0E0,0E0,5.972185E-1,2.919885E-1,0E0,0E0,0E0,0E0,3.112946E-1,4.131604E-2,3.55549E-2,0E0,0E0,0E0,0E0,0E0,0E0],"parents":[2147483647,0,0,1,1,2,2,3,3,4,4,5,5,7,7,9,9,12,12,13,13,18,18,19,19,20,20],"right_children":[2,4,6,8,10,12,-1,14,-1,16,-1,-1,18,20,-1,-1,-1,-1,22,24,26,-1,-1,-1,-1,-1,-1],"split_conditions":[1.8450531E0,9.438182E-2,5.869506E-1,6.756666E-2,4.34103E-1,1.2787879E-1,1.8207018E-1,3.9057575E-2,8.744694E-2,1.343106E-1,-1.7153177E-1,1.1919477E-1,2.343629E0,1.8478788E-2,-8.949041E-2,-7.32932E-2,-1.0910476E-2,7.780072E-2,6.563986E-1,7.7151516E-3,2.6234848E-2,-1.6877478E-1,1.256529E-2,-2.7194105E-3,-7.6167025E-2,9.617903E-2,1.7504392E-2],"split_indices":[11,14,7,14,14,14,0,14,0,14,0,0,11,14,0,0,0,0,13,14,14,0,0,0,0,0,0],"split_type":[0,0,0,0,0,0,0,0,0,0,0,0,0,0,0,0,0,0,0,0,0,0,0,0,0,0,0],"sum_hessian":[1.9431013E1,1.1722935E1,7.7080784E0,7.999718E0,3.7232168E0,6.249922E0,1.4581565E0,6.86685E0,1.1328683E0,2.4120476E0,1.311169E0,1.8185838E0,4.431338E0,4.99821E0,1.8686401E0,1.3546554E0,1.0573924E0,1.9309273E0,2.5004106E0,2.2207906E0,2.7774193E0,1.3733016E0,1.127109E0,1.1477923E0,1.0729983E0,1.4323428E0,1.3450766E0],"tree_param":{"num_deleted":"0","num_feature":"15","num_nodes":"27","size_leaf_vector":"0"}},{"base_weights":[1.0188632E-2,-1.05040655E-1,2.621856E-1,-2.163489E-2,-5.7700986E-1,5.235684E-1,-9.08252E-2,-7.519386E-2,2.8169513E-1,-4.2347804E-1,1.9859466E-1,2.9240282E-2,-5.714349E-1,-5.4238796E-2,3.5137415E-1,8.383469E-2,-4.1468552E-1],"categories":[],"categories_nodes":[],"categories_segments":[],"categories_sizes":[],"default_left":[1,1,1,1,0,0,1,1,0,0,0,1,0,1,0,0,0],"id":22,"left_children":[1,3,5,7,-1,-1,9,11,-1,-1,-1,13,-1,15,-1,-1,-1],"loss_changes":[6.026046E-1,5.505918E-1,6.4733934E-1,2.3554459E-1,0E0,0E0,4.323893E-1,6.388059E-1,0E0,0E0,0E0,3.1132022E-1,0E0,5.074487E-1,0E0,0E0,0E0],"parents":[2147483647,0,0,1,1,2,2,3,3,6,6,7,7,11,11,13,13],"right_children":[2,4,6,8,-1,-1,10,12,-1,-1,-1,14,-1,16,-1,-1,-1],"split_conditions":[2.3152509E0,5.122016E-1,2.5281364E-1,4.3033636E-1,-1.7310296E-1,1.5707052E-1,5.29297E-1,1.7802273E-1,8.450854E-2,-1.2704341E-1,5.95784E-2,9.8778784E-2,-1.7143048E-1,6.8439394E-2,1.0541225E-1,2.5150409E-2,-1.2440566E-1],"split_indices":[11,10,14,14,0,0,14,14,0,0,0,14,0,14,0,0,0],"split_type":[0,0,0,0,0,0,0,0,0,0,0,0,0,0,0,0,0],"sum_hessian":[1.8804247E1,1.3303977E1,5.5002704E0,1.2194773E1,1.1092043E0,2.8826754E0,2.617595E0,1.1003917E1,1.1908557E0,1.0023358E0,1.615259E0,9.868222E0,1.1356951E0,8.497716E0,1.370506E0,6.698998E0,1.7987179E0],"tree_param":{"num_deleted":"0","num_feature":"15","num_nodes":"17","size_leaf_vector":"0"}},{"base_weights":[-2.233563E-3,-5.707094E-2,4.3254948E-1,1.5986655E-2,-3.5763282E-1,-8.393096E-2,7.000113E-1,-5.1906246E-1,-8.331518E-2,4.9916413E-2,-4.6954158E-1,-1.2766441E-2,2.7383325E-1,-6.9636755E-2,2.102007E-1],"categories":[],"categories_nodes":[],"categories_segments":[],"categories_sizes":[],"default_left":[1,1,0,1,1,1,0,0,0,1,0,1,0,0,0],"id":23,"left_children":[1,3,-1,5,7,9,-1,-1,-1,11,-1,13,-1,-1,-1],"loss_changes":[4.8393542E-1,4.0070415E-1,0E0,1.1131862E0,1.1440918E-1,7.643124E-1,0E0,0E0,0E0,1.6574442E-1,0E0,1.4127344E-1,0E0,0E0,0E0],"parents":[2147483647,0,0,1,1,3,3,4,4,5,5,9,9,11,11],"right_children":[2,4,-1,6,8,10,-1,-1,-1,12,-1,14,-1,-1,-1],"split_conditions":[1.1616006E0,4.551197E-1,1.2976485E-1,3.3940756E-1,2.173245E0,1.1752576E-1,2.100034E-1,-1.5571874E-1,-2.4994554E-2,1.106574E0,-1.4086248E-1,9.2298485E-2,8.2149975E-2,-2.0891028E-2,6.306021E-2],"split_indices":[7,14,0,14,11,14,0,0,0,11,0,14,0,0,0],"split_type":[0,0,0,0,0,0,0,0,0,0,0,0,0,0,0],"sum_hessian":[1.826191E1,1.6988018E1,1.2738911E0,1.4427851E1,2.5601678E0,1.3354425E1,1.0734243E0,1.0500451E0,1.5101227E0,1.0559666E1,2.7947605E0,8.986881E0,1.5727845E0,7.7084374E0,1.2784433E0],"tree_param":{"num_deleted":"0","num_feature":"15","num_nodes":"15","size_leaf_vector":"0"}},{"base_weights":[4.875763E-3,-5.3107657E-2,3.400856E-1,3.741689E-2,-4.5389587E-1,-5.4280106E-2,6.19679E-1,1.369142E-1,-1.4597668E-1,-6.1953325E-2,3.3638203E-1,-4.6167246E-1,-4.010564E-2,1.0168042E-1,-2.1752337E-1,1.8842949E-1,-2.3161879E-1],"categories":[],"categories_nodes":[],"categories_segments":[],"categories_sizes":[],"default_left":[1,1,0,1,0,1,0,1,1,1,0,0,1,0,0,0,0],"id":24,"left_children":[1,3,-1,5,-1,7,-1,9,11,13,-1,-1,15,-1,-1,-1,-1],"loss_changes":[3.8638276E-1,6.345004E-1,0E0,8.2426894E-1,0E0,2.6039833E-1,0E0,2.1762821E-1,3.0742392E-1,1.0685414E-1,0E0,0E0,4.112033E-1,0E0,0E0,0E0,0E0],"parents":[2147483647,0,0,1,1,3,3,5,5,7,7,8,8,9,9,12,12],"right_children":[2,4,-1,6,-1,8,-1,10,12,14,-1,-1,16,-1,-1,-1,-1],"split_conditions":[2.9121313E0,4.551197E-1,1.0202568E-1,3.680303E-1,-1.3616876E-1,2.6234848E-2,1.859037E-1,1.8478788E-2,3.7065152E-2,7.7151516E-3,1.0091461E-1,-1.3850175E-1,9.438182E-2,3.0504128E-2,-6.525701E-2,5.6528848E-2,-6.948564E-2],"split_indices":[11,14,0,14,0,14,0,14,14,14,0,0,14,0,0,0,0],"split_type":[0,0,0,0,0,0,0,0,0,0,0,0,0,0,0,0,0],"sum_hessian":[1.7949886E1,1.6020317E1,1.9295691E0,1.3808161E1,2.2121563E0,1.2712864E1,1.0952964E0,3.960921E0,8.751943E0,2.328668E0,1.6322529E0,1.3539394E0,7.3980036E0,1.303746E0,1.0249223E0,3.3803227E0,4.017681E0],"tree_param":{"num_deleted":"0","num_feature":"15","num_nodes":"17","size_leaf_vector":"0"}},{"base_weights":[6.013738E-3,-1.0446902E-1,1.803544E-1,3.3176508E-2,-2.9618412E-1,3.0574402E-1,-1.5561264E-2,-1.2494072E-1,1.6736823E-1,-3.629511E-1,-1.263332E-2,-1.8274141E-2,4.3301374E-1,2.8843105E-1,-2.2347552E-1,2.9539611E-2,-2.4136102E-1,3.2525578E-1,-2.5472667E-2,-1.0871672E-1,-5.4450417E-1,5.194687E-1,1.5605487E-1,-2.505884E-1,2.1187994E-1],"categories":[],"categories_nodes":[],"categories_segments":[],"categories_sizes":[],"default_left":[1,1,1,1,1,1,1,1,1,1,0,0,1,0,0,0,0,0,1,0,0,0,0,0,0],"id":25,"left_children":[1,3,5,7,9,11,13,15,17,19,-1,-1,21,-1,-1,-1,-1,-1,23,-1,-1,-1,-1,-1,-1],"loss_changes":[3.7699336E-1,3.2687765E-1,1.9095176E-1,1.8838051E-1,9.238094E-2,2.0049158E-1,3.115506E-1,8.259247E-2,1.5129048E-1,1.3049132E-1,0E0,0E0,1.8906593E-4,0E0,0E0,0E0,0E0,0E0,2.156207E-1,0E0,0E0,0E0,0E0,0E0,0E0],"parents":[2147483647,0,0,1,1,2,2,3,3,4,4,5,5,6,6,7,7,8,8,9,9,12,12,18,18],"right_children":[2,4,6,8,10,12,14,16,18,20,-1,-1,22,-1,-1,-1,-1,-1,24,-1,-1,-1,-1,-1,-1],"split_conditions":[1.8450531E0,6.8439394E-2,2.5281364E-1,2.3680303E-2,4.2572576E-1,2.3253179E0,2.5001354E0,1.1466667E-2,3.9057575E-2,1.0197879E-1,-3.789996E-3,-5.4822424E-3,2.8178782E0,8.6529315E-2,-6.7042656E-2,8.861884E-3,-7.240831E-2,9.757674E-2,5.5989392E-2,-3.2615017E-2,-1.6335125E-1,1.5584062E-1,4.681646E-2,-7.517652E-2,6.356399E-2],"split_indices":[11,14,14,14,14,11,11,14,14,14,0,0,11,0,0,0,0,0,14,0,0,0,0,0,0],"split_type":[0,0,0,0,0,0,0,0,0,0,0,0,0,0,0,0,0,0,0,0,0,0,0,0,0],"sum_hessian":[1.7594053E1,1.101465E1,6.5794024E0,6.892789E0,4.1218615E0,3.6699667E0,2.9094357E0,3.195955E0,3.6968338E0,3.1096246E0,1.0122367E0,1.276505E0,2.3934617E0,1.0243986E0,1.8850372E0,1.6941811E0,1.501774E0,1.6550864E0,2.0417476E0,1.9615796E0,1.1480451E0,1.1567544E0,1.2367072E0,1.0192661E0,1.0224813E0],"tree_param":{"num_deleted":"0","num_feature":"15","num_nodes":"25","size_leaf_vector":"0"}},{"base_weights":[5.5871406E-3,-3.9886292E-2,3.7951115E-1,-8.317236E-2,2.67532E-1,1.8350956E-1,-1.5054096E-1,-1.19677246E-1,3.6601087E-1,-2.4397546E-1,1.6025433E-1,-3.5480618E-1,-1.0901941E-1,4.628978E-1,-2.5755417E-1,-1.3013282E-1,-6.043961E-1,1.8392248E-1,-3.7669873E-1],"categories":[],"categories_nodes":[],"categories_segments":[],"categories_sizes":[],"default_left":[1,1,0,1,0,1,1,0,0,1,1,1,1,0,0,0,0,0,0],"id":26,"left_children":[1,3,-1,5,-1,7,9,-1,-1,11,13,15,17,-1,-1,-1,-1,-1,-1],"loss_changes":[3.2713753E-1,2.51988E-1,0E0,3.1322038E-1,0E0,2.4612528E-1,4.2357153E-1,0E0,0E0,1.1950803E-1,5.825045E-1,2.2211385E-1,5.5643535E-1,0E0,0E0,0E0,0E0,0E0,0E0],"parents":[2147483647,0,0,1,1,3,3,5,5,6,6,9,9,10,10,11,11,12,12],"right_children":[2,4,-1,6,-1,8,10,-1,-1,12,14,16,18,-1,-1,-1,-1,-1,-1],"split_conditions":[1.1616006E0,1.4648468E0,1.1385335E-1,1.9127272E-2,8.02596E-2,4.8242426E-3,3.772015E-1,-3.5903174E-2,1.0980327E-1,6.756666E-2,5.6470156E-1,4.2468183E-2,1.1752576E-1,1.3886935E-1,-7.726625E-2,-3.903985E-2,-1.8131883E-1,5.5176746E-2,-1.13009624E-1],"split_indices":[7,6,0,14,0,14,14,0,0,14,14,14,14,0,0,0,0,0,0],"split_type":[0,0,0,0,0,0,0,0,0,0,0,0,0,0,0,0,0,0,0],"sum_hessian":[1.734906E1,1.6264448E1,1.0846123E0,1.4896406E1,1.3680413E0,2.6565118E0,1.2239895E1,1.1275569E0,1.528955E0,9.576042E0,2.6638527E0,4.363517E0,5.2125254E0,1.4822515E0,1.1816013E0,3.0970404E0,1.2664765E0,2.6382198E0,2.5743053E0],"tree_param":{"num_deleted":"0","num_feature":"15","num_nodes":"19","size_leaf_vector":"0"}},{"base_weights":[5.516339E-3,-9.424522E-2,1.6319868E-1,4.1077662E-2,-2.8447852E-1,2.924687E-1,-2.9577278E-2,-1.254177E-1,1.8659078E-1,-4.1438988E-1,-7.9038486E-2,4.6787374E-2,4.875777E-1,-2.4178307E-1,1.6533294E-1,2.2615998E-3,-2.134946E-1,2.8083056E-1,3.3500265E-2,-1.046058E-1,-1.2081426E-2,1.9048269E-1,-1.2828016E-1],"categories":[],"categories_nodes":[],"categories_segments":[],"categories_sizes":[],"default_left":[1,1,1,1,1,1,1,1,1,0,1,1,0,0,0,0,0,0,0,0,0,0,0],"id":27,"left_children":[1,3,5,7,9,11,13,15,17,-1,19,21,-1,-1,-1,-1,-1,-1,-1,-1,-1,-1,-1],"loss_changes":[3.0149922E-1,3.1479064E-1,1.9341627E-1,2.112585E-1,1.0123566E-1,1.9433302E-1,2.0063278E-1,4.787492E-2,5.608678E-2,0E0,4.1809846E-3,1.0270405E-1,0E0,0E0,0E0,0E0,0E0,0E0,0E0,0E0,0E0,0E0,0E0],"parents":[2147483647,0,0,1,1,2,2,3,3,4,4,5,5,6,6,7,7,8,8,10,10,11,11],"right_children":[2,4,6,8,10,12,14,16,18,-1,20,22,-1,-1,-1,-1,-1,-1,-1,-1,-1,-1,-1],"split_conditions":[1.8450531E0,6.8439394E-2,2.5281364E-1,2.3680303E-2,9.8778784E-2,1.3768789E-1,4.784773E-1,1.1466667E-2,3.9057575E-2,-1.2431697E-1,4.3033636E-1,4.9951516E-2,1.4627331E-1,-7.2534926E-2,4.9599886E-2,6.7847996E-4,-6.404838E-2,8.424917E-2,1.005008E-2,-3.138174E-2,-3.6244278E-3,5.714481E-2,-3.848405E-2],"split_indices":[11,14,14,14,14,14,14,14,14,0,14,14,0,0,0,0,0,0,0,0,0,0,0],"split_type":[0,0,0,0,0,0,0,0,0,0,0,0,0,0,0,0,0,0,0,0,0,0,0],"sum_hessian":[1.7188618E1,1.0774303E1,6.414315E0,6.75394E0,4.0203633E0,3.5300333E0,2.8842819E0,3.2142792E0,3.539661E0,1.8398426E0,2.1805208E0,2.1112936E0,1.4187398E0,1.2657403E0,1.6185415E0,1.7098887E0,1.5043905E0,1.6744752E0,1.8651857E0,1.1710702E0,1.0094506E0,1.1111827E0,1.0001107E0],"tree_param":{"num_deleted":"0","num_feature":"15","num_nodes":"23","size_leaf_vector":"0"}},{"base_weights":[4.2683673E-3,4.9252637E-2,-3.0583414E-1,2.3907034E-1,-2.6187862E-3,-9.42869E-3,3.415784E-1,-3.7043232E-1,8.575662E-2,1.6655017E-1,-2.619595E-1,2.8383753E-1,-7.40584E-2,1.2641679E-1,5.724006E-1,-5.058393E-1,2.631875E-1],"categories":[],"categories_nodes":[],"categories_segments":[],"categories_sizes":[],"default_left":[1,1,0,1,1,0,0,0,1,1,0,1,1,0,0,0,0],"id":28,"left_children":[1,3,-1,5,7,-1,-1,-1,9,11,-1,13,15,-1,-1,-1,-1],"loss_changes":[2.6484117E-1,1.6307218E-1,0E0,9.369488E-2,4.8511544E-1,0E0,0E0,0E0,3.8234717E-1,3.143702E-1,0E0,2.5449252E-1,7.4466765E-1,0E0,0E0,0E0,0E0],"parents":[2147483647,0,0,1,1,3,3,4,4,8,8,9,9,11,11,12,12],"right_children":[2,4,-1,6,8,-1,-1,-1,10,12,-1,14,16,-1,-1,-1,-1],"split_conditions":[1.6580977E0,1.9127272E-2,-9.175025E-2,4.957576E-3,3.3325758E-2,-2.828607E-3,1.0247352E-1,-1.111297E-1,1.5930831E0,2.5030607E-1,-7.858785E-2,2.1916225E0,4.3033636E-1,3.792504E-2,1.7172019E-1,-1.5175179E-1,7.8956254E-2],"split_indices":[10,14,0,14,14,0,0,0,9,14,0,11,14,0,0,0,0],"split_type":[0,0,0,0,0,0,0,0,0,0,0,0,0,0,0,0,0],"sum_hessian":[1.6905577E1,1.5498498E1,1.4070791E0,2.55175E0,1.2946748E1,1.0103905E0,1.5413593E0,1.889825E0,1.1056923E1,9.394972E0,1.6619511E0,6.1953254E0,3.1996462E0,4.9390182E0,1.2563075E0,1.1839303E0,2.0157158E0],"tree_param":{"num_deleted":"0","num_feature":"15","num_nodes":"17","size_leaf_vector":"0"}},{"base_weights":[2.1948716E-4,-4.901192E-2,2.844322E-1,-9.320328E-2,2.6767048E-1,-1.5284319E-1,3.1591904E-1,-1.9717917E-1,1.0979457E-1,-8.9521796E-2,-4.3241328E-1,-1.9785301E-1,2.956439E-1],"categories":[],"categories_nodes":[],"categories_segments":[],"categories_sizes":[],"default_left":[1,1,0,1,0,1,0,1,0,1,0,0,0],"id":29,"left_children":[1,3,-1,5,-1,7,-1,9,-1,11,-1,-1,-1],"loss_changes":[2.6288015E-1,2.4910714E-1,0E0,4.0935302E-1,0E0,1.798842E-1,0E0,2.6478225E-1,0E0,4.541564E-1,0E0,0E0,0E0],"parents":[2147483647,0,0,1,1,3,3,5,5,7,7,9,9],"right_children":[2,4,-1,6,-1,8,-1,10,-1,12,-1,-1,-1],"split_conditions":[1.9267778E0,1.5036047E0,8.532967E-2,1.2971363E0,8.030115E-2,4.3033636E-1,9.4775714E-2,1.1752576E-1,3.2938372E-2,9.2298485E-2,-1.29724E-1,-5.9355907E-2,8.869317E-2],"split_indices":[9,6,0,13,0,14,0,14,0,14,0,0,0],"split_type":[0,0,0,0,0,0,0,0,0,0,0,0,0],"sum_hessian":[1.6791323E1,1.5017534E1,1.7737895E0,1.3797811E1,1.2197231E0,1.258905E1,1.2087604E0,1.0984062E1,1.6049882E0,8.482514E0,2.5015476E0,7.0000157E0,1.4824988E0],"tree_param":{"num_deleted":"0","num_feature":"15","num_nodes":"13","size_leaf_vector":"0"}},{"base_weights":[1.05536105E-2,7.40202E-2,-2.6271892E-1,-6.033919E-3,5.277655E-1,-3.6761677E-1,-1.0550296E-2,9.669189E-2,-2.0462112E-1,1.9357562E-2,3.4956697E-1,-3.246058E-1,-4.6704926E-2,1.8849409E-1,-1.8164286E-1,3.4416225E-2,-1.1149976E-1,-7.117066E-3,3.8232666E-1,-3.903233E-1,3.5884827E-2],"categories":[],"categories_nodes":[],"categories_segments":[],"categories_sizes":[],"default_left":[1,1,1,1,0,0,0,1,1,1,0,0,1,1,1,0,0,0,0,0,0],"id":30,"left_children":[1,3,5,7,-1,-1,-1,9,11,13,-1,-1,15,17,19,-1,-1,-1,-1,-1,-1],"loss_changes":[3.246929E-1,5.5033326E-1,8.9680284E-2,3.011554E-1,0E0,0E0,0E0,1.8428384E-1,8.0016285E-2,3.245718E-1,0E0,0E0,2.1376614E-2,1.9716784E-1,2.1427058E-1,0E0,0E0,0E0,0E0,0E0,0E0],"parents":[2147483647,0,0,1,1,2,2,3,3,7,7,8,8,9,9,12,12,13,13,14,14],"right_children":[2,4,6,8,-1,-1,-1,10,12,14,-1,-1,16,18,20,-1,-1,-1,-1,-1,-1],"split_conditions":[4.551197E-1,3.3940756E-1,2.5814843E0,9.472121E-2,1.5832967E-1,-1.10285036E-1,-3.1650888E-3,6.756666E-2,2.1027656E0,2.6234848E-2,1.04870096E-1,-9.738174E-2,1.7662272E-1,1.8478788E-2,3.6248483E-2,1.0324867E-2,-3.344993E-2,-2.1351199E-3,1.14698E-1,-1.17097E-1,1.0765448E-2],"split_indices":[14,14,11,14,0,0,0,14,11,14,0,0,14,14,14,0,0,0,0,0,0],"split_type":[0,0,0,0,0,0,0,0,0,0,0,0,0,0,0,0,0,0,0,0,0],"sum_hessian":[1.6599867E1,1.4062934E1,2.536933E0,1.2792636E1,1.270298E0,1.468317E0,1.0686159E0,8.769449E0,4.023187E0,7.5400867E0,1.2293619E0,1.6863451E0,2.336842E0,4.1283827E0,3.4117043E0,1.2458805E0,1.0909615E0,2.5342057E0,1.594177E0,1.3358368E0,2.0758674E0],"tree_param":{"num_deleted":"0","num_feature":"15","num_nodes":"21","size_leaf_vector":"0"}},{"base_weights":[8.2213245E-3,6.074948E-2,-2.2183147E-1,-5.8882907E-3,4.254376E-1,-3.2747474E-1,-1.5367481E-2,4.9987476E-2,-3.0600798E-1,-1.2357414E-2,2.6544356E-1,9.203049E-2,-3.2565445E-1,-1.1269145E-2,2.193076E-1],"categories":[],"categories_nodes":[],"categories_segments":[],"categories_sizes":[],"default_left":[1,1,1,1,0,0,0,1,0,1,0,1,0,0,0],"id":31,"left_children":[1,3,5,7,-1,-1,-1,9,-1,11,-1,13,-1,-1,-1],"loss_changes":[2.2460783E-1,3.6725166E-1,7.0495054E-2,2.4464273E-1,0E0,0E0,0E0,1.6970229E-1,0E0,3.754752E-1,0E0,1.1690705E-1,0E0,0E0,0E0],"parents":[2147483647,0,0,1,1,2,2,3,3,7,7,9,9,11,11],"right_children":[2,4,6,8,-1,-1,-1,10,-1,12,-1,14,-1,-1,-1],"split_conditions":[4.551197E-1,3.3940756E-1,7.0211816E-1,1.7802273E-1,1.2763129E-1,-9.8242424E-2,-4.6102447E-3,9.8778784E-2,-9.1802396E-2,6.8439394E-2,7.963307E-2,3.3325758E-2,-9.769634E-2,-3.3807436E-3,6.5792285E-2],"split_indices":[14,14,14,14,0,0,0,14,0,14,0,14,0,0,0],"split_type":[0,0,0,0,0,0,0,0,0,0,0,0,0,0,0],"sum_hessian":[1.6471643E1,1.4008909E1,2.462734E0,1.2676454E1,1.3324555E0,1.2414166E0,1.2213173E0,1.1389431E1,1.287023E0,9.564476E0,1.8249544E0,7.7038655E0,1.8606106E0,4.7556133E0,2.9482527E0],"tree_param":{"num_deleted":"0","num_feature":"15","num_nodes":"15","size_leaf_vector":"0"}},{"base_weights":[3.6455777E-3,-4.2360466E-2,2.786945E-1,3.549248E-2,-3.9874142E-1,-5.624988E-2,3.0303815E-1,2.3475274E-2,-2.9514873E-1,-5.042986E-2,4.6469694E-1,-5.8457118E-2,3.1441703E-1,1.0524884E-1,-2.2935618E-1],"categories":[],"categories_nodes":[],"categories_segments":[],"categories_sizes":[],"default_left":[1,1,0,1,0,1,1,1,0,0,0,1,0,0,0],"id":32,"left_children":[1,3,-1,5,-1,7,9,11,-1,-1,-1,13,-1,-1,-1],"loss_changes":[2.3261933E-1,4.5302022E-1,0E0,3.5822678E-1,0E0,2.2013617E-1,2.3519251E-1,2.4053498E-1,0E0,0E0,0E0,2.5117344E-1,0E0,0E0,0E0],"parents":[2147483647,0,0,1,1,3,3,5,5,6,6,7,7,11,11],"right_children":[2,4,-1,6,-1,8,10,12,-1,-1,-1,14,-1,-1,-1],"split_conditions":[2.9121313E0,4.551197E-1,8.360836E-2,1.493106E-1,-1.1962243E-1,9.438182E-2,1.8159945E0,6.756666E-2,-8.854462E-2,-1.5128958E-2,1.394091E-1,2.6234848E-2,9.432512E-2,3.157465E-2,-6.880686E-2],"split_indices":[11,14,0,14,0,14,11,14,0,0,0,14,0,0,0],"split_type":[0,0,0,0,0,0,0,0,0,0,0,0,0,0,0],"sum_hessian":[1.6450232E1,1.4817734E1,1.632498E0,1.2900067E1,1.9176662E0,1.0194197E1,2.7058704E0,8.319541E0,1.8746557E0,1.0650905E0,1.6407797E0,7.114965E0,1.204576E0,3.830161E0,3.284804E0],"tree_param":{"num_deleted":"0","num_feature":"15","num_nodes":"15","size_leaf_vector":"0"}},{"base_weights":[5.386763E-3,4.1862033E-2,-2.557818E-1,-2.4482215E-2,1.5275909E-1,5.1484957E-2,-2.7253392E-1,3.843819E-1,-6.982444E-2,-2.83992E-2,3.3694333E-1,9.957898E-2,4.806299E-1,-2.8565466E-1,1.9372948E-1,6.644891E-2,-2.7953288E-1,-8.915347E-2,2.2007312E-1],"categories":[],"categories_nodes":[],"categories_segments":[],"categories_sizes":[],"default_left":[1,1,0,1,1,1,0,1,1,1,0,0,0,0,0,1,0,0,0],"id":33,"left_children":[1,3,-1,5,7,9,-1,11,13,15,-1,-1,-1,-1,-1,17,-1,-1,-1],"loss_changes":[1.7373307E-1,1.2054243E-1,0E0,2.1744925E-1,3.4032735E-1,2.1719915E-1,0E0,3.8034678E-2,2.7986106E-1,2.1000116E-1,0E0,0E0,0E0,0E0,0E0,1.7837632E-1,0E0,0E0,0E0],"parents":[2147483647,0,0,1,1,3,3,4,4,5,5,7,7,8,8,9,9,15,15],"right_children":[2,4,-1,6,8,10,-1,12,14,16,-1,-1,-1,-1,-1,18,-1,-1,-1],"split_conditions":[1.6580977E0,1.8450531E0,-7.673454E-2,1.0197879E-1,2.5001354E0,9.0586364E-2,-8.176018E-2,2.4915758E-1,2.9121313E0,5.7736367E-2,1.01083E-1,2.9873693E-2,1.4418897E-1,-8.56964E-2,5.8118846E-2,2.3680303E-2,-8.385987E-2,-2.6746042E-2,6.602194E-2],"split_indices":[10,11,0,14,11,14,0,14,11,14,0,0,0,0,0,14,0,0,0],"split_type":[0,0,0,0,0,0,0,0,0,0,0,0,0,0,0,0,0,0,0],"sum_hessian":[1.6113394E1,1.4875559E1,1.2378347E0,9.794954E0,5.080604E0,8.105151E0,1.6898035E0,2.133525E0,2.9470794E0,7.0365267E0,1.0686246E0,1.0528108E0,1.0807141E0,1.5741313E0,1.3729482E0,5.641319E0,1.3952078E0,3.0111053E0,2.6302135E0],"tree_param":{"num_deleted":"0","num_feature":"15","num_nodes":"19","size_leaf_vector":"0"}},{"base_weights":[5.771223E-3,-5.700115E-2,1.5741836E-1,-4.0229815E-3,-3.1462952E-1,3.5630155E-1,-7.647349E-2,-7.774306E-2,2.0446353E-1,-2.58209E-1,1.3006896E-1,3.1431753E-2,-3.6102757E-1,4.2708167E-1,-9.304709E-2,-1.507761E-1,1.2935027E-1,1.4519365E-2,-2.4878296E-1,2.8496686E-1,-3.6587648E-2],"categories":[],"categories_nodes":[],"categories_segments":[],"categories_sizes":[],"default_left":[1,1,1,1,0,0,1,1,1,0,0,1,0,0,0,1,1,0,0,0,0],"id":34,"left_children":[1,3,5,7,-1,-1,9,11,13,-1,-1,15,-1,-1,-1,17,19,-1,-1,-1,-1],"loss_changes":[1.6968367E-1,1.717226E-1,2.6952446E-1,1.9303893E-1,0E0,0E0,1.5433115E-1,2.9709542E-1,2.5739235E-1,0E0,0E0,1.5490201E-1,0E0,0E0,0E0,5.406729E-2,1.5179233E-1,0E0,0E0,0E0,0E0],"parents":[2147483647,0,0,1,1,2,2,3,3,6,6,7,7,8,8,11,11,15,15,16,16],"right_children":[2,4,6,8,-1,-1,10,12,14,-1,-1,16,-1,-1,-1,18,20,-1,-1,-1,-1],"split_conditions":[2.3152509E0,4.34103E-1,2.5281364E-1,9.8778784E-2,-9.4388865E-2,1.0689047E-1,5.8159524E-1,6.8439394E-2,9.342661E-1,-7.74627E-2,3.9020687E-2,1.8478788E-2,-1.0830828E-1,1.281245E-1,-2.7914127E-2,7.7151516E-3,3.5760604E-2,4.3558097E-3,-7.4634895E-2,8.549006E-2,-1.0976295E-2],"split_indices":[11,14,14,14,0,0,13,14,11,0,0,14,0,0,0,14,14,0,0,0,0],"split_type":[0,0,0,0,0,0,0,0,0,0,0,0,0,0,0,0,0,0,0,0,0],"sum_hessian":[1.5882699E1,1.1674366E1,4.2083335E0,1.0525533E1,1.1488333E0,1.9915315E0,2.2168016E0,8.239265E0,2.2862673E0,1.0461503E0,1.1706514E0,6.588986E0,1.6502793E0,1.0586181E0,1.2276492E0,2.1144965E0,4.4744897E0,1.1041402E0,1.0103563E0,1.9388893E0,2.5356002E0],"tree_param":{"num_deleted":"0","num_feature":"15","num_nodes":"21","size_leaf_vector":"0"}},{"base_weights":[1.3844804E-3,-4.406576E-2,1.7503057E-1,4.224492E-2,-4.9319673E-1,4.298027E-1,-1.05407506E-1,-2.9696854E-2,2.957586E-1,1.6476335E-2,-1.8781586E-1,-6.645279E-2,3.391065E-1,5.3325765E-2,-1.9591878E-1],"categories":[],"categories_nodes":[],"categories_segments":[],"categories_sizes":[],"default_left":[1,1,1,1,0,0,0,1,0,1,0,1,0,0,0],"id":35,"left_children":[1,3,5,7,-1,-1,-1,9,-1,11,-1,13,-1,-1,-1],"loss_changes":[1.3971072E-1,5.656494E-1,3.075624E-1,2.4059029E-1,0E0,0E0,0E0,8.201086E-2,0E0,2.7097198E-1,0E0,1.3796256E-1,0E0,0E0,0E0],"parents":[2147483647,0,0,1,1,2,2,3,3,7,7,9,9,11,11],"right_children":[2,4,6,8,-1,-1,-1,10,-1,12,-1,14,-1,-1,-1],"split_conditions":[4.3033636E-1,2.5030607E-1,5.6470156E-1,2.3253179E0,-1.4795902E-1,1.289408E-1,-3.1622253E-2,1.0004546E-1,8.8727586E-2,9.2298485E-2,-5.634476E-2,3.5760604E-2,1.01731956E-1,1.599773E-2,-5.8775637E-2],"split_indices":[14,14,14,11,0,0,0,14,0,14,0,14,0,0,0],"split_type":[0,0,0,0,0,0,0,0,0,0,0,0,0,0,0],"sum_hessian":[1.5724983E1,1.3054359E1,2.6706238E0,1.1709965E1,1.3443941E0,1.1202703E0,1.5503535E0,9.809186E0,1.9007787E0,8.285493E0,1.5236938E0,7.222932E0,1.0625604E0,4.0573177E0,3.1656144E0],"tree_param":{"num_deleted":"0","num_feature":"15","num_nodes":"15","size_leaf_vector":"0"}},{"base_weights":[2.8725984E-3,3.6092438E-2,-2.3535E-1,1.9959798E-1,-1.029151E-2,-3.8703492E-1,8.434847E-2,1.6903876E-1,-2.8170034E-1,2.9566568E-1,7.7692033E-3,1.525318E-1,4.3133345E-1,-2.2609466E-1,2.935278E-1],"categories":[],"categories_nodes":[],"categories_segments":[],"categories_sizes":[],"default_left":[1,1,0,0,1,0,1,1,0,1,1,0,0,0,0],"id":36,"left_children":[1,3,-1,-1,5,-1,7,9,-1,11,13,-1,-1,-1,-1],"loss_changes":[1.3997632E-1,1.192135E-1,0E0,0E0,4.9563304E-1,0E0,3.948027E-1,1.9619459E-1,0E0,3.9414108E-2,4.2070094E-1,0E0,0E0,0E0,0E0],"parents":[2147483647,0,0,1,1,4,4,6,6,7,7,9,9,10,10],"right_children":[2,4,-1,-1,6,-1,8,10,-1,12,14,-1,-1,-1,-1],"split_conditions":[1.6580977E0,1.9127272E-2,-7.0605E-2,5.9879396E-2,3.3325758E-2,-1.1611048E-1,1.5930831E0,1.1752576E-1,-8.45101E-2,9.157576E-2,4.3033636E-1,4.5759544E-2,1.2940004E-1,-6.78284E-2,8.8058345E-2],"split_indices":[10,14,0,0,14,0,9,14,0,14,14,0,0,0,0],"split_type":[0,0,0,0,0,0,0,0,0,0,0,0,0,0,0],"sum_hessian":[1.5614442E1,1.4448157E1,1.1662843E0,2.4629557E0,1.1985202E1,1.7859862E0,1.0199215E1,8.719946E0,1.4792691E0,4.4177885E0,4.302158E0,3.18345E0,1.2343384E0,2.480729E0,1.8214288E0],"tree_param":{"num_deleted":"0","num_feature":"15","num_nodes":"15","size_leaf_vector":"0"}},{"base_weights":[3.4647933E-4,-3.8960915E-2,2.2729217E-1,-8.138992E-2,2.5640732E-1,-1.591156E-1,1.1480401E-1,-3.315031E-1,-5.4806184E-2,3.0690378E-1,-6.757041E-2,-1.9984892E-2,-4.5553896E-1,2.4852602E-1,-1.6813438E-1,-2.2199288E-1,1.10316515E-1,-3.5633653E-1,-1.8352248E-2],"categories":[],"categories_nodes":[],"categories_segments":[],"categories_sizes":[],"default_left":[1,1,0,1,0,1,1,1,1,0,1,0,0,0,1,0,0,0,0],"id":37,"left_children":[1,3,-1,5,-1,7,9,11,13,-1,15,-1,-1,-1,17,-1,-1,-1,-1],"loss_changes":[1.5748364E-1,2.0954221E-1,0E0,2.3058568E-1,0E0,1.6868833E-1,1.794992E-1,1.3460913E-1,3.0552587E-1,0E0,1.10860385E-1,0E0,0E0,0E0,1.6772379E-1,0E0,0E0,0E0,0E0],"parents":[2147483647,0,0,1,1,3,3,5,5,6,6,7,7,8,8,10,10,14,14],"right_children":[2,4,-1,6,-1,8,10,12,14,-1,16,-1,-1,-1,18,-1,-1,-1,-1],"split_conditions":[1.9267778E0,1.5036047E0,6.8187654E-2,2.3152509E0,7.69222E-2,2.3680303E-2,2.6952202E0,7.7151516E-3,3.9057575E-2,9.207114E-2,2.9486074E0,-5.995468E-3,-1.366617E-1,7.455781E-2,9.2298485E-2,-6.6597864E-2,3.3094957E-2,-1.0690097E-1,-5.5056745E-3],"split_indices":[9,6,0,11,0,14,11,14,14,0,11,0,0,0,14,0,0,0,0],"split_type":[0,0,0,0,0,0,0,0,0,0,0,0,0,0,0,0,0,0,0],"sum_hessian":[1.5661144E1,1.40551E1,1.6060433E0,1.2923162E1,1.1319382E0,9.39153E0,3.531632E0,2.7193344E0,6.672196E0,1.3874121E0,2.14422E0,1.1050656E0,1.6142688E0,1.4903027E0,5.1818933E0,1.0150864E0,1.1291336E0,1.6852874E0,3.4966059E0],"tree_param":{"num_deleted":"0","num_feature":"15","num_nodes":"19","size_leaf_vector":"0"}},{"base_weights":[8.031559E-4,1.4364211E-1,-5.472481E-2,-2.7960334E-2,3.163355E-1,-3.7135434E-1,1.5626863E-2,-9.918312E-2,5.0229024E-2,8.475265E-2,-2.6068252E-1,4.1222447E-1,-4.0151272E-2,-1.6678426E-1,1.3886261E-1,3.6416485E-3,-2.9455736E-1,4.1764516E-1,-1.0738928E-1],"categories":[],"categories_nodes":[],"categories_segments":[],"categories_sizes":[],"default_left":[1,1,1,1,0,0,1,0,0,1,0,0,1,1,1,0,0,0,0],"id":38,"left_children":[1,3,5,7,-1,-1,9,-1,-1,11,-1,-1,13,15,17,-1,-1,-1,-1],"loss_changes":[1.3794029E-1,1.5306833E-1,2.8499255E-1,2.3692487E-2,0E0,0E0,2.362935E-1,0E0,0E0,4.143311E-1,0E0,0E0,2.0340535E-1,1.1237392E-1,3.0846465E-1,0E0,0E0,0E0,0E0],"parents":[2147483647,0,0,1,1,2,2,3,3,6,6,9,9,12,12,13,13,14,14],"right_children":[2,4,6,8,-1,-1,10,-1,-1,12,-1,-1,14,16,18,-1,-1,-1,-1],"split_conditions":[2.6234848E-2,1.8478788E-2,3.6248483E-2,4.8242426E-3,9.490065E-2,-1.11406304E-1,1.5930831E0,-2.9754937E-2,1.5068708E-2,6.8439394E-2,-7.820476E-2,1.23667344E-1,3.285985E-1,1.1752576E-1,4.449697E-1,1.0924946E-3,-8.836721E-2,1.2529355E-1,-3.2216784E-2],"split_indices":[14,14,14,14,0,0,9,0,0,14,0,0,14,14,14,0,0,0,0],"split_type":[0,0,0,0,0,0,0,0,0,0,0,0,0,0,0,0,0,0,0],"sum_hessian":[1.5400248E1,3.8667245E0,1.1533523E1,2.3598623E0,1.5068622E0,1.318927E0,1.0214596E1,1.0944382E0,1.2654243E0,8.725068E0,1.4895277E0,1.7739118E0,6.951156E0,4.111225E0,2.839931E0,2.177859E0,1.9333662E0,1.005544E0,1.8343872E0],"tree_param":{"num_deleted":"0","num_feature":"15","num_nodes":"19","size_leaf_vector":"0"}},{"base_weights":[1.1056183E-3,-7.4350774E-2,1.2840723E-1,1.594838E-2,-2.5331983E-1,2.6877284E-1,-9.680336E-3,-7.117413E-2,3.1375545E-1,-3.3690828E-1,-1.3647555E-2,3.8573727E-2,3.908346E-1,-1.9044839E-1,2.10229E-1,6.385609E-2,-2.5528365E-1,-1.453212E-1,2.615351E-1],"categories":[],"categories_nodes":[],"categories_segments":[],"categories_sizes":[],"default_left":[1,1,1,1,1,1,1,1,0,0,0,0,0,0,0,1,0,0,0],"id":39,"left_children":[1,3,5,7,9,11,13,15,-1,-1,-1,-1,-1,-1,-1,17,-1,-1,-1],"loss_changes":[1.6704386E-1,1.8063855E-1,1.2797949E-1,2.3518485E-1,7.000415E-2,7.603529E-2,2.0803037E-1,1.9435394E-1,0E0,0E0,0E0,0E0,0E0,0E0,0E0,2.4193154E-1,0E0,0E0,0E0],"parents":[2147483647,0,0,1,1,2,2,3,3,4,4,5,5,6,6,7,7,15,15],"right_children":[2,4,6,8,10,12,14,16,-1,-1,-1,-1,-1,-1,-1,18,-1,-1,-1],"split_conditions":[1.8450531E0,9.438182E-2,2.5001354E0,6.756666E-2,4.1269395E-1,2.4915758E-1,2.9121313E0,3.5760604E-2,9.412664E-2,-1.0107249E-1,-4.094267E-3,1.1572119E-2,1.1725038E-1,-5.713452E-2,6.30687E-2,1.8478788E-2,-7.65851E-2,-4.3596365E-2,7.846054E-2],"split_indices":[11,14,11,14,14,14,11,14,0,0,0,0,0,0,0,14,0,0,0],"split_type":[0,0,0,0,0,0,0,0,0,0,0,0,0,0,0,0,0,0,0],"sum_hessian":[1.5396135E1,9.927617E0,5.468519E0,7.2038093E0,2.7238073E0,2.2425644E0,3.2259548E0,6.16211E0,1.0416996E0,1.7186903E0,1.0051169E0,1.2330828E0,1.0094817E0,1.8440734E0,1.3818814E0,3.9316838E0,2.230426E0,2.0389736E0,1.8927102E0],"tree_param":{"num_deleted":"0","num_feature":"15","num_nodes":"19","size_leaf_vector":"0"}},{"base_weights":[5.1972806E-3,-3.222001E-2,2.1993054E-1,-1.7758702E-1,3.948224E-2,1.337212E-1,-3.2637447E-1,3.1289342E-1,-8.0620915E-2,-2.7368772E-1,5.75859E-3,1.678679E-1,-2.2605544E-1,4.841901E-1,-1.356983E-1,-3.2782155E-1,-1.0920644E-2],"categories":[],"categories_nodes":[],"categories_segments":[],"categories_sizes":[],"default_left":[1,1,0,1,1,0,0,0,1,0,1,1,1,0,0,0,0],"id":40,"left_children":[1,3,-1,5,7,-1,-1,-1,9,-1,11,13,15,-1,-1,-1,-1],"loss_changes":[1.3698477E-1,1.5960906E-1,0E0,2.7606398E-1,3.7403956E-1,0E0,0E0,0E0,1.379191E-1,0E0,2.8701392E-1,4.9533132E-1,6.5463945E-2,0E0,0E0,0E0,0E0],"parents":[2147483647,0,0,1,1,3,3,4,4,8,8,10,10,11,11,12,12],"right_children":[2,4,-1,6,8,-1,-1,-1,10,-1,12,14,16,-1,-1,-1,-1],"split_conditions":[1.9267778E0,3.3325758E-2,6.597917E-2,7.7151516E-3,6.8439394E-2,4.0116362E-2,-9.791235E-2,9.386803E-2,9.8778784E-2,-8.210632E-2,4.34103E-1,2.1577559E0,6.8770754E-1,1.4525704E-1,-4.070949E-2,-9.834647E-2,-3.2761933E-3],"split_indices":[9,14,0,14,14,0,0,0,14,0,14,11,14,0,0,0,0],"split_type":[0,0,0,0,0,0,0,0,0,0,0,0,0,0,0,0,0],"sum_hessian":[1.5167127E1,1.3640264E1,1.5268637E0,4.0178547E0,9.622408E0,1.3320547E0,2.6858E0,2.4469028E0,7.1755056E0,1.5477334E0,5.6277723E0,3.4741347E0,2.1536376E0,1.4099408E0,2.0641937E0,1.106452E0,1.0471857E0],"tree_param":{"num_deleted":"0","num_feature":"15","num_nodes":"17","size_leaf_vector":"0"}},{"base_weights":[3.7242922E-3,-6.711845E-2,1.3764165E-1,8.591025E-3,-2.5728816E-1,2.5769636E-1,-4.9401306E-2,-6.435127E-2,2.7844906E-1,-5.3725266E-1,1.3753268E-1,1.3354641E-2,4.4712284E-1,-2.0523389E-1,1.23631954E-1,7.671385E-2,-2.1686566E-1,-1.1750253E-1,2.501847E-1,-3.0112287E-1,-8.086693E-2],"categories":[],"categories_nodes":[],"categories_segments":[],"categories_sizes":[],"default_left":[1,1,1,1,1,1,1,1,0,0,0,0,0,0,0,1,1,0,0,0,0],"id":41,"left_children":[1,3,5,7,9,11,13,15,-1,-1,-1,-1,-1,-1,-1,17,19,-1,-1,-1,-1],"loss_changes":[1.6276534E-1,1.6427132E-1,1.4581667E-1,1.954408E-1,4.317488E-1,1.6855091E-1,1.10474564E-1,1.8685576E-1,0E0,0E0,0E0,0E0,0E0,0E0,0E0,1.9276094E-1,2.2205994E-2,0E0,0E0,0E0,0E0],"parents":[2147483647,0,0,1,1,2,2,3,3,4,4,5,5,6,6,7,7,15,15,16,16],"right_children":[2,4,6,8,10,12,14,16,-1,-1,-1,-1,-1,-1,-1,18,20,-1,-1,-1,-1],"split_conditions":[2.1027656E0,1.0197879E-1,2.5281364E-1,9.2298485E-2,4.3033636E-1,1.3768789E-1,5.8159524E-1,3.5760604E-2,8.353472E-2,-1.611758E-1,4.1259807E-2,4.006393E-3,1.3413686E-1,-6.1570168E-2,3.7089586E-2,1.8478788E-2,4.579091E-2,-3.525076E-2,7.505542E-2,-9.033687E-2,-2.4260081E-2],"split_indices":[11,14,14,14,14,14,13,14,0,0,0,0,0,0,0,14,14,0,0,0,0],"split_type":[0,0,0,0,0,0,0,0,0,0,0,0,0,0,0,0,0,0,0,0,0],"sum_hessian":[1.518276E1,1.0256071E1,4.926689E0,8.018577E0,2.2374938E0,2.7706141E0,2.156075E0,6.9118495E0,1.1067277E0,1.0980934E0,1.1394002E0,1.6774138E0,1.0932002E0,1.036508E0,1.1195672E0,3.848896E0,3.0629532E0,1.9680849E0,1.8808112E0,1.141552E0,1.9214013E0],"tree_param":{"num_deleted":"0","num_feature":"15","num_nodes":"21","size_leaf_vector":"0"}},{"base_weights":[1.8212119E-3,1.9084622E-1,-4.7421742E-2,-7.213333E-2,3.3739007E-1,-2.7137E-1,1.2038795E-2,7.4325815E-2,-2.577049E-1,2.7278632E-1,-2.3990683E-2,-1.36489E-1,2.0170361E-1,2.0467278E-2,-3.9316803E-1],"categories":[],"categories_nodes":[],"categories_segments":[],"categories_sizes":[],"default_left":[1,1,1,0,0,0,1,1,0,0,1,1,0,0,0],"id":42,"left_children":[1,3,5,-1,-1,-1,7,9,-1,-1,11,13,-1,-1,-1],"loss_changes":[1.5811285E-1,1.5955509E-1,1.831075E-1,0E0,0E0,0E0,2.1454777E-1,2.0603506E-1,0E0,0E0,2.2446124E-1,2.406072E-1,0E0,0E0,0E0],"parents":[2147483647,0,0,1,1,2,2,6,6,7,7,10,10,11,11],"right_children":[2,4,6,-1,-1,-1,8,10,-1,-1,12,14,-1,-1,-1],"split_conditions":[1.9127272E-2,4.8242426E-3,3.3325758E-2,-2.164E-2,1.01217024E-1,-8.1411004E-2,1.5930831E0,6.8439394E-2,-7.731148E-2,8.1835896E-2,4.3033636E-1,2.5030607E-1,6.0511086E-2,6.1401837E-3,-1.1795042E-1],"split_indices":[14,14,14,0,0,0,9,14,0,0,14,14,0,0,0],"split_type":[0,0,0,0,0,0,0,0,0,0,0,0,0,0,0],"sum_hessian":[1.5014203E1,2.5086899E0,1.2505513E1,1.0794098E0,1.42928E0,1.8760008E0,1.0629513E1,9.224031E0,1.4054806E0,2.467862E0,6.75617E0,4.7725296E0,1.9836403E0,3.5326288E0,1.2399008E0],"tree_param":{"num_deleted":"0","num_feature":"15","num_nodes":"15","size_leaf_vector":"0"}},{"base_weights":[-2.2417495E-3,-7.701254E-2,1.252503E-1,5.6250095E-2,-1.6044915E-1,3.9511626E-3,2.4571142E-1,-1.2571974E-1,2.2439925E-1,-2.6753345E-1,-5.168417E-2,1.8273613E-1,-2.713045E-1,3.3581844E-1,3.5774857E-2,2.7344927E-1,-2.2396266E-1,-1.8509096E-2,3.013309E-1,-2.9940185E-1,-1.54608125E-2],"categories":[],"categories_nodes":[],"categories_segments":[],"categories_sizes":[],"default_left":[1,1,1,1,1,1,1,0,0,0,1,1,0,0,0,0,1,0,0,0,0],"id":43,"left_children":[1,3,5,7,9,11,13,-1,-1,-1,15,17,-1,-1,-1,-1,19,-1,-1,-1,-1],"loss_changes":[1.6276877E-1,1.2848961E-1,9.135789E-2,1.7744735E-1,6.6151425E-2,2.5453228E-1,4.764943E-2,0E0,0E0,0E0,3.2148957E-1,8.0097795E-2,0E0,0E0,0E0,0E0,5.1787004E-2,0E0,0E0,0E0,0E0],"parents":[2147483647,0,0,1,1,2,2,3,3,4,4,5,5,6,6,10,10,11,11,16,16],"right_children":[2,4,6,8,10,12,14,-1,-1,-1,16,18,-1,-1,-1,-1,20,-1,-1,-1,-1],"split_conditions":[1.8450531E0,3.5760604E-2,3.053485E-1,1.8478788E-2,6.756666E-2,2.8178782E0,6.4271367E-1,-3.7715923E-2,6.731978E-2,-8.026004E-2,9.438182E-2,2.3253179E0,-8.139135E-2,1.0074554E-1,1.0732457E-2,8.203478E-2,4.1373938E-1,-5.5527287E-3,9.039927E-2,-8.982056E-2,-4.638244E-3],"split_indices":[11,14,14,14,14,11,14,0,0,0,14,11,0,0,0,0,14,0,0,0,0],"split_type":[0,0,0,0,0,0,0,0,0,0,0,0,0,0,0,0,0,0,0,0,0],"sum_hessian":[1.5062944E1,9.744178E0,5.3187666E0,3.8772986E0,5.866879E0,3.1647754E0,2.1539912E0,1.9833084E0,1.8939903E0,2.2207282E0,3.6461508E0,2.1223693E0,1.0424061E0,1.087574E0,1.0664171E0,1.0594491E0,2.5867019E0,1.099886E0,1.0224832E0,1.5793142E0,1.0073878E0],"tree_param":{"num_deleted":"0","num_feature":"15","num_nodes":"21","size_leaf_vector":"0"}},{"base_weights":[1.2785897E-3,4.9872562E-2,-1.8158993E-1,-2.8293362E-2,2.0594727E-1,-3.4090406E-1,3.6342815E-2,5.894582E-2,-2.8955144E-1,5.1941186E-1,-1.0555996E-1,-1.9822422E-2,1.9436716E-1,-2.0934871E-1,5.5090442E-2,1.24293275E-1,-3.1513235E-1,-4.904675E-2,1.8729043E-1],"categories":[],"categories_nodes":[],"categories_segments":[],"categories_sizes":[],"default_left":[1,1,1,1,1,0,0,1,0,0,1,1,0,0,0,1,0,0,0],"id":44,"left_children":[1,3,5,7,9,-1,-1,11,-1,-1,13,15,-1,-1,-1,17,-1,-1,-1],"loss_changes":[1.503747E-1,1.6867802E-1,1.3578969E-1,2.3982476E-1,5.015868E-1,0E0,0E0,9.087081E-2,0E0,0E0,6.365326E-2,2.9729623E-1,0E0,0E0,0E0,6.1527126E-2,0E0,0E0,0E0],"parents":[2147483647,0,0,1,1,2,2,3,3,4,4,7,7,10,10,11,11,15,15],"right_children":[2,4,6,8,10,-1,-1,12,-1,-1,14,16,-1,-1,-1,18,-1,-1,-1],"split_conditions":[4.34103E-1,9.8778784E-2,2.173245E0,6.8439394E-2,2.1577559E0,-1.0227122E-1,1.0902844E-2,3.6248483E-2,-8.686543E-2,1.5582356E-1,2.3791666E-1,2.6234848E-2,5.8310147E-2,-6.280462E-2,1.6527133E-2,4.8242426E-3,-9.453971E-2,-1.4714026E-2,5.618713E-2],"split_indices":[14,14,11,14,11,0,0,14,0,0,14,14,0,0,0,14,0,0,0],"split_type":[0,0,0,0,0,0,0,0,0,0,0,0,0,0,0,0,0,0,0],"sum_hessian":[1.490293E1,1.2348751E1,2.5541792E0,8.773495E0,3.575256E0,1.1495601E0,1.404619E0,7.1577573E0,1.6157382E0,1.4493669E0,2.125889E0,5.0651946E0,2.0925624E0,1.1073499E0,1.0185393E0,3.7931764E0,1.2720182E0,1.0701225E0,2.723054E0],"tree_param":{"num_deleted":"0","num_feature":"15","num_nodes":"19","size_leaf_vector":"0"}},{"base_weights":[-4.432844E-3,-7.071828E-2,1.0848191E-1,-7.286811E-3,-2.5824174E-1,2.117897E-1,-3.3118412E-2,-8.426821E-2,2.8836602E-1,-7.6874285E-3,2.9716167E-1,-1.8194407E-1,1.2910175E-1,2.006088E-2,-2.3086007E-1,-1.3403487E-1,2.5783807E-1,1.9219154E-2,-2.4545029E-1],"categories":[],"categories_nodes":[],"categories_segments":[],"categories_sizes":[],"default_left":[1,1,1,1,0,1,1,1,0,0,0,0,0,1,0,1,0,0,0],"id":45,"left_children":[1,3,5,7,-1,9,11,13,-1,-1,-1,-1,-1,15,-1,17,-1,-1,-1],"loss_changes":[1.2623727E-1,1.24049604E-1,9.850399E-2,2.2777408E-1,0E0,7.257317E-2,1.0805957E-1,1.24947965E-1,0E0,0E0,0E0,0E0,0E0,2.3667133E-1,0E0,7.310161E-2,0E0,0E0,0E0],"parents":[2147483647,0,0,1,1,2,2,3,3,5,5,6,6,7,7,13,13,15,15],"right_children":[2,4,6,8,-1,10,12,14,-1,-1,-1,-1,-1,16,-1,18,-1,-1,-1],"split_conditions":[1.8450531E0,1.0197879E-1,2.5281364E-1,9.2298485E-2,-7.747252E-2,2.3253179E0,4.784773E-1,3.9057575E-2,8.650981E-2,-2.3062287E-3,8.914851E-2,-5.4583225E-2,3.873053E-2,2.3680303E-2,-6.925803E-2,1.1466667E-2,7.735142E-2,5.7657463E-3,-7.363509E-2],"split_indices":[11,14,14,14,0,11,14,14,0,0,0,0,0,14,0,14,0,0,0],"split_type":[0,0,0,0,0,0,0,0,0,0,0,0,0,0,0,0,0,0,0],"sum_hessian":[1.484127E1,9.587015E0,5.254256E0,7.940073E0,1.6469415E0,2.7512968E0,2.502959E0,6.867028E0,1.0730451E0,1.0253208E0,1.7259759E0,1.24196E0,1.260999E0,4.516089E0,2.350939E0,3.004967E0,1.5111221E0,1.6133177E0,1.3916494E0],"tree_param":{"num_deleted":"0","num_feature":"15","num_nodes":"19","size_leaf_vector":"0"}},{"base_weights":[-2.4181397E-3,-4.0553994E-2,2.2337013E-1,1.0262798E-2,-2.338042E-1,-1.668103E-1,1.13424994E-1,1.3147376E-1,-3.102414E-1,1.8309946E-1,-5.2217945E-2,2.0828575E-2,4.307149E-1,-1.311082E-1,5.3197578E-2,2.2238325E-1,-2.7646878E-1],"categories":[],"categories_nodes":[],"categories_segments":[],"categories_sizes":[],"default_left":[1,1,0,1,0,1,1,0,0,1,1,1,0,0,0,0,0],"id":46,"left_children":[1,3,-1,5,-1,7,9,-1,-1,11,13,15,-1,-1,-1,-1,-1],"loss_changes":[1.4361322E-1,1.4199534E-1,0E0,2.4202259E-1,0E0,2.5045928E-1,1.0549587E-1,0E0,0E0,2.3505281E-1,3.391356E-2,3.442915E-1,0E0,0E0,0E0,0E0,0E0],"parents":[2147483647,0,0,1,1,3,3,5,5,6,6,9,9,10,10,11,11],"right_children":[2,4,-1,6,-1,8,10,-1,-1,12,14,16,-1,-1,-1,-1,-1],"split_conditions":[1.9267778E0,4.34103E-1,6.701104E-2,3.3325758E-2,-7.014126E-2,7.7151516E-3,2.1577559E0,3.944213E-2,-9.307242E-2,9.8778784E-2,2.5453818E0,6.8439394E-2,1.2921448E-1,-3.933246E-2,1.5959274E-2,6.671498E-2,-8.294064E-2],"split_indices":[9,14,0,14,0,14,11,0,0,14,11,14,0,0,0,0,0],"split_type":[0,0,0,0,0,0,0,0,0,0,0,0,0,0,0,0,0],"sum_hessian":[1.4626579E1,1.3214951E1,1.4116282E0,1.121323E1,2.001721E0,3.9007695E0,7.3124604E0,1.2937047E0,2.6070647E0,5.0731516E0,2.2393084E0,3.7196527E0,1.3534992E0,1.1413924E0,1.0979161E0,2.3669484E0,1.3527042E0],"tree_param":{"num_deleted":"0","num_feature":"15","num_nodes":"17","size_leaf_vector":"0"}}]},"name":"gbtree"},"learner_model_param":{"base_score":"5E-1","boost_from_average":"1","num_class":"0","num_feature":"15","num_target":"1"},"objective":{"name":"binary:logistic","reg_loss_param":{"scale_pos_weight":"1"}}},"version":[2,0,3]}