{"learner":{"attributes":{"niter":"21"},"feature_names":[],"feature_types":[],"gradient_booster":{"model":{"gbtree_model_param":{"num_parallel_tree":"1","num_trees":"22"},"iteration_indptr":[0,1,2,3,4,5,6,7,8,9,10,11,12,13,14,15,16,17,18,19,20,21,22],"tree_info":[0,0,0,0,0,0,0,0,0,0,0,0,0,0,0,0,0,0,0,0,0,0],"trees":[{"base_weights":[-0E0,-1.8585209E0,1.9461279E0,-3.0769232E-1,-1.9133333E0,1.3333334E-1,1.9794168E0,-0E0,-4E-1,-1.9328859E0,5E-1,6.666667E-1,-4E-1,-5.4545456E-1,-1.5384616E-1,-1.9523809E0,-3.3333334E-1,2.2222222E-1,-5E-1,5E-1,-1E0],"categories":[],"categories_nodes":[],"categories_segments":[],"categories_sizes":[],"default_left":[1,1,1,1,1,1,0,0,1,1,0,0,0,0,1,0,1,0,0,0,0],"id":0,"left_children":[1,3,5,7,9,11,-1,-1,13,15,-1,-1,-1,-1,17,-1,19,-1,-1,-1,-1],"loss_changes":[1.0995435E3,1.2629456E1,8.697449E0,1.8461537E-1,8.044495E0,1.3333333E0,0E0,0E0,9.510487E-2,3.9954834E0,0E0,0E0,0E0,0E0,5.3418803E-1,0E0,2.1666667E0,0E0,0E0,0E0,0E0],"parents":[2147483647,0,0,1,1,2,2,3,3,4,4,5,5,8,8,9,9,14,14,16,16],"right_children":[2,4,6,8,10,12,-1,-1,14,16,-1,-1,-1,-1,18,-1,20,-1,-1,-1,-1],"split_conditions":[2.293208E0,3.9712124E-2,2.559085E0,1.2230303E-2,2.1095424E0,2.3873343E0,5.938251E-1,-0E0,2.4231818E-2,2.1217968E0,1.5E-1,2.0000002E-1,-1.20000005E-1,-1.6363637E-1,3.642121E-2,-5.857143E-1,2.4514243E-1,6.666667E-2,-1.5E-1,1.5E-1,-3E-1],"split_indices":[11,14,11,14,6,11,0,0,14,11,0,0,0,0,14,0,14,0,0,0,0],"split_type":[0,0,0,0,0,0,0,0,0,0,0,0,0,0,0,0,0,0,0,0,0],"sum_hessian":[3.02E2,1.545E2,1.475E2,5.5E0,1.49E2,2.75E0,1.4475E2,1.5E0,4E0,1.48E2,1E0,1.25E0,1.5E0,1.75E0,2.25E0,1.46E2,2E0,1.25E0,1E0,1E0,1E0],"tree_param":{"num_deleted":"0","num_feature":"15","num_nodes":"21","size_leaf_vector":"0"}},{"base_weights":[-3.030415E-4,-1.4309623E0,1.505577E0,-4.2596233E-1,-1.4858216E0,1.1537822E-1,1.5331224E0,-2.1101075E-1,-9.762204E-1,-1.5076135E0,-1.2089407E-1,5.5900943E-1,-3.287948E-1,3.5732657E-2,-4.9120328E-1,-3.0646172E-1,3.6649323E-1,-6.684912E-1,-6.7561865E-2],"categories":[],"categories_nodes":[],"categories_segments":[],"categories_sizes":[],"default_left":[1,1,1,1,1,1,0,1,0,0,0,0,0,1,1,0,0,0,0],"id":1,"left_children":[1,3,5,7,9,11,-1,13,-1,-1,-1,-1,-1,15,17,-1,-1,-1,-1],"loss_changes":[6.0332825E2,7.2847595E0,5.0477295E0,8.390285E-1,3.8562622E0,9.192249E-1,0E0,5.449966E-1,0E0,0E0,0E0,0E0,0E0,6.7698103E-1,2.2824055E-1,0E0,0E0,0E0,0E0],"parents":[2147483647,0,0,1,1,2,2,3,3,4,4,5,5,7,7,13,13,14,14],"right_children":[2,4,6,8,10,12,-1,14,-1,-1,-1,-1,-1,16,18,-1,-1,-1,-1],"split_conditions":[2.293208E0,5.7313636E-2,2.559085E0,1.2506857E0,2.1217968E0,2.3873343E0,4.5993674E-1,3.6645457E-2,-2.9286614E-1,-4.5228407E-1,-3.6268223E-2,1.6770284E-1,-9.8638445E-2,1.6960606E-2,4.355E-2,-9.193852E-2,1.0994797E-1,-2.0054737E-1,-2.026856E-2],"split_indices":[11,14,11,10,11,11,0,14,0,0,0,0,0,14,14,0,0,0,0],"split_type":[0,0,0,0,0,0,0,0,0,0,0,0,0,0,0,0,0,0,0],"sum_hessian":[2.780445E2,1.4260887E2,1.3543562E2,7.8352356E0,1.3477364E2,2.7321959E0,1.3270341E2,6.629125E0,1.2061105E0,1.3255281E2,2.2208283E0,1.2375829E0,1.4946129E0,3.988893E0,2.6402318E0,1.9966677E0,1.9922253E0,1.4538511E0,1.1863807E0],"tree_param":{"num_deleted":"0","num_feature":"15","num_nodes":"19","size_leaf_vector":"0"}},{"base_weights":[-1.328845E-3,-1.2206051E0,1.2997414E0,-1.2445077E0,6.126592E-1,1.0082609E-1,1.3276505E0,-2.8726032E-1,-1.2848155E0,4.733506E-1,-2.7126664E-1,5.519407E-2,-4.084491E-1,-1.300165E0,-2.6287195E-1,-5.008724E-1,-7.898686E-2],"categories":[],"categories_nodes":[],"categories_segments":[],"categories_sizes":[],"default_left":[1,1,1,1,0,1,0,1,1,0,0,0,1,0,0,0,0],"id":2,"left_children":[1,3,5,7,-1,9,-1,11,13,-1,-1,-1,15,-1,-1,-1,-1],"loss_changes":[3.7602887E2,6.1244354E0,3.703186E0,4.304291E0,0E0,6.4001316E-1,0E0,2.791078E-1,1.4768677E0,0E0,0E0,0E0,1.0310131E-1,0E0,0E0,0E0,0E0],"parents":[2147483647,0,0,1,1,2,2,3,3,5,5,7,7,8,8,12,12],"right_children":[2,4,6,8,-1,10,-1,12,14,-1,-1,-1,16,-1,-1,-1,-1],"split_conditions":[2.293208E0,2.1095424E0,2.559085E0,3.9712124E-2,1.8379778E-1,2.3873343E0,3.982952E-1,1.2230303E-2,2.1217968E0,1.4200519E-1,-8.1379995E-2,1.655822E-2,3.5225756E-2,-3.9004955E-1,-7.886159E-2,-1.5026172E-1,-2.369606E-2],"split_indices":[11,6,11,14,0,11,0,14,11,0,0,0,14,0,0,0,0],"split_type":[0,0,0,0,0,0,0,0,0,0,0,0,0,0,0,0,0],"sum_hessian":[2.3503813E2,1.2136489E2,1.1367325E2,1.2011989E2,1.2449963E0,2.6908984E0,1.10982346E2,5.1820183E0,1.14937874E2,1.2086825E0,1.4822158E0,1.4968348E0,3.6851833E0,1.1296884E2,1.9690285E0,2.471568E0,1.2136154E0],"tree_param":{"num_deleted":"0","num_feature":"15","num_nodes":"17","size_leaf_vector":"0"}},{"base_weights":[-2.2035344E-4,-1.0671967E0,1.1995392E0,-4.544574E-1,-1.1666583E0,4.7300836E-1,1.2200395E0,-7.071286E-2,-5.96104E-1,-1.2012037E0,-2.3766808E-1,-1.22721225E-1,9.4851476E-1,-1.9932984E-1,2.0276733E-1,-6.845387E-1,-2.8082687E-1,2.1385016E-1,-6.8342626E-1,4.524541E-2,-3.5188448E-1,1.07892886E-1,-5.1345E-1],"categories":[],"categories_nodes":[],"categories_segments":[],"categories_sizes":[],"default_left":[1,1,1,1,1,1,0,1,1,0,1,0,0,1,0,0,1,0,0,0,0,0,0],"id":3,"left_children":[1,3,5,7,9,11,-1,13,15,-1,17,-1,-1,19,-1,-1,21,-1,-1,-1,-1,-1,-1],"loss_changes":[2.4740398E2,5.70401E0,7.7786255E-1,8.234072E-1,2.518425E0,1.2862353E0,0E0,2.3133251E-1,1.2829256E-1,0E0,1.0275275E0,0E0,0E0,1.724725E-1,0E0,0E0,4.3643972E-1,0E0,0E0,0E0,0E0,0E0,0E0],"parents":[2147483647,0,0,1,1,2,2,3,3,4,4,5,5,7,7,8,8,10,10,13,13,16,16],"right_children":[2,4,6,8,10,12,-1,14,16,-1,18,-1,-1,20,-1,-1,22,-1,-1,-1,-1,-1,-1],"split_conditions":[2.4464011E0,1.1692727E-1,2.8606105E0,3.642121E-2,2.1217968E0,7.610721E-1,3.6601186E-1,2.4231818E-2,9.3442425E-2,-3.6036113E-1,5.1485604E-1,-3.681637E-2,2.8455445E-1,1.2230303E-2,6.0830202E-2,-2.0536162E-1,1.0061364E-1,6.415505E-2,-2.050279E-1,1.3573623E-2,-1.0556535E-1,3.2367866E-2,-1.5403502E-1],"split_indices":[11,14,11,14,11,13,0,14,14,0,14,0,0,14,0,0,14,0,0,0,0,0,0],"split_type":[0,0,0,0,0,0,0,0,0,0,0,0,0,0,0,0,0,0,0,0,0,0,0],"sum_hessian":[1.9126695E2,1.0129407E2,8.997288E1,1.492386E1,8.637021E1,3.129697E0,8.6843185E1,4.4276986E0,1.04961605E1,8.299109E1,3.3791215E0,1.7185533E0,1.4111438E0,3.19584E0,1.2318587E0,7.2822695E0,3.2138915E0,1.9371724E0,1.4419492E0,1.4978712E0,1.6979687E0,1.4039845E0,1.809907E0],"tree_param":{"num_deleted":"0","num_feature":"15","num_nodes":"23","size_leaf_vector":"0"}},{"base_weights":[-3.1983518E-4,-9.841363E-1,1.0975899E0,-3.9896545E-1,-1.0972064E0,9.676948E-2,1.1334224E0,-2.6635423E-1,-8.7054795E-1,-1.1336675E0,-3.5218877E-1,-3.1394452E-1,4.2541113E-1,1.146809E0,2.7714074E-1,6.626366E-2,-4.5667097E-1,2.4592769E-1,-6.420932E-1,-2.2143368E-1,2.8185853E-1,-5.5407846E-1,-1.2896346E-2,-1.3750835E-1,-8.2521784E-1,3.5278636E-1,1.0061924E-1],"categories":[],"categories_nodes":[],"categories_segments":[],"categories_sizes":[],"default_left":[1,1,1,1,1,1,1,1,0,0,1,0,0,0,0,1,1,0,1,0,1,0,0,0,0,0,0],"id":4,"left_children":[1,3,5,7,9,11,13,15,-1,-1,17,-1,-1,-1,-1,19,21,-1,23,-1,25,-1,-1,-1,-1,-1,-1],"loss_changes":[1.680954E2,4.9928513E0,2.5278625E0,6.975808E-1,1.4537048E0,6.24274E-1,4.9501038E-1,8.558054E-1,0E0,0E0,9.613038E-1,0E0,0E0,0E0,0E0,4.109686E-1,3.568995E-1,0E0,2.0047367E-1,0E0,1.1452258E-2,0E0,0E0,0E0,0E0,0E0,0E0],"parents":[2147483647,0,0,1,1,2,2,3,3,4,4,5,5,6,6,7,7,10,10,15,15,16,16,18,18,20,20],"right_children":[2,4,6,8,10,12,14,16,-1,-1,18,-1,-1,-1,-1,20,22,-1,24,-1,26,-1,-1,-1,-1,-1,-1],"split_conditions":[2.293208E0,1.1692727E-1,2.559085E0,1.1766841E0,1.8446654E0,3.766485E-1,8.7157273E-1,3.9712124E-2,-2.611644E-1,-3.4010026E-1,2.1809393E-1,-9.418336E-2,1.2762335E-1,3.4404272E-1,8.314222E-2,1.6960606E-2,9.824546E-2,7.377831E-2,1.952239E0,-6.643011E-2,2.470303E-2,-1.6622354E-1,-3.868904E-3,-4.1252505E-2,-2.4756536E-1,1.05835915E-1,3.0185774E-2],"split_indices":[11,14,11,10,11,14,14,14,0,0,14,0,0,0,0,14,14,0,11,0,14,0,0,0,0,0,0],"split_type":[0,0,0,0,0,0,0,0,0,0,0,0,0,0,0,0,0,0,0,0,0,0,0,0,0,0,0],"sum_hessian":[1.5362344E2,8.1076195E1,7.254725E1,1.3862449E1,6.7213745E1,2.635552E0,6.99117E1,1.2041212E1,1.8212361E0,6.3580467E1,3.6332817E0,1.1913742E0,1.4441776E0,6.850149E1,1.4102045E0,4.619502E0,7.4217105E0,1.2356478E0,2.3976338E0,1.967251E0,2.652251E0,5.882055E0,1.5396556E0,1.10468E0,1.2929538E0,1.2259529E0,1.4262981E0],"tree_param":{"num_deleted":"0","num_feature":"15","num_nodes":"27","size_leaf_vector":"0"}},{"base_weights":[-2.5047401E-3,-8.755728E-1,1.0628603E0,-2.391146E-1,-1.002768E0,3.0748433E-1,1.0947226E0,-1.1441803E-1,-7.426904E-1,-1.0800016E0,-1.9019096E-1,-2.1407035E-1,7.814143E-1,8.672961E-2,-2.3205967E-1,2.6876312E-1,-9.578037E-1,-1.7830472E-1,3.211221E-1,-3.4894675E-1,1.800772E-1,5.867412E-1,-9.312646E-2,-1.459417E-1,-4.264011E-1],"categories":[],"categories_nodes":[],"categories_segments":[],"categories_sizes":[],"default_left":[1,1,1,1,1,1,0,1,0,0,1,0,0,1,1,1,0,0,0,1,0,0,0,0,0],"id":5,"left_children":[1,3,5,7,9,11,-1,13,-1,-1,15,-1,-1,17,19,21,-1,-1,-1,23,-1,-1,-1,-1,-1],"loss_changes":[1.1584703E2,5.301586E0,1.0135498E0,7.134077E-1,3.3552513E0,1.0722206E0,0E0,2.892484E-1,0E0,0E0,2.4199433E0,0E0,0E0,3.6319998E-1,4.216378E-1,5.8655137E-1,0E0,0E0,0E0,3.4358025E-2,0E0,0E0,0E0,0E0,0E0],"parents":[2147483647,0,0,1,1,2,2,3,3,4,4,5,5,7,7,10,10,13,13,14,14,15,15,19,19],"right_children":[2,4,6,8,10,12,-1,14,-1,-1,16,-1,-1,18,20,22,-1,-1,-1,24,-1,-1,-1,-1,-1],"split_conditions":[2.4464011E0,1.0061364E-1,2.8606105E0,1.1766841E0,1.8446654E0,7.610721E-1,3.284168E-1,3.6645457E-2,-2.2280712E-1,-3.2400048E-1,7.495825E-1,-6.422111E-2,2.344243E-1,1.6960606E-2,9.3442425E-2,2.5400454E-1,-2.8734112E-1,-5.3491417E-2,9.633664E-2,5.7313636E-2,5.402316E-2,1.7602237E-1,-2.793794E-2,-4.3782514E-2,-1.2792034E-1],"split_indices":[11,14,11,10,11,13,0,14,0,0,10,0,0,14,14,14,0,0,0,14,0,0,0,0,0],"split_type":[0,0,0,0,0,0,0,0,0,0,0,0,0,0,0,0,0,0,0,0,0,0,0,0,0],"sum_hessian":[1.2254796E2,6.74504E1,5.5097553E1,1.17143135E1,5.573609E1,2.6610627E0,5.243649E1,1.0372951E1,1.3413625E0,5.059778E1,5.1383114E0,1.527916E0,1.1331466E0,3.924859E0,6.4480915E0,3.6223736E0,1.515938E0,1.954331E0,1.970528E0,5.1428413E0,1.30525E0,1.5974395E0,2.0249338E0,2.2168324E0,2.9260092E0],"tree_param":{"num_deleted":"0","num_feature":"15","num_nodes":"25","size_leaf_vector":"0"}},{"base_weights":[-3.8228557E-3,-8.270732E-1,9.872494E-1,-2.757379E-1,-9.827761E-1,1.0316987E0,-1.5043737E-1,-1.6854893E-1,-7.054747E-1,-1.0323131E0,-3.06666E-1,3.4448376E-1,1.0588337E0,4.8995573E-2,-3.0948818E-1,1.3462803E-1,-5.224391E-1,-9.940999E-2,3.3033124E-1,-4.1635257E-1,1.0735563E-1,-1.07015654E-1,-6.893507E-1,1.0927616E-1,-2.4205852E-1,-1.596031E-1,-5.612192E-1],"categories":[],"categories_nodes":[],"categories_segments":[],"categories_sizes":[],"default_left":[1,1,1,1,1,1,0,1,0,0,1,0,0,1,1,0,1,1,0,1,0,0,0,0,0,0,0],"id":6,"left_children":[1,3,5,7,9,11,-1,13,-1,-1,15,-1,-1,17,19,-1,21,23,-1,25,-1,-1,-1,-1,-1,-1,-1],"loss_changes":[8.138564E1,4.406296E0,2.4441376E0,4.978181E-1,1.0933495E0,4.499359E-1,0E0,3.8400328E-1,0E0,0E0,4.7943425E-1,0E0,0E0,2.6635087E-1,3.7598014E-1,0E0,1.4051366E-1,1.5833063E-1,0E0,1.3822007E-1,0E0,0E0,0E0,0E0,0E0,0E0,0E0],"parents":[2147483647,0,0,1,1,2,2,3,3,4,4,5,5,7,7,10,10,13,13,14,14,16,16,17,17,19,19],"right_children":[2,4,6,8,10,12,-1,14,-1,-1,16,-1,-1,18,20,-1,22,24,-1,26,-1,-1,-1,-1,-1,-1,-1],"split_conditions":[2.293208E0,1.1692727E-1,8.7157273E-1,1.1766841E0,1.8446654E0,2.559085E0,-4.5131214E-2,3.9712124E-2,-2.1164241E-1,-3.0969393E-1,2.1809393E-1,1.0334513E-1,3.1765014E-1,2.5475759E-2,9.824546E-2,4.038841E-2,1.9964497E0,1.2230303E-2,9.9099375E-2,7.0121214E-2,3.220669E-2,-3.2104697E-2,-2.0680523E-1,3.278285E-2,-7.261756E-2,-4.7880933E-2,-1.6836578E-1],"split_indices":[11,14,14,10,11,11,0,14,0,0,14,0,0,14,14,0,11,14,0,14,0,0,0,0,0,0,0],"split_type":[0,0,0,0,0,0,0,0,0,0,0,0,0,0,0,0,0,0,0,0,0,0,0,0,0,0,0],"sum_hessian":[9.7748695E1,5.3485535E1,4.4263157E1,1.2388716E1,4.109682E1,4.2688484E1,1.5746752E0,1.10297785E1,1.3589368E0,3.7800434E1,3.2963865E0,2.141769E0,4.0546715E1,4.592879E0,6.4369E0,1.2059906E0,2.090396E0,3.4301255E0,1.1627535E0,5.124367E0,1.3125328E0,1.0695536E0,1.0208423E0,1.4876833E0,1.9424422E0,2.606518E0,2.5178492E0],"tree_param":{"num_deleted":"0","num_feature":"15","num_nodes":"27","size_leaf_vector":"0"}},{"base_weights":[-7.6142936E-3,-7.080408E-1,1.0026128E0,-1.4922178E-1,-8.682831E-1,1.0285106E0,1.5879162E-1,-4.9627025E-2,-6.0625136E-1,-9.994488E-1,-1.3438344E-1,-1.11220315E-1,2.3656544E-1,1.9515224E-1,-8.459333E-1,7.9203196E-2,-2.5582203E-1,-1.2537718E-1,5.6385726E-1,-1.4955357E-1,2.7979928E-1,-3.5438418E-1,7.129083E-3,1.02794506E-1,-2.7482563E-1],"categories":[],"categories_nodes":[],"categories_segments":[],"categories_sizes":[],"default_left":[1,1,1,1,1,0,0,1,0,0,1,1,0,1,0,1,1,1,0,0,0,0,0,0,0],"id":7,"left_children":[1,3,5,7,9,-1,-1,11,-1,-1,13,15,-1,17,-1,19,21,23,-1,-1,-1,-1,-1,-1,-1],"loss_changes":[5.697893E1,4.1281815E0,5.5727005E-1,5.0718427E-1,3.402794E0,0E0,0E0,2.1634868E-1,0E0,0E0,1.7423736E0,2.8327227E-1,0E0,7.1005934E-1,0E0,2.6606262E-1,1.4935765E-1,1.5483598E-1,0E0,0E0,0E0,0E0,0E0,0E0,0E0],"parents":[2147483647,0,0,1,1,2,2,3,3,4,4,7,7,10,10,11,11,13,13,15,15,16,16,17,17],"right_children":[2,4,6,8,10,-1,-1,12,-1,-1,14,16,-1,18,-1,20,22,24,-1,-1,-1,-1,-1,-1,-1],"split_conditions":[2.559085E0,1.0061364E-1,8.7157273E-1,1.1766841E0,1.8446654E0,3.085532E-1,4.763749E-2,9.3442425E-2,-1.8187541E-1,-2.9983464E-1,7.495825E-1,3.6645457E-2,7.0969634E-2,4.1852272E-1,-2.5378E-1,1.6960606E-2,6.650606E-2,1.5712577E-1,1.6915718E-1,-4.486607E-2,8.393979E-2,-1.0631526E-1,2.138725E-3,3.0838354E-2,-8.244769E-2],"split_indices":[11,14,14,10,11,0,0,14,0,0,10,14,0,14,0,14,14,14,0,0,0,0,0,0,0],"split_type":[0,0,0,0,0,0,0,0,0,0,0,0,0,0,0,0,0,0,0,0,0,0,0,0,0],"sum_hessian":[7.852212E1,4.6547916E1,3.1974203E1,1.0803543E1,3.5744373E1,3.0809746E1,1.1644568E0,9.780736E0,1.0228076E0,3.0017654E1,5.726718E0,8.551659E0,1.2290773E0,4.4100533E0,1.3166643E0,3.8862238E0,4.6654344E0,2.712193E0,1.6978605E0,1.9345484E0,1.9516755E0,3.1405437E0,1.5248909E0,1.1969355E0,1.5152574E0],"tree_param":{"num_deleted":"0","num_feature":"15","num_nodes":"25","size_leaf_vector":"0"}},{"base_weights":[-9.644837E-3,-6.312233E-1,9.696672E-1,-1.5017717E-1,-8.2321393E-1,1.0025548E0,1.3615637E-1,-6.200633E-2,-5.840144E-1,-9.582626E-1,-1.9969052E-1,-1.1007811E-1,2.0086604E-1,7.380341E-2,-7.582042E-1,5.826822E-3,-3.3989352E-1,-2.4832976E-1,4.4967097E-1,-9.94849E-2,2.3866606E-1,4.918657E-2,-3.9842516E-1],"categories":[],"categories_nodes":[],"categories_segments":[],"categories_sizes":[],"default_left":[1,1,1,1,1,0,0,1,0,0,1,1,0,1,0,1,0,1,0,0,0,0,0],"id":8,"left_children":[1,3,5,7,9,-1,-1,11,-1,-1,13,15,-1,17,-1,19,-1,21,-1,-1,-1,-1,-1],"loss_changes":[3.992554E1,3.5811176E0,5.616913E-1,4.4828245E-1,2.2041054E0,0E0,0E0,1.692704E-1,0E0,0E0,1.0225273E0,2.8142604E-1,0E0,7.3631966E-1,0E0,2.1885389E-1,0E0,1.7242393E-1,0E0,0E0,0E0,0E0,0E0],"parents":[2147483647,0,0,1,1,2,2,3,3,4,4,7,7,10,10,11,11,13,13,15,15,17,17],"right_children":[2,4,6,8,10,-1,-1,12,-1,-1,14,16,-1,18,-1,20,-1,22,-1,-1,-1,-1,-1],"split_conditions":[2.559085E0,1.1692727E-1,8.7157273E-1,1.1766841E0,1.8446654E0,3.0076644E-1,4.084691E-2,9.824546E-2,-1.7520434E-1,-2.874788E-1,7.495825E-1,7.0121214E-2,6.0259815E-2,4.1852272E-1,-2.2746128E-1,4.493788E-2,-1.0196806E-1,2.136856E0,1.349013E-1,-2.984547E-2,7.159982E-2,1.4755971E-2,-1.19527556E-1],"split_indices":[11,14,14,10,11,0,0,14,0,0,10,14,0,14,0,14,0,11,0,0,0,0,0],"split_type":[0,0,0,0,0,0,0,0,0,0,0,0,0,0,0,0,0,0,0,0,0,0,0],"sum_hessian":[6.35839E1,3.9113586E1,2.4470316E1,1.1665943E1,2.7447641E1,2.3346338E1,1.1239786E0,1.064536E1,1.0205829E0,2.211986E1,5.327781E0,9.490982E0,1.1543784E0,4.159035E0,1.168746E0,6.9569597E0,2.5340226E0,2.4223247E0,1.7367109E0,5.1846886E0,1.7722707E0,1.0377042E0,1.3846203E0],"tree_param":{"num_deleted":"0","num_feature":"15","num_nodes":"23","size_leaf_vector":"0"}},{"base_weights":[-1.2656639E-2,-5.338371E-1,9.7992635E-1,-7.061792E-2,-7.252239E-1,-1.3100544E-1,2.4204487E-1,-9.30677E-1,-9.57342E-2,1.5791744E-1,-1.9984655E-1,-2.8095943E-1,5.0455254E-1,-9.462681E-2,-3.235544E-1,5.5264726E-2,-7.7922535E-1,-2.4049436E-1,1.5938805E-1,4.8544887E-1,-3.2361788E-1],"categories":[],"categories_nodes":[],"categories_segments":[],"categories_sizes":[],"default_left":[1,1,0,1,1,1,0,0,1,0,1,1,0,1,0,1,0,0,0,0,0],"id":9,"left_children":[1,3,-1,5,7,9,-1,-1,11,-1,13,15,-1,17,-1,19,-1,-1,-1,-1,-1],"loss_changes":[2.8163168E1,3.1121016E0,0E0,2.495967E-1,3.162468E0,2.3683874E-1,0E0,0E0,9.535653E-1,0E0,8.362004E-2,1.0854089E0,0E0,2.6642323E-1,0E0,9.148041E-1,0E0,0E0,0E0,0E0,0E0],"parents":[2147483647,0,0,1,1,3,3,4,4,5,5,8,8,10,10,11,11,13,13,15,15],"right_children":[2,4,-1,6,8,10,-1,-1,12,-1,14,16,-1,18,-1,20,-1,-1,-1,-1,-1],"split_conditions":[2.8606105E0,1.0061364E-1,2.9397792E-1,9.3442425E-2,1.8446654E0,1.2230303E-2,7.261346E-2,-2.7920312E-1,1.4196651E0,4.7375236E-2,5.7313636E-2,2.3450518E0,1.5136577E-1,3.8098484E-2,-9.706632E-2,2.5400454E-1,-2.3376761E-1,-7.214831E-2,4.7816418E-2,1.4563467E-1,-9.7085364E-2],"split_indices":[11,14,0,14,11,14,0,0,7,0,14,11,0,14,0,14,0,0,0,0,0],"split_type":[0,0,0,0,0,0,0,0,0,0,0,0,0,0,0,0,0,0,0,0,0],"sum_hessian":[5.2429832E1,3.4681576E1,1.7748255E1,1.0540082E1,2.4141495E1,9.320858E0,1.2192245E0,1.7840305E1,6.301189E0,1.5445429E0,7.7763147E0,5.221878E0,1.0793113E0,5.1558914E0,2.6204233E0,3.648797E0,1.5730808E0,3.3089566E0,1.8469348E0,1.5770015E0,2.0717957E0],"tree_param":{"num_deleted":"0","num_feature":"15","num_nodes":"21","size_leaf_vector":"0"}},{"base_weights":[-9.92253E-3,-5.3773737E-1,8.213871E-1,-1.6940254E-1,-8.466355E-1,9.021821E-1,-1.18474625E-1,-2.8785372E-1,6.0708976E-1,-9.037931E-1,-3.0762536E-2,3.424738E-1,9.549316E-1,-3.655996E-1,2.0673408E-1,-1.7671084E-1,-4.4186705E-1,-3.8856065E-1,2.0194125E-1,-7.3712456E-1,-2.2081053E-1],"categories":[],"categories_nodes":[],"categories_segments":[],"categories_sizes":[],"default_left":[1,1,1,1,1,1,0,1,0,0,0,0,0,1,0,1,1,0,0,0,0],"id":10,"left_children":[1,3,5,7,9,11,-1,13,-1,-1,-1,-1,-1,15,-1,17,19,-1,-1,-1,-1],"loss_changes":[2.0055914E1,3.0362558E0,1.4551792E0,1.4621444E0,6.693363E-1,1.5911293E-1,0E0,5.6864417E-1,0E0,0E0,0E0,0E0,0E0,8.675313E-2,0E0,4.7614896E-1,3.2574153E-1,0E0,0E0,0E0,0E0],"parents":[2147483647,0,0,1,1,2,2,3,3,4,4,5,5,7,7,13,13,15,15,16,16],"right_children":[2,4,6,8,10,12,-1,14,-1,-1,-1,-1,-1,16,-1,18,20,-1,-1,-1,-1],"split_conditions":[2.293208E0,1.7834546E-1,8.7157273E-1,2.1011882E0,2.013157E0,2.559085E0,-3.5542388E-2,1.0636185E0,1.8212694E-1,-2.7113795E-1,-9.228761E-3,1.0274214E-1,2.864795E-1,3.9712124E-2,6.2020224E-2,2.4231818E-2,6.68E-2,-1.165682E-1,6.0582377E-2,-2.2113737E-1,-6.6243164E-2],"split_indices":[11,14,14,6,9,11,0,9,0,0,0,0,0,14,0,14,14,0,0,0,0],"split_type":[0,0,0,0,0,0,0,0,0,0,0,0,0,0,0,0,0,0,0,0,0],"sum_hessian":[4.3701977E1,2.6946352E1,1.6755625E1,1.2996973E1,1.3949379E1,1.5466169E1,1.2894554E0,1.1822744E1,1.1742284E0,1.2935401E1,1.0139773E0,1.9773704E0,1.3488798E1,1.0442113E1,1.380631E0,3.9575605E0,6.484553E0,2.520957E0,1.4366034E0,1.7767959E0,4.707757E0],"tree_param":{"num_deleted":"0","num_feature":"15","num_nodes":"21","size_leaf_vector":"0"}},{"base_weights":[-7.7237273E-3,-3.9180472E-1,9.312296E-1,1.6877549E-2,-5.843192E-1,-1.01998135E-1,3.9118645E-1,-8.112425E-1,-4.7800764E-2,9.0576954E-2,-3.1927985E-1,-1.6588986E-1,-8.571746E-1,1.1418615E-1,-4.7494313E-1,-3.7462477E-2,1.7783539E-1,-4.2327395E-1,-9.608412E-2,-1.7195113E-1,5.2435267E-1,3.934755E-2,-3.6448938E-1],"categories":[],"categories_nodes":[],"categories_segments":[],"categories_sizes":[],"default_left":[1,1,0,1,1,1,0,1,1,1,1,0,0,1,0,0,0,0,0,1,0,0,0],"id":11,"left_children":[1,3,-1,5,7,9,-1,11,13,15,17,-1,-1,19,-1,-1,-1,-1,-1,21,-1,-1,-1],"loss_changes":[1.4100463E1,2.1919236E0,0E0,4.7832084E-1,2.2600002E0,3.7501305E-1,0E0,2.4927521E-1,5.1607513E-1,6.435616E-2,5.466512E-2,0E0,0E0,7.5276667E-1,0E0,0E0,0E0,0E0,0E0,1.8027714E-1,0E0,0E0,0E0],"parents":[2147483647,0,0,1,1,3,3,4,4,5,5,7,7,8,8,9,9,10,10,13,13,19,19],"right_children":[2,4,-1,6,8,10,-1,12,14,16,18,-1,-1,20,-1,-1,-1,-1,-1,22,-1,-1,-1],"split_conditions":[2.8606105E0,9.421212E-2,2.7936888E-1,6.68E-2,1.8446654E0,3.642121E-2,1.17355935E-1,1.0061364E-1,8.5702574E-1,1.6960606E-2,4.6068184E-2,-4.976696E-2,-2.5715238E-1,4.1852272E-1,-1.4248295E-1,-1.1238744E-2,5.335062E-2,-1.269822E-1,-2.8825236E-2,2.2398064E0,1.573058E-1,1.1804266E-2,-1.09346814E-1],"split_indices":[11,14,0,14,11,14,0,14,14,14,14,0,0,14,0,0,0,0,0,11,0,0,0],"split_type":[0,0,0,0,0,0,0,0,0,0,0,0,0,0,0,0,0,0,0,0,0,0,0],"sum_hessian":[3.7087364E1,2.6734343E1,1.0353022E1,8.8529825E0,1.7881361E1,7.2712345E0,1.5817475E0,1.2206504E1,5.6748567E0,4.1639204E0,3.107314E0,1.1174725E0,1.1089031E1,4.645717E0,1.0291398E0,1.9188911E0,2.2450294E0,1.5081797E0,1.5991346E0,3.0787323E0,1.5669848E0,1.847192E0,1.2315402E0],"tree_param":{"num_deleted":"0","num_feature":"15","num_nodes":"23","size_leaf_vector":"0"}},{"base_weights":[-8.858793E-3,-3.290617E-1,9.020217E-1,-2.6535382E-2,-5.498917E-1,-7.486709E-2,2.3346768E-1,-7.958942E-1,-1.15014985E-1,2.0019684E-2,-2.85731E-1,1.4155921E-2,-4.0217295E-1,-7.662367E-2,2.5010744E-1,-2.6685902E-1,4.2665276E-1,1.0970718E-1,-2.9757047E-1,-7.059975E-2,-3.22232E-1],"categories":[],"categories_nodes":[],"categories_segments":[],"categories_sizes":[],"default_left":[1,1,0,1,1,1,0,0,1,1,0,1,0,1,0,1,0,0,0,0,0],"id":12,"left_children":[1,3,-1,5,7,9,-1,-1,11,13,-1,15,-1,17,-1,19,-1,-1,-1,-1,-1],"loss_changes":[9.987347E0,1.676671E0,0E0,1.6491613E-1,1.468565E0,2.1882226E-1,0E0,0E0,2.4448659E-1,2.0327988E-1,0E0,7.405528E-1,0E0,3.042096E-1,0E0,1.8882602E-2,0E0,0E0,0E0,0E0,0E0],"parents":[2147483647,0,0,1,1,3,3,4,4,5,5,8,8,9,9,11,11,13,13,15,15],"right_children":[2,4,-1,6,8,10,-1,-1,12,14,-1,16,-1,18,-1,20,-1,-1,-1,-1,-1],"split_conditions":[2.8606105E0,1.1692727E-1,2.7060652E-1,9.737727E-2,1.8446654E0,6.827576E-2,7.004031E-2,-2.3876826E-1,8.5702574E-1,4.6068184E-2,-8.57193E-2,4.1852272E-1,-1.2065189E-1,2.470303E-2,7.5032234E-2,2.136856E0,1.2799583E-1,3.2912154E-2,-8.927114E-2,-2.1179926E-2,-9.666961E-2],"split_indices":[11,14,0,14,11,14,0,0,14,14,0,14,0,14,0,11,0,0,0,0,0],"split_type":[0,0,0,0,0,0,0,0,0,0,0,0,0,0,0,0,0,0,0,0,0],"sum_hessian":[3.222467E1,2.4315691E1,7.9089794E0,1.073265E1,1.358304E1,9.650737E0,1.0819126E0,8.145249E0,5.437791E0,7.2799063E0,2.3708308E0,4.406389E0,1.0314018E0,5.5962877E0,1.6836184E0,2.8308954E0,1.5754936E0,3.3090978E0,2.2871902E0,1.1235754E0,1.7073201E0],"tree_param":{"num_deleted":"0","num_feature":"15","num_nodes":"21","size_leaf_vector":"0"}},{"base_weights":[-8.256853E-3,-2.7134657E-1,8.692997E-1,-3.3633846E-1,5.3389615E-1,-4.5277554E-1,1.3442983E-1,-5.5554366E-1,2.595397E-1,5.5521166E-1,-1.1281251E-1,-2.0347965E-1,-8.3486634E-1,-2.8628772E-1,1.8175322E-1,-3.3187684E-1,3.5588047E-1],"categories":[],"categories_nodes":[],"categories_segments":[],"categories_sizes":[],"default_left":[1,1,0,1,0,1,1,1,0,0,1,1,0,0,0,0,0],"id":13,"left_children":[1,3,-1,5,-1,7,9,11,-1,-1,13,15,-1,-1,-1,-1,-1],"loss_changes":[7.083937E0,1.4137135E0,0E0,1.2905989E0,0E0,1.4775629E0,6.0565287E-1,1.4268165E0,0E0,0E0,2.625078E-1,7.2895855E-1,0E0,0E0,0E0,0E0,0E0],"parents":[2147483647,0,0,1,1,3,3,5,5,6,6,7,7,10,10,11,11],"right_children":[2,4,-1,6,-1,8,10,12,-1,-1,14,16,-1,-1,-1,-1,-1],"split_conditions":[2.8606105E0,2.1095424E0,2.6078993E-1,2.141508E0,1.6016886E-1,2.1237528E0,1.5712577E-1,1.0061364E-1,7.786191E-2,1.6656351E-1,5.869506E-1,9.2583336E-2,-2.504599E-1,-8.588632E-2,5.4525968E-2,-9.9563055E-2,1.06764145E-1],"split_indices":[11,6,0,11,0,9,14,14,0,0,7,14,0,0,0,0,0],"split_type":[0,0,0,0,0,0,0,0,0,0,0,0,0,0,0,0,0],"sum_hessian":[2.8661173E1,2.2581944E1,6.0792284E0,2.1434278E1,1.1476668E0,1.7214712E1,4.2195663E0,1.52365675E1,1.978144E0,1.1006877E0,3.1188784E0,7.505259E0,7.7313085E0,1.9805804E0,1.138298E0,6.4348655E0,1.0703936E0],"tree_param":{"num_deleted":"0","num_feature":"15","num_nodes":"17","size_leaf_vector":"0"}},{"base_weights":[6.93614E-3,-2.1039629E-1,8.326937E-1,-1.00329556E-1,-7.426133E-1,3.755881E-2,-4.616882E-1,-7.9145096E-2,3.7768117E-1,-8.0092156E-1,3.138476E-1,1.1580523E-1,-3.3308178E-1,2.149549E-2,4.9807066E-1,2.9527709E-2,2.6933196E-1,-4.0608388E-1,-6.5913456E-3],"categories":[],"categories_nodes":[],"categories_segments":[],"categories_sizes":[],"default_left":[1,1,0,1,0,1,1,1,1,0,0,1,1,0,0,0,0,0,0],"id":14,"left_children":[1,3,-1,5,-1,7,9,11,13,-1,-1,15,17,-1,-1,-1,-1,-1,-1],"loss_changes":[4.919582E0,1.1982241E0,0E0,9.7200656E-1,0E0,6.170631E-1,1.6633481E0,6.247286E-1,1.5877086E-1,0E0,0E0,9.059845E-2,1.2603444E-1,0E0,0E0,0E0,0E0,0E0,0E0],"parents":[2147483647,0,0,1,1,3,3,5,5,6,6,7,7,8,8,11,11,12,12],"right_children":[2,4,-1,6,-1,8,10,12,14,-1,-1,16,18,-1,-1,-1,-1,-1,-1],"split_conditions":[2.8606105E0,6.0095114E-1,2.4980812E-1,4.542E-1,-2.22784E-1,1.8446654E0,2.2880936E0,7.0121214E-2,1.419591E-1,-2.4027647E-1,9.415428E-2,4.493788E-2,2.727409E-1,6.448647E-3,1.494212E-1,8.858313E-3,8.0799595E-2,-1.21825166E-1,-1.9774039E-3],"split_indices":[11,10,0,14,0,11,11,14,14,0,0,14,14,0,0,0,0,0,0],"split_type":[0,0,0,0,0,0,0,0,0,0,0,0,0,0,0,0,0,0,0],"sum_hessian":[2.543644E1,2.0726585E1,4.7098546E0,1.8159557E1,2.5670288E0,1.3792596E1,4.36696E0,1.084033E1,2.952266E0,3.0152862E0,1.351674E0,6.440126E0,4.400204E0,1.0435013E0,1.9087647E0,4.886427E0,1.5536991E0,3.3968875E0,1.0033166E0],"tree_param":{"num_deleted":"0","num_feature":"15","num_nodes":"19","size_leaf_vector":"0"}},{"base_weights":[5.1383246E-3,-1.7552832E-1,7.923325E-1,-8.011211E-2,-6.712722E-1,2.9170664E-2,-4.3270656E-1,-5.6185123E-2,5.842388E-1,-7.3236644E-1,2.1739131E-1,1.30824E-1,-3.2105988E-1,-1.1508111E-2,5.331534E-1,-5.708205E-1,1.2175091E-1],"categories":[],"categories_nodes":[],"categories_segments":[],"categories_sizes":[],"default_left":[1,1,0,1,0,1,1,1,0,0,0,1,1,0,0,0,0],"id":15,"left_children":[1,3,-1,5,-1,7,9,11,-1,-1,-1,13,15,-1,-1,-1,-1],"loss_changes":[3.5696313E0,9.129571E-1,0E0,7.167765E-1,0E0,7.381618E-1,1.0138254E0,7.263351E-1,0E0,0E0,0E0,5.1054853E-1,7.3384404E-1,0E0,0E0,0E0,0E0],"parents":[2147483647,0,0,1,1,3,3,5,5,6,6,7,7,11,11,12,12],"right_children":[2,4,-1,6,-1,8,10,12,-1,-1,-1,14,16,-1,-1,-1,-1],"split_conditions":[2.8606105E0,6.0095114E-1,2.3769975E-1,5.0428635E-1,-2.0138167E-1,3.781379E-1,2.2880936E0,9.421212E-2,1.7527166E-1,-2.1970995E-1,6.52174E-2,6.650606E-2,2.1217968E0,-3.4524335E-3,1.5994602E-1,-1.7124616E-1,3.6525276E-2],"split_indices":[11,10,0,14,0,14,11,14,0,0,0,14,11,0,0,0,0],"split_type":[0,0,0,0,0,0,0,0,0,0,0,0,0,0,0,0,0],"sum_hessian":[2.3121508E1,1.9437487E1,3.684021E0,1.727429E1,2.1631966E0,1.3887334E1,3.3869574E0,1.2815416E1,1.0719167E0,2.2317116E0,1.1552459E0,7.808491E0,5.0069256E0,6.4855084E0,1.3229824E0,3.016456E0,1.9904698E0],"tree_param":{"num_deleted":"0","num_feature":"15","num_nodes":"17","size_leaf_vector":"0"}},{"base_weights":[5.654984E-3,-1.435508E-1,7.48837E-1,4.3779004E-2,-3.424227E-1,-3.1635564E-2,2.940598E-1,-4.9449128E-1,3.38401E-1,1.2919565E-1,-2.3002188E-1,-6.3205606E-1,-1.650941E-1,1.4480625E-2,2.981468E-1,-3.6421916E-1,3.811355E-2,9.060269E-2,-4.1081488E-1,1.7670006E-1,-2.0597617E-1],"categories":[],"categories_nodes":[],"categories_segments":[],"categories_sizes":[],"default_left":[1,1,0,1,1,1,0,1,0,1,1,0,1,1,0,0,0,0,0,0,0],"id":16,"left_children":[1,3,-1,5,7,9,-1,11,-1,13,15,-1,17,19,-1,-1,-1,-1,-1,-1,-1],"loss_changes":[2.5963814E0,7.4263215E-1,0E0,2.1587415E-1,1.1599253E0,3.2686535E-1,0E0,2.6917624E-1,0E0,1.07777335E-1,1.7686112E-1,0E0,2.748402E-1,1.9717625E-1,0E0,0E0,0E0,0E0,0E0,0E0,0E0],"parents":[2147483647,0,0,1,1,3,3,4,4,5,5,7,7,9,9,10,10,12,12,13,13],"right_children":[2,4,-1,6,8,10,-1,12,-1,14,16,-1,18,20,-1,-1,-1,-1,-1,-1,-1],"split_conditions":[2.8606105E0,1.1692727E-1,2.2465111E-1,9.3442425E-2,1.154577E0,4.101818E-2,8.8217944E-2,2.141508E0,1.015203E-1,2.5475759E-2,6.68E-2,-1.8961683E-1,2.4879313E0,1.9125758E-2,8.944405E-2,-1.0926575E-1,1.1434065E-2,2.7180808E-2,-1.2324447E-1,5.301002E-2,-6.1792854E-2],"split_indices":[11,14,0,14,9,14,0,11,0,14,14,0,11,14,0,0,0,0,0,0,0],"split_type":[0,0,0,0,0,0,0,0,0,0,0,0,0,0,0,0,0,0,0,0,0],"sum_hessian":[2.144523E1,1.8531563E1,2.9136672E0,9.944285E0,8.587277E0,8.31301E0,1.6312749E0,7.243139E0,1.3441387E0,4.78367E0,3.5293403E0,4.4611998E0,2.7819388E0,3.4957933E0,1.2878766E0,2.1133192E0,1.4160211E0,1.6726543E0,1.1092844E0,2.1282434E0,1.36755E0],"tree_param":{"num_deleted":"0","num_feature":"15","num_nodes":"21","size_leaf_vector":"0"}},{"base_weights":[9.011987E-3,-1.1711812E-1,7.07737E-1,1.556497E-2,-7.27549E-1,-7.480426E-2,6.712586E-1,7.98006E-2,-4.2007342E-1,-4.753387E-2,6.615332E-1,-6.696673E-1,-4.4678893E-2,4.9407966E-2,-2.468711E-1,1.02624945E-1,-1.6868915E-1],"categories":[],"categories_nodes":[],"categories_segments":[],"categories_sizes":[],"default_left":[1,1,0,1,0,1,0,1,1,1,0,0,1,0,0,0,0],"id":17,"left_children":[1,3,-1,5,-1,7,-1,9,11,13,-1,-1,15,-1,-1,-1,-1],"loss_changes":[1.9618114E0,1.5435493E0,0E0,1.0290428E0,0E0,8.5653317E-1,0E0,8.825388E-1,4.3183362E-1,2.1238217E-1,0E0,0E0,7.2836705E-2,0E0,0E0,0E0,0E0],"parents":[2147483647,0,0,1,1,3,3,5,5,7,7,8,8,9,9,12,12],"right_children":[2,4,-1,6,-1,8,-1,10,12,14,-1,-1,16,-1,-1,-1,-1],"split_conditions":[1.1275263E0,5.442788E-1,2.1232112E-1,4.324909E-1,-2.1826471E-1,1.1692727E-1,2.013776E-1,1.106574E0,2.1217968E0,6.827576E-2,1.9845997E-1,-2.009002E-1,2.3032746E0,1.4822391E-2,-7.4061334E-2,3.0787485E-2,-5.0606746E-2],"split_indices":[13,14,0,14,0,14,0,11,11,14,0,0,11,0,0,0,0],"split_type":[0,0,0,0,0,0,0,0,0,0,0,0,0,0,0,0,0],"sum_hessian":[2.0319834E1,1.7917791E1,2.4020407E0,1.5519073E1,2.3987198E0,1.4417882E1,1.1011903E0,1.048968E1,3.9282017E0,9.3593235E0,1.1303573E0,1.8885994E0,2.0396023E0,6.8030143E0,2.5563085E0,1.0110677E0,1.0285347E0],"tree_param":{"num_deleted":"0","num_feature":"15","num_nodes":"17","size_leaf_vector":"0"}},{"base_weights":[1.1077425E-2,-9.489638E-2,6.6265696E-1,-1.6389634E-1,4.1910976E-1,-5.3199753E-2,-4.8627222E-1,-1.4432433E-1,5.398776E-1,-6.9917214E-1,3.5927497E-2,1.20576344E-1,-2.4985394E-1,-5.5850025E-2,2.8682303E-1,-3.631361E-1,1.4977907E-1],"categories":[],"categories_nodes":[],"categories_segments":[],"categories_sizes":[],"default_left":[1,1,0,1,0,1,1,1,0,0,0,1,1,0,0,0,0],"id":18,"left_children":[1,3,-1,5,-1,7,9,11,-1,-1,-1,13,15,-1,-1,-1,-1],"loss_changes":[1.4529344E0,7.138098E-1,0E0,5.720725E-1,0E0,8.126799E-1,4.8761696E-1,3.816308E-1,0E0,0E0,0E0,1.4086717E-1,4.7619963E-1,0E0,0E0,0E0,0E0],"parents":[2147483647,0,0,1,1,3,3,5,5,6,6,7,7,11,11,12,12],"right_children":[2,4,-1,6,-1,8,10,12,-1,-1,-1,14,16,-1,-1,-1,-1],"split_conditions":[2.8606105E0,1.5106547E0,1.9879709E-1,4.542E-1,1.2573293E-1,3.3566362E-1,2.2880936E0,2.470303E-2,1.6196328E-1,-2.0975165E-1,1.0778249E-2,1.6960606E-2,2.141508E0,-1.675501E-2,8.604691E-2,-1.0894084E-1,4.493372E-2],"split_indices":[11,6,0,14,0,14,11,14,0,0,0,14,11,0,0,0,0],"split_type":[0,0,0,0,0,0,0,0,0,0,0,0,0,0,0,0,0],"sum_hessian":[1.9130968E1,1.7189589E1,1.9413792E0,1.5755691E1,1.4338975E0,1.2595653E1,3.160038E0,1.1573995E1,1.0216582E0,2.00408E0,1.1559579E0,3.256625E0,8.317369E0,1.902104E0,1.354521E0,6.551556E0,1.765814E0],"tree_param":{"num_deleted":"0","num_feature":"15","num_nodes":"17","size_leaf_vector":"0"}},{"base_weights":[2.170192E-2,-7.2878614E-2,6.13967E-1,5.0218437E-2,-5.565551E-1,-1.847589E-2,4.951118E-1,9.582002E-2,-3.2458436E-1,-5.404001E-3,2.8348643E-1,-5.1510566E-1,-8.358079E-2,1.3335657E-1,-2.8676873E-1,4.4442943E-1,8.0868555E-4],"categories":[],"categories_nodes":[],"categories_segments":[],"categories_sizes":[],"default_left":[1,1,0,1,0,1,0,1,1,1,1,0,0,0,0,0,0],"id":19,"left_children":[1,3,-1,5,-1,7,-1,9,11,13,15,-1,-1,-1,-1,-1,-1],"loss_changes":[1.113036E0,1.0602807E0,0E0,4.5957768E-1,0E0,5.115114E-1,0E0,2.061244E-1,1.3882253E-1,3.4970918E-1,1.7217717E-1,0E0,0E0,0E0,0E0,0E0,0E0],"parents":[2147483647,0,0,1,1,3,3,5,5,7,7,8,8,9,9,10,10],"right_children":[2,4,-1,6,-1,8,-1,10,12,14,16,-1,-1,-1,-1,-1,-1],"split_conditions":[1.1275263E0,4.542E-1,1.8419011E-1,3.537591E-1,-1.6696653E-1,1.1692727E-1,1.4853354E-1,6.68E-2,2.1217968E0,4.101818E-2,9.421212E-2,-1.545317E-1,-2.5074238E-2,4.0006973E-2,-8.6030625E-2,1.3332884E-1,2.4260567E-4],"split_indices":[13,14,0,14,0,14,0,14,11,14,14,0,0,0,0,0,0],"split_type":[0,0,0,0,0,0,0,0,0,0,0,0,0,0,0,0,0],"sum_hessian":[1.8070923E1,1.63387E1,1.7322251E0,1.3738408E1,2.6002908E0,1.2731115E1,1.0072929E0,9.770095E0,2.9610202E0,6.9776664E0,2.7924285E0,1.0185144E0,1.9425058E0,5.0253515E0,1.9523146E0,1.4147346E0,1.3776939E0],"tree_param":{"num_deleted":"0","num_feature":"15","num_nodes":"17","size_leaf_vector":"0"}},{"base_weights":[1.820626E-2,-7.055317E-2,5.9578353E-1,3.5604734E-2,-5.138998E-1,-4.1702524E-2,4.0230227E-1,-1.1988066E-1,4.2885748E-1,-2.157501E-1,2.2375761E-1,-1.0112842E-1,-4.3335783E-1,3.4172985E-1,-3.9195707E-3],"categories":[],"categories_nodes":[],"categories_segments":[],"categories_sizes":[],"default_left":[1,1,0,1,0,1,0,1,0,1,1,0,0,0,0],"id":20,"left_children":[1,3,-1,5,-1,7,-1,9,-1,11,13,-1,-1,-1,-1],"loss_changes":[9.989072E-1,8.2182926E-1,0E0,4.3377665E-1,0E0,5.316622E-1,0E0,4.4282985E-1,0E0,2.024351E-1,8.4692374E-2,0E0,0E0,0E0,0E0],"parents":[2147483647,0,0,1,1,3,3,5,5,7,7,9,9,10,10],"right_children":[2,4,-1,6,-1,8,-1,10,-1,12,14,-1,-1,-1,-1],"split_conditions":[1.4196651E0,4.542E-1,1.7873506E-1,2.0419822E0,-1.5416995E-1,2.1011882E0,1.2069068E-1,2.141508E0,1.2865725E-1,1.0061364E-1,1.498197E-1,-3.0338528E-2,-1.3000736E-1,1.0251896E-1,-1.1758712E-3],"split_indices":[7,14,0,9,0,6,0,11,0,14,14,0,0,0,0],"split_type":[0,0,0,0,0,0,0,0,0,0,0,0,0,0,0],"sum_hessian":[1.7665068E1,1.6072905E1,1.5921638E0,1.3709823E1,2.3630812E0,1.205472E1,1.6551032E0,1.0976361E1,1.0783579E0,8.873077E0,2.1032841E0,6.7711835E0,2.101894E0,1.055454E0,1.04783E0],"tree_param":{"num_deleted":"0","num_feature":"15","num_nodes":"15","size_leaf_vector":"0"}},{"base_weights":[2.4979211E-2,-4.8293933E-2,5.5702174E-1,2.7503286E-2,-5.305037E-1,-2.8461121E-2,3.5392514E-1,-1.1028916E-1,1.5394598E-1,-8.177815E-3,-3.4998012E-1,3.802355E-1,-2.8515747E-1,-1.2432208E-1,4.1334036E-1,-5.1454556E-1,-9.756355E-3,1.3411431E-1,4.660819E-1],"categories":[],"categories_nodes":[],"categories_segments":[],"categories_sizes":[],"default_left":[1,1,0,1,0,1,0,1,1,1,1,1,0,0,0,0,0,0,0],"id":21,"left_children":[1,3,-1,5,-1,7,-1,9,11,13,15,17,-1,-1,-1,-1,-1,-1,-1],"loss_changes":[7.2551936E-1,6.239332E-1,0E0,2.906249E-1,0E0,2.2647195E-1,0E0,2.4853653E-1,5.817869E-1,4.5415267E-1,1.6544679E-1,1.2969732E-2,0E0,0E0,0E0,0E0,0E0,0E0,0E0],"parents":[2147483647,0,0,1,1,3,3,5,5,7,7,8,8,9,9,10,10,11,11],"right_children":[2,4,-1,6,-1,8,-1,10,12,14,16,18,-1,-1,-1,-1,-1,-1,-1],"split_conditions":[2.8606105E0,6.0095114E-1,1.6710652E-1,1.475692E0,-1.591511E-1,1.8446654E0,1.06177546E-1,1.0061364E-1,2.4879313E0,9.3442425E-2,4.1160756E-1,2.1889975E0,-8.5547246E-2,-3.7296627E-2,1.24002114E-1,-1.5436368E-1,-2.9269066E-3,4.0234294E-2,1.3982457E-1],"split_indices":[11,10,0,6,0,11,0,14,11,14,14,11,0,0,0,0,0,0,0],"split_type":[0,0,0,0,0,0,0,0,0,0,0,0,0,0,0,0,0,0,0],"sum_hessian":[1.6920452E1,1.5671408E1,1.2490444E0,1.4357548E1,1.3138593E0,1.3035453E1,1.3220949E0,9.27158E0,3.7638733E0,7.226934E0,2.044646E0,2.572311E0,1.1915623E0,6.218549E0,1.0083853E0,1.0327387E0,1.0119072E0,1.3277932E0,1.2445178E0],"tree_param":{"num_deleted":"0","num_feature":"15","num_nodes":"19","size_leaf_vector":"0"}}]},"name":"gbtree"},"learner_model_param":{"base_score":"5E-1","boost_from_average":"1","num_class":"0","num_feature":"15","num_target":"1"},"objective":{"name":"binary:logistic","reg_loss_param":{"scale_pos_weight":"1"}}},"version":[2,0,3]}