{"learner":{"attributes":{"niter":"22"},"feature_names":[],"feature_types":[],"gradient_booster":{"model":{"gbtree_model_param":{"num_parallel_tree":"1","num_trees":"23"},"iteration_indptr":[0,1,2,3,4,5,6,7,8,9,10,11,12,13,14,15,16,17,18,19,20,21,22,23],"tree_info":[0,0,0,0,0,0,0,0,0,0,0,0,0,0,0,0,0,0,0,0,0,0,0],"trees":[{"base_weights":[-0E0,-1.858748E0,1.9527825E0,-8.5714287E-1,-1.9307958E0,2.5E-1,1.9862306E0,-9.3333334E-1,-0E0,-1.9577465E0,-2.857143E-1,1E0,-3.3333334E-1,-1.0243902E0,-0E0,6.666667E-1,-1.1111112E0,-0E0,-5E-1,-6E-1,-1.2E0,-7.5E-1,-0E0],"categories":[],"categories_nodes":[],"categories_segments":[],"categories_sizes":[],"default_left":[1,1,1,1,1,1,0,1,0,0,1,0,1,1,0,0,0,0,0,1,0,0,0],"id":0,"left_children":[1,3,5,7,9,11,-1,13,-1,-1,15,-1,17,19,-1,-1,-1,-1,-1,21,-1,-1,-1],"loss_changes":[1.103438E3,9.584473E0,7.9470215E0,8.000002E-1,5.847229E0,2.0833333E0,0E0,9.560976E-1,0E0,0E0,3.4920633E0,0E0,1.6666666E-1,4.3902397E-2,0E0,0E0,0E0,0E0,0E0,4.5000005E-1,0E0,0E0,0E0],"parents":[2147483647,0,0,1,1,2,2,3,3,4,4,5,5,7,7,10,10,12,12,13,13,19,19],"right_children":[2,4,6,8,10,12,-1,14,-1,-1,16,-1,18,20,-1,-1,-1,-1,-1,22,-1,-1,-1],"split_conditions":[2.3077765E0,6.8871215E-2,2.6428385E0,1.2225014E0,2.1248574E0,2.3903475E0,5.958692E-1,5.5769697E-2,-0E0,-5.8732396E-1,3.1323636E-1,3E-1,2.5025747E0,2.6716668E-2,-0E0,2.0000002E-1,-3.3333337E-1,-0E0,-1.5E-1,2.3974244E-2,-3.6E-1,-2.2500001E-1,-0E0],"split_indices":[11,14,11,9,11,11,0,14,0,0,14,0,11,14,0,0,0,0,0,14,0,0,0],"split_type":[0,0,0,0,0,0,0,0,0,0,0,0,0,0,0,0,0,0,0,0,0,0,0],"sum_hessian":[3.02E2,1.5475E2,1.4725E2,1.125E1,1.435E2,3E0,1.4425E2,1.025E1,1E0,1.41E2,2.5E0,1E0,2E0,9.25E0,1E0,1.25E0,1.25E0,1E0,1E0,4E0,5.25E0,3E0,1E0],"tree_param":{"num_deleted":"0","num_feature":"15","num_nodes":"23","size_leaf_vector":"0"}},{"base_weights":[-1.5364856E-3,-1.4324572E0,1.5120842E0,-1.456308E0,5.4095495E-1,2.1447636E-1,1.5394357E0,-5.629064E-1,-1.4974833E0,5.396409E-1,-1.2763488E-1,-6.5679944E-1,-2.4791317E-2,-1.5125949E0,-4.0127704E-1,-3.5067362E-1,-1.0383841E0,-5.362716E-1,6.747069E-2],"categories":[],"categories_nodes":[],"categories_segments":[],"categories_sizes":[],"default_left":[1,1,1,1,0,1,0,1,1,0,0,1,0,0,0,1,0,0,0],"id":1,"left_children":[1,3,5,7,-1,9,-1,11,13,-1,-1,15,-1,-1,-1,17,-1,-1,-1],"loss_changes":[6.067591E2,7.565796E0,4.501587E0,4.401184E0,0E0,5.107575E-1,0E0,3.8201118E-1,1.6405334E0,0E0,0E0,4.1532445E-1,0E0,0E0,0E0,4.4069588E-1,0E0,0E0,0E0],"parents":[2147483647,0,0,1,1,2,2,3,3,5,5,7,7,8,8,11,11,15,15],"right_children":[2,4,6,8,-1,10,-1,12,14,-1,-1,16,-1,-1,-1,18,-1,-1,-1],"split_conditions":[2.3077765E0,2.037737E0,2.6428385E0,3.917121E-2,1.6228649E-1,2.4129467E0,4.6183074E-1,3.495606E-2,2.1248574E0,1.6189228E-1,-3.8290467E-2,2.496818E-2,-7.4373954E-3,-4.537785E-1,-1.2038311E-1,1.8478788E-2,-3.1151524E-1,-1.6088147E-1,2.0241208E-2],"split_indices":[11,6,11,14,0,11,0,14,11,0,0,14,0,0,0,14,0,0,0],"split_type":[0,0,0,0,0,0,0,0,0,0,0,0,0,0,0,0,0,0,0],"sum_hessian":[2.7814542E2,1.4300626E2,1.3513918E2,1.4155742E2,1.4488328E0,2.9722292E0,1.3216695E2,6.883067E0,1.3467436E2,1.2278333E0,1.744396E0,5.672708E0,1.210359E0,1.3246838E2,2.205977E0,4.2123494E0,1.460359E0,2.721762E0,1.4905874E0],"tree_param":{"num_deleted":"0","num_feature":"15","num_nodes":"19","size_leaf_vector":"0"}},{"base_weights":[-1.4628007E-3,-1.2193946E0,1.3071667E0,-1.243071E0,4.415303E-1,1.8340594E-1,1.3351585E0,-2.7617073E-1,-1.2750065E0,4.0841013E-1,-1.6809084E-1,-4.2621848E-1,5.5316214E-2,-1.2982203E0,-4.8160508E-1,-8.74419E-1,-1.3303089E0,1.6233365E-1,-9.8082024E-1,-1.0162935E0,7.380547E-2],"categories":[],"categories_nodes":[],"categories_segments":[],"categories_sizes":[],"default_left":[1,1,1,1,0,1,0,1,1,0,0,0,0,1,1,1,0,0,0,0,0],"id":2,"left_children":[1,3,5,7,-1,9,-1,11,13,-1,-1,-1,-1,15,17,19,-1,-1,-1,-1,-1],"loss_changes":[3.779989E2,5.3794403E0,3.3513794E0,3.3957367E0,0E0,3.8008267E-1,0E0,2.8008872E-1,1.5336761E0,0E0,0E0,0E0,0E0,3.7748718E-1,1.7414247E0,1.5403728E0,0E0,0E0,0E0,0E0,0E0],"parents":[2147483647,0,0,1,1,2,2,3,3,5,5,7,7,8,8,13,13,14,14,15,15],"right_children":[2,4,6,8,-1,10,-1,12,14,-1,-1,-1,-1,16,18,20,-1,-1,-1,-1,-1],"split_conditions":[2.3077765E0,2.037737E0,2.6428385E0,2.496818E-2,1.3245909E-1,5.871167E-1,4.0054756E-1,1.8478788E-2,1.8356445E0,1.2252305E-1,-5.0427254E-2,-1.2786555E-1,1.6594864E-2,9.949091E-2,5.1598483E-1,9.261666E-2,-3.990927E-1,4.8700098E-2,-2.9424608E-1,-3.0488807E-1,2.2141641E-2],"split_indices":[11,6,11,14,0,14,0,14,11,0,0,0,0,14,14,14,0,0,0,0,0],"split_type":[0,0,0,0,0,0,0,0,0,0,0,0,0,0,0,0,0,0,0,0,0],"sum_hessian":[2.3516508E2,1.218388E2,1.1332628E2,1.2037445E2,1.4643488E0,2.9377875E0,1.103885E2,4.157172E0,1.1621728E2,1.692468E0,1.2453195E0,2.6650555E0,1.4921167E0,1.1229541E2,3.921872E0,9.892566E0,1.0240284E2,2.007376E0,1.9144962E0,8.542623E0,1.3499433E0],"tree_param":{"num_deleted":"0","num_feature":"15","num_nodes":"21","size_leaf_vector":"0"}},{"base_weights":[-2.4455928E-3,-1.0845162E0,1.1867421E0,-5.020383E-1,-1.1839112E0,1.4831598E-1,1.2188474E0,-3.4759456E-1,-9.6803296E-1,-1.2126905E0,-4.302388E-1,3.97845E-1,-1.0282583E-1,-6.1009746E-2,-4.6057725E-1,9.988913E-2,-8.626991E-1,-2.53065E-1,1.9721219E-1,-5.610653E-1,-1.12737186E-1,5.915301E-2,-4.468156E-1,-3.6220184E-1,-7.8267336E-1,1.2732442E-1,-3.127306E-1],"categories":[],"categories_nodes":[],"categories_segments":[],"categories_sizes":[],"default_left":[1,1,1,1,1,1,0,1,0,0,1,0,0,1,1,0,0,1,0,1,1,0,0,0,0,0,0],"id":3,"left_children":[1,3,5,7,9,11,-1,13,-1,-1,15,-1,-1,17,19,-1,-1,21,-1,23,25,-1,-1,-1,-1,-1,-1],"loss_changes":[2.4916615E2,5.2752E0,2.8948212E0,8.520665E-1,1.3407364E0,2.85636E-1,0E0,4.240377E-1,0E0,0E0,1.1655624E0,0E0,0E0,3.0288783E-1,2.8148603E-1,0E0,0E0,2.2988763E-1,0E0,4.265809E-2,2.0603552E-1,0E0,0E0,0E0,0E0,0E0,0E0],"parents":[2147483647,0,0,1,1,2,2,3,3,4,4,5,5,7,7,10,10,13,13,14,14,17,17,19,19,20,20],"right_children":[2,4,6,8,10,12,-1,14,-1,-1,16,-1,-1,18,20,-1,-1,22,-1,24,26,-1,-1,-1,-1,-1,-1],"split_conditions":[2.3077765E0,1.1692727E-1,2.6428385E0,1.1011927E0,1.8356445E0,2.4129467E0,3.6565423E-1,2.6716668E-2,-2.904099E-1,-3.6380714E-1,5.1598483E-1,1.193535E-1,-3.0847749E-2,1.8478788E-2,9.261666E-2,2.996674E-2,-2.5880975E-1,7.877273E-3,5.916366E-2,6.8871215E-2,1.0023636E-1,1.7745903E-2,-1.3404469E-1,-1.0866056E-1,-2.3480202E-1,3.8197327E-2,-9.3819186E-2],"split_indices":[11,14,11,10,11,11,0,14,0,0,14,0,0,14,14,0,0,14,0,14,14,0,0,0,0,0,0],"split_type":[0,0,0,0,0,0,0,0,0,0,0,0,0,0,0,0,0,0,0,0,0,0,0,0,0,0,0],"sum_hessian":[1.9163445E2,1.0038225E2,9.1252205E1,1.5514522E1,8.486773E1,2.9051912E0,8.8347015E1,1.2963855E1,2.5506666E0,8.115958E1,3.708154E0,1.1642616E0,1.7409297E0,4.101143E0,8.862712E0,2.0114524E0,1.6967015E0,2.3633487E0,1.737794E0,6.4006267E0,2.4620855E0,1.1710172E0,1.1923316E0,4.7618923E0,1.6387341E0,1.2840891E0,1.1779963E0],"tree_param":{"num_deleted":"0","num_feature":"15","num_nodes":"27","size_leaf_vector":"0"}},{"base_weights":[-6.299784E-3,-9.8551303E-1,1.1066605E0,-4.244279E-1,-1.0999078E0,1.2843041E-1,1.1448131E0,-2.8899658E-1,-8.65399E-1,-1.1336384E0,-3.7153167E-1,2.9878825E-1,-1.2858668E-1,-5.4741833E-2,-3.8442522E-1,2.188721E-1,-6.465255E-1,-2.1452062E-1,1.5967388E-1,-4.7097236E-1,-9.660439E-2,-1.6604921E-1,-7.8723484E-1,4.9442716E-2,-3.8154516E-1,-2.8401676E-1,-7.066153E-1,1.04515225E-1,-2.6961118E-1],"categories":[],"categories_nodes":[],"categories_segments":[],"categories_sizes":[],"default_left":[1,1,1,1,1,1,0,1,0,0,1,0,0,1,1,0,1,1,0,1,1,0,0,0,0,0,0,0,0],"id":4,"left_children":[1,3,5,7,9,11,-1,13,-1,-1,15,-1,-1,17,19,-1,21,23,-1,25,27,-1,-1,-1,-1,-1,-1,-1,-1],"loss_changes":[1.6975067E2,4.851227E0,2.5738907E0,6.851442E-1,1.2542725E0,2.0756087E-1,0E0,2.8034043E-1,0E0,0E0,8.730557E-1,0E0,0E0,2.0789473E-1,1.889931E-1,0E0,9.420514E-2,1.6572215E-1,0E0,1.0677779E-1,1.4767447E-1,0E0,0E0,0E0,0E0,0E0,0E0,0E0,0E0],"parents":[2147483647,0,0,1,1,2,2,3,3,4,4,5,5,7,7,10,10,13,13,14,14,16,16,17,17,19,19,20,20],"right_children":[2,4,6,8,10,12,-1,14,-1,-1,16,-1,-1,18,20,-1,22,24,-1,26,28,-1,-1,-1,-1,-1,-1,-1,-1],"split_conditions":[2.3077765E0,1.1692727E-1,2.6428385E0,1.1011927E0,1.8356445E0,2.4754553E0,3.4344393E-1,2.6716668E-2,-2.596197E-1,-3.4009153E-1,2.9457423E-1,8.9636475E-2,-3.8576007E-2,1.8478788E-2,9.261666E-2,6.566163E-2,2.0381467E0,7.877273E-3,4.7902167E-2,6.8871215E-2,1.0023636E-1,-4.9814764E-2,-2.3617046E-1,1.4832815E-2,-1.1446355E-1,-8.520503E-2,-2.119846E-1,3.135457E-2,-8.0883354E-2],"split_indices":[11,14,11,10,11,11,0,14,0,0,14,0,0,14,14,0,11,14,0,14,14,0,0,0,0,0,0,0,0],"split_type":[0,0,0,0,0,0,0,0,0,0,0,0,0,0,0,0,0,0,0,0,0,0,0,0,0,0,0,0,0],"sum_hessian":[1.5375876E2,8.185499E1,7.190377E1,1.4660096E1,6.719489E1,2.862993E0,6.904078E1,1.2481985E1,2.1781113E0,6.36891E1,3.5057957E0,1.6240237E0,1.2389693E0,4.0684776E0,8.413507E0,1.1788731E0,2.3269227E0,2.330982E0,1.7374954E0,5.979227E0,2.4342804E0,1.0209159E0,1.3060067E0,1.1761655E0,1.1548165E0,4.563722E0,1.4155049E0,1.3087518E0,1.1255286E0],"tree_param":{"num_deleted":"0","num_feature":"15","num_nodes":"29","size_leaf_vector":"0"}},{"base_weights":[-1.0595598E-2,-9.0268916E-1,1.0466663E0,-4.3309966E-1,-1.0655067E0,1.0440574E-1,1.0939119E0,-5.299394E-1,5.4094744E-1,2.6722047E-1,-1.308746E-1,-2.3842463E-1,-8.133742E-1,-3.113267E-1,2.1178204E-1,-8.357683E-2,-4.2087993E-1],"categories":[],"categories_nodes":[],"categories_segments":[],"categories_sizes":[],"default_left":[1,1,1,1,0,1,0,1,0,0,0,1,0,1,0,0,0],"id":5,"left_children":[1,3,5,7,-1,9,-1,11,-1,-1,-1,13,-1,15,-1,-1,-1],"loss_changes":[1.1748578E2,4.703438E0,2.4237251E0,2.086113E0,0E0,1.815939E-1,0E0,1.2814975E0,0E0,0E0,0E0,4.012857E-1,0E0,1.9433373E-1,0E0,0E0,0E0],"parents":[2147483647,0,0,1,1,2,2,3,3,5,5,7,7,11,11,13,13],"right_children":[2,4,6,8,-1,10,-1,12,-1,-1,-1,14,-1,16,-1,-1,-1],"split_conditions":[2.3077765E0,1.7834546E-1,2.6428385E0,1.0636185E0,-3.1965202E-1,5.871167E-1,3.2817358E-1,6.8871215E-2,1.6228424E-1,8.0166146E-2,-3.9262384E-2,5.4910608E-2,-2.4401228E-1,2.3195455E-2,6.353462E-2,-2.507305E-2,-1.2626399E-1],"split_indices":[11,14,11,11,0,14,0,14,0,0,0,14,0,14,0,0,0],"split_type":[0,0,0,0,0,0,0,0,0,0,0,0,0,0,0,0,0],"sum_hessian":[1.225622E2,6.655273E1,5.6009476E1,1.807676E1,4.8475964E1,2.827529E0,5.318195E1,1.6856798E1,1.219962E0,1.590881E0,1.236648E0,9.217613E0,7.639185E0,8.198507E0,1.0191058E0,3.2353778E0,4.96313E0],"tree_param":{"num_deleted":"0","num_feature":"15","num_nodes":"17","size_leaf_vector":"0"}},{"base_weights":[-8.934685E-3,-8.000776E-1,1.026268E0,-2.0604643E-1,-9.5286804E-1,1.0715203E-1,1.0564355E0,-8.092268E-2,-7.023043E-1,-1.0374388E0,-1.2232934E-1,-1.8098357E-1,3.907433E-1,2.8361812E-1,-7.5156987E-1,-5.6978054E-2,-3.957888E-1,5.3737724E-1,-6.405005E-2,-1.996221E-1,2.817097E-1,-4.7231647E-1,-1.0601136E-1],"categories":[],"categories_nodes":[],"categories_segments":[],"categories_sizes":[],"default_left":[1,1,1,1,1,0,0,1,0,0,1,1,0,1,0,1,1,0,0,0,0,0,0],"id":6,"left_children":[1,3,5,7,9,-1,-1,11,-1,-1,13,15,-1,17,-1,19,21,-1,-1,-1,-1,-1,-1],"loss_changes":[8.145276E1,4.919594E0,1.0814667E0,7.384463E-1,3.0028458E0,0E0,0E0,6.068073E-1,0E0,0E0,1.5546184E0,2.4526817E-1,0E0,3.8009912E-1,0E0,4.2063388E-1,2.7805984E-2,0E0,0E0,0E0,0E0,0E0,0E0],"parents":[2147483647,0,0,1,1,2,2,3,3,4,4,7,7,10,10,11,11,13,13,15,15,16,16],"right_children":[2,4,6,8,10,-1,-1,12,-1,-1,14,16,-1,18,-1,20,22,-1,-1,-1,-1,-1,-1],"split_conditions":[2.4505863E0,9.949091E-2,2.6428385E0,1.1011927E0,1.8356445E0,3.2145612E-2,3.1693065E-1,8.050606E-2,-2.106913E-1,-3.1123164E-1,5.610409E-1,4.6451516E-2,1.1722299E-1,2.178631E0,-2.2547098E-1,3.5498485E-2,6.7101516E-2,1.6121317E-1,-1.9215016E-2,-5.988663E-2,8.451291E-2,-1.4169495E-1,-3.180341E-2],"split_indices":[11,14,11,10,11,0,0,14,0,0,14,14,0,11,0,14,14,0,0,0,0,0,0],"split_type":[0,0,0,0,0,0,0,0,0,0,0,0,0,0,0,0,0,0,0,0,0,0,0],"sum_hessian":[9.745217E1,5.5366234E1,4.2085938E1,1.1807731E1,4.3558502E1,1.4821151E0,4.0603825E1,1.0358948E1,1.4487828E0,3.9306908E1,4.2515926E0,9.054403E0,1.3045446E0,2.9182107E0,1.3333818E0,6.5426393E0,2.5117643E0,1.3715042E0,1.5467067E0,4.892628E0,1.6500111E0,1.4886869E0,1.0230774E0],"tree_param":{"num_deleted":"0","num_feature":"15","num_nodes":"23","size_leaf_vector":"0"}},{"base_weights":[-1.0643151E-2,-7.039045E-1,1.0136733E0,-1.9444175E-1,-8.8309354E-1,1.0335987E0,3.2453352E-1,-8.7919064E-2,-6.64341E-1,-9.9557686E-1,-1.5298696E-1,-1.4435424E-1,1.0332494E-1,-4.2111835E-1,1.4737831E-1,-5.2816006E-3,-3.2577565E-1,3.140376E-1,-1.9441383E-1,1.2938623E-1,-7.9687464E-1,-1.3448028E-1,3.3207387E-1,-1.7052275E-1,2.3076221E-1,-4.4612852E-1,-8.10708E-2],"categories":[],"categories_nodes":[],"categories_segments":[],"categories_sizes":[],"default_left":[1,1,1,1,1,0,0,1,0,0,1,1,1,1,1,1,1,0,0,0,0,0,0,0,0,0,0],"id":7,"left_children":[1,3,5,7,9,-1,-1,11,-1,-1,13,15,17,19,21,23,25,-1,-1,-1,-1,-1,-1,-1,-1,-1,-1],"loss_changes":[5.6875187E1,4.187933E0,1.0852432E-1,6.277728E-1,2.7259445E0,0E0,0E0,1.4796741E-1,0E0,0E0,5.340357E-1,2.489714E-1,2.7384436E-1,7.9721355E-1,2.2710836E-1,2.983734E-1,9.0325385E-2,0E0,0E0,0E0,0E0,0E0,0E0,0E0,0E0,0E0,0E0],"parents":[2147483647,0,0,1,1,2,2,3,3,4,4,7,7,10,10,11,11,12,12,13,13,14,14,15,15,16,16],"right_children":[2,4,6,8,10,-1,-1,12,-1,-1,14,16,18,20,22,24,26,-1,-1,-1,-1,-1,-1,-1,-1,-1,-1],"split_conditions":[2.5478814E0,1.1692727E-1,2.7835479E0,1.1011927E0,1.8356445E0,3.100796E-1,9.736006E-2,8.050606E-2,-1.993023E-1,-2.9867306E-1,4.5121968E-1,3.917121E-2,9.949091E-2,2.178631E0,2.3077765E0,2.445909E-2,5.5769697E-2,9.421128E-2,-5.832415E-2,3.881587E-2,-2.390624E-1,-4.0344086E-2,9.962217E-2,-5.1156826E-2,6.9228664E-2,-1.3383856E-1,-2.4321241E-2],"split_indices":[11,14,10,10,11,0,0,14,0,0,14,14,14,11,11,14,14,0,0,0,0,0,0,0,0,0,0],"split_type":[0,0,0,0,0,0,0,0,0,0,0,0,0,0,0,0,0,0,0,0,0,0,0,0,0,0,0],"sum_hessian":[7.808767E1,4.67559E1,3.1331768E1,1.2708563E1,3.4047337E1,2.9965528E1,1.36624E0,1.1327748E1,1.3808148E0,2.9187052E1,4.860286E0,8.935969E0,2.3917785E0,2.355525E0,2.5047615E0,5.6409135E0,3.2950563E0,1.3685209E0,1.0232576E0,1.2215494E0,1.1339757E0,1.0991942E0,1.4055672E0,3.481376E0,2.1595376E0,1.6569779E0,1.6380783E0],"tree_param":{"num_deleted":"0","num_feature":"15","num_nodes":"27","size_leaf_vector":"0"}},{"base_weights":[-1.3096607E-2,-6.182412E-1,1.0018625E0,-1.8202506E-1,-8.6475253E-1,-3.1464183E-1,6.2983274E-1,-9.3219495E-1,-1.3353603E-1,-9.652116E-2,-6.1484814E-1,-9.6696365E-1,-3.042985E-1,-2.0219229E-1,7.432662E-2,-3.0527708E-1,-7.5525975E-1,3.1252198E-2,-4.4580346E-1,2.0334065E-1,-9.041623E-2,-6.4408946E-1,2.0396604E-1],"categories":[],"categories_nodes":[],"categories_segments":[],"categories_sizes":[],"default_left":[1,1,0,1,1,1,0,1,0,1,1,0,0,1,1,1,0,0,0,0,0,0,0],"id":8,"left_children":[1,3,-1,5,7,9,-1,11,-1,13,15,-1,-1,17,19,21,-1,-1,-1,-1,-1,-1,-1],"loss_changes":[4.0271057E1,4.2581778E0,0E0,1.9308542E0,1.1562195E0,8.9015126E-1,0E0,2.2117615E-1,0E0,1.8806463E-1,2.6578665E-2,0E0,0E0,3.6599126E-1,1.117743E-1,7.3945767E-1,0E0,0E0,0E0,0E0,0E0,0E0,0E0],"parents":[2147483647,0,0,1,1,3,3,4,4,5,5,7,7,9,9,10,10,13,13,14,14,15,15],"right_children":[2,4,-1,6,8,10,-1,12,-1,14,16,-1,-1,18,20,22,-1,-1,-1,-1,-1,-1,-1],"split_conditions":[2.6428385E0,1.7834546E-1,3.0055878E-1,1.0636185E0,2.3077765E0,6.8871215E-2,1.8894984E-1,2.20914E0,-4.006081E-2,3.5498485E-2,9.949091E-2,-2.900891E-1,-9.128955E-2,2.3195455E-2,4.6451516E-2,9.261666E-2,-2.2657794E-1,9.37566E-3,-1.3374105E-1,6.10022E-2,-2.712487E-2,-1.9322684E-1,6.118981E-2],"split_indices":[11,14,0,11,11,14,0,9,0,14,14,0,0,14,14,14,0,0,0,0,0,0,0],"split_type":[0,0,0,0,0,0,0,0,0,0,0,0,0,0,0,0,0,0,0,0,0,0,0],"sum_hessian":[6.3558548E1,4.0062897E1,2.3495653E1,1.5093129E1,2.4969767E1,1.35003E1,1.5928288E0,2.260956E1,2.3602073E0,8.584547E0,4.915753E0,2.091161E1,1.6979488E0,5.190626E0,3.3939211E0,2.5243587E0,2.3913944E0,3.0957677E0,2.0948586E0,1.7719635E0,1.6219578E0,1.3568287E0,1.16753E0],"tree_param":{"num_deleted":"0","num_feature":"15","num_nodes":"23","size_leaf_vector":"0"}},{"base_weights":[-1.6574921E-2,-5.4397637E-1,9.779713E-1,-1.0378461E-1,-7.7264065E-1,-1.2027816E-2,-5.8494925E-1,-9.257223E-1,-1.4634235E-1,-5.7067167E-2,2.356029E-1,1.1171592E-1,-4.7167784E-1,2.823811E-2,-3.1206828E-1,2.2601944E-1,-9.716574E-2,-1.0177411E-1,1.8885534E-1],"categories":[],"categories_nodes":[],"categories_segments":[],"categories_sizes":[],"default_left":[1,1,0,1,1,1,0,0,1,1,0,1,0,1,0,0,0,0,0],"id":9,"left_children":[1,3,-1,5,7,9,-1,-1,11,13,-1,15,-1,17,-1,-1,-1,-1,-1],"loss_changes":[2.8428812E1,3.4827642E0,0E0,5.782434E-1,2.0831385E0,1.4900522E-1,0E0,0E0,5.3400624E-1,2.500304E-1,0E0,1.175973E-1,0E0,2.1188635E-1,0E0,0E0,0E0,0E0,0E0],"parents":[2147483647,0,0,1,1,3,3,4,4,5,5,8,8,9,9,11,11,13,13],"right_children":[2,4,-1,6,8,10,-1,-1,12,14,-1,16,-1,18,-1,-1,-1,-1,-1],"split_conditions":[2.6428385E0,1.1692727E-1,2.933914E-1,1.1011927E0,1.8356445E0,9.758788E-2,-1.7548478E-1,-2.777167E-1,2.3903475E0,6.8871215E-2,7.068087E-2,4.787212E-1,-1.4150336E-1,3.5498485E-2,-9.362049E-2,6.7805834E-2,-2.9149724E-2,-3.0532235E-2,5.6656603E-2],"split_indices":[11,14,0,10,11,14,0,0,11,14,0,14,0,14,0,0,0,0,0],"split_type":[0,0,0,0,0,0,0,0,0,0,0,0,0,0,0,0,0,0,0],"sum_hessian":[5.2184902E1,3.439728E1,1.7787617E1,1.2256565E1,2.2140718E1,1.1154441E1,1.1021246E0,1.7407774E1,4.7329445E0,1.0088991E1,1.0654497E0,3.0055418E0,1.7274027E0,8.226314E0,1.8626778E0,1.8895197E0,1.116022E0,4.7487645E0,3.477549E0],"tree_param":{"num_deleted":"0","num_feature":"15","num_nodes":"19","size_leaf_vector":"0"}},{"base_weights":[-1.830353E-2,-4.686764E-1,9.538286E-1,-5.388338E-1,7.854833E-1,-6.55101E-1,1.7636374E-2,-8.7405965E-2,-8.167367E-1,4.474644E-1,-1.9079202E-1,-1.8458639E-1,2.1827492E-1,-4.4185695E-1,-8.9510536E-1,-5.9507287E-1,1.3791542E-1,5.2584317E-2,-4.9278465E-1,-6.745448E-1,2.137774E-1,2.6388118E-1,-5.3745814E-2],"categories":[],"categories_nodes":[],"categories_segments":[],"categories_sizes":[],"default_left":[1,1,0,1,0,1,1,1,1,0,1,1,0,1,0,0,1,0,0,0,0,0,0],"id":10,"left_children":[1,3,-1,5,-1,7,9,11,13,-1,15,17,-1,19,-1,-1,21,-1,-1,-1,-1,-1,-1],"loss_changes":[2.001881E1,3.1702518E0,0E0,1.9628334E0,0E0,2.2201405E0,6.395765E-1,2.3796858E-1,1.7205143E-1,0E0,7.2885334E-1,4.3459222E-1,0E0,9.550723E-1,0E0,0E0,9.859226E-2,0E0,0E0,0E0,0E0,0E0,0E0],"parents":[2147483647,0,0,1,1,3,3,5,5,6,6,7,7,8,8,10,10,11,11,13,13,16,16],"right_children":[2,4,-1,6,-1,8,10,12,14,-1,16,18,-1,20,-1,-1,22,-1,-1,-1,-1,-1,-1],"split_conditions":[2.6428385E0,2.037737E0,2.8614858E-1,1.8356445E0,2.35645E-1,3.917121E-2,1.7896213E-1,3.495606E-2,9.949091E-2,1.3423933E-1,4.5121968E-1,2.3195455E-2,6.548248E-2,9.261666E-2,-2.6853162E-1,-1.7852187E-1,2.404698E0,1.5775295E-2,-1.478354E-1,-2.0236345E-1,6.413322E-2,7.9164356E-2,-1.6123746E-2],"split_indices":[11,6,0,11,0,14,14,14,14,0,14,14,0,14,0,0,11,0,0,0,0,0,0],"split_type":[0,0,0,0,0,0,0,0,0,0,0,0,0,0,0,0,0,0,0,0,0,0,0],"sum_hessian":[4.3702587E1,3.0220032E1,1.3482556E1,2.9159233E1,1.0607988E0,2.397312E1,5.1861143E0,5.6544356E0,1.8318684E1,1.3190584E0,3.8670557E0,4.5910273E0,1.0634083E0,4.3151526E0,1.40035305E1,1.3707786E0,2.496277E0,3.063175E0,1.5278525E0,3.16355E0,1.1516025E0,1.2789204E0,1.2173568E0],"tree_param":{"num_deleted":"0","num_feature":"15","num_nodes":"23","size_leaf_vector":"0"}},{"base_weights":[-1.3714401E-2,-3.9769328E-1,9.2792475E-1,-4.9673427E-2,-6.4333606E-1,-9.408856E-2,2.2451429E-1,-8.453243E-1,-1.17771156E-1,-3.5411802E-3,-3.4455648E-1,-3.434649E-1,1.129281E-1,-1.1004223E-1,1.826984E-1,9.3623586E-2,-5.977271E-1,2.1500811E-1,-4.496648E-2,5.797842E-2,-4.1134965E-1,3.2360905E-1,-2.492057E-2],"categories":[],"categories_nodes":[],"categories_segments":[],"categories_sizes":[],"default_left":[1,1,0,1,1,1,0,0,1,1,0,1,1,1,1,0,0,0,0,0,0,0,0],"id":11,"left_children":[1,3,-1,5,7,9,-1,-1,11,13,-1,15,17,19,21,-1,-1,-1,-1,-1,-1,-1,-1],"loss_changes":[1.4036653E1,2.3233738E0,0E0,1.7315249E-1,1.6061544E0,2.584145E-1,0E0,0E0,3.315453E-1,2.0692322E-1,0E0,3.993256E-1,6.661381E-2,3.5880318E-1,1.1930996E-1,0E0,0E0,0E0,0E0,0E0,0E0,0E0,0E0],"parents":[2147483647,0,0,1,1,3,3,4,4,5,5,8,8,9,9,11,11,12,12,13,13,14,14],"right_children":[2,4,-1,6,8,10,-1,-1,12,14,-1,16,18,20,22,-1,-1,-1,-1,-1,-1,-1,-1],"split_conditions":[2.6428385E0,1.1692727E-1,2.7837744E-1,9.8778784E-2,1.8356445E0,6.8871215E-2,6.735429E-2,-2.535973E-1,4.5121968E-1,3.720606E-2,-1.0336695E-1,2.178631E0,2.404698E0,2.6716668E-2,4.6451516E-2,2.8087078E-2,-1.7931814E-1,6.450243E-2,-1.3489945E-2,1.7393528E-2,-1.234049E-1,9.708272E-2,-7.476171E-3],"split_indices":[11,14,0,14,11,14,0,0,14,14,0,11,11,14,14,0,0,0,0,0,0,0,0],"split_type":[0,0,0,0,0,0,0,0,0,0,0,0,0,0,0,0,0,0,0,0,0,0,0],"sum_hessian":[3.6800816E1,2.6551414E1,1.02494E1,1.148376E1,1.5067655E1,1.0448133E1,1.0356265E0,1.0444969E1,4.622685E0,8.418776E0,2.0293577E0,2.089612E0,2.5330727E0,5.6162567E0,2.8025186E0,1.0008638E0,1.0887481E0,1.3187633E0,1.2143095E0,4.124085E0,1.4921719E0,1.3366609E0,1.4658577E0],"tree_param":{"num_deleted":"0","num_feature":"15","num_nodes":"23","size_leaf_vector":"0"}},{"base_weights":[-1.37668615E-2,-4.0276656E-1,7.463682E-1,-4.861962E-1,6.787548E-1,1.8006231E-1,8.991115E-1,-5.763293E-1,2.1605146E-1,3.4514406E-1,-9.864973E-2,-2.9124394E-1,-8.172348E-1,3.8403428E-1,-6.486657E-2,-3.6618665E-1,1.8631329E-1,3.1032294E-2,-4.3324706E-1],"categories":[],"categories_nodes":[],"categories_segments":[],"categories_sizes":[],"default_left":[1,1,1,1,0,1,0,1,1,0,0,1,0,0,0,1,0,0,0],"id":12,"left_children":[1,3,5,7,-1,9,-1,11,13,-1,-1,15,-1,-1,-1,17,-1,-1,-1],"loss_changes":[1.0062974E1,2.3591752E0,8.3515453E-1,1.4828873E0,0E0,2.0423844E-1,0E0,1.0869479E0,1.7443E-1,0E0,0E0,4.400633E-1,0E0,0E0,0E0,2.6164222E-1,0E0,0E0,0E0],"parents":[2147483647,0,0,1,1,2,2,3,3,5,5,7,7,8,8,11,11,15,15],"right_children":[2,4,6,8,-1,10,-1,12,14,-1,-1,16,-1,-1,-1,18,-1,-1,-1],"split_conditions":[2.3077765E0,2.037737E0,2.6428385E0,2.0898385E0,2.0362645E-1,2.4754553E0,2.6973346E-1,1.1692727E-1,1.8096516E-1,1.0354322E-1,-2.959492E-2,9.8778784E-2,-2.4517046E-1,1.1521029E-1,-1.9459972E-2,7.877273E-3,5.5893987E-2,9.309689E-3,-1.2997413E-1],"split_indices":[11,6,11,9,0,11,0,14,14,0,0,14,0,0,0,14,0,0,0],"split_type":[0,0,0,0,0,0,0,0,0,0,0,0,0,0,0,0,0,0,0],"sum_hessian":[3.201527E1,2.14886E1,1.05266695E1,2.0460693E1,1.0279065E0,2.698958E0,7.827711E0,1.8292208E1,2.168487E0,1.5453124E0,1.1536455E0,9.3896E0,8.902608E0,1.127311E0,1.0411761E0,8.317543E0,1.0720569E0,1.2789841E0,7.0385585E0],"tree_param":{"num_deleted":"0","num_feature":"15","num_nodes":"19","size_leaf_vector":"0"}},{"base_weights":[7.3162466E-4,-2.6353395E-1,8.666241E-1,3.4938775E-2,-4.9755466E-1,-2.8528026E-1,9.730697E-2,-7.781843E-1,5.666044E-3,2.2750281E-1,8.138539E-3,2.3202191E-1,-3.3142617E-1,5.001904E-2,2.920233E-1,-1.5335198E-1,2.529379E-1,3.8897824E-1,-1.1094126E-1,6.475133E-3,-3.460979E-1],"categories":[],"categories_nodes":[],"categories_segments":[],"categories_sizes":[],"default_left":[1,1,0,1,1,0,1,0,1,1,1,1,0,0,0,1,0,0,0,0,0],"id":13,"left_children":[1,3,-1,5,7,-1,9,-1,11,13,15,17,-1,-1,-1,19,-1,-1,-1,-1,-1],"loss_changes":[6.866293E0,1.6233692E0,0E0,2.4822628E-1,1.8336484E0,0E0,1.14069924E-1,0E0,5.0649947E-1,3.144747E-2,3.1407285E-1,2.5613752E-1,0E0,0E0,0E0,1.5067051E-1,0E0,0E0,0E0,0E0,0E0],"parents":[2147483647,0,0,1,1,3,3,4,4,6,6,8,8,9,9,10,10,11,11,15,15],"right_children":[2,4,-1,6,8,-1,10,-1,12,14,16,18,-1,-1,-1,20,-1,-1,-1,-1,-1],"split_conditions":[2.6428385E0,9.949091E-2,2.5998724E-1,6.6772727E-3,1.8356445E0,-8.558408E-2,2.6716668E-2,-2.334553E-1,2.3903475E0,1.8478788E-2,6.7101516E-2,4.787212E-1,-9.942786E-2,1.5005712E-2,8.7607E-2,4.6451516E-2,7.588138E-2,1.16693474E-1,-3.328238E-2,1.9425399E-3,-1.0382937E-1],"split_indices":[11,14,0,14,11,0,14,0,11,14,14,14,0,0,0,14,0,0,0,0,0],"split_type":[0,0,0,0,0,0,0,0,0,0,0,0,0,0,0,0,0,0,0,0,0],"sum_hessian":[2.8008593E1,2.1992311E1,6.0162807E0,1.0039068E1,1.1953243E1,1.0538943E0,8.985174E0,7.323025E0,4.6302176E0,3.0217295E0,5.9634447E0,2.9565825E0,1.6736352E0,1.2789156E0,1.7428138E0,3.8181973E0,2.1452475E0,1.9362793E0,1.0203031E0,2.6156642E0,1.2025329E0],"tree_param":{"num_deleted":"0","num_feature":"15","num_nodes":"21","size_leaf_vector":"0"}},{"base_weights":[3.9328577E-4,-2.5520843E-1,7.318163E-1,-8.878916E-2,-8.291399E-1,2.140928E-1,9.3182015E-1,-1.8361622E-1,5.3617555E-1,6.0677916E-1,-3.344043E-1,-2.7258492E-1,5.12312E-1,-1.6143065E-2,-4.2703688E-1,-1.2970509E-1,2.9650703E-1,-5.734988E-1,1.7421645E-1],"categories":[],"categories_nodes":[],"categories_segments":[],"categories_sizes":[],"default_left":[1,1,1,1,0,1,0,1,0,0,0,1,0,1,1,0,0,0,0],"id":14,"left_children":[1,3,5,7,-1,9,-1,11,-1,-1,-1,13,-1,15,17,-1,-1,-1,-1],"loss_changes":[5.0789385E0,1.8493373E0,5.289612E-1,1.0897667E0,0E0,9.047924E-1,0E0,1.085008E0,0E0,0E0,0E0,5.551622E-1,0E0,2.6474667E-1,8.763528E-1,0E0,0E0,0E0,0E0],"parents":[2147483647,0,0,1,1,2,2,3,3,5,5,7,7,11,11,13,13,14,14],"right_children":[2,4,6,8,-1,10,-1,12,-1,-1,-1,14,-1,16,18,-1,-1,-1,-1],"split_conditions":[2.4505863E0,5.442788E-1,5.8159524E-1,4.324909E-1,-2.4874197E-1,7.676363E-2,2.7954605E-1,1.8302315E0,1.6085267E-1,1.8203375E-1,-1.0032129E-1,3.917121E-2,1.536936E-1,3.495606E-2,2.092564E0,-3.891153E-2,8.895211E-2,-1.7204964E-1,5.2264936E-2],"split_indices":[11,14,13,14,0,14,0,6,0,0,0,14,0,14,11,0,0,0,0],"split_type":[0,0,0,0,0,0,0,0,0,0,0,0,0,0,0,0,0,0,0],"sum_hessian":[2.516793E1,1.9132872E1,6.035058E0,1.5727245E1,3.4056263E0,2.2587008E0,3.776357E0,1.4268463E1,1.4587828E0,1.2543877E0,1.0043132E0,1.3190482E1,1.0779803E0,5.3733854E0,7.817097E0,4.370909E0,1.0024762E0,6.323009E0,1.4940879E0],"tree_param":{"num_deleted":"0","num_feature":"15","num_nodes":"19","size_leaf_vector":"0"}},{"base_weights":[1.3698499E-2,-1.711021E-1,7.9404396E-1,-5.1211484E-2,-7.608203E-1,-1.4769697E-1,4.7181177E-1,8.039195E-2,-4.4342035E-1,-2.7996007E-1,2.535826E-1,-5.7447237E-1,-2.4954181E-2,1.617644E-1,-5.376255E-1,3.263769E-1,-3.1819336E-2,-2.611978E-1,-7.0157087E-1],"categories":[],"categories_nodes":[],"categories_segments":[],"categories_sizes":[],"default_left":[1,1,0,1,0,1,0,1,1,1,1,1,0,0,0,0,0,0,0],"id":15,"left_children":[1,3,-1,5,-1,7,-1,9,11,13,15,17,-1,-1,-1,-1,-1,-1,-1],"loss_changes":[3.5682175E0,1.3797894E0,0E0,9.653518E-1,0E0,1.097728E0,0E0,6.7861474E-1,3.7009192E-1,5.0076735E-1,1.5790004E-1,2.7489662E-2,0E0,0E0,0E0,0E0,0E0,0E0,0E0],"parents":[2147483647,0,0,1,1,3,3,5,5,7,7,8,8,9,9,10,10,11,11],"right_children":[2,4,-1,6,-1,8,-1,10,12,14,16,18,-1,-1,-1,-1,-1,-1,-1],"split_conditions":[2.6428385E0,4.04034E-1,2.382132E-1,1.4802089E0,-2.2824611E-1,1.1692727E-1,1.4154354E-1,2.445909E-2,2.2760754E0,7.877273E-3,9.491515E-2,4.3461213E-1,-7.4862544E-3,4.8529323E-2,-1.6128765E-1,9.791307E-2,-9.545801E-3,-7.835934E-2,-2.1047127E-1],"split_indices":[11,10,0,9,0,14,0,14,11,14,14,14,0,0,0,0,0,0,0],"split_type":[0,0,0,0,0,0,0,0,0,0,0,0,0,0,0,0,0,0,0],"sum_hessian":[2.2801369E1,1.9066738E1,3.7346296E0,1.674857E1,2.318169E0,1.4745905E1,2.0026639E0,8.736031E0,6.009875E0,2.6356456E0,6.100385E0,4.2927117E0,1.7171628E0,1.1081312E0,1.5275143E0,4.7462444E0,1.3541408E0,2.1206875E0,2.1720243E0],"tree_param":{"num_deleted":"0","num_feature":"15","num_nodes":"19","size_leaf_vector":"0"}},{"base_weights":[1.6677084E-3,-1.4375237E-1,8.16927E-1,6.596719E-3,-7.7252966E-1,-1.3715707E-1,3.895603E-1,4.8920214E-3,-4.8616567E-1,6.583385E-1,1.08778186E-1,-6.889173E-2,3.430356E-1,-6.566496E-1,-5.453759E-3,4.0278384E-1,-1.7967647E-1,9.045743E-2,-2.0256892E-1],"categories":[],"categories_nodes":[],"categories_segments":[],"categories_sizes":[],"default_left":[1,1,0,1,0,1,1,1,1,0,1,1,0,0,0,0,0,0,0],"id":16,"left_children":[1,3,-1,5,-1,7,9,11,13,-1,15,17,-1,-1,-1,-1,-1,-1,-1],"loss_changes":[2.764088E0,1.8764704E0,0E0,9.875029E-1,0E0,6.506316E-1,2.9750794E-1,2.8019848E-1,3.072229E-1,0E0,3.7683415E-1,2.1587741E-1,0E0,0E0,0E0,0E0,0E0,0E0,0E0],"parents":[2147483647,0,0,1,1,3,3,5,5,6,6,7,7,8,8,10,10,11,11],"right_children":[2,4,-1,6,-1,8,10,12,14,-1,16,18,-1,-1,-1,-1,-1,-1,-1],"split_conditions":[1.1062717E0,5.442788E-1,2.4507812E-1,1.8226522E0,-2.317589E-1,9.949091E-2,1.2194848E-1,9.261666E-2,3.8193637E-1,1.9750156E-1,2.178631E0,2.6716668E-2,1.0291069E-1,-1.9699489E-1,-1.6361277E-3,1.20835155E-1,-5.3902943E-2,2.7137231E-2,-6.077068E-2],"split_indices":[13,14,0,11,0,14,14,14,14,0,11,14,0,0,0,0,0,0,0],"split_type":[0,0,0,0,0,0,0,0,0,0,0,0,0,0,0,0,0,0,0],"sum_hessian":[2.1324245E1,1.879534E1,2.5289044E0,1.596694E1,2.8284009E0,1.2075856E1,3.8910837E0,9.283419E0,2.792437E0,1.3010229E0,2.590061E0,8.274227E0,1.0091914E0,1.7911971E0,1.00124E0,1.0864018E0,1.5036591E0,3.9221566E0,4.352071E0],"tree_param":{"num_deleted":"0","num_feature":"15","num_nodes":"19","size_leaf_vector":"0"}},{"base_weights":[7.3555256E-3,-1.8498553E-1,4.8954052E-1,-5.143333E-2,-6.936508E-1,7.622607E-1,1.0168389E-1,-1.2582304E-1,4.3152013E-1,-1.1244585E-1,3.4172297E-1,-2.2947758E-1,3.666394E-1,5.853165E-2,-2.7256024E-1,-3.9776054E-1,-8.283088E-2],"categories":[],"categories_nodes":[],"categories_segments":[],"categories_sizes":[],"default_left":[1,1,1,1,0,0,1,1,0,0,0,1,0,0,1,0,0],"id":17,"left_children":[1,3,5,7,-1,-1,9,11,-1,-1,-1,13,-1,-1,15,-1,-1],"loss_changes":[2.0315816E0,1.0299761E0,5.827569E-1,5.3947514E-1,0E0,0E0,2.3019658E-1,7.210074E-1,0E0,0E0,0E0,1.5147632E-1,0E0,0E0,1.9693702E-1,0E0,0E0],"parents":[2147483647,0,0,1,1,2,2,3,3,6,6,7,7,11,11,14,14],"right_children":[2,4,6,8,-1,-1,10,12,-1,-1,-1,14,-1,-1,16,-1,-1],"split_conditions":[2.2131033E0,4.542E-1,2.1565455E-1,1.8302315E0,-2.0809524E-1,2.2867821E-1,6.540561E-1,2.0898385E0,1.2945604E-1,-3.373376E-2,1.025169E-1,7.877273E-3,1.09991826E-1,1.7559495E-2,6.7101516E-2,-1.1932816E-1,-2.4849266E-2],"split_indices":[11,14,14,6,0,0,14,9,0,0,0,14,0,0,14,0,0],"split_type":[0,0,0,0,0,0,0,0,0,0,0,0,0,0,0,0,0],"sum_hessian":[1.992884E1,1.4686737E1,5.242102E0,1.2504692E1,2.1820452E0,2.5111089E0,2.7309935E0,1.14764385E1,1.0282534E0,1.7243333E0,1.0066603E0,9.922046E0,1.5543932E0,1.2444248E0,8.677621E0,4.5672684E0,4.1103525E0],"tree_param":{"num_deleted":"0","num_feature":"15","num_nodes":"17","size_leaf_vector":"0"}},{"base_weights":[1.538443E-2,-9.4276324E-2,7.165484E-1,2.5002053E-2,-6.680466E-1,-6.474469E-2,5.7128954E-1,1.425139E-1,-4.0783852E-1,4.081994E-2,4.8844293E-1,-6.0414445E-1,4.1642703E-2,1.09291956E-1,-2.3525898E-1,-1.4230686E-1,-7.093536E-1],"categories":[],"categories_nodes":[],"categories_segments":[],"categories_sizes":[],"default_left":[1,1,0,1,0,1,0,1,1,1,0,1,0,0,0,0,0],"id":18,"left_children":[1,3,-1,5,-1,7,-1,9,11,13,-1,15,-1,-1,-1,-1,-1],"loss_changes":[1.5855635E0,1.2455959E0,0E0,8.1308097E-1,0E0,1.0888008E0,0E0,3.240028E-1,5.296378E-1,1.8917057E-1,0E0,9.554589E-2,0E0,0E0,0E0,0E0,0E0],"parents":[2147483647,0,0,1,1,3,3,5,5,7,7,8,8,9,9,11,11],"right_children":[2,4,-1,6,-1,8,-1,10,12,14,-1,16,-1,-1,-1,-1,-1],"split_conditions":[1.5183473E0,5.442788E-1,2.1496452E-1,4.324909E-1,-2.0041399E-1,9.455454E-2,1.7138687E-1,6.7101516E-2,2.092564E0,4.6451516E-2,1.4653288E-1,1.0183333E-1,1.2492811E-2,3.2787587E-2,-7.0577696E-2,-4.269206E-2,-2.1280609E-1],"split_indices":[13,14,0,14,0,14,0,14,11,14,0,14,0,0,0,0,0],"split_type":[0,0,0,0,0,0,0,0,0,0,0,0,0,0,0,0,0],"sum_hessian":[1.8742577E1,1.6956202E1,1.7863754E0,1.48297415E1,2.1264594E0,1.3494313E1,1.3354284E0,8.776914E0,4.7173996E0,7.646922E0,1.1299913E0,3.043912E0,1.6734877E0,6.611333E0,1.0355891E0,1.0012639E0,2.042648E0],"tree_param":{"num_deleted":"0","num_feature":"15","num_nodes":"17","size_leaf_vector":"0"}},{"base_weights":[1.0851473E-2,-9.166785E-2,6.431798E-1,-3.3453451E-3,-6.2671345E-1,-7.339639E-2,4.480179E-1,-1.3569808E-1,2.623622E-1,-1.9610682E-1,1.0876393E-1,-6.422629E-2,-4.2629743E-1,4.8365545E-1,-2.8116298E-1],"categories":[],"categories_nodes":[],"categories_segments":[],"categories_sizes":[],"default_left":[1,1,0,1,0,1,0,1,0,1,1,0,0,0,0],"id":19,"left_children":[1,3,-1,5,-1,7,-1,9,-1,11,13,-1,-1,-1,-1],"loss_changes":[1.2944298E0,8.14247E-1,0E0,5.334821E-1,0E0,3.4027046E-1,0E0,2.1248473E-1,0E0,2.9854408E-1,6.0494417E-1,0E0,0E0,0E0,0E0],"parents":[2147483647,0,0,1,1,3,3,5,5,7,7,9,9,10,10],"right_children":[2,4,-1,6,-1,8,-1,10,-1,12,14,-1,-1,-1,-1],"split_conditions":[2.6428385E0,4.04034E-1,1.9295394E-1,1.5095164E0,-1.8801405E-1,2.0898151E0,1.3440537E-1,2.2124977E0,7.870866E-2,9.949091E-2,2.3903475E0,-1.9267889E-2,-1.2788923E-1,1.4509664E-1,-8.4348895E-2],"split_indices":[11,10,0,6,0,9,0,11,0,14,11,0,0,0,0],"split_type":[0,0,0,0,0,0,0,0,0,0,0,0,0,0,0],"sum_hessian":[1.8058298E1,1.6274712E1,1.7835864E0,1.4832495E1,1.4422177E0,1.3564664E1,1.2678305E0,1.1944204E1,1.6204604E0,9.736123E0,2.2080805E0,7.002991E0,2.733132E0,1.0031942E0,1.2048863E0],"tree_param":{"num_deleted":"0","num_feature":"15","num_nodes":"15","size_leaf_vector":"0"}},{"base_weights":[1.4924671E-2,-7.161492E-2,6.2325007E-1,2.318312E-2,-5.8547E-1,-5.3342797E-2,4.6112484E-1,6.642856E-2,-5.193861E-1,-1.8586198E-2,3.9049792E-1,4.0371593E-2,-2.428439E-1],"categories":[],"categories_nodes":[],"categories_segments":[],"categories_sizes":[],"default_left":[1,1,0,1,0,1,0,1,0,1,0,0,0],"id":20,"left_children":[1,3,-1,5,-1,7,-1,9,-1,11,-1,-1,-1],"loss_changes":[1.0006682E0,8.317237E-1,0E0,5.3204864E-1,0E0,8.039933E-1,0E0,3.3383456E-1,0E0,1.4658076E-1,0E0,0E0,0E0],"parents":[2147483647,0,0,1,1,3,3,5,5,7,7,9,9],"right_children":[2,4,-1,6,-1,8,-1,10,-1,12,-1,-1,-1],"split_conditions":[1.1062717E0,5.442788E-1,1.8697503E-1,4.324909E-1,-1.7564102E-1,1.7834546E-1,1.3833746E-1,1.0636185E0,-1.5581584E-1,9.455454E-2,1.1714938E-1,1.21114785E-2,-7.285317E-2],"split_indices":[13,14,0,14,0,14,0,11,0,14,0,0,0],"split_type":[0,0,0,0,0,0,0,0,0,0,0,0,0],"sum_hessian":[1.7160286E1,1.5795511E1,1.3647739E0,1.4141513E1,1.6539987E0,1.2785561E1,1.3559518E0,1.0853671E1,1.9318894E0,9.34484E0,1.5088316E0,8.048778E0,1.2960626E0],"tree_param":{"num_deleted":"0","num_feature":"15","num_nodes":"13","size_leaf_vector":"0"}},{"base_weights":[1.2677763E-2,-1.0707764E-1,4.0462184E-1,-2.788075E-3,-6.023935E-1,1.353322E-1,6.209418E-1,-6.1699823E-2,3.456498E-1,3.3330566E-1,-1.3431484E-1,2.5664762E-2,-3.3599713E-1,-6.0624633E-2,2.5819808E-1,4.36965E-2,-2.859406E-1],"categories":[],"categories_nodes":[],"categories_segments":[],"categories_sizes":[],"default_left":[1,1,1,1,0,1,0,1,0,0,0,1,0,1,0,0,0],"id":21,"left_children":[1,3,5,7,-1,9,-1,11,-1,-1,-1,13,-1,15,-1,-1,-1],"loss_changes":[8.700195E-1,7.3604643E-1,1.682728E-1,2.8411663E-1,0E0,2.1602464E-1,0E0,2.913773E-1,0E0,0E0,0E0,2.1385592E-1,0E0,2.0087326E-1,0E0,0E0,0E0],"parents":[2147483647,0,0,1,1,2,2,3,3,5,5,7,7,11,11,13,13],"right_children":[2,4,6,8,-1,10,-1,12,-1,-1,-1,14,-1,16,-1,-1,-1],"split_conditions":[2.3077765E0,4.542E-1,5.8159524E-1,3.771106E-1,-1.8071806E-1,2.8885758E-1,1.8628255E-1,9.949091E-2,1.03694946E-1,9.99917E-2,-4.0294454E-2,6.7101516E-2,-1.0079914E-1,3.917121E-2,7.7459425E-2,1.3108951E-2,-8.578218E-2],"split_indices":[11,14,13,14,0,14,0,14,0,0,0,14,0,14,0,0,0],"split_type":[0,0,0,0,0,0,0,0,0,0,0,0,0,0,0,0,0],"sum_hessian":[1.6612673E1,1.3281439E1,3.3312345E0,1.1802114E1,1.4793255E0,2.2080796E0,1.123155E0,1.0799179E1,1.0029347E0,1.1371261E0,1.0709534E0,8.877955E0,1.9212233E0,7.0143347E0,1.863621E0,5.345457E0,1.6688775E0],"tree_param":{"num_deleted":"0","num_feature":"15","num_nodes":"17","size_leaf_vector":"0"}},{"base_weights":[1.2216175E-2,-5.9497427E-2,5.3920215E-1,1.2316149E-2,-5.46169E-1,-4.858824E-2,3.919992E-1,-1.00512356E-1,2.1614298E-1,-4.2157546E-2,-2.7835432E-1,-1.7990853E-1,1.4182656E-1],"categories":[],"categories_nodes":[],"categories_segments":[],"categories_sizes":[],"default_left":[1,1,0,1,0,1,0,1,0,1,0,0,0],"id":22,"left_children":[1,3,-1,5,-1,7,-1,9,-1,11,-1,-1,-1],"loss_changes":[6.8279094E-1,5.678901E-1,0E0,3.6521068E-1,0E0,2.1128237E-1,0E0,1.14994325E-1,0E0,2.8840727E-1,0E0,0E0,0E0],"parents":[2147483647,0,0,1,1,3,3,5,5,7,7,9,9],"right_children":[2,4,-1,6,-1,8,-1,10,-1,12,-1,-1,-1],"split_conditions":[2.6428385E0,4.04034E-1,1.6176066E-1,1.5095164E0,-1.638507E-1,2.0898151E0,1.1759977E-1,4.3461213E-1,6.4842895E-2,6.7101516E-2,-8.35063E-2,-5.397256E-2,4.2547967E-2],"split_indices":[11,10,0,6,0,9,0,14,0,14,0,0,0],"split_type":[0,0,0,0,0,0,0,0,0,0,0,0,0],"sum_hessian":[1.6218159E1,1.5056352E1,1.1618081E0,1.396967E1,1.0866808E0,1.2790065E1,1.1796055E0,1.1211396E1,1.5786691E0,9.3729315E0,1.8384645E0,5.3725753E0,4.000356E0],"tree_param":{"num_deleted":"0","num_feature":"15","num_nodes":"13","size_leaf_vector":"0"}}]},"name":"gbtree"},"learner_model_param":{"base_score":"5E-1","boost_from_average":"1","num_class":"0","num_feature":"15","num_target":"1"},"objective":{"name":"binary:logistic","reg_loss_param":{"scale_pos_weight":"1"}}},"version":[2,0,3]}