{"learner":{"attributes":{"niter":"18"},"feature_names":[],"feature_types":[],"gradient_booster":{"model":{"gbtree_model_param":{"num_parallel_tree":"1","num_trees":"19"},"iteration_indptr":[0,1,2,3,4,5,6,7,8,9,10,11,12,13,14,15,16,17,18,19],"tree_info":[0,0,0,0,0,0,0,0,0,0,0,0,0,0,0,0,0,0,0],"trees":[{"base_weights":[-0E0,-1.8585209E0,1.9461279E0,-7.906977E-1,-1.9245284E0,2.5E-1,1.9793814E0,-0E0,-9.189189E-1,-1.951049E0,-4E-1,1E0,-3.3333334E-1,-1.1428572E0,-1.5384616E-1,5E-1,-9.0909094E-1,-5E-1,-0E0,-2.2222222E-1,-0E0],"categories":[],"categories_nodes":[],"categories_segments":[],"categories_sizes":[],"default_left":[1,1,1,1,1,1,0,0,1,0,1,0,1,0,1,0,0,0,0,0,0],"id":0,"left_children":[1,3,5,7,9,11,-1,-1,13,-1,15,-1,17,-1,19,-1,-1,-1,-1,-1,-1],"loss_changes":[1.0995435E3,9.438599E0,7.8808594E0,1.089881E0,5.1124268E0,2.0833333E0,0E0,0E0,1.4089699E0,0E0,2.172727E0,0E0,1.6666666E-1,0E0,3.4188032E-2,0E0,0E0,0E0,0E0,0E0,0E0],"parents":[2147483647,0,0,1,1,2,2,3,3,4,4,5,5,8,8,10,10,12,12,14,14],"right_children":[2,4,6,8,10,12,-1,-1,14,-1,16,-1,18,-1,20,-1,-1,-1,-1,-1,-1],"split_conditions":[2.3142014E0,5.648788E-2,2.6309304E0,1.1128788E-2,2.1248994E0,2.405026E0,5.9381443E-1,-0E0,3.5498485E-2,-5.853147E-1,2.1651773E0,3E-1,2.4754553E0,-3.4285718E-1,4.352576E-2,1.5E-1,-2.7272728E-1,-1.5E-1,-0E0,-6.666667E-2,-0E0],"split_indices":[11,14,11,14,11,11,0,0,14,0,11,0,11,0,14,0,0,0,0,0,0],"split_type":[0,0,0,0,0,0,0,0,0,0,0,0,0,0,0,0,0,0,0,0,0],"sum_hessian":[3.02E2,1.545E2,1.475E2,9.75E0,1.4475E2,3E0,1.445E2,1.5E0,8.25E0,1.42E2,2.75E0,1E0,2E0,6E0,2.25E0,1E0,1.75E0,1E0,1E0,1.25E0,1E0],"tree_param":{"num_deleted":"0","num_feature":"15","num_nodes":"21","size_leaf_vector":"0"}},{"base_weights":[-9.066036E-4,-1.4308176E0,1.5059439E0,-7.072099E-1,-1.5058875E0,2.1447636E-1,1.5330956E0,-7.790515E-1,9.84038E-2,-1.5288514E0,-3.1662247E-1,5.567921E-1,-1.4120145E-1,-0E0,-8.706921E-1,1.8664268E-1,-6.4447266E-1],"categories":[],"categories_nodes":[],"categories_segments":[],"categories_sizes":[],"default_left":[1,1,1,1,1,1,0,1,0,0,1,0,0,0,0,0,0],"id":1,"left_children":[1,3,5,7,9,11,-1,13,-1,-1,15,-1,-1,-1,-1,-1,-1],"loss_changes":[6.038116E2,6.745758E0,4.45578E0,9.679904E-1,3.0495605E0,5.622551E-1,0E0,1.0174704E0,0E0,0E0,7.327914E-1,0E0,0E0,0E0,0E0,0E0,0E0],"parents":[2147483647,0,0,1,1,2,2,3,3,4,4,5,5,7,7,10,10],"right_children":[2,4,6,8,10,12,-1,14,-1,-1,16,-1,-1,-1,-1,-1,-1],"split_conditions":[2.3142014E0,9.911667E-2,2.6309304E0,8.3557576E-2,2.1248994E0,2.438696E0,4.599287E-1,1.1128788E-2,2.952114E-2,-4.5865545E-1,2.1777904E0,1.6703764E-1,-4.2360436E-2,-0E0,-2.6120764E-1,5.5992804E-2,-1.933418E-1],"split_indices":[11,14,11,14,11,11,0,14,0,0,11,0,0,0,0,0,0],"split_type":[0,0,0,0,0,0,0,0,0,0,0,0,0,0,0,0,0],"sum_hessian":[2.7823492E2,1.4278806E2,1.3544685E2,1.4400512E1,1.2838754E2,2.9722292E0,1.3247462E2,1.3251743E1,1.1487687E0,1.2567529E2,2.7122538E0,1.2264323E0,1.7457969E0,1.5E0,1.1751743E1,1.2398043E0,1.4724495E0],"tree_param":{"num_deleted":"0","num_feature":"15","num_nodes":"17","size_leaf_vector":"0"}},{"base_weights":[-8.289616E-4,-1.2170306E0,1.2999041E0,-1.2444698E0,5.67335E-1,1.8355003E-1,1.3276213E0,-5.1671076E-1,-1.2878507E0,4.7193217E-1,-1.14421494E-1,-0E0,-6.276566E-1,-1.3114052E0,-5.3592587E-1,-9.0523535E-1,-1.9684993E-1,7.722119E-2,-7.981825E-1,-2.925335E-1,1.686964E-2,-9.3860763E-1,-2.1277282E-1],"categories":[],"categories_nodes":[],"categories_segments":[],"categories_sizes":[],"default_left":[1,1,1,1,0,1,0,1,1,0,0,0,1,0,1,0,1,0,1,0,0,0,0],"id":2,"left_children":[1,3,5,7,-1,9,-1,11,13,-1,-1,-1,15,-1,17,-1,19,-1,21,-1,-1,-1,-1],"loss_changes":[3.7561453E2,6.713867E0,3.3063812E0,3.1596832E0,0E0,3.9256462E-1,0E0,4.8647547E-1,1.3105011E0,0E0,0E0,0E0,6.5720844E-1,0E0,8.887774E-1,0E0,8.704612E-2,0E0,1.0371709E-1,0E0,0E0,0E0,0E0],"parents":[2147483647,0,0,1,1,2,2,3,3,5,5,7,7,8,8,12,12,14,14,16,16,18,18],"right_children":[2,4,6,8,-1,10,-1,12,14,-1,-1,-1,16,-1,18,-1,20,-1,22,-1,-1,-1,-1],"split_conditions":[2.3142014E0,2.1087825E0,2.6309304E0,3.8803034E-2,1.7020051E-1,2.438696E0,3.9828643E-1,1.1128788E-2,1.8144002E0,1.4157966E-1,-3.432645E-2,-0E0,2.2401515E-2,-3.9342156E-1,2.2543335E-1,-2.7157062E-1,3.3456057E-2,2.3166358E-2,4.4391513E-1,-8.7760046E-2,5.060892E-3,-2.815823E-1,-6.383185E-2],"split_indices":[11,6,11,14,0,11,0,14,11,0,0,0,14,0,14,0,14,0,14,0,0,0,0],"split_type":[0,0,0,0,0,0,0,0,0,0,0,0,0,0,0,0,0,0,0,0,0,0,0],"sum_hessian":[2.3543709E2,1.2170538E2,1.13731705E2,1.2016019E2,1.5452001E0,2.9400299E0,1.1079168E2,7.4859896E0,1.12674194E2,1.1973737E0,1.742656E0,1.5E0,5.9859896E0,1.0853034E2,4.1438503E0,2.970664E0,3.0153253E0,1.4528013E0,2.691049E0,1.8281009E0,1.1872244E0,1.6838106E0,1.0072385E0],"tree_param":{"num_deleted":"0","num_feature":"15","num_nodes":"23","size_leaf_vector":"0"}},{"base_weights":[-1.6800842E-3,-1.0638498E0,1.1996458E0,-3.7160116E-1,-1.1602137E0,4.946439E-1,1.2200462E0,-4.8198622E-1,4.284333E-1,-1.2124242E0,-2.827185E-1,-4.059929E-2,9.1525865E-1,-1.5021014E-1,-6.6698164E-1,1.637341E-1,-1.0263927E0,-5.654375E-1,5.398767E-1,-9.710866E-1,-4.2056748E-1,7.638363E-1,-3.156918E-1,-0E0,-8.841991E-1,2.5141552E-1,-6.754497E-1,-4.903229E-2,-4.6037936E-1],"categories":[],"categories_nodes":[],"categories_segments":[],"categories_sizes":[],"default_left":[1,1,1,1,1,1,0,1,0,0,1,0,0,1,1,1,0,1,0,0,1,0,1,0,0,0,0,0,0],"id":3,"left_children":[1,3,5,7,9,11,-1,13,-1,-1,15,-1,-1,17,19,21,-1,23,-1,-1,25,-1,27,-1,-1,-1,-1,-1,-1],"loss_changes":[2.4768489E2,6.4411087E0,7.065735E-1,1.4481353E0,3.778717E0,9.925128E-1,0E0,6.8700933E-1,0E0,0E0,2.278379E0,0E0,0E0,1.9907154E0,1.8685007E-1,1.6319467E0,0E0,7.4993896E-1,0E0,0E0,1.2235032E0,0E0,1.0840735E-1,0E0,0E0,0E0,0E0,0E0,0E0],"parents":[2147483647,0,0,1,1,2,2,3,3,4,4,5,5,7,7,10,10,13,13,14,14,15,15,17,17,20,20,22,22],"right_children":[2,4,6,8,10,12,-1,14,-1,-1,16,-1,-1,18,20,22,-1,24,-1,-1,26,-1,28,-1,-1,-1,-1,-1,-1],"split_conditions":[2.4720473E0,9.911667E-2,2.860539E0,8.224848E-2,1.8144002E0,7.610721E-1,3.6601385E-1,2.6603032E-2,1.2853E-1,-3.6372727E-1,7.951468E-1,-1.2179787E-2,2.7457762E-1,1.7868182E-2,3.5498485E-2,2.6134396E-1,-3.0791783E-1,1.1128788E-2,1.6196302E-1,-2.91326E-1,4.6325758E-2,2.291509E-1,5.2377725E-1,-0E0,-2.6525974E-1,7.5424656E-2,-2.0263493E-1,-1.4709688E-2,-1.3811381E-1],"split_indices":[11,14,11,14,11,13,0,14,0,0,10,0,0,14,14,14,0,14,0,0,14,0,14,0,0,0,0,0,0],"split_type":[0,0,0,0,0,0,0,0,0,0,0,0,0,0,0,0,0,0,0,0,0,0,0,0,0,0,0,0,0],"sum_hessian":[1.9210841E2,1.020202E2,9.00882E1,1.305968E1,8.8960526E1,3.2435427E0,8.6844666E1,1.1825583E1,1.234096E0,8.360442E1,5.3561034E0,1.82485E0,1.4186926E0,4.8820114E0,6.943572E0,3.8341594E0,1.5219438E0,3.1607857E0,1.7212259E0,1.7916219E0,5.15195E0,1.4393185E0,2.394841E0,1.5E0,1.6607857E0,1.4204948E0,3.731455E0,1.3133035E0,1.0815375E0],"tree_param":{"num_deleted":"0","num_feature":"15","num_nodes":"29","size_leaf_vector":"0"}},{"base_weights":[-3.1190868E-3,-9.633873E-1,1.1204989E0,-3.078374E-1,-1.073121E0,4.274941E-1,1.1454709E0,-4.0533856E-1,3.4892398E-1,-1.1335844E0,-2.4484906E-1,-8.476231E-2,7.862751E-1,-2.6999977E-1,-8.2502943E-1,1.3247979E-1,-8.9376277E-1,1.1234836E-2,-4.5281032E-1,6.3797677E-1,-2.6973405E-1,-4.0347025E-1,5.824679E-1,-8.086252E-1,-1.9699089E-1,-4.082535E-2,-3.9571992E-1],"categories":[],"categories_nodes":[],"categories_segments":[],"categories_sizes":[],"default_left":[1,1,1,1,1,1,0,1,0,0,1,0,0,1,0,1,0,1,1,0,1,0,0,0,0,0,0],"id":4,"left_children":[1,3,5,7,9,11,-1,13,-1,-1,15,-1,-1,17,-1,19,-1,21,23,-1,25,-1,-1,-1,-1,-1,-1],"loss_changes":[1.685622E2,5.7290573E0,7.5616455E-1,1.0046524E0,3.3158493E0,8.200524E-1,0E0,4.7023463E-1,0E0,0E0,1.6259912E0,0E0,0E0,5.558175E-1,0E0,1.1407222E0,0E0,1.4658502E0,4.3384075E-1,0E0,8.062804E-2,0E0,0E0,0E0,0E0,0E0,0E0],"parents":[2147483647,0,0,1,1,2,2,3,3,4,4,5,5,7,7,10,10,13,13,15,15,17,17,18,18,20,20],"right_children":[2,4,6,8,10,12,-1,14,-1,-1,16,-1,-1,18,-1,20,-1,22,24,-1,26,-1,-1,-1,-1,-1,-1],"split_conditions":[2.4720473E0,9.911667E-2,2.860539E0,8.224848E-2,1.8144002E0,5.869506E-1,3.4364128E-1,1.1824135E0,1.046772E-1,-3.400753E-1,7.951468E-1,-2.5428696E-2,2.3588254E-1,2.7207576E-2,-2.4750884E-1,2.6134396E-1,-2.6812884E-1,1.7868182E-2,3.5498485E-2,1.9139303E-1,5.2377725E-1,-1.2104108E-1,1.7474037E-1,-2.4258758E-1,-5.909727E-2,-1.2247605E-2,-1.1871598E-1],"split_indices":[11,14,11,14,11,7,0,10,0,0,10,0,0,14,0,14,0,14,14,0,14,0,0,0,0,0,0],"split_type":[0,0,0,0,0,0,0,0,0,0,0,0,0,0,0,0,0,0,0,0,0,0,0,0,0,0,0],"sum_hessian":[1.5422397E2,8.323346E1,7.099052E1,1.2480443E1,7.075301E1,3.099323E0,6.789119E1,1.1200471E1,1.2799717E0,6.559593E1,5.1570835E0,1.5912025E0,1.5081205E0,9.711961E0,1.4885104E0,3.7641551E0,1.3929284E0,4.1957655E0,5.516196E0,1.4081933E0,2.3559618E0,2.601099E0,1.5946662E0,1.4033614E0,4.112834E0,1.3063852E0,1.0495765E0],"tree_param":{"num_deleted":"0","num_feature":"15","num_nodes":"27","size_leaf_vector":"0"}},{"base_weights":[-4.9110833E-3,-9.021501E-1,1.0383813E0,-2.623188E-1,-1.0314897E0,3.0647856E-1,1.0942132E0,-3.1846732E-1,1.7057227E-1,-1.0773422E0,-3.204816E-1,-8.040449E-2,7.8680426E-1,7.269546E-2,-3.8391075E-1,7.756407E-2,-6.5235376E-1,3.2275492E-1,-4.8316166E-1,-7.103387E-1,-1.828126E-1,5.982615E-1,-4.059404E-1],"categories":[],"categories_nodes":[],"categories_segments":[],"categories_sizes":[],"default_left":[1,1,1,1,1,1,0,1,0,0,1,1,0,0,1,0,0,0,0,0,1,0,0],"id":5,"left_children":[1,3,5,7,9,11,-1,13,-1,-1,15,17,-1,-1,19,-1,-1,-1,-1,-1,21,-1,-1],"loss_changes":[1.1700588E2,5.2904778E0,2.026394E0,3.6157137E-1,1.4659958E0,1.0826228E0,0E0,3.2327652E-1,0E0,0E0,6.832613E-1,7.966011E-1,0E0,0E0,5.294521E-1,0E0,0E0,0E0,0E0,0E0,1.5606728E0,0E0,0E0],"parents":[2147483647,0,0,1,1,2,2,3,3,4,4,5,5,7,7,10,10,11,11,14,14,20,20],"right_children":[2,4,6,8,10,12,-1,14,-1,-1,16,18,-1,-1,20,-1,-1,-1,-1,-1,22,-1,-1],"split_conditions":[2.3142014E0,9.911667E-2,2.860539E0,8.3557576E-2,1.8144002E0,5.869506E-1,3.28264E-1,1.1128788E-2,5.1171683E-2,-3.2320267E-1,2.1492283E0,4.2236513E-1,2.3604129E-1,2.1808637E-2,2.2401515E-2,2.3269221E-2,-1.9570614E-1,9.682648E-2,-1.449485E-1,-2.1310163E-1,2.8416667E-2,1.7947845E-1,-1.2178213E-1],"split_indices":[11,14,11,14,11,7,0,14,0,0,11,14,0,0,14,0,0,0,0,0,14,0,0],"split_type":[0,0,0,0,0,0,0,0,0,0,0,0,0,0,0,0,0,0,0,0,0,0,0],"sum_hessian":[1.22994514E2,6.619856E1,5.6795956E1,1.1640794E1,5.4557766E1,4.4854484E0,5.2310505E1,1.0538245E1,1.1025487E0,5.076851E1,3.7892566E0,2.9455392E0,1.5399092E0,1.4945192E0,9.043726E0,2.07127E0,1.7179866E0,1.5713031E0,1.3742361E0,2.4822204E0,6.561506E0,1.0843644E0,5.4771414E0],"tree_param":{"num_deleted":"0","num_feature":"15","num_nodes":"23","size_leaf_vector":"0"}},{"base_weights":[-3.9295144E-3,-8.212637E-1,9.8808503E-1,-2.3909415E-1,-9.8913485E-1,2.6534805E-1,1.0564679E0,-1.4265172E-1,-6.761062E-1,-1.0317434E0,-3.6980757E-1,-6.873268E-2,7.107221E-1,-4.1309416E-2,-5.2736264E-1,6.152679E-2,-8.0820435E-1,2.680216E-1,-3.9973503E-1,-1.3841234E-1,3.1426904E-1,4.7418564E-3,-4.5781234E-1],"categories":[],"categories_nodes":[],"categories_segments":[],"categories_sizes":[],"default_left":[1,1,1,1,1,1,0,1,0,0,1,1,0,1,0,0,0,0,0,1,0,0,0],"id":6,"left_children":[1,3,5,7,9,11,-1,13,-1,-1,15,17,-1,19,-1,-1,-1,-1,-1,21,-1,-1,-1],"loss_changes":[8.110643E1,5.1231728E0,1.9530334E0,4.7646135E-1,7.333336E-1,8.2873005E-1,0E0,4.6178374E-1,0E0,0E0,8.5871583E-1,5.426083E-1,0E0,4.1992325E-1,0E0,0E0,0E0,0E0,0E0,4.2546815E-1,0E0,0E0,0E0],"parents":[2147483647,0,0,1,1,2,2,3,3,4,4,5,5,7,7,10,10,11,11,13,13,19,19],"right_children":[2,4,6,8,10,12,-1,14,-1,-1,16,18,-1,20,-1,-1,-1,-1,-1,22,-1,-1,-1],"split_conditions":[2.3142014E0,1.1674848E-1,2.860539E0,1.1824135E0,1.8144002E0,5.869506E-1,3.1694037E-1,2.6265397E0,-2.0283188E-1,-3.0952305E-1,2.1492283E0,4.2236513E-1,2.1321663E-1,9.297879E-2,-1.582088E-1,1.8458039E-2,-2.4246131E-1,8.040649E-2,-1.19920515E-1,5.648788E-2,9.428071E-2,1.4225569E-3,-1.373437E-1],"split_indices":[11,14,11,10,11,7,0,9,0,0,11,14,0,14,0,0,0,0,0,14,0,0,0],"split_type":[0,0,0,0,0,0,0,0,0,0,0,0,0,0,0,0,0,0,0,0,0,0,0],"sum_hessian":[9.803085E1,5.3841904E1,4.4188946E1,1.2593275E1,4.124863E1,4.241452E0,3.9947495E1,1.1403178E1,1.1900966E0,3.7970425E1,3.2782044E0,2.906742E0,1.3347099E0,9.9021E0,1.5010782E0,2.0857298E0,1.1924745E0,1.5351688E0,1.3715733E0,8.2577715E0,1.6443284E0,6.382366E0,1.8754054E0],"tree_param":{"num_deleted":"0","num_feature":"15","num_nodes":"23","size_leaf_vector":"0"}},{"base_weights":[-7.4843867E-3,-7.453991E-1,9.427853E-1,-1.563634E-1,-9.2411137E-1,2.3229828E-1,1.0265638E0,-6.6216014E-2,-4.694362E-1,-9.9794006E-1,-2.2033407E-1,-5.8690377E-2,6.453359E-1,-3.733955E-1,1.0457032E-1,2.4068911E-1,-5.2633524E-1,2.2268625E-1,-3.3212042E-1,-2.0572234E-2,-5.075007E-1,4.1444653E-1,-2.5124088E-2,-6.27407E-1,-1.6596559E-1,-1.4351688E-1,2.9193577E-1],"categories":[],"categories_nodes":[],"categories_segments":[],"categories_sizes":[],"default_left":[1,1,1,1,1,1,0,1,0,0,1,1,0,1,1,0,1,0,0,0,0,0,1,0,0,0,0],"id":7,"left_children":[1,3,5,7,9,11,-1,13,-1,-1,15,17,-1,19,21,-1,23,-1,-1,-1,-1,-1,25,-1,-1,-1,-1],"loss_changes":[5.6734425E1,4.649109E0,1.8668156E0,3.0204448E-1,1.5848446E0,6.416049E-1,0E0,5.809206E-1,0E0,0E0,7.7295357E-1,3.712133E-1,0E0,1.7453879E-1,3.085922E-1,0E0,7.5920224E-3,0E0,0E0,0E0,0E0,0E0,2.7362338E-1,0E0,0E0,0E0,0E0],"parents":[2147483647,0,0,1,1,2,2,3,3,4,4,5,5,7,7,10,10,11,11,13,13,14,14,16,16,22,22],"right_children":[2,4,6,8,10,12,-1,14,-1,-1,16,18,-1,20,22,-1,24,-1,-1,-1,-1,-1,26,-1,-1,-1,-1],"split_conditions":[2.3142014E0,9.911667E-2,2.860539E0,2.6265397E0,1.8144002E0,5.869506E-1,3.0796915E-1,2.2401515E-2,-1.4083086E-1,-2.9938203E-1,2.2543335E-1,4.2236513E-1,1.9360079E-1,1.3469697E-2,2.8821211E-2,7.2206736E-2,4.299015E-1,6.680588E-2,-9.963613E-2,-6.1716703E-3,-1.5225022E-1,1.2433396E-1,7.342424E-2,-1.8822211E-1,-4.978968E-2,-4.3055065E-2,8.758073E-2],"split_indices":[11,14,11,9,11,7,0,14,0,0,14,14,0,14,14,0,14,0,0,0,0,0,14,0,0,0,0],"split_type":[0,0,0,0,0,0,0,0,0,0,0,0,0,0,0,0,0,0,0,0,0,0,0,0,0,0,0],"sum_hessian":[7.8906204E1,4.4537224E1,3.4368984E1,1.0803575E1,3.373365E1,4.0231605E0,3.0345823E1,9.328883E0,1.4746912E0,3.0152563E1,3.581086E0,2.86362E0,1.1595403E0,2.9094896E0,6.4193935E0,1.5138093E0,2.0672767E0,1.502764E0,1.360856E0,1.1189636E0,1.7905262E0,1.2462327E0,5.173161E0,1.0357685E0,1.0315082E0,4.1651936E0,1.0079672E0],"tree_param":{"num_deleted":"0","num_feature":"15","num_nodes":"27","size_leaf_vector":"0"}},{"base_weights":[-7.5304187E-3,-6.696525E-1,8.986631E-1,-1.6010751E-1,-8.9334E-1,2.053536E-1,1.0008528E0,-6.724685E-2,-6.1639196E-1,-9.58237E-1,-2.9622298E-1,-5.0069343E-2,5.883826E-1,1.3438007E-1,-1.8229046E-1,9.292871E-2,-7.1708435E-1,2.1927178E-1,-3.2246342E-1,-2.0268248E-1,5.137265E-1,1.5386763E-2,-7.082557E-1,-6.39274E-1,2.420661E-1],"categories":[],"categories_nodes":[],"categories_segments":[],"categories_sizes":[],"default_left":[1,1,1,1,1,1,0,1,0,0,1,1,0,1,1,0,0,0,0,0,0,1,0,0,0],"id":8,"left_children":[1,3,5,7,9,11,-1,13,-1,-1,15,17,-1,19,21,-1,-1,-1,-1,-1,-1,23,-1,-1,-1],"loss_changes":[3.9537735E1,4.1959743E0,1.7657471E0,5.022497E-1,7.328434E-1,5.0223064E-1,0E0,2.9784825E-1,0E0,0E0,7.24934E-1,3.510181E-1,0E0,7.251374E-1,8.351462E-1,0E0,0E0,0E0,0E0,0E0,0E0,1.1550672E0,0E0,0E0,0E0],"parents":[2147483647,0,0,1,1,2,2,3,3,4,4,5,5,7,7,10,10,11,11,13,13,14,14,21,21],"right_children":[2,4,6,8,10,12,-1,14,-1,-1,16,18,-1,20,22,-1,-1,-1,-1,-1,-1,24,-1,-1,-1],"split_conditions":[2.3142014E0,1.1674848E-1,2.860539E0,1.1824135E0,1.8144002E0,5.869506E-1,3.0025586E-1,2.7207576E-2,-1.849176E-1,-2.8747112E-1,2.1492283E0,2.4757104E0,1.7651479E-1,1.7868182E-2,1.1415974E0,2.7878614E-2,-2.151253E-1,6.578153E-2,-9.673903E-2,-6.0804747E-2,1.5411794E-1,3.5498485E-2,-2.1247672E-1,-1.917822E-1,7.261983E-2],"split_indices":[11,14,11,10,11,7,0,14,0,0,11,11,0,14,9,0,0,0,0,0,0,14,0,0,0],"split_type":[0,0,0,0,0,0,0,0,0,0,0,0,0,0,0,0,0,0,0,0,0,0,0,0,0],"sum_hessian":[6.3892075E1,3.7068512E1,2.6823565E1,1.183193E1,2.523658E1,3.8323572E0,2.2991209E1,1.0784503E1,1.0474273E0,2.221716E1,3.0194209E0,2.820672E0,1.011685E0,3.856853E0,6.92765E0,1.9736598E0,1.045761E0,1.5163436E0,1.3043284E0,2.2888424E0,1.5680107E0,5.7407928E0,1.186857E0,1.0083786E0,4.7324142E0],"tree_param":{"num_deleted":"0","num_feature":"15","num_nodes":"25","size_leaf_vector":"0"}},{"base_weights":[-1.3791314E-2,-5.728514E-1,9.051397E-1,-6.408843E-1,7.093371E-1,2.3320368E-1,9.7676766E-1,-2.81242E-1,-8.1195563E-1,3.412931E-1,1.6898122E-2,-3.812905E-1,2.0002279E-1,-9.2159075E-1,-2.2439818E-1,1.5803762E-1,-4.8790634E-1,9.088821E-2,-6.830206E-1,-2.4524984E-1,-6.7114335E-1,-2.1887068E-1,4.5749E-1],"categories":[],"categories_nodes":[],"categories_segments":[],"categories_sizes":[],"default_left":[1,1,1,1,0,1,0,1,1,0,0,1,0,0,1,0,1,1,0,0,0,0,0],"id":9,"left_children":[1,3,5,7,-1,9,-1,11,13,-1,-1,15,-1,-1,17,-1,19,21,-1,-1,-1,-1,-1],"loss_changes":[2.813227E1,3.4232092E0,7.69413E-1,1.7922411E0,0E0,7.161042E-2,0E0,6.596665E-1,1.192708E0,0E0,0E0,6.736865E-1,0E0,0E0,7.4722373E-1,0E0,2.3145413E-1,5.192174E-1,0E0,0E0,0E0,0E0,0E0],"parents":[2147483647,0,0,1,1,2,2,3,3,5,5,7,7,8,8,11,11,14,14,16,16,17,17],"right_children":[2,4,6,8,-1,10,-1,12,14,-1,-1,16,-1,-1,18,-1,20,22,-1,-1,-1,-1,-1],"split_conditions":[2.4720473E0,2.1087825E0,2.860539E0,1.1674848E-1,2.1280114E-1,4.2236513E-1,2.9303032E-1,9.297879E-2,1.8144002E0,1.02387935E-1,5.0694365E-3,1.1128788E-2,6.000684E-2,-2.7647725E-1,5.721288E-1,4.741129E-2,3.8803034E-2,4.1690153E-1,-2.0490618E-1,-7.357495E-2,-2.0134301E-1,-6.566121E-2,1.3724701E-1],"split_indices":[11,6,11,14,0,14,0,14,11,0,0,14,0,0,14,0,14,14,0,0,0,0,0],"split_type":[0,0,0,0,0,0,0,0,0,0,0,0,0,0,0,0,0,0,0,0,0,0,0],"sum_hessian":[5.27507E1,3.3031548E1,1.9719152E1,3.1842169E1,1.1893806E0,2.3095171E0,1.7409636E1,1.1116344E1,2.0725824E1,1.1546843E0,1.1548327E0,9.375116E0,1.7412283E0,1.6987528E1,3.7382953E0,1.4677964E0,7.9073195E0,2.690498E0,1.0477972E0,4.4081454E0,3.4991744E0,1.6767275E0,1.0137707E0],"tree_param":{"num_deleted":"0","num_feature":"15","num_nodes":"23","size_leaf_vector":"0"}},{"base_weights":[-1.0157088E-2,-4.9402612E-1,8.6129254E-1,-6.268422E-2,-7.198097E-1,1.9968708E-1,9.523742E-1,-1.4583299E-1,3.4261084E-1,-8.628885E-1,6.335221E-2,2.946097E-1,1.4194998E-2,4.427545E-2,-2.8444907E-1,-9.1244507E-1,-5.589159E-2,3.0397254E-1,-2.3726226E-1,-2.2161682E-1,3.6289635E-1,-6.500193E-1,-6.0978238E-2,3.381764E-1,-3.1616825E-1],"categories":[],"categories_nodes":[],"categories_segments":[],"categories_sizes":[],"default_left":[1,1,1,1,1,1,0,1,0,1,1,0,0,1,1,0,0,0,0,0,0,0,1,0,0],"id":10,"left_children":[1,3,5,7,9,11,-1,13,-1,15,17,-1,-1,19,21,-1,-1,-1,-1,-1,-1,-1,23,-1,-1],"loss_changes":[1.9432066E1,2.839363E0,8.015175E-1,4.298241E-1,2.2224607E0,5.3160444E-2,0E0,2.7755076E-1,0E0,6.0590935E-1,3.5567254E-1,0E0,0E0,5.1291966E-1,4.463959E-1,0E0,0E0,0E0,0E0,0E0,0E0,0E0,5.954264E-1,0E0,0E0],"parents":[2147483647,0,0,1,1,2,2,3,3,4,4,5,5,7,7,9,9,10,10,13,13,14,14,22,22],"right_children":[2,4,6,8,10,12,-1,14,-1,16,18,-1,-1,20,22,-1,-1,-1,-1,-1,-1,-1,24,-1,-1],"split_conditions":[2.4720473E0,9.911667E-2,2.860539E0,8.224848E-2,2.1248994E0,4.2236513E-1,2.8571227E-1,2.6603032E-2,1.02783255E-1,2.1573234E0,2.7173486E-1,8.8382915E-2,4.2584995E-3,1.7868182E-2,3.5498485E-2,-2.7373353E-1,-1.6767478E-2,9.119177E-2,-7.117868E-2,-6.648505E-2,1.0886891E-1,-1.9500579E-1,4.6325758E-2,1.01452924E-1,-9.485048E-2],"split_indices":[11,14,11,14,11,14,0,14,0,9,14,0,0,14,14,0,0,0,0,0,0,0,14,0,0],"split_type":[0,0,0,0,0,0,0,0,0,0,0,0,0,0,0,0,0,0,0,0,0,0,0,0,0],"sum_hessian":[4.4074768E1,2.8617893E1,1.5456876E1,1.0271887E1,1.8346006E1,2.2567244E0,1.3200151E1,9.054484E0,1.2174021E0,1.5425976E1,2.920031E0,1.1036757E0,1.1530485E0,4.105072E0,4.9494123E0,1.4410387E1,1.0155888E0,1.6156491E0,1.304382E0,2.403651E0,1.7014207E0,1.1535714E0,3.7958412E0,1.3535289E0,2.4423122E0],"tree_param":{"num_deleted":"0","num_feature":"15","num_nodes":"25","size_leaf_vector":"0"}},{"base_weights":[-7.0437063E-3,-4.5690462E-1,7.5421757E-1,-1.2272652E-1,-7.9450965E-1,1.7502034E-1,9.261689E-1,-2.4049713E-1,6.2252504E-1,-8.573284E-1,-5.5101715E-2,-7.8254774E-2,4.4674614E-1,1.6962405E-1,-3.1046E-1,6.853676E-2,-2.0039514E-1,-3.7359753E-1,9.724859E-2,-1.8928728E-1,-4.7571826E-1],"categories":[],"categories_nodes":[],"categories_segments":[],"categories_sizes":[],"default_left":[1,1,1,1,1,1,0,1,0,0,0,1,0,0,1,0,0,1,0,0,0],"id":11,"left_children":[1,3,5,7,9,11,-1,13,-1,-1,-1,15,-1,-1,17,-1,-1,19,-1,-1,-1],"loss_changes":[1.3474343E1,2.691547E0,1.2937689E0,1.3439283E0,5.15481E-1,3.5011643E-1,0E0,4.1049308E-1,0E0,0E0,0E0,7.148575E-2,0E0,0E0,3.1966698E-1,0E0,0E0,9.322977E-2,0E0,0E0,0E0],"parents":[2147483647,0,0,1,1,2,2,3,3,4,4,5,5,7,7,11,11,14,14,17,17],"right_children":[2,4,6,8,10,12,-1,14,-1,-1,-1,16,-1,-1,18,-1,-1,20,-1,-1,-1],"split_conditions":[2.3142014E0,1.7802273E-1,2.860539E0,2.1087825E0,2.136532E0,5.402712E-1,2.778507E-1,1.1128788E-2,1.8675752E-1,-2.5719854E-1,-1.6530516E-2,1.6905606E-1,1.3402385E-1,5.0887216E-2,1.0636185E0,2.0561028E-2,-6.0118545E-2,3.8803034E-2,2.917458E-2,-5.6786183E-2,-1.4271548E-1],"split_indices":[11,14,11,6,9,14,0,14,0,0,0,14,0,0,11,0,0,14,0,0,0],"split_type":[0,0,0,0,0,0,0,0,0,0,0,0,0,0,0,0,0,0,0,0,0],"sum_hessian":[3.733929E1,2.3721233E1,1.3618057E1,1.2606359E1,1.1114875E1,3.5793386E0,1.0038718E1,1.1470925E1,1.1354333E0,1.00975275E1,1.0173477E0,2.2210813E0,1.3582573E0,1.4640726E0,1.0006853E1,1.2080653E0,1.013016E0,8.737443E0,1.2694101E0,4.1325207E0,4.6049223E0],"tree_param":{"num_deleted":"0","num_feature":"15","num_nodes":"21","size_leaf_vector":"0"}},{"base_weights":[2.268132E-6,-3.0366123E-1,8.970161E-1,-3.822327E-1,5.192103E-1,-1.91201E-1,-7.441736E-1,-8.359298E-2,-6.5692794E-1,-8.601095E-1,-1.9544816E-1,-2.3059782E-1,3.9212933E-1,-6.1125506E-2,-5.372378E-1,1.2471946E-1,4.9469513E-1],"categories":[],"categories_nodes":[],"categories_segments":[],"categories_sizes":[],"default_left":[1,1,0,1,0,1,1,1,0,0,0,1,1,0,0,0,0],"id":12,"left_children":[1,3,-1,5,-1,7,9,11,-1,-1,-1,13,15,-1,-1,-1,-1],"loss_changes":[9.338466E0,1.8544338E0,0E0,1.5141039E0,0E0,7.983622E-1,3.3639193E-1,1.1377666E0,0E0,0E0,0E0,5.9443235E-1,4.5423746E-2,0E0,0E0,0E0,0E0],"parents":[2147483647,0,0,1,1,3,3,5,5,6,6,7,7,11,11,12,12],"right_children":[2,4,-1,6,-1,8,10,12,-1,-1,-1,14,16,-1,-1,-1,-1],"split_conditions":[2.860539E0,1.5136571E0,2.6910484E-1,4.551197E-1,1.5576309E-1,9.1470337E-1,2.3142014E0,1.8090132E0,-1.9707839E-1,-2.5803286E-1,-5.863445E-2,9.911667E-2,2.195708E0,-1.8337652E-2,-1.6117135E-1,3.741584E-2,1.4840855E-1],"split_indices":[11,6,0,14,0,10,11,11,0,0,0,14,11,0,0,0,0],"split_type":[0,0,0,0,0,0,0,0,0,0,0,0,0,0,0,0,0],"sum_hessian":[3.2283398E1,2.4612782E1,7.670618E0,2.2956299E1,1.6564817E0,1.6026049E1,6.9302506E0,1.3976267E1,2.0497818E0,5.2529316E0,1.6773192E0,1.1070573E1,2.9056938E0,7.902434E0,3.168139E0,1.4198502E0,1.4858434E0],"tree_param":{"num_deleted":"0","num_feature":"15","num_nodes":"17","size_leaf_vector":"0"}},{"base_weights":[-1.5363952E-3,-2.533406E-1,8.641716E-1,1.5640294E-2,-4.5679885E-1,-7.848642E-2,3.0364454E-1,-7.833372E-1,7.783006E-2,7.845312E-2,-5.3043616E-1,1.7337342E-1,-1.9743736E-1,-7.9706565E-2,4.2547786E-1,-9.856798E-2,4.3675166E-1,6.7741595E-2,-3.8772944E-1,1.03970155E-1,-2.3805533E-1],"categories":[],"categories_nodes":[],"categories_segments":[],"categories_sizes":[],"default_left":[1,1,0,1,1,1,0,0,1,1,0,1,0,1,0,1,0,0,0,0,0],"id":13,"left_children":[1,3,-1,5,7,9,-1,-1,11,13,-1,15,-1,17,-1,19,-1,-1,-1,-1,-1],"loss_changes":[6.674036E0,1.3048724E0,0E0,3.2688293E-1,2.4236891E0,6.9557834E-1,0E0,0E0,1.9312057E-1,4.5733887E-1,0E0,4.0240312E-1,0E0,3.052045E-1,0E0,1.1753909E-1,0E0,0E0,0E0,0E0,0E0],"parents":[2147483647,0,0,1,1,3,3,4,4,5,5,8,8,9,9,11,11,13,13,15,15],"right_children":[2,4,-1,6,8,10,-1,-1,12,14,-1,16,-1,18,-1,20,-1,-1,-1,-1,-1],"split_conditions":[2.860539E0,9.911667E-2,2.592515E-1,6.5837875E-2,1.8144002E0,4.6325758E-2,9.109336E-2,-2.3500116E-1,2.5367246E0,3.5498485E-2,-1.5913086E-1,4.4391513E-1,-5.923121E-2,2.5354546E-2,1.2764336E-1,2.1492283E0,1.3102551E-1,2.032248E-2,-1.1631884E-1,3.1191047E-2,-7.14166E-2],"split_indices":[11,14,0,14,11,14,0,0,11,14,0,14,0,14,0,11,0,0,0,0,0],"split_type":[0,0,0,0,0,0,0,0,0,0,0,0,0,0,0,0,0,0,0,0,0],"sum_hessian":[2.8612083E1,2.271302E1,5.899063E0,1.0179024E1,1.2533997E1,8.220009E0,1.9590148E0,7.4925385E0,5.0414577E0,6.7147307E0,1.5052782E0,4.017259E0,1.0241983E0,5.1416783E0,1.5730523E0,2.2843714E0,1.7328879E0,4.004724E0,1.1369542E0,1.0354729E0,1.2488986E0],"tree_param":{"num_deleted":"0","num_feature":"15","num_nodes":"21","size_leaf_vector":"0"}},{"base_weights":[-1.4409816E-3,-2.0938776E-1,8.273464E-1,-2.8597668E-1,4.833241E-1,-1.2633649E-1,-6.4882E-1,-1.9190104E-1,4.1358313E-1,-7.8566384E-1,-1.8834947E-1,-2.8745607E-1,2.6969624E-1,-1.2336156E-1,-5.863311E-1],"categories":[],"categories_nodes":[],"categories_segments":[],"categories_sizes":[],"default_left":[1,1,0,1,0,1,1,1,0,0,0,1,0,0,0],"id":14,"left_children":[1,3,-1,5,-1,7,9,11,-1,-1,-1,13,-1,-1,-1],"loss_changes":[4.7890034E0,1.3164656E0,0E0,1.1127601E0,0E0,6.3037884E-1,2.3388886E-1,7.1987164E-1,0E0,0E0,0E0,5.431417E-1,0E0,0E0,0E0],"parents":[2147483647,0,0,1,1,3,3,5,5,6,6,7,7,11,11],"right_children":[2,4,-1,6,-1,8,10,12,-1,-1,-1,14,-1,-1,-1],"split_conditions":[2.860539E0,1.5136571E0,2.4820392E-1,4.551197E-1,1.4499724E-1,4.0034544E-1,2.3142014E0,2.195708E0,1.2407494E-1,-2.3569916E-1,-5.6504842E-2,9.911667E-2,8.090887E-2,-3.7008468E-2,-1.7589934E-1],"split_indices":[11,6,0,14,0,14,11,11,0,0,0,14,0,0,0],"split_type":[0,0,0,0,0,0,0,0,0,0,0,0,0,0,0],"sum_hessian":[2.5782343E1,2.1208408E1,4.573936E0,1.9625679E1,1.5827281E0,1.4565485E1,5.060194E0,1.3563046E1,1.0024393E0,3.356485E0,1.7037092E0,1.1549457E1,2.0135891E0,8.367897E0,3.1815603E0],"tree_param":{"num_deleted":"0","num_feature":"15","num_nodes":"15","size_leaf_vector":"0"}},{"base_weights":[2.8172568E-3,-1.6735457E-1,7.867475E-1,-5.8318216E-2,-6.8685174E-1,-1.744312E-1,2.7882442E-1,8.656088E-2,-5.490474E-1,5.4119277E-1,-1.991036E-1,-1.4912787E-1,2.1998918E-1,-7.5585556E-1,-1.8090169E-1,1.5998608E-1,-3.9337674E-1,3.623565E-1,-2.5121132E-1,4.298404E-1,-6.0575974E-1],"categories":[],"categories_nodes":[],"categories_segments":[],"categories_sizes":[],"default_left":[1,1,0,1,0,1,1,1,1,0,0,1,1,0,1,0,0,0,0,0,0],"id":15,"left_children":[1,3,-1,5,-1,7,9,11,13,-1,-1,15,17,-1,19,-1,-1,-1,-1,-1,-1],"loss_changes":[3.4271631E0,1.1563747E0,0E0,7.7482593E-1,0E0,1.4567597E0,7.519018E-1,3.2711992E-1,3.2423615E-1,0E0,0E0,3.633543E-1,5.190104E-1,0E0,1.1665976E0,0E0,0E0,0E0,0E0,0E0,0E0],"parents":[2147483647,0,0,1,1,3,3,5,5,6,6,7,7,8,8,11,11,12,12,14,14],"right_children":[2,4,-1,6,-1,8,10,12,14,-1,-1,16,18,-1,20,-1,-1,-1,-1,-1,-1],"split_conditions":[2.860539E0,6.43647E-1,2.3602426E-1,2.1248994E0,-2.0605554E-1,9.911667E-2,2.4772902E0,2.2401515E-2,4.3195605E-1,1.6235784E-1,-5.973108E-2,1.1128788E-2,1.1415974E0,-2.2675668E-1,6.214833E-1,4.7995824E-2,-1.18013024E-1,1.0870696E-1,-7.53634E-2,1.2895212E-1,-1.8172793E-1],"split_indices":[11,10,0,11,0,14,11,14,14,0,0,14,9,0,14,0,0,0,0,0,0],"split_type":[0,0,0,0,0,0,0,0,0,0,0,0,0,0,0,0,0,0,0,0,0],"sum_hessian":[2.3703352E1,2.0121902E1,3.5814478E0,1.7550516E1,2.571388E0,1.3413487E1,4.137028E0,8.358867E0,5.0546203E0,2.5853655E0,1.5516627E0,2.9790273E0,5.3798394E0,2.5621655E0,2.4924548E0,1.4671873E0,1.5118401E0,4.30894E0,1.0708996E0,1.017726E0,1.4747287E0],"tree_param":{"num_deleted":"0","num_feature":"15","num_nodes":"21","size_leaf_vector":"0"}},{"base_weights":[-7.5466046E-3,-1.7761934E-1,6.452249E-1,-6.7151695E-2,-7.4515975E-1,7.6638407E-1,8.168097E-2,-1.3859707E-1,4.1353333E-1,-3.408009E-2,-5.8899856E-1,-1.303867E-1,4.3974093E-1,-2.2061197E-1,2.8026152E-1],"categories":[],"categories_nodes":[],"categories_segments":[],"categories_sizes":[],"default_left":[1,1,1,1,0,0,0,1,0,1,0,1,0,0,0],"id":16,"left_children":[1,3,5,7,-1,-1,-1,9,-1,11,-1,13,-1,-1,-1],"loss_changes":[2.6722198E0,1.1449385E0,2.7725697E-1,6.429878E-1,0E0,0E0,0E0,7.1410286E-1,0E0,6.8340725E-1,0E0,5.128741E-1,0E0,0E0,0E0],"parents":[2147483647,0,0,1,1,2,2,3,3,7,7,9,9,11,11],"right_children":[2,4,6,8,-1,-1,-1,10,-1,12,-1,14,-1,-1,-1],"split_conditions":[2.6309304E0,6.43647E-1,3.421788E-1,1.5136571E0,-2.2354794E-1,2.2991523E-1,2.450429E-2,5.452091E-1,1.24060005E-1,4.3195605E-1,-1.7669958E-1,2.0555918E0,1.3192229E-1,-6.61836E-2,8.407846E-2],"split_indices":[11,10,14,6,0,0,0,14,0,14,0,11,0,0,0],"split_type":[0,0,0,0,0,0,0,0,0,0,0,0,0,0,0],"sum_hessian":[2.203771E1,1.8060213E1,3.977498E0,1.6053782E1,2.0064318E0,2.9774292E0,1.000069E0,1.4596008E1,1.4577724E0,1.2719969E1,1.8760399E0,1.1173678E1,1.54629E0,9.540308E0,1.6333704E0],"tree_param":{"num_deleted":"0","num_feature":"15","num_nodes":"15","size_leaf_vector":"0"}},{"base_weights":[6.323691E-5,-1.264569E-1,6.8918633E-1,4.1096356E-2,-6.510156E-1,-4.964758E-2,6.1717963E-1,3.390263E-2,-5.64581E-1,-2.4385056E-2,3.7102792E-1,2.0362781E-1,-1.394589E-1],"categories":[],"categories_nodes":[],"categories_segments":[],"categories_sizes":[],"default_left":[1,1,0,1,0,1,0,1,0,1,0,0,0],"id":17,"left_children":[1,3,-1,5,-1,7,-1,9,-1,11,-1,-1,-1],"loss_changes":[1.9695274E0,1.7042396E0,0E0,8.360059E-1,0E0,6.31572E-1,0E0,2.6825672E-1,0E0,3.481107E-1,0E0,0E0,0E0],"parents":[2147483647,0,0,1,1,3,3,5,5,7,7,9,9],"right_children":[2,4,-1,6,-1,8,-1,10,-1,12,-1,-1,-1],"split_conditions":[1.350538E0,4.551197E-1,2.067559E-1,2.521629E0,-1.9530468E-1,9.1470337E-1,1.851539E-1,3.9554548E-1,-1.693743E-1,2.7207576E-2,1.1130838E-1,6.1088346E-2,-4.183767E-2],"split_indices":[13,14,0,11,0,10,0,14,0,14,0,0,0],"split_type":[0,0,0,0,0,0,0,0,0,0,0,0,0],"sum_hessian":[2.0589853E1,1.808586E1,2.5039928E0,1.440599E1,3.6798706E0,1.3235041E1,1.1709489E0,1.2191136E1,1.0439043E0,1.1184966E1,1.0061705E0,3.4934115E0,7.691554E0],"tree_param":{"num_deleted":"0","num_feature":"15","num_nodes":"13","size_leaf_vector":"0"}},{"base_weights":[7.5880024E-3,-9.493183E-2,6.597272E-1,8.222908E-3,-3.9551973E-1,6.5405175E-2,-3.7158266E-1,-6.678135E-1,2.613193E-2,-3.4790733E-1,1.2742214E-1,4.2196745E-1,1.1397394E-2,5.1351786E-1,1.4384894E-1,-2.4255732E-1,1.4004552E-1],"categories":[],"categories_nodes":[],"categories_segments":[],"categories_sizes":[],"default_left":[1,1,0,1,1,1,0,0,0,0,1,1,1,0,0,0,0],"id":18,"left_children":[1,3,-1,5,7,9,-1,-1,-1,-1,11,13,15,-1,-1,-1,-1],"loss_changes":[1.4373611E0,5.8131886E-1,0E0,3.4702328E-1,5.66671E-1,3.9716974E-1,0E0,0E0,0E0,0E0,4.2925137E-1,1.6814709E-2,3.652423E-1,0E0,0E0,0E0,0E0],"parents":[2147483647,0,0,1,1,3,3,4,4,5,5,10,10,11,11,12,12],"right_children":[2,4,-1,6,8,10,-1,-1,-1,-1,12,14,16,-1,-1,-1,-1],"split_conditions":[2.860539E0,4.551197E-1,1.9791818E-1,9.1470337E-1,2.3142014E0,6.1924243E-3,-1.11474805E-1,-2.0034406E-1,7.839579E-3,-1.043722E-1,2.7207576E-2,1.920909E-2,5.5134848E-2,1.5405536E-1,4.3154683E-2,-7.27672E-2,4.201366E-2],"split_indices":[11,14,0,10,11,14,0,0,0,0,14,14,14,0,0,0,0],"split_type":[0,0,0,0,0,0,0,0,0,0,0,0,0,0,0,0,0],"sum_hessian":[1.956221E1,1.7643055E1,1.9191544E0,1.3859458E1,3.7835982E0,1.2765343E1,1.0941148E0,1.9442432E0,1.839355E0,1.0640566E0,1.1701286E1,2.5615509E0,9.139735E0,1.2903856E0,1.2711654E0,2.7754645E0,6.3642707E0],"tree_param":{"num_deleted":"0","num_feature":"15","num_nodes":"17","size_leaf_vector":"0"}}]},"name":"gbtree"},"learner_model_param":{"base_score":"5E-1","boost_from_average":"1","num_class":"0","num_feature":"15","num_target":"1"},"objective":{"name":"binary:logistic","reg_loss_param":{"scale_pos_weight":"1"}}},"version":[2,0,3]}